966 32
i41 -1484.5733642578125 -664.6964721679688 -419.7042541503906 -1382.900146484375 -1729.1292724609375 -2275.162841796875 -1931.2325439453125 -795.1536865234375 -839.3016357421875 -1518.5123291015625 -455.052001953125 -423.8575744628906 -1052.50439453125 -1848.4556884765625 -881.6312255859375 -1441.0037841796875 -1849.3673095703125 -1191.49560546875 -527.99072265625 -1605.183349609375 -726.060302734375 -1388.9947509765625 -1069.7242431640625 -1306.1141357421875 -1486.340576171875 -715.3216552734375 -997.3892822265625 -1215.2215576171875 -903.7587890625 -315.9131164550781 -1075.0679931640625 -1505.9654541015625 
u332 -117.06297302246094 -102.10865783691406 -47.51708984375 -129.35134887695312 -98.68687438964844 -159.7552032470703 -78.68801879882812 -55.63669204711914 -75.72643280029297 -44.477115631103516 -80.04056549072266 -103.68563079833984 -42.1595573425293 -113.1865005493164 -51.698020935058594 -85.85186004638672 -93.19832611083984 -133.2012481689453 -37.890445709228516 -110.2061996459961 -71.2799072265625 -132.5738067626953 -139.69268798828125 -32.10165786743164 -72.4998550415039 -127.68585205078125 -44.76443099975586 -100.04654693603516 -60.10355758666992 -11.646080017089844 -97.50576782226562 -98.77092742919922 
u269 -137.47911071777344 -159.09019470214844 -58.21028137207031 -152.240478515625 -118.72273254394531 -215.39234924316406 -88.766357421875 -69.86009216308594 -92.1351547241211 -61.3594856262207 -83.55858612060547 -142.13998413085938 -29.034481048583984 -149.94273376464844 -55.776329040527344 -126.67586517333984 -129.5379638671875 -179.4338836669922 -72.10881042480469 -150.60989379882812 -90.12066650390625 -175.5480499267578 -165.891357421875 -48.2806282043457 -81.72699737548828 -83.70635986328125 -42.580265045166016 -133.62930297851562 -54.588130950927734 -14.419021606445312 -121.27374267578125 -120.79256439208984 
u361 -93.68095397949219 -103.32936096191406 -46.56785583496094 -112.29419708251953 -89.70927429199219 -151.8079376220703 -72.0589599609375 -51.459232330322266 -65.40636444091797 -41.389286041259766 -67.3539810180664 -99.22185516357422 -40.20022964477539 -108.49954986572266 -39.579017639160156 -83.92125701904297 -88.63042449951172 -119.0534896850586 -41.7453498840332 -103.86656951904297 -62.96866226196289 -122.78144836425781 -123.438232421875 -29.559221267700195 -63.060550689697266 -126.97567749023438 -40.38459396362305 -97.24066925048828 -48.0006217956543 -6.122814655303955 -87.64205932617188 -90.45052337646484 
i62 -1254.6356201171875 -644.9390258789062 -375.8857116699219 -1258.7001953125 -1424.1468505859375 -1953.6558837890625 -1580.2099609375 -631.9619140625 -745.5294799804688 -1213.525634765625 -468.5269775390625 -474.0967102050781 -802.9898071289062 -1575.218994140625 -747.5021362304688 -1225.0645751953125 -1601.4775390625 -1111.93017578125 -474.98077392578125 -1327.343994140625 -625.1730346679688 -1217.740478515625 -975.6620483398438 -1065.5882568359375 -1255.6209716796875 -501.22674560546875 -834.4671020507812 -1059.3995361328125 -739.8078002929688 -256.6648864746094 -944.48828125 -1275.034912109375 
u798 -167.5074920654297 -185.1979522705078 -70.052490234375 -188.99432373046875 -142.4412078857422 -264.20965576171875 -112.173828125 -86.65701293945312 -114.6821517944336 -76.32860565185547 -104.01534271240234 -174.31890869140625 -22.670543670654297 -183.21788024902344 -68.96430206298828 -150.60208129882812 -152.43612670898438 -218.82630920410156 -84.8438720703125 -184.69549560546875 -107.52084350585938 -208.97706604003906 -206.5931396484375 -54.33235549926758 -98.72156524658203 -58.25619888305664 -54.376773834228516 -160.85897827148438 -65.88341522216797 -12.748828887939453 -151.110107421875 -146.9820098876953 
u318 -164.12025451660156 -182.84727478027344 -66.12889099121094 -177.66644287109375 -144.86375427246094 -241.8964385986328 -100.48233032226562 -81.34947204589844 -106.16802215576172 -67.58155059814453 -99.5315933227539 -159.3232421875 -26.161174774169922 -170.06398010253906 -66.4759750366211 -150.40139770507812 -144.53726196289062 -201.4917449951172 -81.96958923339844 -163.91278076171875 -102.56590270996094 -199.4083709716797 -187.93658447265625 -64.66818237304688 -89.24597930908203 -68.83688354492188 -43.63469314575195 -149.91986083984375 -64.8980484008789 -14.781402587890625 -139.68576049804688 -138.4835968017578 
i87 -1348.5247802734375 -649.569580078125 -389.0843811035156 -1320.2642822265625 -1541.727783203125 -2086.63427734375 -1725.267333984375 -670.0079956054688 -795.8046875 -1346.4002685546875 -460.8005065917969 -458.21337890625 -898.1491088867188 -1714.6195068359375 -811.5289916992188 -1317.5709228515625 -1740.3680419921875 -1145.9459228515625 -512.3184204101562 -1421.30322265625 -670.3383178710938 -1281.6544189453125 -1013.4275512695312 -1179.8685302734375 -1369.028076171875 -598.1223754882812 -923.5448608398438 -1123.5601806640625 -815.4518432617188 -274.9447937011719 -995.0987548828125 -1381.333984375 
u294 -164.2949981689453 -147.5663299560547 -66.51432800292969 -181.86434936523438 -139.1394500732422 -231.2503204345703 -107.93154907226562 -79.72053527832031 -110.2927474975586 -64.2237319946289 -107.02111053466797 -148.55459594726562 -30.68502426147461 -164.36427307128906 -70.38875579833984 -123.15819549560547 -134.58367919921875 -193.1612091064453 -56.06198501586914 -161.4075927734375 -101.98529052734375 -191.30747985839844 -198.15765380859375 -42.99746322631836 -99.33020782470703 -88.07806396484375 -57.05436325073242 -142.8909912109375 -77.22657012939453 -14.729589462280273 -139.19912719726562 -138.9401397705078 
u450 -163.28981018066406 -154.0945281982422 -66.46952819824219 -185.58346557617188 -135.2591094970703 -241.79115295410156 -114.93998718261719 -81.38259887695312 -113.7945785522461 -65.62042999267578 -96.4697036743164 -154.26596069335938 -29.783916473388672 -174.50291442871094 -65.67223358154297 -126.93050384521484 -137.265625 -205.9797821044922 -65.68605041503906 -169.40447998046875 -97.41603088378906 -192.5382537841797 -198.56866455078125 -40.7398567199707 -99.22515106201172 -79.5242919921875 -58.79484176635742 -143.43707275390625 -69.76581573486328 -14.933181762695312 -146.04324340820312 -140.5771942138672 
i92 -1411.1263427734375 -652.8052978515625 -410.4377136230469 -1305.673828125 -1630.7647705078125 -2162.615478515625 -1798.5474853515625 -758.1181640625 -798.0065307617188 -1404.67724609375 -437.70135498046875 -441.9197082519531 -972.1284790039062 -1748.8394775390625 -822.9443359375 -1359.5865478515625 -1729.66015625 -1148.921630859375 -506.3669128417969 -1528.185302734375 -696.8286743164062 -1324.3348388671875 -1031.2138671875 -1203.2021484375 -1396.2080078125 -642.3453979492188 -928.4408569335938 -1164.0513916015625 -846.7180786132812 -300.49530029296875 -1026.1956787109375 -1429.2794189453125 
u476 -173.8776397705078 -192.9768524169922 -72.550048828125 -204.16201782226562 -144.14170837402344 -292.93157958984375 -120.13179016113281 -91.99124145507812 -119.1031723022461 -87.10205841064453 -113.86190032958984 -191.970703125 -11.78463363647461 -196.60728454589844 -69.22241973876953 -152.31198120117188 -167.6595458984375 -238.2820281982422 -86.14820861816406 -206.3543701171875 -118.26211547851562 -227.84449768066406 -227.26995849609375 -42.68715286254883 -117.04698944091797 -49.948429107666016 -65.21321868896484 -179.16848754882812 -77.89957427978516 -14.95299243927002 -164.47442626953125 -163.22801208496094 
u626 -108.99433898925781 -118.64247131347656 -52.416961669921875 -126.96649932861328 -99.48521423339844 -170.06202697753906 -83.21466064453125 -58.2960090637207 -80.4344711303711 -44.5842170715332 -72.75743865966797 -109.4256820678711 -38.96198654174805 -121.75772857666016 -45.74321746826172 -97.42241668701172 -99.8628158569336 -139.3065948486328 -52.03085708618164 -115.63835906982422 -70.14273071289062 -137.15968322753906 -135.373046875 -37.0582160949707 -69.49103546142578 -114.64706420898438 -38.823734283447266 -103.90979766845703 -47.64022445678711 -7.6350789070129395 -96.64837646484375 -102.4487533569336 
i61 -1266.5289306640625 -650.2868041992188 -378.4981384277344 -1271.843017578125 -1440.3497314453125 -1973.6363525390625 -1605.413818359375 -639.9928588867188 -752.4869995117188 -1231.8277587890625 -474.08935546875 -471.4986267089844 -818.0811157226562 -1592.3316650390625 -757.7301635742188 -1240.2247314453125 -1620.1326904296875 -1120.8333740234375 -478.7903747558594 -1339.60888671875 -629.2488403320312 -1227.0040283203125 -979.5205078125 -1082.96875 -1271.048828125 -515.5120849609375 -848.0120239257812 -1070.3297119140625 -749.8504028320312 -260.9836120605469 -953.7987060546875 -1291.3260498046875 
u524 -171.7293243408203 -161.29835510253906 -69.9254150390625 -193.47164916992188 -140.7834930419922 -250.83253479003906 -118.36888122558594 -85.21656799316406 -117.4946517944336 -68.22635650634766 -101.8975601196289 -162.30252075195312 -27.112804412841797 -183.06166076660156 -65.9542007446289 -133.68289184570312 -143.406494140625 -215.27674865722656 -69.86964416503906 -176.20639038085938 -103.54643249511719 -201.56044006347656 -206.05953979492188 -43.30409622192383 -101.99970245361328 -73.74835205078125 -59.72880172729492 -150.50588989257812 -73.49801635742188 -15.869705200195312 -153.46432495117188 -146.63414001464844 
u707 -149.10377502441406 -175.73548889160156 -64.75650024414062 -172.30081176757812 -125.18510437011719 -251.26527404785156 -104.56796264648438 -78.80842590332031 -101.15087127685547 -71.63834381103516 -98.1027603149414 -167.83956909179688 -19.54006576538086 -171.6276092529297 -56.465843200683594 -139.2822265625 -144.28741455078125 -204.5927276611328 -80.39710998535156 -175.08273315429688 -103.37239074707031 -194.53224182128906 -192.55441284179688 -44.588008880615234 -96.92635345458984 -68.3057861328125 -51.755008697509766 -154.62017822265625 -61.4162712097168 -13.177762031555176 -138.32022094726562 -139.9414520263672 
u350 -131.1273651123047 -125.90510559082031 -54.88774108886719 -148.16354370117188 -107.97792053222656 -193.9844512939453 -92.25784301757812 -65.05801391601562 -88.1067123413086 -54.66910171508789 -78.9637680053711 -126.57402801513672 -33.819400787353516 -142.07679748535156 -50.73584747314453 -104.6224594116211 -112.48250579833984 -163.7429962158203 -54.157779693603516 -134.8128662109375 -80.64974975585938 -156.26588439941406 -157.05905151367188 -32.79622268676758 -79.38048553466797 -102.89700317382812 -48.73653793334961 -117.18021392822266 -59.5869255065918 -13.079350471496582 -118.33364868164062 -113.80052947998047 
i48 -1426.4783935546875 -677.453369140625 -404.9099426269531 -1365.323486328125 -1660.9315185546875 -2216.22216796875 -1859.62451171875 -761.8914794921875 -829.0468139648438 -1460.3037109375 -453.80157470703125 -425.1202087402344 -997.7691040039062 -1801.2672119140625 -851.1281127929688 -1395.916748046875 -1802.0157470703125 -1173.150390625 -519.3624877929688 -1540.2864990234375 -700.4730834960938 -1339.185546875 -1046.6064453125 -1254.4197998046875 -1428.0272216796875 -685.61572265625 -969.8947143554688 -1176.3524169921875 -877.2024536132812 -297.8873291015625 -1052.5625 -1461.2779541015625 
u640 -81.74397277832031 -91.58891296386719 -41.4466552734375 -99.1226577758789 -79.25987243652344 -132.44850158691406 -64.2227783203125 -45.117862701416016 -56.891231536865234 -35.993350982666016 -59.71796798706055 -87.2909164428711 -43.64028549194336 -95.8150405883789 -34.411476135253906 -73.64061737060547 -76.88426971435547 -103.31172943115234 -36.99179458618164 -90.9735336303711 -54.890018463134766 -108.63288879394531 -107.85687255859375 -25.559450149536133 -55.703067779541016 -136.66375732421875 -37.18464279174805 -85.65143585205078 -42.80002975463867 -5.536360263824463 -77.20880126953125 -79.78081512451172 
u129 -183.5951385498047 -202.3317413330078 -76.26620483398438 -205.7666015625 -158.22886657714844 -284.71453857421875 -120.2257080078125 -94.57958984375 -125.82247161865234 -79.68305206298828 -111.97724151611328 -187.03475952148438 -20.463741302490234 -198.7200164794922 -75.25699615478516 -162.32833862304688 -166.592041015625 -237.2101593017578 -90.13761901855469 -198.4681396484375 -117.25321960449219 -229.86317443847656 -224.42620849609375 -60.76628494262695 -108.02828216552734 -47.68210220336914 -56.23720932006836 -174.857421875 -71.60901641845703 -14.550925254821777 -162.81576538085938 -161.30455017089844 
u89 -157.7436981201172 -149.9833221435547 -67.34770202636719 -179.38848876953125 -135.1851043701172 -232.7418975830078 -111.86279296875 -79.75666809082031 -109.6350326538086 -63.69234085083008 -103.54743194580078 -151.08319091796875 -30.181095123291016 -167.04823303222656 -65.09683990478516 -124.25740814208984 -134.05450439453125 -193.15330505371094 -61.72792434692383 -161.7156982421875 -98.23385620117188 -188.92539978027344 -195.20477294921875 -43.0539436340332 -97.90550994873047 -86.22027587890625 -55.58938980102539 -143.03485107421875 -71.30889129638672 -11.654989242553711 -139.04080200195312 -139.5248260498047 
u499 -107.50791931152344 -111.13618469238281 -47.3221435546875 -131.33660888671875 -100.90562438964844 -171.06153869628906 -79.9417724609375 -56.0103645324707 -74.18611907958984 -47.18324661254883 -70.5881118774414 -108.64727020263672 -39.3547477722168 -123.65619659423828 -44.63665008544922 -90.36666107177734 -93.39202117919922 -140.2963409423828 -46.23585891723633 -120.3202133178711 -63.41666030883789 -135.74940490722656 -141.88812255859375 -32.47111129760742 -69.99169158935547 -116.70993041992188 -50.738460540771484 -105.03519439697266 -54.06118392944336 -8.995462417602539 -105.33526611328125 -97.23104095458984 
u523 -131.8202667236328 -125.05589294433594 -54.68988037109375 -149.08514404296875 -108.57121276855469 -192.85951232910156 -93.04171752929688 -64.90530395507812 -89.80049896240234 -53.339664459228516 -79.0632095336914 -123.99138641357422 -35.32285690307617 -139.61183166503906 -52.202430725097656 -104.32347869873047 -110.85387420654297 -164.26075744628906 -53.43660354614258 -133.62466430664062 -79.48564147949219 -153.78663635253906 -156.80551147460938 -33.81100845336914 -79.17391204833984 -104.19549560546875 -48.90668869018555 -114.78925323486328 -59.311702728271484 -13.199530601501465 -117.15585327148438 -113.80196380615234 
u586 -198.42613220214844 -220.6337432861328 -89.59657287597656 -227.58743286132812 -174.4414520263672 -319.2549743652344 -138.7549285888672 -102.24156188964844 -144.683349609375 -83.85985565185547 -121.92098236083984 -206.45352172851562 -10.22970199584961 -233.65650939941406 -72.5999526977539 -174.05563354492188 -192.96078491210938 -269.3125915527344 -98.04580688476562 -225.44891357421875 -130.9539794921875 -265.71624755859375 -254.26577758789062 -61.13991165161133 -125.99803924560547 -31.89706802368164 -60.53611373901367 -199.05853271484375 -78.59456634521484 -18.490196228027344 -180.13943481445312 -186.0369110107422 
i19 -1419.3343505859375 -657.7293701171875 -379.7554016113281 -1354.8160400390625 -1617.440673828125 -2154.284423828125 -1832.4884033203125 -715.0316772460938 -802.5393676757812 -1409.072021484375 -493.21185302734375 -458.13922119140625 -938.9595947265625 -1780.4061279296875 -852.3653564453125 -1373.3277587890625 -1775.9449462890625 -1168.9368896484375 -528.33837890625 -1483.0098876953125 -683.5653076171875 -1335.5850830078125 -1034.4674072265625 -1249.4449462890625 -1431.8792724609375 -643.7581787109375 -961.9203491210938 -1167.478515625 -857.406982421875 -309.8601989746094 -1039.4722900390625 -1452.0897216796875 
u237 -147.3029022216797 -164.15391540527344 -57.20637512207031 -155.178466796875 -131.0159149169922 -207.9291534423828 -84.93228149414062 -70.820068359375 -90.1333236694336 -58.36647415161133 -88.02458953857422 -138.6822509765625 -31.437870025634766 -147.2361297607422 -60.330970764160156 -135.06564331054688 -125.82979583740234 -174.2269744873047 -72.63931274414062 -139.12203979492188 -89.87986755371094 -175.6645050048828 -162.17535400390625 -63.02518081665039 -76.9478988647461 -85.50961303710938 -37.41109085083008 -130.92214965820312 -59.82900619506836 -14.875099182128906 -122.99786376953125 -119.2794418334961 
u213 -114.32588195800781 -134.3462371826172 -42.698822021484375 -118.24842071533203 -102.28038024902344 -160.1769561767578 -62.533565521240234 -53.53665542602539 -67.55611419677734 -47.195316314697266 -66.50360870361328 -106.8014144897461 -39.073238372802734 -109.1807632446289 -48.892906188964844 -110.10216522216797 -98.5240707397461 -133.4384307861328 -60.71904373168945 -104.43624114990234 -70.06442260742188 -135.12098693847656 -120.45196533203125 -54.2132682800293 -58.211185455322266 -110.35360717773438 -28.982891082763672 -99.75525665283203 -47.4686393737793 -13.654952049255371 -91.62872314453125 -92.23168182373047 
u172 -122.81562805175781 -140.31858825683594 -46.36689758300781 -126.19351959228516 -109.64588928222656 -168.80677795410156 -67.00079345703125 -57.98305130004883 -71.56914520263672 -47.881351470947266 -72.54956817626953 -112.69890594482422 -38.16688919067383 -117.25452423095703 -52.08135223388672 -116.4916000366211 -103.68306732177734 -141.8037872314453 -62.67799758911133 -111.0262680053711 -74.008544921875 -142.80491638183594 -129.1558837890625 -58.41422653198242 -60.81338882446289 -106.84326171875 -30.091075897216797 -106.86905670166016 -50.212886810302734 -13.723752975463867 -99.2301025390625 -96.58361053466797 
u610 -69.35615539550781 -90.49363708496094 -25.423978805541992 -66.0580825805664 -62.40840530395508 -88.21675109863281 -30.450803756713867 -29.482561111450195 -31.97652816772461 -27.10870933532715 -41.19755172729492 -61.616146087646484 -49.64567947387695 -58.24652862548828 -28.161949157714844 -76.19905853271484 -59.937313079833984 -76.38924407958984 -46.74281692504883 -55.756370544433594 -39.92044448852539 -79.00984191894531 -59.71417236328125 -44.67036056518555 -28.64810562133789 -148.85971069335938 -15.090052604675293 -57.993019104003906 -30.886775970458984 -10.659967422485352 -51.734371185302734 -49.99455642700195 
i58 -1210.822265625 -607.52490234375 -368.7599182128906 -1162.300537109375 -1343.0494384765625 -1830.0101318359375 -1464.58837890625 -614.76220703125 -699.2194213867188 -1146.1630859375 -430.90899658203125 -462.16607666015625 -736.5350341796875 -1482.9014892578125 -700.6741333007812 -1121.1492919921875 -1433.7342529296875 -1046.683837890625 -446.27471923828125 -1295.7421875 -610.7769165039062 -1180.434326171875 -969.851806640625 -955.3416748046875 -1143.852783203125 -423.6324462890625 -725.6986083984375 -998.1962890625 -697.05419921875 -221.6675262451172 -901.0681762695312 -1175.0823974609375 
u182 -132.54820251464844 -111.24211120605469 -48.18482971191406 -144.99481201171875 -107.98802185058594 -175.09425354003906 -82.41860961914062 -59.65750503540039 -82.94612884521484 -48.824954986572266 -85.67743682861328 -111.2003402709961 -40.88663864135742 -120.88068389892578 -60.341529846191406 -93.16307830810547 -101.7979965209961 -149.1306915283203 -39.78471755981445 -121.40947723388672 -77.99613952636719 -144.66212463378906 -152.75225830078125 -33.4461555480957 -79.31427764892578 -121.10049438476562 -49.73042678833008 -106.67560577392578 -67.25196075439453 -16.688945770263672 -108.28518676757812 -106.30281829833984 
u643 -113.74208068847656 -125.27058410644531 -56.0994873046875 -133.397216796875 -102.56349182128906 -184.14015197753906 -87.72784423828125 -61.03712844848633 -83.1167221069336 -47.98953628540039 -74.57776641845703 -120.12505340576172 -35.24484634399414 -137.2105255126953 -41.769920349121094 -100.15792083740234 -107.06017303466797 -152.0293731689453 -52.617618560791016 -130.43453979492188 -76.47773742675781 -149.37794494628906 -149.4522705078125 -32.2073860168457 -74.36591339111328 -106.54666137695312 -44.54585647583008 -115.77179718017578 -49.2502555847168 -9.197195053100586 -105.02032470703125 -108.32051849365234 
u699 -158.13401794433594 -179.0211639404297 -68.71371459960938 -183.48678588867188 -133.39308166503906 -264.88970947265625 -109.88232421875 -83.504150390625 -109.78231048583984 -76.27913665771484 -102.48969268798828 -175.1339111328125 -17.843852996826172 -183.0854949951172 -61.20124053955078 -142.455322265625 -152.6478271484375 -215.99659729003906 -80.067138671875 -186.77688598632812 -110.12030029296875 -206.71873474121094 -206.35150146484375 -42.44782638549805 -103.98738861083984 -62.77371597290039 -57.820499420166016 -163.1717529296875 -66.7264633178711 -14.793071746826172 -146.69271850585938 -147.8965301513672 
u187 -141.2183074951172 -137.53843688964844 -62.04937744140625 -163.22705078125 -123.94105529785156 -213.03846740722656 -103.236083984375 -72.732666015625 -99.18965911865234 -58.488834381103516 -94.2925796508789 -139.02267456054688 -32.438106536865234 -154.3293914794922 -59.074241638183594 -114.40389251708984 -122.14080047607422 -174.80433654785156 -57.20244216918945 -147.8153076171875 -88.43099975585938 -171.66783142089844 -177.40457153320312 -38.51728439331055 -89.1968765258789 -95.45614624023438 -52.79109573364258 -131.3551025390625 -65.2012710571289 -9.752267837524414 -127.50888061523438 -126.3160629272461 
i101 -1324.6685791015625 -654.1035766601562 -393.5044250488281 -1239.2132568359375 -1500.2718505859375 -2028.3719482421875 -1672.083984375 -699.71875 -773.5079345703125 -1304.4591064453125 -439.8963623046875 -424.8553466796875 -883.2171630859375 -1651.2899169921875 -777.6325073242188 -1253.9627685546875 -1657.6988525390625 -1109.1226806640625 -509.9139709472656 -1408.702392578125 -685.2802124023438 -1241.461669921875 -1005.4237670898438 -1117.5299072265625 -1296.7000732421875 -578.1748046875 -876.6222534179688 -1084.3536376953125 -787.1505737304688 -267.6945495605469 -965.6917724609375 -1331.4090576171875 
u721 -103.16807556152344 -85.86470031738281 -44.021484375 -104.65912628173828 -80.16520690917969 -145.96083068847656 -73.574462890625 -49.68373489379883 -67.4532699584961 -41.270633697509766 -55.33686447143555 -92.4280014038086 -44.75583267211914 -106.32392120361328 -38.33171844482422 -76.12419891357422 -80.33895111083984 -122.50069427490234 -32.29240798950195 -98.5591049194336 -64.45376586914062 -109.81446838378906 -123.15850830078125 -23.95501136779785 -62.29770278930664 -128.46676635742188 -40.45396041870117 -82.9804458618164 -44.58413314819336 -9.128368377685547 -84.212890625 -82.36913299560547 
u256 -142.36158752441406 -152.44834899902344 -63.250885009765625 -164.5179443359375 -125.49717712402344 -223.22840881347656 -102.97061157226562 -74.27693176269531 -101.6096420288086 -58.665348052978516 -90.0090103149414 -147.388427734375 -31.100826263427734 -165.0420684814453 -55.12224578857422 -117.65129852294922 -127.52568817138672 -185.52980041503906 -62.651737213134766 -158.94442749023438 -92.39112854003906 -184.4792938232422 -183.313232421875 -38.38467788696289 -94.24427032470703 -85.66549682617188 -52.72627639770508 -140.23602294921875 -59.169063568115234 -13.61529541015625 -130.68707275390625 -130.14744567871094 
u580 -55.83250427246094 -77.15202331542969 -18.737180709838867 -49.37515640258789 -50.65047073364258 -64.59999084472656 -19.467283248901367 -21.94664192199707 -20.562801361083984 -20.63239097595215 -31.842174530029297 -46.813777923583984 -54.19686508178711 -41.15155792236328 -22.820899963378906 -65.34114837646484 -46.60299301147461 -56.765953063964844 -41.31685256958008 -38.963035583496094 -29.93277359008789 -61.24690246582031 -40.40301513671875 -42.82355880737305 -19.19003677368164 -160.79229736328125 -10.20814037322998 -43.64923858642578 -24.905574798583984 -9.900333404541016 -38.49142074584961 -36.11647415161133 
u241 -147.29649353027344 -164.1359405517578 -56.774200439453125 -154.38516235351562 -131.1291961669922 -206.3555450439453 -83.59228515625 -70.73779296875 -88.6242904663086 -57.55185317993164 -87.8478775024414 -137.86349487304688 -32.50803756713867 -146.22511291503906 -60.35735321044922 -134.86398315429688 -125.0016098022461 -173.55751037597656 -73.06546020507812 -138.81118774414062 -88.61480712890625 -175.44996643066406 -161.7662353515625 -64.41248321533203 -76.14461517333984 -86.3358154296875 -36.519832611083984 -130.72921752929688 -59.05721664428711 -14.252483367919922 -122.76837158203125 -117.4187240600586 
i25 -1346.9539794921875 -650.4529418945312 -367.0986022949219 -1289.90283203125 -1520.74169921875 -2050.76611328125 -1718.764404296875 -692.9058227539062 -766.6077270507812 -1312.5194091796875 -477.52825927734375 -454.94671630859375 -861.6165771484375 -1680.2159423828125 -796.6591796875 -1293.5286865234375 -1666.92626953125 -1123.8709716796875 -502.1405334472656 -1411.84326171875 -659.0538940429688 -1276.2999267578125 -1002.2606811523438 -1159.563232421875 -1332.1163330078125 -576.1246337890625 -894.6353149414062 -1118.6815185546875 -801.7728881835938 -287.76422119140625 -993.9682006835938 -1375.6063232421875 
i46 -1400.7218017578125 -672.6370239257812 -396.1182556152344 -1349.4912109375 -1625.1947021484375 -2178.273193359375 -1826.4051513671875 -746.4268798828125 -813.6995239257812 -1426.03564453125 -454.35772705078125 -429.51239013671875 -966.2262573242188 -1771.5938720703125 -834.07763671875 -1370.9322509765625 -1768.6976318359375 -1158.5006103515625 -512.5492553710938 -1512.307861328125 -691.4833374023438 -1317.731689453125 -1036.6229248046875 -1227.5535888671875 -1396.6123046875 -660.0543212890625 -947.1074829101562 -1162.0352783203125 -860.28564453125 -292.8339538574219 -1038.053466796875 -1438.4620361328125 
u299 -107.42646789550781 -116.27162170410156 -44.879669189453125 -123.58390045166016 -95.59632873535156 -162.36390686035156 -77.06005859375 -54.24106216430664 -73.39034271240234 -40.84404373168945 -65.90314483642578 -107.64019012451172 -42.59883499145508 -121.69510650634766 -43.697242736816406 -88.19121551513672 -89.6197738647461 -135.5280303955078 -44.657718658447266 -115.2663803100586 -66.4266357421875 -134.75843811035156 -135.13330078125 -30.036943435668945 -70.11315155029297 -117.20632934570312 -43.91719436645508 -103.1808853149414 -45.63740158081055 -13.513989448547363 -97.0235595703125 -93.84972381591797 
u397 -109.94517517089844 -115.10740661621094 -49.55802917480469 -131.69192504882812 -99.39192199707031 -176.7666778564453 -84.51913452148438 -57.37892532348633 -78.41838836669922 -46.71049880981445 -72.93441009521484 -113.06951141357422 -36.74093246459961 -129.1849822998047 -46.241050720214844 -92.28609466552734 -99.95153045654297 -144.4960479736328 -45.702213287353516 -124.54985809326172 -70.84182739257812 -139.6123809814453 -145.40496826171875 -27.60380744934082 -74.6687240600586 -114.26168823242188 -48.42916488647461 -109.34925079345703 -52.55460739135742 -10.939886093139648 -103.17645263671875 -101.25972747802734 
u503 -62.57255554199219 -67.60481262207031 -32.301177978515625 -76.20047760009766 -60.39714431762695 -99.32569885253906 -51.12099838256836 -33.9974250793457 -42.748714447021484 -27.56683921813965 -45.46860885620117 -66.34648895263672 -49.8030891418457 -75.33783721923828 -26.816566467285156 -54.465816497802734 -58.227169036865234 -78.18868255615234 -27.44218635559082 -69.5704574584961 -41.111087799072266 -83.10047912597656 -82.5738525390625 -18.274080276489258 -43.49081802368164 -155.125 -33.44855880737305 -66.24079132080078 -35.314083099365234 -6.230074405670166 -60.346187591552734 -60.4802131652832 
u500 -64.78016662597656 -68.59159851074219 -31.702451705932617 -79.34696197509766 -61.0897102355957 -101.42469787597656 -54.308712005615234 -34.42229080200195 -47.22207260131836 -27.254003524780273 -44.89509201049805 -65.50017547607422 -52.07724380493164 -75.90125274658203 -28.17772674560547 -55.958370208740234 -57.31838607788086 -82.30550384521484 -29.519227981567383 -72.28206634521484 -38.77463150024414 -82.06001281738281 -82.921142578125 -18.418169021606445 -43.405643463134766 -153.38665771484375 -34.67909622192383 -63.779212951660156 -33.31411361694336 -6.651281833648682 -61.27578353881836 -60.09099197387695 
u481 -124.77265930175781 -150.4225311279297 -50.357086181640625 -142.322509765625 -104.42149353027344 -205.1084747314453 -84.348876953125 -66.57479858398438 -80.45873260498047 -60.17372512817383 -80.89127349853516 -138.93972778320312 -30.287914276123047 -136.87937927246094 -51.405433654785156 -118.83309173583984 -116.07747650146484 -166.94862365722656 -69.36187744140625 -141.85061645507812 -82.98040771484375 -156.61985778808594 -153.67782592773438 -40.496646881103516 -79.3042984008789 -90.86474609375 -45.50871658325195 -126.4333267211914 -51.87153244018555 -11.191886901855469 -115.28564453125 -112.4514389038086 
i34 -1532.1112060546875 -651.1715698242188 -429.7149963378906 -1415.34130859375 -1777.2821044921875 -2321.154541015625 -1997.7501220703125 -804.6490478515625 -850.5956420898438 -1571.25244140625 -466.81390380859375 -424.6107482910156 -1099.0765380859375 -1903.5177001953125 -916.3668823242188 -1467.3018798828125 -1901.73291015625 -1214.640380859375 -546.026123046875 -1645.93310546875 -750.6735229492188 -1424.660400390625 -1097.4161376953125 -1351.0487060546875 -1538.707275390625 -742.3300170898438 -1018.4177856445312 -1247.2567138671875 -926.2849731445312 -323.6457214355469 -1099.278564453125 -1538.9920654296875 
u621 -124.80500793457031 -147.6156768798828 -51.171295166015625 -132.78286743164062 -110.26268005371094 -183.2698516845703 -72.92657470703125 -61.606449127197266 -79.99105072021484 -50.97328567504883 -74.15897369384766 -120.76201629638672 -34.8339958190918 -126.5308609008789 -50.266578674316406 -117.31352996826172 -116.07833099365234 -155.32484436035156 -69.79219055175781 -124.10424041748047 -79.13922119140625 -156.2283172607422 -136.543212890625 -53.422000885009766 -68.06171417236328 -100.22903442382812 -31.56521987915039 -116.20267486572266 -50.33231735229492 -14.46902847290039 -102.84585571289062 -107.29882049560547 
u575 -126.44773864746094 -147.7848358154297 -51.729705810546875 -138.63381958007812 -112.61769104003906 -193.86170959472656 -77.73406982421875 -62.5633430480957 -79.83812713623047 -56.72916030883789 -79.15412139892578 -127.65001678466797 -31.23782730102539 -131.4052276611328 -51.587135314941406 -122.63469696044922 -116.2258529663086 -158.87342834472656 -68.99386596679688 -130.06936645507812 -80.85462951660156 -155.6037139892578 -145.91680908203125 -52.165035247802734 -71.1489486694336 -95.4283447265625 -37.39529037475586 -118.42395782470703 -53.87882614135742 -12.217761039733887 -109.40744018554688 -108.65096282958984 
u186 -144.9403533935547 -151.97483825683594 -63.337066650390625 -165.81900024414062 -128.4615020751953 -221.93983459472656 -103.33554077148438 -74.69306945800781 -102.17037200927734 -59.65022659301758 -94.1296157836914 -147.7957763671875 -30.861492156982422 -164.00596618652344 -57.684059143066406 -118.2343978881836 -125.26335906982422 -183.36473083496094 -60.516239166259766 -157.51101684570312 -95.08370971679688 -184.22874450683594 -186.16415405273438 -39.28023910522461 -94.63277435302734 -85.01846313476562 -52.95907211303711 -140.64996337890625 -62.122432708740234 -13.400628089904785 -130.6317138671875 -130.16941833496094 
u25 -145.19273376464844 -148.56544494628906 -61.531890869140625 -163.8165283203125 -127.38179016113281 -217.6735382080078 -102.38751220703125 -73.31919860839844 -102.26689910888672 -58.3535041809082 -93.2690200805664 -143.04913330078125 -32.880069732666016 -158.96058654785156 -59.225135803222656 -116.51189422607422 -123.51009368896484 -181.3290557861328 -58.6503791809082 -153.25595092773438 -93.43522644042969 -180.23963928222656 -183.20449829101562 -40.569644927978516 -94.26319122314453 -89.06298828125 -51.89702224731445 -136.42727661132812 -62.737117767333984 -14.360102653503418 -127.31112670898438 -128.93385314941406 
u661 -153.0204620361328 -175.8010711669922 -67.22044372558594 -178.24551391601562 -129.9809112548828 -255.28663635253906 -105.57394409179688 -80.49122619628906 -106.5891342163086 -74.18877410888672 -100.60742950439453 -168.50827026367188 -20.16250228881836 -174.01124572753906 -60.383506774902344 -139.65658569335938 -149.25070190429688 -208.7147979736328 -80.81996154785156 -181.33261108398438 -105.553466796875 -201.1684112548828 -197.49432373046875 -43.127689361572266 -99.5111312866211 -66.77847290039062 -54.11465072631836 -157.09637451171875 -63.47451400756836 -13.395726203918457 -141.88571166992188 -143.30113220214844 
u780 -190.40663146972656 -175.54200744628906 -75.02386474609375 -213.87225341796875 -159.76780700683594 -273.7545166015625 -121.76736450195312 -92.30722045898438 -122.46044158935547 -76.55318450927734 -122.52214813232422 -177.82217407226562 -20.898311614990234 -193.0017547607422 -77.55927276611328 -146.42355346679688 -157.58163452148438 -230.6938018798828 -73.34066772460938 -192.75115966796875 -116.5020751953125 -222.0277557373047 -229.99520874023438 -50.60989761352539 -113.37744903564453 -65.48831176757812 -65.09933471679688 -167.78509521484375 -87.56731414794922 -17.381975173950195 -170.33615112304688 -158.20582580566406 
u638 -100.05470275878906 -104.27507019042969 -43.91534423828125 -120.73697662353516 -92.65144348144531 -158.18080139160156 -72.79949951171875 -51.700138092041016 -67.8456039428711 -44.36014175415039 -66.59464263916016 -101.07823944091797 -40.07393264770508 -113.36615753173828 -42.05706024169922 -84.59123992919922 -89.90633392333984 -128.3838653564453 -42.30464553833008 -110.54329681396484 -62.014041900634766 -127.82850646972656 -130.2589111328125 -29.06382179260254 -66.54572296142578 -124.0899658203125 -45.86771011352539 -98.22425079345703 -51.7901725769043 -9.666509628295898 -95.01791381835938 -92.04940032958984 
u594 -85.25492858886719 -88.77284240722656 -40.58329772949219 -102.31458282470703 -77.59898376464844 -135.2866973876953 -67.65603637695312 -44.39596939086914 -60.11025619506836 -34.47829055786133 -55.43195724487305 -86.3661117553711 -44.01506423950195 -101.8188247680664 -34.125328063964844 -71.06029510498047 -77.21617889404297 -111.98494720458984 -35.3475227355957 -95.84432220458984 -53.552188873291016 -108.46064758300781 -112.140869140625 -22.144845962524414 -57.57559585571289 -135.9349365234375 -40.688358306884766 -85.18366241455078 -42.374446868896484 -9.321069717407227 -80.3558349609375 -78.43660736083984 
i69 -1634.2012939453125 -718.8099365234375 -469.66583251953125 -1592.1826171875 -1946.0435791015625 -2562.1845703125 -2233.634521484375 -833.003662109375 -956.5377197265625 -1770.0833740234375 -514.149658203125 -410.7080078125 -1279.711181640625 -2117.1259765625 -1029.6007080078125 -1641.8050537109375 -2221.07421875 -1335.45654296875 -616.655517578125 -1739.272216796875 -804.2794799804688 -1498.962890625 -1144.33349609375 -1552.333251953125 -1744.170166015625 -920.5847778320312 -1205.65771484375 -1343.0172119140625 -1040.6627197265625 -362.30419921875 -1188.0694580078125 -1702.0438232421875 
u347 -179.5269317626953 -171.7430877685547 -72.91961669921875 -201.17471313476562 -148.67042541503906 -259.773681640625 -120.25897216796875 -88.66398620605469 -120.7556381225586 -70.57550811767578 -106.54410552978516 -168.453369140625 -24.996097564697266 -189.2250518798828 -69.10054779052734 -142.71746826171875 -150.06362915039062 -222.19215393066406 -74.00816345214844 -181.58621215820312 -108.55082702636719 -210.6138153076172 -211.7412109375 -48.33664321899414 -102.91852569580078 -67.13449096679688 -58.76321792602539 -156.26132202148438 -75.43380737304688 -16.443971633911133 -159.59918212890625 -151.98512268066406 
u219 -155.18443298339844 -165.72007751464844 -68.81509399414062 -178.605224609375 -141.0996551513672 -238.21888732910156 -110.38467407226562 -81.49168395996094 -109.09581756591797 -62.01295852661133 -102.47502899169922 -158.65567016601562 -28.441219329833984 -174.9717559814453 -62.38251495361328 -130.33615112304688 -135.00851440429688 -195.23634338378906 -65.66862487792969 -166.22174072265625 -101.4969482421875 -196.73899841308594 -198.72467041015625 -45.76157760620117 -100.09687042236328 -75.66787719726562 -53.56917953491211 -151.06063842773438 -66.8445053100586 -11.756326675415039 -139.10614013671875 -139.7843780517578 
u541 -34.73399353027344 -55.82521057128906 -11.778349876403809 -23.85483169555664 -34.21083450317383 -27.915359497070312 -2.747220754623413 -10.55424690246582 -4.310817241668701 -10.580052375793457 -20.102153778076172 -23.38213539123535 -58.496212005615234 -17.597787857055664 -13.115439414978027 -48.31008529663086 -27.09713363647461 -27.58357810974121 -32.34811782836914 -12.812278747558594 -17.94058609008789 -34.57191467285156 -10.411927223205566 -39.28413772583008 -3.450443744659424 -179.75894165039062 -2.4287214279174805 -23.87317657470703 -18.359264373779297 -9.381702423095703 -17.641965866088867 -17.05824851989746 
u435 -82.08934020996094 -103.46266174316406 -31.137907028198242 -89.55973052978516 -69.82978820800781 -129.4367218017578 -46.291133880615234 -40.27132034301758 -47.64254379272461 -42.27760696411133 -50.9176139831543 -88.20137786865234 -40.476680755615234 -83.11084747314453 -35.58684539794922 -84.44200897216797 -79.29061126708984 -104.9270248413086 -50.80411148071289 -86.15877532958984 -56.500614166259766 -101.81446838378906 -91.86566162109375 -34.660037994384766 -48.00693130493164 -130.86688232421875 -29.40700912475586 -81.55023956298828 -39.59220504760742 -12.801862716674805 -69.61795043945312 -71.85472869873047 
u750 -197.3263397216797 -220.1819610595703 -84.11331176757812 -227.63766479492188 -170.7753143310547 -325.43927001953125 -145.20245361328125 -101.98915100097656 -146.11573791503906 -83.79424285888672 -123.24361419677734 -211.759765625 -9.924205780029297 -237.8810272216797 -75.81401824951172 -176.8287353515625 -198.6185302734375 -270.8875427246094 -101.19319152832031 -223.33462524414062 -128.71238708496094 -261.557861328125 -252.43603515625 -61.023746490478516 -132.69778442382812 -38.023136138916016 -64.07339477539062 -201.19830322265625 -80.62294006347656 -21.84341812133789 -179.92822265625 -189.05006408691406 
u189 -158.6587677001953 -171.1602325439453 -69.8193359375 -182.73724365234375 -141.6718292236328 -246.9308624267578 -113.06100463867188 -82.38142395019531 -112.38451385498047 -63.87320327758789 -99.5138931274414 -161.9979248046875 -27.702159881591797 -182.57301330566406 -61.53321075439453 -132.288818359375 -140.8302001953125 -205.03770446777344 -69.49319458007812 -175.2252197265625 -102.5067138671875 -203.18287658691406 -202.87069702148438 -44.943912506103516 -100.26233673095703 -71.90585327148438 -55.65034103393555 -155.47903442382812 -64.26294708251953 -14.544529914855957 -144.05169677734375 -143.2292022705078 
u60 -129.2924041748047 -149.5863494873047 -51.37052917480469 -133.95712280273438 -112.92445373535156 -184.9865264892578 -77.81396484375 -62.230594635009766 -83.8679428100586 -50.64943313598633 -72.9078598022461 -123.59270477294922 -36.83414840698242 -134.25697326660156 -50.274559020996094 -119.4420394897461 -118.72005462646484 -159.2758331298828 -70.45840454101562 -124.58406829833984 -78.69465637207031 -161.5236358642578 -140.2117919921875 -56.0429573059082 -70.40616607666016 -99.22232055664062 -31.290050506591797 -118.16144561767578 -50.324153900146484 -15.463212966918945 -104.60220336914062 -109.78649139404297 
u75 -105.16822814941406 -120.75843811035156 -38.84648132324219 -100.41483306884766 -96.41914367675781 -133.03602600097656 -50.793758392333984 -46.1422004699707 -54.686763763427734 -39.04195022583008 -61.0395622253418 -90.53484344482422 -42.0097541809082 -95.8248062133789 -44.160240173339844 -100.24706268310547 -86.00286102294922 -111.6744613647461 -51.032596588134766 -84.9907455444336 -63.63669204711914 -120.86647033691406 -102.74774169921875 -56.25455856323242 -48.406620025634766 -124.05380249023438 -21.649211883544922 -87.56436920166016 -44.73649215698242 -14.792436599731445 -81.06842041015625 -77.52562713623047 
i93 -1229.9720458984375 -637.5056762695312 -347.7404479980469 -1179.687255859375 -1376.757080078125 -1878.9854736328125 -1517.40625 -641.505615234375 -709.9791259765625 -1155.73779296875 -446.3434143066406 -468.1280822753906 -735.4122924804688 -1520.7159423828125 -708.3496704101562 -1175.277099609375 -1485.8050537109375 -1057.6329345703125 -457.0366516113281 -1299.581298828125 -609.9590454101562 -1189.6600341796875 -952.5061645507812 -1008.0814819335938 -1186.184326171875 -463.565185546875 -785.28955078125 -1026.1951904296875 -713.8286743164062 -253.3090362548828 -920.1778564453125 -1249.0999755859375 
u581 -161.05577087402344 -178.2157745361328 -58.87599182128906 -191.37982177734375 -131.9772491455078 -285.54168701171875 -108.12501525878906 -87.02317810058594 -108.8269271850586 -86.1712417602539 -86.4165267944336 -187.36419677734375 -23.786006927490234 -194.9378204345703 -60.61426544189453 -140.40625 -136.20452880859375 -231.0581512451172 -78.81260681152344 -204.74862670898438 -110.84938049316406 -194.0764617919922 -225.08822631835938 -34.07735824584961 -111.1099624633789 -51.578861236572266 -83.71778869628906 -162.26852416992188 -58.9970817565918 -19.164871215820312 -158.02041625976562 -141.8314666748047 
u11 -121.63749694824219 -138.1284942626953 -46.139892578125 -123.19129180908203 -109.77445983886719 -163.6059112548828 -64.261474609375 -56.3791389465332 -68.77242279052734 -46.39812088012695 -71.41719818115234 -109.65459442138672 -38.00004196166992 -116.10196685791016 -50.01801300048828 -114.0759506225586 -101.5650863647461 -137.7688751220703 -60.47354507446289 -107.38359832763672 -73.48638916015625 -141.8250274658203 -126.298583984375 -58.598201751708984 -59.01517105102539 -108.931640625 -28.135784149169922 -105.18366241455078 -50.30979537963867 -14.263026237487793 -97.57003784179688 -94.41451263427734 
u82 -121.84349060058594 -105.96900939941406 -48.02827453613281 -135.73468017578125 -102.46675109863281 -166.7687530517578 -81.79232788085938 -57.940982818603516 -80.37194061279297 -47.265811920166016 -84.29747772216797 -107.4718246459961 -43.019283294677734 -116.19501495361328 -54.940635681152344 -89.99712371826172 -95.83629608154297 -138.8681182861328 -40.57207107543945 -115.2381820678711 -72.82022094726562 -137.35816955566406 -145.09039306640625 -34.060672760009766 -75.17998504638672 -125.29928588867188 -47.609981536865234 -103.48917388916016 -61.96822738647461 -11.784178733825684 -101.027099609375 -103.32769012451172 
i84 -1251.5892333984375 -653.5623779296875 -333.00885009765625 -1228.09130859375 -1399.5797119140625 -1923.4376220703125 -1573.826904296875 -631.1846923828125 -737.1937866210938 -1193.2369384765625 -471.29913330078125 -475.963134765625 -748.7509155273438 -1577.8843994140625 -738.13427734375 -1206.8551025390625 -1534.4111328125 -1075.276123046875 -462.5444030761719 -1306.8543701171875 -605.7453002929688 -1199.6309814453125 -967.2039794921875 -1045.7403564453125 -1214.667724609375 -486.1719970703125 -821.5535888671875 -1043.5260009765625 -735.8855590820312 -256.8503112792969 -940.2284545898438 -1297.4091796875 
u518 -105.26972961425781 -124.21907043457031 -42.024169921875 -105.5956802368164 -94.77742004394531 -139.1458282470703 -52.483150482177734 -47.6501350402832 -59.95840072631836 -38.45341873168945 -58.55808639526367 -92.15526580810547 -41.13051986694336 -99.06446075439453 -40.987037658691406 -98.91011810302734 -94.0976791381836 -122.3030014038086 -58.34321975708008 -92.87276458740234 -64.7022705078125 -127.57417297363281 -103.5006103515625 -51.89711380004883 -50.314701080322266 -121.8936767578125 -21.701610565185547 -91.25092315673828 -44.11338424682617 -15.84859848022461 -81.32089233398438 -83.29573822021484 
u188 -118.32432556152344 -123.67979431152344 -52.17518615722656 -134.86959838867188 -104.27516174316406 -178.91322326660156 -85.47930908203125 -60.28544998168945 -81.67122650146484 -46.486148834228516 -73.67720794677734 -119.40438079833984 -38.04555892944336 -135.3665313720703 -46.357078552246094 -95.90801239013672 -101.46520233154297 -149.3327178955078 -48.79106521606445 -125.9791488647461 -75.89897155761719 -148.6240692138672 -149.78558349609375 -32.18497085571289 -77.17642974853516 -107.92352294921875 -44.72175216674805 -113.1879653930664 -51.3415641784668 -12.247200012207031 -106.073974609375 -104.68724822998047 
u10 -154.0699005126953 -166.4744110107422 -61.08003234863281 -157.59149169921875 -138.12071228027344 -205.85169982910156 -84.1390380859375 -72.50967407226562 -90.53780364990234 -58.03364944458008 -92.17757415771484 -137.36279296875 -30.036739349365234 -148.7036895751953 -61.587745666503906 -139.0404052734375 -129.1923828125 -173.38343811035156 -71.16023254394531 -137.22955322265625 -94.94000244140625 -180.52684020996094 -162.60736083984375 -67.00758361816406 -74.9127426147461 -85.4942626953125 -34.12467575073242 -132.39764404296875 -63.64646530151367 -15.607470512390137 -125.91305541992188 -121.69078826904297 
i86 -1232.1910400390625 -650.49853515625 -331.2806396484375 -1224.70703125 -1379.5338134765625 -1894.3192138671875 -1553.7127685546875 -617.5089111328125 -727.7308349609375 -1170.43994140625 -476.7073974609375 -480.6729431152344 -726.8743896484375 -1555.3245849609375 -727.5870361328125 -1196.3304443359375 -1520.9898681640625 -1076.3135986328125 -463.6208801269531 -1287.60693359375 -599.1908569335938 -1190.9129638671875 -955.3086547851562 -1035.3262939453125 -1209.0714111328125 -470.94757080078125 -815.4093627929688 -1034.5067138671875 -726.702880859375 -257.16253662109375 -934.1633911132812 -1280.263671875 
u46 -115.27079772949219 -130.41639709472656 -43.139923095703125 -111.7309341430664 -106.86643981933594 -144.1717071533203 -54.913448333740234 -51.48593521118164 -60.73159408569336 -41.84975051879883 -68.19412994384766 -98.24040985107422 -40.65884780883789 -104.6542739868164 -48.511985778808594 -108.93148040771484 -93.59032440185547 -121.3734359741211 -54.9084358215332 -92.07085418701172 -69.93408203125 -131.68080139160156 -112.326416015625 -61.96071243286133 -51.826358795166016 -118.59158325195312 -23.016841888427734 -96.40924835205078 -49.422359466552734 -15.254814147949219 -88.90133666992188 -86.4947738647461 
u456 -58.24574279785156 -65.67973327636719 -32.24786376953125 -71.9915542602539 -55.8504524230957 -95.80970764160156 -48.726680755615234 -31.741960525512695 -41.98849105834961 -26.735158920288086 -43.10386276245117 -63.734798431396484 -49.96262741088867 -72.92890167236328 -22.50981903076172 -52.541622161865234 -57.23269271850586 -76.55989837646484 -28.483919143676758 -69.61064910888672 -39.30063247680664 -80.70460510253906 -77.781982421875 -16.73679542541504 -41.382511138916016 -155.93472290039062 -31.868709564208984 -63.39789581298828 -31.691326141357422 -6.283724308013916 -56.692073822021484 -58.4034309387207 
u495 -39.72172546386719 -41.05961608886719 -23.963590621948242 -48.26907730102539 -37.9650764465332 -62.41749572753906 -40.521114349365234 -23.425371170043945 -29.17873764038086 -17.655324935913086 -32.27936935424805 -40.53237533569336 -58.38277816772461 -44.02002716064453 -17.84461212158203 -35.61098861694336 -32.272640228271484 -48.184593200683594 -17.191560745239258 -41.334495544433594 -24.02029800415039 -46.01679992675781 -51.85089111328125 -14.36338996887207 -29.541446685791016 -174.7352294921875 -27.43685531616211 -38.363929748535156 -24.580547332763672 -1.491432547569275 -36.70516586303711 -39.6193733215332 
u356 -119.85868835449219 -125.08460998535156 -53.698944091796875 -142.9764404296875 -107.71556091308594 -192.1071319580078 -91.17935180664062 -62.344852447509766 -85.67598724365234 -50.94516372680664 -78.97216033935547 -123.11592864990234 -34.29790115356445 -140.14991760253906 -50.04047393798828 -100.20482635498047 -108.94915008544922 -157.3609161376953 -50.15474319458008 -135.02484130859375 -77.23788452148438 -152.30589294433594 -158.10940551757812 -30.425745010375977 -80.59680938720703 -106.09646606445312 -50.9941520690918 -118.61454010009766 -56.3795280456543 -11.33264446258545 -111.87088012695312 -110.55852508544922 
u679 -46.49339294433594 -43.80543518066406 -24.090970993041992 -51.33035659790039 -38.13698196411133 -67.70228576660156 -40.058773040771484 -22.92418098449707 -30.608089447021484 -20.0854549407959 -28.997783660888672 -44.85622787475586 -54.42496871948242 -52.87342071533203 -17.14258575439453 -36.749507904052734 -41.60274887084961 -57.285850524902344 -19.998796463012695 -47.381187438964844 -28.698978424072266 -55.90480041503906 -54.58221435546875 -10.983095169067383 -32.601993560791016 -170.58767700195312 -25.77187728881836 -41.944190979003906 -26.979076385498047 -7.184256076812744 -42.132259368896484 -41.31648635864258 
u328 -152.9862518310547 -160.53465270996094 -69.17536926269531 -176.80572509765625 -131.9608917236328 -241.40492248535156 -117.64663696289062 -81.26901245117188 -115.9424057006836 -62.62465286254883 -96.63179779052734 -158.61044311523438 -29.321796417236328 -180.21644592285156 -57.82495880126953 -129.01315307617188 -141.78277587890625 -203.3592071533203 -72.96572875976562 -169.07928466796875 -96.81303405761719 -198.1967315673828 -194.73666381835938 -43.96794509887695 -101.58939361572266 -79.18316650390625 -53.65407180786133 -149.4046630859375 -62.390926361083984 -13.011259078979492 -139.44903564453125 -144.6698455810547 
u355 -16.474349975585938 -15.196913719177246 -13.353438377380371 -20.43613052368164 -18.317981719970703 -22.108413696289062 -19.633268356323242 -8.68998908996582 -7.495814800262451 -6.230229377746582 -15.632122039794922 -15.702875137329102 -61.950496673583984 -20.457773208618164 -7.449652671813965 -13.297725677490234 -14.380885124206543 -16.08754539489746 -4.217059135437012 -14.641929626464844 -10.045902252197266 -19.74989128112793 -21.132568359375 -5.87047004699707 -14.82980728149414 -196.824462890625 -20.553295135498047 -17.82569122314453 -19.155010223388672 -3.771200656890869 -16.406888961791992 -16.23171043395996 
u457 -113.72578430175781 -119.80073547363281 -51.70257568359375 -136.54946899414062 -102.52790832519531 -184.2709503173828 -87.54803466796875 -59.57429885864258 -81.7513656616211 -49.4926643371582 -76.24675750732422 -118.5770492553711 -35.3226203918457 -134.4785919189453 -47.615379333496094 -95.73143768310547 -104.99568939208984 -149.95082092285156 -48.25185012817383 -130.0272216796875 -74.20504760742188 -146.5072479248047 -151.0045166015625 -28.175920486450195 -77.68256378173828 -110.41970825195312 -49.3730583190918 -114.2740249633789 -54.02732467651367 -10.99820613861084 -107.05441284179688 -106.29131317138672 
u656 -143.59043884277344 -168.94422912597656 -61.29425048828125 -163.18621826171875 -126.18818664550781 -230.1770782470703 -94.85549926757812 -76.1734619140625 -92.46923065185547 -66.55785369873047 -92.7634048461914 -152.9580078125 -25.818523406982422 -155.21263122558594 -56.664634704589844 -133.73626708984375 -128.98513793945312 -186.83238220214844 -74.29002380371094 -158.43984985351562 -94.97721862792969 -180.62583923339844 -177.8917236328125 -49.768314361572266 -86.9859390258789 -75.23294067382812 -47.3437385559082 -140.7880859375 -59.069026947021484 -9.800010681152344 -131.23663330078125 -128.26268005371094 
u342 -145.4084930419922 -145.2620086669922 -63.195556640625 -166.981689453125 -127.41386413574219 -220.9944610595703 -105.034423828125 -74.92083740234375 -103.18419647216797 -59.486637115478516 -95.89264678955078 -144.56716918945312 -31.755802154541016 -159.8036651611328 -60.48053741455078 -118.33348846435547 -125.99803924560547 -182.07286071777344 -59.8204231262207 -154.64566040039062 -92.13749694824219 -178.68116760253906 -183.34646606445312 -39.247623443603516 -93.80335235595703 -89.74539184570312 -53.61910629272461 -136.17608642578125 -64.52283477783203 -11.407776832580566 -130.34814453125 -129.01438903808594 
u409 -73.51396179199219 -102.68876647949219 -27.43592643737793 -78.57694244384766 -67.40361022949219 -118.35786437988281 -39.938228607177734 -36.2730598449707 -43.89968490600586 -38.64003372192383 -45.9511833190918 -75.61504364013672 -43.37716293334961 -67.19068145751953 -36.17877960205078 -85.99663543701172 -74.12975311279297 -92.84554290771484 -50.88510513305664 -74.70409393310547 -49.615482330322266 -89.94551086425781 -76.69976806640625 -39.914371490478516 -41.759342193603516 -135.95022583007812 -22.59615707397461 -69.40869903564453 -33.660701751708984 -10.809370040893555 -57.582820892333984 -64.28362274169922 
u554 -143.09226989746094 -164.73133850097656 -58.97468566894531 -158.36587524414062 -124.06736755371094 -222.76014709472656 -92.05322265625 -72.99720764160156 -95.88045501708984 -64.9143295288086 -87.83931732177734 -146.891845703125 -27.163188934326172 -152.5866241455078 -58.615638732910156 -134.50833129882812 -135.50674438476562 -183.93153381347656 -77.97047424316406 -151.50115966796875 -92.98388671875 -179.82228088378906 -167.32901000976562 -52.33370590209961 -84.12911224365234 -81.25564575195312 -41.88339614868164 -136.67779541015625 -58.83170700073242 -13.778385162353516 -124.84213256835938 -127.52193450927734 
u616 -182.2671356201172 -203.67298889160156 -80.39463806152344 -214.8695068359375 -155.8071746826172 -303.9464111328125 -125.50473022460938 -97.14337158203125 -128.29025268554688 -87.8591537475586 -122.0982894897461 -199.64785766601562 -10.85628890991211 -207.9303436279297 -69.67305755615234 -162.75 -177.44851684570312 -248.29991149902344 -92.69114685058594 -213.63796997070312 -124.95144653320312 -240.89537048339844 -235.9031982421875 -49.8802375793457 -119.12865447998047 -43.94345474243164 -64.46421813964844 -188.59262084960938 -80.81993865966797 -13.971413612365723 -169.35836791992188 -174.21348571777344 
u614 -138.25318908691406 -151.6367950439453 -50.803497314453125 -159.43310546875 -111.11146545410156 -233.7604522705078 -90.8922119140625 -72.26863098144531 -96.15535736083984 -70.94934844970703 -69.57877349853516 -151.85421752929688 -29.909740447998047 -162.6735076904297 -54.78655242919922 -123.6046371459961 -125.11580657958984 -193.77577209472656 -71.14793395996094 -163.99166870117188 -93.489501953125 -166.23472595214844 -177.64328002929688 -34.67598342895508 -88.61100006103516 -78.41311645507812 -62.771366119384766 -134.28662109375 -52.72520065307617 -19.75587272644043 -126.7454833984375 -122.4881820678711 
u150 -122.93663024902344 -117.30201721191406 -54.07295227050781 -140.91629028320312 -107.00193786621094 -182.61134338378906 -91.21981811523438 -62.89384841918945 -86.06700897216797 -51.1880989074707 -81.8739242553711 -118.80065155029297 -37.68049240112305 -132.09251403808594 -51.15955352783203 -98.21617889404297 -104.66194915771484 -150.1349639892578 -48.70344924926758 -126.76799774169922 -76.28718566894531 -147.62843322753906 -153.0389404296875 -33.435001373291016 -77.5624008178711 -111.28579711914062 -47.1475944519043 -112.45450592041016 -57.989681243896484 -8.941587448120117 -110.14956665039062 -110.05449676513672 
u303 -215.0288848876953 -242.2665557861328 -98.22787475585938 -251.33309936523438 -190.09519958496094 -354.2601013183594 -159.38021850585938 -115.95269775390625 -161.3045196533203 -91.79295349121094 -142.13075256347656 -236.971435546875 -2.1482579708099365 -267.16156005859375 -80.99337005615234 -189.29676818847656 -219.395751953125 -294.0135803222656 -109.2348861694336 -250.24765014648438 -146.70669555664062 -297.6582946777344 -278.83428955078125 -57.78830337524414 -146.4572296142578 -19.76126480102539 -67.6228256225586 -230.56759643554688 -89.15460205078125 -20.37149429321289 -201.25167846679688 -210.73390197753906 
u8 -123.57240295410156 -149.75502014160156 -53.771209716796875 -139.57809448242188 -106.75740051269531 -203.7940216064453 -83.64190673828125 -65.64279174804688 -82.30144500732422 -61.590213775634766 -78.5915756225586 -136.41876220703125 -31.11825180053711 -137.5445098876953 -50.00749969482422 -119.80388641357422 -117.14900970458984 -164.24769592285156 -67.45188903808594 -143.18807983398438 -84.22416687011719 -159.7941131591797 -154.8101806640625 -40.97530746459961 -75.52422332763672 -88.21356201171875 -43.2523307800293 -123.61554718017578 -48.08881759643555 -9.438735961914062 -113.73190307617188 -111.9487533569336 
u26 -104.99559020996094 -98.88261413574219 -45.13432312011719 -122.21292877197266 -92.03370666503906 -153.80714416503906 -78.17230224609375 -53.35365676879883 -72.81819915771484 -43.69594192504883 -72.8537368774414 -100.50603485107422 -44.20249557495117 -109.29553985595703 -46.33661651611328 -83.67095184326172 -85.6661605834961 -124.37520599365234 -40.714664459228516 -106.54509735107422 -63.18283462524414 -123.89558410644531 -129.69464111328125 -28.822885513305664 -66.00774383544922 -127.760009765625 -44.267208099365234 -94.50751495361328 -51.244625091552734 -7.537191867828369 -93.76263427734375 -93.4345932006836 
u154 -132.7935333251953 -129.08180236816406 -57.99528503417969 -153.60360717773438 -116.05421447753906 -200.01527404785156 -98.565673828125 -68.72335815429688 -93.8736801147461 -55.6446418762207 -88.59435272216797 -129.69161987304688 -35.24906539916992 -143.3629608154297 -56.33783721923828 -107.58565521240234 -114.2279281616211 -163.66615295410156 -54.16044998168945 -138.04888916015625 -82.46830749511719 -161.0242156982422 -166.09353637695312 -36.43788528442383 -83.9476089477539 -102.94747924804688 -50.7288932800293 -122.83426666259766 -61.81832504272461 -8.92042350769043 -119.45364379882812 -120.06575775146484 
u217 -86.21852111816406 -83.97651672363281 -40.14482116699219 -101.3100357055664 -76.63462829589844 -129.0550079345703 -69.51028442382812 -44.8099250793457 -62.39461898803711 -36.34866714477539 -60.62925338745117 -84.52245330810547 -48.230587005615234 -93.97119903564453 -36.550926208496094 -70.12065887451172 -71.67803192138672 -105.2374496459961 -35.65468215942383 -89.81981658935547 -52.39151382446289 -104.06013488769531 -108.399658203125 -24.227426528930664 -56.68942642211914 -139.69088745117188 -39.71903610229492 -79.3815689086914 -42.69074630737305 -6.071436405181885 -78.00198364257812 -79.46398162841797 
i45 -1533.185791015625 -671.4503173828125 -434.96258544921875 -1418.7457275390625 -1794.0166015625 -2344.651611328125 -2011.224609375 -827.4007568359375 -863.7520141601562 -1587.5230712890625 -460.00628662109375 -411.66571044921875 -1113.406005859375 -1907.0511474609375 -915.105712890625 -1487.6839599609375 -1909.8023681640625 -1219.8480224609375 -543.546630859375 -1663.841064453125 -746.9013671875 -1428.8548583984375 -1092.3619384765625 -1361.8974609375 -1541.0999755859375 -764.0509033203125 -1035.6710205078125 -1249.7078857421875 -937.98828125 -326.22528076171875 -1106.33837890625 -1550.8675537109375 
i79 -1286.3331298828125 -644.445556640625 -377.8709411621094 -1240.630126953125 -1473.95556640625 -1988.2449951171875 -1635.9249267578125 -679.055419921875 -756.1915283203125 -1262.9029541015625 -436.264404296875 -446.9449768066406 -831.9328002929688 -1606.142333984375 -748.5030517578125 -1250.9461669921875 -1591.4820556640625 -1098.8775634765625 -472.7962341308594 -1397.448974609375 -645.9998168945312 -1235.9739990234375 -989.5694580078125 -1080.1802978515625 -1257.3177490234375 -529.4488525390625 -842.7623291015625 -1075.719970703125 -765.7724609375 -257.5835876464844 -960.2212524414062 -1311.9476318359375 
u672 -190.38096618652344 -176.51124572753906 -77.326416015625 -212.80441284179688 -156.78565979003906 -273.84808349609375 -127.7685546875 -94.31748962402344 -128.34579467773438 -74.50218963623047 -110.25202178955078 -177.09613037109375 -23.838016510009766 -201.55885314941406 -72.09395599365234 -144.82009887695312 -157.06982421875 -235.72972106933594 -74.75205993652344 -194.49203491210938 -113.65391540527344 -224.2624969482422 -227.02288818359375 -46.59602737426758 -110.49376678466797 -59.665897369384766 -63.8693962097168 -164.13632202148438 -79.34278106689453 -16.419403076171875 -171.49722290039062 -159.4108428955078 
u215 -125.28654479980469 -108.79508972167969 -49.591949462890625 -138.35760498046875 -104.85054016113281 -170.9662628173828 -83.13510131835938 -59.6505012512207 -80.88866424560547 -47.93228530883789 -85.94649505615234 -110.4970932006836 -41.23518753051758 -119.55280303955078 -56.69440460205078 -91.54839324951172 -99.49138641357422 -142.5124053955078 -40.44046401977539 -117.51110076904297 -75.9718017578125 -140.9029083251953 -149.0322265625 -34.4623908996582 -77.46553802490234 -123.22930908203125 -47.6909065246582 -106.87403106689453 -64.10982513427734 -12.184813499450684 -103.78121948242188 -105.3410873413086 
i43 -1493.829833984375 -664.3182373046875 -423.6471862792969 -1393.2889404296875 -1734.6461181640625 -2285.3623046875 -1937.2564697265625 -795.0164794921875 -843.4010620117188 -1530.7967529296875 -458.10870361328125 -420.67327880859375 -1062.61083984375 -1861.8072509765625 -892.4830932617188 -1439.32958984375 -1858.924560546875 -1196.9931640625 -534.283203125 -1608.693359375 -727.5951538085938 -1393.0535888671875 -1076.123046875 -1311.2398681640625 -1495.408203125 -722.9246215820312 -1001.1416015625 -1216.6939697265625 -911.017578125 -313.6921081542969 -1082.9569091796875 -1503.5574951171875 
u211 -171.16111755371094 -188.6946563720703 -74.27436828613281 -181.13693237304688 -153.5917205810547 -246.6173858642578 -102.90658569335938 -84.27154541015625 -113.50585174560547 -66.07622528076172 -98.88729095458984 -160.13943481445312 -25.31515121459961 -180.7270965576172 -66.3392562866211 -155.49118041992188 -154.1922607421875 -210.39048767089844 -84.3480224609375 -170.0428466796875 -107.52005004882812 -213.59983825683594 -195.23397827148438 -70.32791137695312 -89.20938873291016 -63.76083755493164 -38.81206130981445 -155.762939453125 -65.06681060791016 -16.239477157592773 -143.36257934570312 -140.82359313964844 
u464 -84.73872375488281 -105.24555969238281 -32.059539794921875 -86.2105484008789 -77.20787048339844 -115.97590637207031 -42.39852523803711 -38.55087661743164 -45.571956634521484 -35.39834976196289 -50.57807540893555 -77.89376068115234 -45.35457229614258 -76.64771270751953 -35.326576232910156 -88.6812973022461 -75.10948944091797 -97.26558685302734 -51.9509162902832 -74.07500457763672 -51.32297134399414 -97.91249084472656 -81.5587158203125 -47.292850494384766 -39.528995513916016 -135.36981201171875 -20.877925872802734 -73.07898712158203 -37.80656051635742 -11.492356300354004 -65.59970092773438 -66.75225067138672 
u285 -189.10951232910156 -216.5655975341797 -85.64242553710938 -213.99832153320312 -166.2640838623047 -303.21240234375 -127.93722534179688 -98.05717468261719 -137.70765686035156 -78.00501251220703 -114.46820831298828 -203.044189453125 -13.28347396850586 -232.0729217529297 -65.43926239013672 -161.23056030273438 -187.6005859375 -257.8913269042969 -90.98954772949219 -220.1029052734375 -134.17849731445312 -266.59979248046875 -244.291748046875 -50.22494888305664 -128.6282196044922 -38.99191665649414 -59.898067474365234 -200.75985717773438 -74.39360809326172 -25.207246780395508 -169.0050048828125 -180.6006622314453 
u149 -144.7909698486328 -126.57575988769531 -57.83491516113281 -158.771728515625 -121.35801696777344 -199.41883850097656 -94.71124267578125 -69.18728637695312 -95.65853118896484 -55.51103591918945 -94.31551361083984 -127.4947738647461 -36.07534408569336 -141.24745178222656 -62.361671447753906 -106.40764617919922 -116.00090789794922 -167.12196350097656 -47.08700942993164 -138.59890747070312 -88.3857421875 -165.4851531982422 -172.30288696289062 -38.50021743774414 -86.93306732177734 -105.96832275390625 -51.501338958740234 -123.45148468017578 -69.70708465576172 -13.912845611572266 -120.75726318359375 -121.3109359741211 
u429 -39.23289489746094 -59.26054382324219 -13.333434104919434 -27.98831558227539 -38.9957160949707 -28.964248657226562 -3.315061330795288 -12.69102668762207 -7.295802593231201 -10.475377082824707 -22.072246551513672 -24.005395889282227 -59.91245651245117 -18.829904556274414 -16.400291442871094 -51.920528411865234 -29.36349105834961 -30.14577293395996 -34.42045974731445 -12.979515075683594 -19.74161148071289 -36.99543762207031 -11.873658180236816 -44.0787467956543 -2.526279926300049 -179.36090087890625 -1.775996208190918 -25.835304260253906 -19.575572967529297 -9.730989456176758 -19.099271774291992 -20.15028953552246 
u517 -192.7580108642578 -217.55616760253906 -88.14205932617188 -222.27325439453125 -169.86720275878906 -312.76318359375 -135.6900177001953 -99.42086791992188 -141.8937225341797 -81.37642669677734 -119.2779769897461 -202.599609375 -11.292118072509766 -229.45005798339844 -69.92310333251953 -171.39572143554688 -189.83474731445312 -263.9945983886719 -97.69158935546875 -221.22756958007812 -128.25804138183594 -260.75604248046875 -248.296630859375 -60.33052444458008 -122.8749771118164 -35.417667388916016 -58.78097152709961 -195.75546264648438 -75.5898666381836 -18.485187530517578 -174.68856811523438 -182.7105255126953 
u625 -111.06544494628906 -113.42082214355469 -51.97743225097656 -127.74372100830078 -97.51863098144531 -171.99964904785156 -83.9493408203125 -58.0893440246582 -79.01900482177734 -46.06827163696289 -72.42469024658203 -112.80431365966797 -37.65290451049805 -127.0892105102539 -44.96556854248047 -94.10442352294922 -101.7828598022461 -142.3612823486328 -49.9449348449707 -118.28697967529297 -70.6964111328125 -139.16078186035156 -139.3326416015625 -32.88466262817383 -72.2648696899414 -116.21148681640625 -42.75899124145508 -106.86551666259766 -51.63950729370117 -9.466073989868164 -101.00375366210938 -101.75289154052734 
u242 -131.8235321044922 -149.64195251464844 -49.89903259277344 -136.57937622070312 -118.90946960449219 -181.75904846191406 -71.11029052734375 -62.34828567504883 -75.83647918701172 -50.963748931884766 -78.99691009521484 -121.9829330444336 -35.59670639038086 -127.9444351196289 -53.52233123779297 -123.0118637084961 -111.14763641357422 -152.9425811767578 -67.11605834960938 -121.52278900146484 -78.8636474609375 -156.1046600341797 -141.14996337890625 -61.57651901245117 -66.87769317626953 -99.35806274414062 -31.962665557861328 -116.5151138305664 -54.42708969116211 -14.133790969848633 -108.67294311523438 -102.86336517333984 
u102 -98.84419250488281 -115.37547302246094 -36.38038635253906 -95.83466339111328 -90.33125305175781 -124.93629455566406 -46.84786605834961 -44.614505767822266 -51.67147445678711 -35.83884048461914 -56.9764518737793 -84.9074935913086 -45.0682258605957 -88.24085235595703 -42.18909454345703 -96.05562591552734 -79.42974090576172 -106.2123031616211 -51.18722915649414 -79.72887420654297 -58.290164947509766 -111.43196105957031 -94.49029541015625 -55.112430572509766 -42.723514556884766 -129.08291625976562 -20.812053680419922 -82.32422637939453 -41.04134750366211 -12.859848022460938 -75.00784301757812 -72.63274383544922 
i27 -1440.2615966796875 -681.1809692382812 -409.3182678222656 -1379.662109375 -1674.01025390625 -2234.794189453125 -1890.2464599609375 -760.7872314453125 -838.2196655273438 -1479.4617919921875 -466.77276611328125 -422.8721923828125 -1018.7359008789062 -1825.3419189453125 -866.5034790039062 -1409.278564453125 -1843.615966796875 -1186.274169921875 -533.6168212890625 -1544.5203857421875 -714.8787231445312 -1344.1024169921875 -1054.9317626953125 -1278.8587646484375 -1452.220947265625 -701.95458984375 -991.625 -1186.9915771484375 -885.7999877929688 -304.58258056640625 -1057.728515625 -1480.146240234375 
u199 -148.30271911621094 -172.8025360107422 -64.50091552734375 -166.10635375976562 -130.2646942138672 -236.04066467285156 -98.65780639648438 -77.74525451660156 -102.00713348388672 -68.46456146240234 -94.71526336669922 -156.14666748046875 -26.116634368896484 -161.9426727294922 -61.119041442871094 -138.29248046875 -140.04043579101562 -192.4393768310547 -78.21434020996094 -164.09735107421875 -99.19627380371094 -190.85789489746094 -181.81463623046875 -52.101078033447266 -89.37480926513672 -73.08059692382812 -45.26120376586914 -145.94265747070312 -58.199214935302734 -11.790863037109375 -131.5859375 -134.50148010253906 
u62 -198.41673278808594 -224.70411682128906 -87.78717041015625 -227.7777099609375 -173.0119171142578 -322.673828125 -142.00230407714844 -102.95744323730469 -149.98251342773438 -85.2614974975586 -123.19428253173828 -213.69989013671875 -9.25747299194336 -242.30418395996094 -74.61688995361328 -176.21707153320312 -204.49905395507812 -271.0476379394531 -104.24683380126953 -228.14703369140625 -133.0899658203125 -275.5688781738281 -250.57098388671875 -57.29204177856445 -133.03660583496094 -33.19797134399414 -59.69339370727539 -205.99142456054688 -79.34085083007812 -23.220436096191406 -180.61849975585938 -191.99476623535156 
i59 -1485.1365966796875 -665.5787963867188 -408.2198181152344 -1441.498046875 -1723.595458984375 -2286.485107421875 -1949.4942626953125 -723.6638793945312 -853.0523071289062 -1522.6453857421875 -496.37994384765625 -463.574951171875 -1044.6754150390625 -1900.7525634765625 -913.68359375 -1464.7022705078125 -1940.9951171875 -1226.7659912109375 -558.3162841796875 -1556.632080078125 -722.647216796875 -1387.5838623046875 -1073.5740966796875 -1346.2381591796875 -1548.60791015625 -724.9512939453125 -1041.453857421875 -1222.2108154296875 -917.7608642578125 -324.9258117675781 -1083.1356201171875 -1532.5057373046875 
u118 -167.0721893310547 -168.48255920410156 -72.67820739746094 -191.48599243164062 -146.22605895996094 -255.77198791503906 -119.86503601074219 -86.26382446289062 -118.6240463256836 -69.72107696533203 -109.96434783935547 -166.67938232421875 -25.676815032958984 -182.9822540283203 -69.03199005126953 -136.6639404296875 -145.9287109375 -210.5233612060547 -69.71319580078125 -178.62594604492188 -107.20021057128906 -206.40428161621094 -211.90054321289062 -46.34978103637695 -106.24358367919922 -71.28091430664062 -58.7811393737793 -157.28204345703125 -72.44475555419922 -12.444803237915039 -150.41519165039062 -150.3727569580078 
i77 -1534.8023681640625 -678.1649780273438 -443.2024230957031 -1455.2666015625 -1803.144287109375 -2392.662353515625 -2004.2864990234375 -813.3984375 -896.4228515625 -1586.2532958984375 -467.2869873046875 -453.0999450683594 -1138.24755859375 -1922.5396728515625 -929.937255859375 -1512.8616943359375 -1917.6026611328125 -1241.6087646484375 -502.5533447265625 -1667.632568359375 -711.1049194335938 -1438.164306640625 -1094.1873779296875 -1359.0845947265625 -1552.3702392578125 -746.2114868164062 -1050.5487060546875 -1273.568359375 -913.7435302734375 -318.6969909667969 -1109.5477294921875 -1578.9603271484375 
u192 -119.23161315917969 -130.8018035888672 -53.86506652832031 -142.03179931640625 -109.33656311035156 -189.90138244628906 -89.120361328125 -63.07327651977539 -85.69576263427734 -49.29021072387695 -78.58480072021484 -124.51787567138672 -36.26742172241211 -138.77638244628906 -48.56774139404297 -102.88036346435547 -108.06310272216797 -154.7130889892578 -54.2484016418457 -134.83218383789062 -75.53573608398438 -155.3905487060547 -153.86843872070312 -32.88267135620117 -78.7827377319336 -104.08200073242188 -48.4981803894043 -119.04093170166016 -52.3062858581543 -11.020130157470703 -112.62344360351562 -109.4073715209961 
u167 -111.43708801269531 -133.8958282470703 -45.28135681152344 -123.85547637939453 -94.49122619628906 -177.3167266845703 -70.86236572265625 -57.836734771728516 -69.10417938232422 -53.558658599853516 -68.70679473876953 -120.0383529663086 -36.75593185424805 -118.86243438720703 -45.48944854736328 -106.82366180419922 -98.37374114990234 -144.3993682861328 -59.575931549072266 -124.40648651123047 -72.40280151367188 -138.16261291503906 -135.49212646484375 -38.509647369384766 -64.85559844970703 -100.83941650390625 -40.85617446899414 -107.78531646728516 -43.51340866088867 -8.930912017822266 -101.25106811523438 -94.62297821044922 
u497 -83.86643981933594 -86.93864440917969 -40.1959228515625 -100.63199615478516 -77.02821350097656 -132.97279357910156 -67.07281494140625 -43.89212417602539 -59.61880111694336 -34.05278396606445 -54.97971725463867 -85.0237045288086 -44.832332611083984 -100.6523208618164 -33.845603942871094 -70.12545013427734 -75.8647689819336 -109.6327133178711 -34.60762405395508 -93.84862518310547 -52.90958023071289 -106.37165832519531 -110.71124267578125 -22.23136329650879 -56.42697525024414 -137.25808715820312 -40.33828353881836 -83.73865509033203 -41.9853630065918 -8.668327331542969 -78.4254150390625 -77.48729705810547 
u449 -180.46836853027344 -168.95423889160156 -72.13221740722656 -202.70220947265625 -147.17640686035156 -260.5611572265625 -121.81736755371094 -88.617919921875 -121.91133880615234 -71.6449203491211 -105.4390640258789 -168.17315673828125 -25.89907455444336 -189.70960998535156 -69.1587905883789 -140.19110107421875 -149.24508666992188 -223.78553771972656 -72.71818542480469 -183.05426025390625 -107.89077758789062 -210.39405822753906 -213.04608154296875 -45.07426834106445 -104.24874114990234 -67.78128051757812 -61.6168327331543 -155.13458251953125 -76.08958435058594 -16.833173751831055 -160.99685668945312 -152.75990295410156 
u128 -137.92750549316406 -160.74314880371094 -57.644744873046875 -154.200439453125 -117.13212585449219 -221.90455627441406 -93.67263793945312 -71.71150207519531 -92.76177215576172 -64.84136199951172 -83.8442153930664 -146.56207275390625 -28.49831771850586 -151.6742706298828 -56.41230010986328 -132.4444580078125 -126.55101776123047 -181.8867950439453 -72.89317321777344 -152.90487670898438 -90.54869079589844 -170.6032257080078 -168.88812255859375 -45.91142654418945 -80.84624481201172 -78.03524780273438 -46.084407806396484 -132.1221923828125 -53.12235641479492 -10.883218765258789 -123.71408081054688 -120.85411834716797 
u494 -37.85404968261719 -36.55924987792969 -21.433271408081055 -42.75436782836914 -32.65822219848633 -55.18495178222656 -35.214534759521484 -19.44395637512207 -26.557979583740234 -16.804235458374023 -24.938854217529297 -36.721920013427734 -57.73280715942383 -44.02667999267578 -13.167105674743652 -30.226192474365234 -33.089656829833984 -46.772056579589844 -17.110551834106445 -39.815452575683594 -22.943668365478516 -46.81324768066406 -44.6572265625 -9.36107063293457 -28.019718170166016 -176.5255126953125 -24.280712127685547 -34.445899963378906 -23.098567962646484 -5.799911975860596 -34.89956283569336 -35.06975173950195 
u692 -135.9988250732422 -159.23316955566406 -56.59901428222656 -151.19277954101562 -121.97685241699219 -204.8805694580078 -79.40765380859375 -67.78742980957031 -85.47795867919922 -61.157413482666016 -89.96654510498047 -137.63824462890625 -29.918354034423828 -137.8701629638672 -54.122291564941406 -131.567626953125 -125.25322723388672 -167.0970001220703 -76.33781433105469 -138.05892944335938 -88.80757141113281 -170.0302276611328 -154.40951538085938 -58.94235610961914 -75.11963653564453 -90.9239501953125 -38.13747024536133 -128.95428466796875 -58.7244987487793 -12.289982795715332 -116.50967407226562 -121.40145111083984 
u57 -118.73982238769531 -124.96696472167969 -52.49253845214844 -142.9874267578125 -108.35136413574219 -186.48011779785156 -92.08120727539062 -62.577396392822266 -84.91930389404297 -49.08122634887695 -79.27852630615234 -121.66487884521484 -38.702640533447266 -135.7025604248047 -49.510597229003906 -101.98494720458984 -103.35652923583984 -151.4818878173828 -52.76054763793945 -129.8984375 -70.99462890625 -148.6159210205078 -151.44879150390625 -33.369815826416016 -75.9463882446289 -108.25384521484375 -50.27163314819336 -114.69107818603516 -54.11005783081055 -8.898736953735352 -113.21878051757812 -108.31185150146484 
i137 -1326.6749267578125 -648.4959716796875 -396.6042785644531 -1285.90380859375 -1529.32568359375 -2069.3291015625 -1671.821533203125 -695.7503662109375 -790.3877563476562 -1311.4185791015625 -441.72747802734375 -468.1705322265625 -890.951904296875 -1654.0460205078125 -784.5640258789062 -1296.6412353515625 -1630.40234375 -1130.0986328125 -452.6722717285156 -1443.4146728515625 -635.0361938476562 -1275.4979248046875 -1010.95068359375 -1108.5240478515625 -1303.135986328125 -547.1898193359375 -868.3890991210938 -1107.0360107421875 -775.3333129882812 -258.6931457519531 -983.4141845703125 -1350.1031494140625 
u79 -106.49943542480469 -79.11515808105469 -36.841827392578125 -113.21964263916016 -85.16218566894531 -130.03590393066406 -63.03182601928711 -45.30849075317383 -62.787044525146484 -37.15800857543945 -73.31487274169922 -81.87548065185547 -49.592586517333984 -87.93985748291016 -52.60541534423828 -67.2455062866211 -76.9164047241211 -111.3872299194336 -23.459306716918945 -89.84883880615234 -61.60312271118164 -109.05104064941406 -120.146728515625 -27.8574161529541 -64.69986724853516 -149.50250244140625 -43.082454681396484 -82.29413604736328 -60.57033920288086 -14.779641151428223 -81.80679321289062 -82.69322967529297 
u472 -78.44560241699219 -99.88569641113281 -29.676542282104492 -85.23966217041016 -66.56019592285156 -123.28535461425781 -43.83578109741211 -38.3515510559082 -44.87862777709961 -40.45647048950195 -48.83613204956055 -84.33654022216797 -41.739322662353516 -78.89249420166016 -34.013710021972656 -81.34090423583984 -75.68294525146484 -100.1878890991211 -49.3530158996582 -82.18114471435547 -53.990787506103516 -97.11335754394531 -86.9259033203125 -33.69400405883789 -45.50650405883789 -134.22964477539062 -28.509471893310547 -77.97418975830078 -38.006099700927734 -12.506024360656738 -66.29641723632812 -68.39644622802734 
u623 -163.05445861816406 -183.7667999267578 -67.30104064941406 -182.70947265625 -143.39259338378906 -251.63893127441406 -101.97122192382812 -83.48738098144531 -108.75395965576172 -72.45397186279297 -102.1171646118164 -165.03121948242188 -22.803218841552734 -171.68238830566406 -67.66719818115234 -148.67904663085938 -149.02267456054688 -207.6940155029297 -84.5806884765625 -173.17843627929688 -105.93104553222656 -203.28541564941406 -193.72183227539062 -58.57004928588867 -94.56163787841797 -65.64895629882812 -48.76508712768555 -154.88150024414062 -67.0946273803711 -14.46531867980957 -143.3531494140625 -143.3162384033203 
u311 -143.91526794433594 -164.0896759033203 -58.53753662109375 -158.11111450195312 -120.19438171386719 -223.67543029785156 -96.39273071289062 -72.53277587890625 -98.50762176513672 -63.17781448364258 -84.49576568603516 -147.07901000976562 -30.360599517822266 -153.8214874267578 -61.24671173095703 -134.95135498046875 -132.5679931640625 -186.2657012939453 -76.61711120605469 -153.13507080078125 -90.30386352539062 -176.32020568847656 -169.79934692382812 -51.12398910522461 -81.8652572631836 -78.16827392578125 -42.24042892456055 -133.1678466796875 -52.531490325927734 -12.845887184143066 -124.18792724609375 -123.6913070678711 
u385 -106.04472351074219 -112.29115295410156 -50.46928405761719 -122.93549346923828 -95.03953552246094 -165.62843322753906 -81.4267578125 -56.701114654541016 -75.98961639404297 -42.77980422973633 -70.6389389038086 -108.75676727294922 -39.19686508178711 -122.18848419189453 -43.42540740966797 -92.22432708740234 -97.47823333740234 -136.20973205566406 -48.686038970947266 -113.18584442138672 -67.91500854492188 -133.71607971191406 -133.50250244140625 -33.56203079223633 -69.5450668334961 -119.42355346679688 -40.89712905883789 -103.87598419189453 -48.68146896362305 -8.657577514648438 -96.25436401367188 -98.47383880615234 
i76 -1374.0238037109375 -669.541748046875 -386.322998046875 -1326.0361328125 -1593.9930419921875 -2142.39990234375 -1780.3465576171875 -744.753173828125 -797.5905151367188 -1387.6005859375 -446.9338073730469 -431.83685302734375 -928.5949096679688 -1733.4151611328125 -811.6693115234375 -1343.2508544921875 -1714.79833984375 -1141.198486328125 -496.2982177734375 -1490.173583984375 -675.641357421875 -1299.6439208984375 -1021.9537963867188 -1190.1500244140625 -1359.674072265625 -632.1387329101562 -918.0364379882812 -1143.7896728515625 -840.1651000976562 -285.25897216796875 -1025.9921875 -1412.4151611328125 
u749 -207.6560516357422 -221.2985382080078 -86.3104248046875 -243.75784301757812 -173.9353485107422 -342.30987548828125 -159.94528198242188 -107.65269470214844 -148.35369873046875 -86.96163177490234 -134.35203552246094 -226.25595092773438 -5.739391326904297 -253.4792022705078 -77.9887924194336 -177.06393432617188 -204.23080444335938 -284.4580993652344 -96.98626708984375 -232.51443481445312 -133.8629608154297 -272.1940002441406 -271.8896789550781 -55.21677780151367 -146.4304656982422 -36.74576187133789 -74.92474365234375 -213.16732788085938 -92.52569580078125 -22.374788284301758 -197.1431884765625 -202.07383728027344 
u316 -145.46690368652344 -163.81202697753906 -57.62847900390625 -154.93063354492188 -130.0244903564453 -210.32948303222656 -84.84674072265625 -70.72590637207031 -90.33000946044922 -58.667850494384766 -87.1709213256836 -138.44818115234375 -30.222530364990234 -147.1988983154297 -60.223167419433594 -134.07611083984375 -128.34683227539062 -174.8470916748047 -71.39067077636719 -140.97183227539062 -90.91056823730469 -175.88633728027344 -162.96405029296875 -60.44455337524414 -77.97452545166016 -85.85147094726562 -37.635982513427734 -131.7235107421875 -59.523311614990234 -15.104135513305664 -121.6273193359375 -120.52977752685547 
u339 -153.3279266357422 -159.69297790527344 -66.31105041503906 -175.3701171875 -134.0774688720703 -235.1436309814453 -110.97715759277344 -79.67718505859375 -109.29228973388672 -62.02542495727539 -97.27765655517578 -155.25973510742188 -30.626148223876953 -173.3731231689453 -60.71790313720703 -126.28597259521484 -132.00949096679688 -195.5613555908203 -65.71913146972656 -165.3477783203125 -97.47567749023438 -191.51219177246094 -194.6103515625 -43.37589645385742 -98.56340789794922 -79.14187622070312 -55.18430709838867 -146.36886596679688 -63.02865219116211 -13.089372634887695 -138.05947875976562 -137.3070831298828 
u691 -131.5850372314453 -152.8999481201172 -53.92491149902344 -144.66976928710938 -116.98860168457031 -202.09107971191406 -81.650146484375 -65.2655029296875 -83.90245819091797 -59.0738410949707 -82.38690948486328 -132.88934326171875 -29.80990982055664 -137.1346893310547 -53.83466339111328 -126.62291717529297 -120.89034271240234 -165.6206817626953 -71.17544555664062 -135.71771240234375 -84.34439086914062 -162.0988006591797 -152.90628051757812 -53.47880935668945 -74.23921966552734 -91.161865234375 -38.77669143676758 -123.56293487548828 -55.77444076538086 -12.498431205749512 -114.05245971679688 -113.7690658569336 
i125 -1449.3636474609375 -688.2682495117188 -403.5884704589844 -1384.7703857421875 -1702.486083984375 -2258.9462890625 -1922.1856689453125 -794.7635498046875 -839.0054321289062 -1504.1546630859375 -454.89208984375 -402.2861328125 -1030.6307373046875 -1836.6307373046875 -864.912841796875 -1419.7166748046875 -1836.019287109375 -1176.1253662109375 -525.798583984375 -1588.6566162109375 -725.7520141601562 -1343.685302734375 -1068.2135009765625 -1277.4993896484375 -1438.17724609375 -711.0416870117188 -986.5682373046875 -1186.0533447265625 -900.7913208007812 -308.15899658203125 -1074.5570068359375 -1489.54736328125 
u485 -158.9724578857422 -183.3983612060547 -71.88175964355469 -177.16799926757812 -140.3430633544922 -248.18568420410156 -110.36676025390625 -79.75431823730469 -118.02559661865234 -61.77840042114258 -90.60558319091797 -161.24160766601562 -23.849712371826172 -189.1450958251953 -57.45288848876953 -138.03964233398438 -160.58255004882812 -214.74525451660156 -81.585205078125 -176.55801391601562 -103.83306884765625 -220.87281799316406 -194.49313354492188 -51.19650650024414 -103.07186126708984 -67.86676025390625 -44.050045013427734 -157.8736572265625 -60.015377044677734 -22.06925392150879 -140.38113403320312 -149.6703338623047 
u427 -80.60099792480469 -101.32624816894531 -30.407865524291992 -81.51016998291016 -73.67820739746094 -109.70283508300781 -39.26986312866211 -36.315555572509766 -42.21834945678711 -33.628482818603516 -48.0638542175293 -73.8360824584961 -46.09892654418945 -71.86048126220703 -33.733665466308594 -85.6635971069336 -71.6053695678711 -91.88570404052734 -50.25436782836914 -69.4129867553711 -48.815677642822266 -92.78370666503906 -76.1552734375 -46.13419723510742 -36.880191802978516 -138.70733642578125 -19.55398178100586 -69.13651275634766 -36.46622848510742 -11.254339218139648 -61.73647689819336 -62.93477249145508 
u789 -169.45494079589844 -174.4919891357422 -74.20616149902344 -194.37612915039062 -148.47340393066406 -263.24267578125 -117.66722106933594 -87.68499755859375 -117.38249969482422 -71.7612533569336 -111.66248321533203 -172.0186767578125 -22.612285614013672 -187.6948699951172 -67.1632308959961 -140.95028686523438 -153.9097900390625 -217.83058166503906 -75.88209533691406 -185.54666137695312 -108.75630187988281 -214.2446746826172 -215.2183837890625 -49.26810073852539 -107.80774688720703 -68.55044555664062 -58.01235580444336 -164.65350341796875 -73.88831329345703 -12.967035293579102 -154.64962768554688 -152.2812042236328 
u95 -175.64085388183594 -196.2097625732422 -72.45323181152344 -195.60150146484375 -150.93406677246094 -271.44488525390625 -115.697265625 -90.18954467773438 -120.69902801513672 -75.99651336669922 -107.29778289794922 -178.45254516601562 -23.068500518798828 -187.86537170410156 -72.94414520263672 -158.74957275390625 -160.21987915039062 -225.8097686767578 -90.49357604980469 -188.3856201171875 -110.90109252929688 -218.74693298339844 -210.81997680664062 -61.18162155151367 -102.28247833251953 -54.381778717041016 -51.15281295776367 -165.49874877929688 -66.14356231689453 -13.867752075195312 -154.57125854492188 -153.43946838378906 
u384 -199.69541931152344 -220.9351348876953 -89.87677764892578 -228.9703369140625 -174.6781463623047 -321.038330078125 -139.84622192382812 -102.75717163085938 -144.92832946777344 -84.38719940185547 -122.22147369384766 -207.78662109375 -9.520023345947266 -235.5466766357422 -73.0566635131836 -175.4818115234375 -193.0523681640625 -270.6908874511719 -98.09017944335938 -226.04385375976562 -132.0401153564453 -265.4448547363281 -255.4283447265625 -60.464115142822266 -125.97924041748047 -30.878116607666016 -61.50150680541992 -199.50778198242188 -79.16496276855469 -18.67486000061035 -181.53677368164062 -186.3292999267578 
u556 -114.30250549316406 -106.65101623535156 -49.206085205078125 -127.40863800048828 -93.60084533691406 -162.0727081298828 -80.68960571289062 -55.72322463989258 -76.2398910522461 -44.72163772583008 -67.82831573486328 -105.50597381591797 -40.80733871459961 -120.53730010986328 -42.29363250732422 -88.75139617919922 -93.4835433959961 -139.8655548095703 -45.46992874145508 -113.92510223388672 -68.66848754882812 -132.19203186035156 -133.385986328125 -29.222848892211914 -66.8481674194336 -119.06231689453125 -43.08977127075195 -96.90253448486328 -51.20064926147461 -11.828750610351562 -101.50521850585938 -97.28594207763672 
u179 -126.00846862792969 -118.80403137207031 -54.70152282714844 -144.05792236328125 -107.15153503417969 -186.7751007080078 -93.17532348632812 -64.85902404785156 -89.01085662841797 -51.99361038208008 -82.01226043701172 -120.18273162841797 -39.29734420776367 -133.65013122558594 -52.00682830810547 -98.85628509521484 -106.3160629272461 -155.3856964111328 -50.948734283447266 -130.20870971679688 -76.50395202636719 -149.78892517089844 -155.414794921875 -34.3276481628418 -78.7198715209961 -110.73162841796875 -48.901737213134766 -113.62531280517578 -57.38540267944336 -8.73613166809082 -111.84774780273438 -112.6670150756836 
u756 -164.2318878173828 -155.5279083251953 -67.8475341796875 -186.54034423828125 -138.54466247558594 -243.0502471923828 -110.57560729980469 -83.03800964355469 -106.08715057373047 -67.1701431274414 -111.22675323486328 -159.31536865234375 -24.90604019165039 -169.13047790527344 -67.08956146240234 -128.72488403320312 -140.94540405273438 -202.1694793701172 -66.79055786132812 -168.93533325195312 -101.7352294921875 -195.1815948486328 -202.74069213867188 -46.18952560424805 -101.95178985595703 -84.34454345703125 -57.42361831665039 -153.43600463867188 -78.95198059082031 -12.174803733825684 -148.11361694335938 -142.10060119628906 
u151 -136.6598663330078 -103.81660461425781 -46.50439453125 -145.02203369140625 -108.49842834472656 -164.93568420410156 -76.73974609375 -57.75210952758789 -79.14864349365234 -48.17277908325195 -86.71541595458984 -106.3067855834961 -43.1333122253418 -118.12720489501953 -59.667213439941406 -88.71544647216797 -97.14775848388672 -145.47364807128906 -35.58488845825195 -118.86382293701172 -78.10671997070312 -141.78248596191406 -149.58905029296875 -31.928720474243164 -75.35042572021484 -126.14077758789062 -50.84848403930664 -101.94046783447266 -70.4257583618164 -19.272743225097656 -110.90963745117188 -101.1737289428711 
u774 -94.47581481933594 -93.64460754394531 -45.04161071777344 -108.36786651611328 -88.97987365722656 -149.25575256347656 -71.50332641601562 -47.72517776489258 -62.71419906616211 -44.97273635864258 -63.8306999206543 -95.35649871826172 -42.82820510864258 -104.97037506103516 -40.09662628173828 -75.23528289794922 -75.5234603881836 -118.49520111083984 -31.28410530090332 -107.50951385498047 -61.285037994384766 -115.35700988769531 -132.4691162109375 -24.296709060668945 -65.2937240600586 -125.881591796875 -46.274784088134766 -86.79004669189453 -44.314205169677734 -4.589354038238525 -91.93478393554688 -81.25057220458984 
u522 -163.6839141845703 -157.4824676513672 -68.88551330566406 -184.41366577148438 -137.7722930908203 -241.10621643066406 -112.06536865234375 -81.95028686523438 -110.34429168701172 -65.84394073486328 -99.11641693115234 -156.248046875 -26.873607635498047 -174.6640167236328 -63.108802795410156 -129.15231323242188 -138.13760375976562 -204.0170440673828 -65.91477966308594 -169.17877197265625 -101.38436889648438 -195.01234436035156 -198.53915405273438 -42.33991622924805 -97.76856231689453 -77.157958984375 -56.90767288208008 -145.32833862304688 -71.21810150146484 -14.401558876037598 -147.933837890625 -140.2421417236328 
u592 -52.78523254394531 -60.50462341308594 -30.47273063659668 -65.5622329711914 -51.30421829223633 -87.81074523925781 -44.980159759521484 -29.158784866333008 -38.16543197631836 -24.8400936126709 -39.85856246948242 -58.258724212646484 -50.89512252807617 -66.65766143798828 -20.353553771972656 -48.78524398803711 -52.891780853271484 -69.39192962646484 -25.92997932434082 -63.74919891357422 -36.15176773071289 -74.65669250488281 -70.91314697265625 -15.44615364074707 -38.040958404541016 -159.85516357421875 -30.191349029541016 -58.051551818847656 -29.68398666381836 -5.653372287750244 -51.86202621459961 -53.91756057739258 
i20 -1419.9437255859375 -658.970947265625 -380.6135559082031 -1359.552001953125 -1620.93310546875 -2160.168212890625 -1831.5770263671875 -711.3142700195312 -804.1760864257812 -1412.8648681640625 -491.9450988769531 -460.401123046875 -942.139892578125 -1786.7332763671875 -854.6417846679688 -1376.5860595703125 -1786.4000244140625 -1170.6591796875 -529.808349609375 -1481.877685546875 -684.6370239257812 -1334.8804931640625 -1035.2364501953125 -1251.1878662109375 -1437.8529052734375 -648.16015625 -965.1781616210938 -1166.5279541015625 -861.6212158203125 -310.5389709472656 -1040.267822265625 -1453.8399658203125 
i157 -1196.9300537109375 -596.549560546875 -363.8826904296875 -1140.369140625 -1323.7410888671875 -1799.836181640625 -1456.0966796875 -608.3983764648438 -679.4622802734375 -1106.81640625 -440.6962890625 -475.40704345703125 -718.0083618164062 -1450.4920654296875 -683.7769165039062 -1113.975341796875 -1412.6959228515625 -1037.3494873046875 -443.0285949707031 -1293.477783203125 -612.6611938476562 -1158.7840576171875 -966.6326293945312 -933.8932495117188 -1121.2894287109375 -387.3973388671875 -710.768798828125 -994.197265625 -684.2245483398438 -234.68106079101562 -887.6715698242188 -1167.0391845703125 
u100 -121.21705627441406 -140.2367706298828 -47.06224060058594 -126.4078140258789 -108.95225524902344 -170.1573028564453 -66.69879150390625 -57.71530532836914 -71.7613754272461 -48.57817459106445 -72.46073150634766 -113.47795867919922 -36.596248626708984 -117.8183364868164 -51.216331481933594 -116.11653900146484 -104.69164276123047 -141.7177276611328 -62.44264602661133 -111.6747055053711 -75.19577026367188 -143.6345672607422 -129.63214111328125 -56.597171783447266 -61.03641128540039 -105.83444213867188 -29.91097640991211 -107.79163360595703 -50.47317123413086 -13.664066314697266 -98.16342163085938 -97.83477020263672 
i28 -1417.00537109375 -665.7879638671875 -403.0307922363281 -1347.7451171875 -1642.478271484375 -2189.4326171875 -1828.6212158203125 -746.2486572265625 -821.491455078125 -1432.0712890625 -453.7935791015625 -439.0942687988281 -982.4685668945312 -1776.2081298828125 -841.8711547851562 -1378.99609375 -1776.718994140625 -1163.6287841796875 -507.632568359375 -1525.732177734375 -693.6287231445312 -1332.6893310546875 -1043.5030517578125 -1232.8173828125 -1412.8599853515625 -654.6898803710938 -953.9461669921875 -1166.339111328125 -855.6600341796875 -296.5669250488281 -1037.162109375 -1446.5450439453125 
i14 -1493.4202880859375 -669.3705444335938 -412.8028564453125 -1462.910400390625 -1742.219482421875 -2317.754150390625 -1983.102783203125 -728.9465942382812 -867.8389282226562 -1549.65283203125 -492.4237060546875 -458.3372802734375 -1068.9775390625 -1929.5098876953125 -922.344482421875 -1483.3526611328125 -1979.8095703125 -1239.301513671875 -563.6393432617188 -1576.5589599609375 -733.5796508789062 -1394.9171142578125 -1082.948486328125 -1369.1981201171875 -1567.5986328125 -745.4329833984375 -1061.1929931640625 -1239.72998046875 -925.6652221679688 -324.2408447265625 -1093.044189453125 -1553.9332275390625 
u765 -48.96641540527344 -65.17613220214844 -14.600676536560059 -33.70553970336914 -53.42302322387695 -30.089859008789062 -2.399869680404663 -16.09398078918457 -6.724574565887451 -8.927815437316895 -27.661388397216797 -26.6224308013916 -60.24605941772461 -25.922616958618164 -21.668312072753906 -54.16402816772461 -28.254329681396484 -29.96492576599121 -27.133943557739258 -13.924766540527344 -23.860355377197266 -46.93330383300781 -22.82220458984375 -51.53378677368164 -6.080296039581299 -176.84591674804688 -2.397028923034668 -33.135047912597656 -24.949718475341797 -11.466496467590332 -27.097959518432617 -20.81587791442871 
u307 -162.9369354248047 -183.8209991455078 -72.74322509765625 -185.48098754882812 -139.03199768066406 -263.87884521484375 -111.848876953125 -85.80613708496094 -114.09041595458984 -76.25257110595703 -103.28411102294922 -176.05892944335938 -21.281024932861328 -186.26759338378906 -63.28296661376953 -145.99142456054688 -155.39630126953125 -217.3104705810547 -83.57624816894531 -188.985595703125 -110.20390319824219 -214.06666564941406 -207.6358642578125 -48.5322380065918 -101.2032699584961 -58.624027252197266 -53.40092086791992 -163.622802734375 -62.6621208190918 -13.145045280456543 -150.17388916015625 -148.88011169433594 
u380 -165.62684631347656 -186.30723571777344 -68.21945190429688 -185.91921997070312 -145.62364196777344 -255.9225616455078 -103.78509521484375 -84.83078002929688 -110.6256332397461 -73.5610122680664 -103.56555938720703 -167.74026489257812 -22.121028900146484 -174.68589782714844 -68.55033111572266 -150.90032958984375 -151.3841552734375 -210.9912567138672 -85.55696105957031 -176.14016723632812 -107.40536499023438 -206.58253479003906 -197.088623046875 -59.00918960571289 -96.22167205810547 -63.30026626586914 -49.569400787353516 -157.28436279296875 -68.06612396240234 -14.581217765808105 -145.89480590820312 -145.59181213378906 
u758 -143.4394073486328 -149.3227081298828 -52.16767883300781 -147.43521118164062 -116.99449157714844 -213.63856506347656 -89.86453247070312 -60.0340461730957 -93.49095916748047 -60.20228958129883 -84.91971588134766 -142.15774536132812 -25.375232696533203 -155.01576232910156 -66.4391098022461 -122.87468719482422 -133.2548828125 -176.8256378173828 -61.14700698852539 -147.5360107421875 -96.09046936035156 -176.8880157470703 -176.02798461914062 -44.27907180786133 -87.67626190185547 -88.35806274414062 -38.84402084350586 -131.30502319335938 -56.0594596862793 -22.82842445373535 -116.28689575195312 -115.7467269897461 
u458 -33.07237243652344 -36.55802917480469 -20.604108810424805 -40.74527359008789 -33.7120246887207 -54.24482727050781 -35.076534271240234 -18.248796463012695 -24.42568588256836 -15.02776050567627 -24.628826141357422 -33.60348129272461 -58.150447845458984 -39.31250762939453 -16.37189483642578 -31.06356430053711 -30.47188949584961 -41.011131286621094 -13.4617338180542 -36.584129333496094 -20.755863189697266 -41.92243957519531 -44.47576904296875 -10.253206253051758 -25.74429702758789 -178.46389770507812 -25.614849090576172 -32.61829376220703 -21.76845932006836 -3.887516498565674 -32.433101654052734 -33.41048049926758 
u160 -119.80638122558594 -131.4375762939453 -51.639801025390625 -137.13339233398438 -108.33457946777344 -182.56800842285156 -85.72225952148438 -61.39531326293945 -82.49419403076172 -46.3532600402832 -74.81261444091797 -122.5039291381836 -38.639095306396484 -138.9778594970703 -47.398460388183594 -99.42769622802734 -101.67082977294922 -151.62013244628906 -50.63493728637695 -129.61044311523438 -76.79774475097656 -152.39866638183594 -152.59771728515625 -34.212833404541016 -77.81682586669922 -104.2744140625 -46.02518081665039 -117.51422882080078 -50.12636947631836 -13.25018310546875 -107.85650634765625 -105.4885482788086 
u324 -203.4980010986328 -214.8335723876953 -86.86045837402344 -217.31863403320312 -179.9080352783203 -291.69683837890625 -125.49647521972656 -101.80998229980469 -133.1817169189453 -80.2597885131836 -119.21971893310547 -191.9931640625 -17.100414276123047 -215.7418975830078 -77.5324478149414 -177.6446533203125 -179.513427734375 -247.24147033691406 -93.63595581054688 -201.99737548828125 -127.57492065429688 -252.16514587402344 -233.57180786132812 -73.1063003540039 -107.7596206665039 -39.02621841430664 -48.54494857788086 -184.44192504882812 -79.39362335205078 -15.898338317871094 -175.97299194335938 -169.16053771972656 
u787 -136.99363708496094 -150.59877014160156 -43.96281433105469 -141.86434936523438 -106.10575866699219 -213.1264190673828 -80.19540405273438 -62.58635330200195 -85.31868743896484 -59.69939041137695 -68.21863555908203 -139.03448486328125 -32.4818229675293 -139.2732696533203 -61.452674865722656 -118.77135467529297 -121.95397186279297 -179.3800811767578 -71.97036743164062 -148.08480834960938 -85.22427368164062 -158.36631774902344 -162.8841552734375 -47.21352005004883 -82.54630279541016 -86.44064331054688 -42.43025588989258 -123.5865249633789 -45.859066009521484 -23.71042251586914 -114.7445068359375 -103.3901596069336 
u140 -125.53797912597656 -141.78163146972656 -48.35768127441406 -125.95130157470703 -114.28025817871094 -166.5279083251953 -65.18539428710938 -57.98007583618164 -70.03511810302734 -47.81296157836914 -75.2425765991211 -112.5746078491211 -36.66446304321289 -119.52936553955078 -51.49811553955078 -117.5007553100586 -105.34166717529297 -139.5066680908203 -61.1138801574707 -108.72551727294922 -77.16151428222656 -147.10926818847656 -129.3271484375 -61.18240737915039 -60.77878189086914 -107.1005859375 -27.717823028564453 -108.45948028564453 -52.97329330444336 -14.811765670776367 -100.56744384765625 -97.72838592529297 
u277 -145.08143615722656 -166.25245666503906 -57.29351806640625 -156.21920776367188 -131.48939514160156 -213.05140686035156 -83.91015625 -71.54240417480469 -89.4352035522461 -60.95315933227539 -90.50952911376953 -140.43807983398438 -28.541820526123047 -145.93128967285156 -60.437644958496094 -136.90310668945312 -127.88518524169922 -174.57777404785156 -73.52261352539062 -141.67129516601562 -91.98417663574219 -176.1225128173828 -163.23968505859375 -61.91672134399414 -79.01897430419922 -84.81600952148438 -38.64811325073242 -133.42904663085938 -61.52402877807617 -14.294998168945312 -122.58993530273438 -121.86312103271484 
u104 -107.33543395996094 -124.30174255371094 -40.626495361328125 -105.90619659423828 -100.38063049316406 -133.74623107910156 -48.942623138427734 -48.75725173950195 -55.32448959350586 -37.80058670043945 -65.04566192626953 -91.8362045288086 -42.5365104675293 -96.11808013916016 -43.931358337402344 -103.86431121826172 -86.80278778076172 -114.3984603881836 -56.04953384399414 -85.88350677490234 -63.96292495727539 -122.24220275878906 -102.12408447265625 -60.72645950317383 -45.95639419555664 -124.857421875 -21.542964935302734 -91.20557403564453 -46.93943405151367 -13.60024356842041 -82.60400390625 -80.39656829833984 
