4850 32
u4203 -25.56785774230957 -51.954505920410156 -114.9466323852539 -142.31930541992188 -106.45085144042969 -40.50230407714844 -80.1896743774414 -142.55386352539062 -80.91091918945312 -61.005592346191406 -16.628801345825195 -129.22042846679688 -18.23886489868164 -121.02201080322266 -116.74065399169922 -74.04537200927734 -65.44208526611328 -153.35073852539062 -41.95413589477539 -82.05039978027344 -17.776023864746094 -56.00407028198242 -23.84992790222168 -113.77295684814453 -27.7708740234375 -127.16268920898438 -109.36692810058594 -84.28838348388672 -39.79095458984375 -122.49612426757812 -57.51576232910156 -33.13467788696289 
u2158 -21.4257755279541 -46.66993713378906 -120.19334411621094 -140.39476013183594 -112.07984924316406 -35.29997253417969 -81.90107727050781 -144.90390014648438 -81.0646743774414 -64.21562957763672 -16.56580352783203 -130.39352416992188 -24.093650817871094 -126.7674789428711 -123.56269836425781 -76.64361572265625 -66.13799285888672 -157.04708862304688 -38.38267135620117 -85.8067398071289 -17.857358932495117 -58.8620719909668 -20.68796730041504 -121.41475677490234 -26.981828689575195 -133.57229614257812 -114.42010498046875 -86.74382781982422 -34.144432067871094 -125.38813018798828 -61.31139373779297 -31.382219314575195 
u1424 -16.26062774658203 -51.05516052246094 -97.24090576171875 -109.96241760253906 -86.42709350585938 -38.27447509765625 -67.69605255126953 -120.45930480957031 -61.36809539794922 -50.60630798339844 -10.149932861328125 -111.33796691894531 -21.48905372619629 -97.67981719970703 -121.99978637695312 -62.93699645996094 -55.64812088012695 -135.59925842285156 -32.45075225830078 -66.47561645507812 -24.34638023376465 -57.79794692993164 -27.51822853088379 -93.60382080078125 -24.0477294921875 -111.40739440917969 -98.31166076660156 -72.90782928466797 -23.96442222595215 -96.1021957397461 -47.38737869262695 -29.185415267944336 
u3335 -20.154571533203125 -46.40121078491211 -108.34612274169922 -124.77714538574219 -98.54583740234375 -34.027305603027344 -75.13265991210938 -128.54763793945312 -73.74608612060547 -57.2154541015625 -13.469209671020508 -118.29375457763672 -20.290102005004883 -109.63308715820312 -121.74917602539062 -68.11016082763672 -61.53029251098633 -136.1461944580078 -36.624244689941406 -73.56268310546875 -16.923141479492188 -53.43869400024414 -25.6217098236084 -108.50602722167969 -24.013368606567383 -116.870361328125 -100.727294921875 -76.28522491455078 -32.68498229980469 -114.73319244384766 -55.77412414550781 -26.134965896606445 
u3735 -10.906027793884277 -17.202041625976562 -42.43053436279297 -46.140445709228516 -40.27638244628906 -26.68280029296875 -30.182275772094727 -52.3116455078125 -27.759231567382812 -24.5217342376709 -9.927650451660156 -45.82328796386719 -16.41290855407715 -44.913360595703125 -109.97567749023438 -28.196447372436523 -22.46784019470215 -56.555721282958984 -14.356132507324219 -32.11622619628906 -16.158721923828125 -21.53475570678711 -21.652950286865234 -45.12754821777344 -11.084168434143066 -51.488983154296875 -38.73297119140625 -30.723573684692383 -14.449777603149414 -42.36978530883789 -24.962690353393555 -14.103899002075195 
u3688 -20.55607032775879 -43.8922233581543 -93.65518188476562 -114.22319793701172 -86.3594970703125 -34.65606689453125 -63.30305099487305 -117.49723815917969 -67.59027862548828 -49.13752746582031 -14.117238998413086 -112.46437072753906 -16.53432846069336 -104.41824340820312 -118.75910949707031 -60.490333557128906 -49.62689971923828 -135.1479034423828 -35.82077407836914 -70.83196258544922 -22.55301284790039 -47.28004837036133 -22.25503158569336 -95.12249755859375 -22.630130767822266 -106.50950622558594 -96.37584686279297 -74.16606903076172 -31.5242862701416 -100.28605651855469 -44.33797073364258 -30.06639289855957 
u3766 -15.55350399017334 -36.687339782714844 -93.8136215209961 -112.18144989013672 -87.12366485595703 -22.358741760253906 -59.984371185302734 -113.753662109375 -64.90089416503906 -45.629539489746094 -9.728479385375977 -106.54569244384766 -20.171762466430664 -100.8527603149414 -113.20721435546875 -62.64000701904297 -51.25714874267578 -119.62455749511719 -32.144248962402344 -64.98279571533203 -18.311412811279297 -44.609615325927734 -18.724889755249023 -91.87574768066406 -22.46669578552246 -96.62393188476562 -98.07730865478516 -70.03943634033203 -21.0360050201416 -104.08235168457031 -45.5062370300293 -21.978849411010742 
u4534 -18.992244720458984 -37.46076965332031 -89.1656265258789 -100.33901977539062 -82.97002410888672 -33.902164459228516 -62.7855339050293 -109.90458679199219 -60.23893737792969 -49.539031982421875 -13.629596710205078 -101.7242431640625 -22.052001953125 -94.72038269042969 -123.260009765625 -59.450523376464844 -46.51506042480469 -119.49359130859375 -31.497940063476562 -64.67041778564453 -16.64851188659668 -42.96018600463867 -22.84731101989746 -91.99057006835938 -20.865800857543945 -103.79995727539062 -85.6363525390625 -67.22901916503906 -30.32828712463379 -93.09276580810547 -50.63444900512695 -25.090234756469727 
u2021 -21.61184310913086 -33.11565399169922 -93.3519058227539 -112.68473052978516 -86.90266418457031 -23.156707763671875 -69.03877258300781 -108.59844970703125 -70.72644805908203 -51.46727752685547 -10.682487487792969 -114.63079071044922 -15.758285522460938 -102.81216430664062 -117.16323852539062 -61.05693817138672 -52.43376922607422 -117.43254089355469 -33.95309829711914 -62.59422302246094 -11.426142692565918 -34.10018539428711 -19.733675003051758 -96.80126953125 -22.46623992919922 -99.68598937988281 -93.56683349609375 -62.7273063659668 -34.064781188964844 -108.91787719726562 -52.62580490112305 -22.5094051361084 
u1374 -24.09990882873535 -47.48799133300781 -124.36164093017578 -146.12184143066406 -117.81367492675781 -34.25806427001953 -89.40874481201172 -151.39468383789062 -84.96602630615234 -68.42522430419922 -19.546586990356445 -141.10250854492188 -27.164987564086914 -135.8955841064453 -127.87109375 -81.77946472167969 -68.84195709228516 -166.13424682617188 -40.96094512939453 -91.83753204345703 -16.929819107055664 -58.17683029174805 -17.507740020751953 -131.1057891845703 -27.601865768432617 -142.5675048828125 -121.18672180175781 -89.6800308227539 -36.603485107421875 -132.84364318847656 -67.27406311035156 -36.01837158203125 
u1528 -20.75300407409668 -53.294090270996094 -126.92713928222656 -140.66175842285156 -118.10546875 -42.04755783081055 -90.22299194335938 -152.41749572753906 -85.2463150024414 -71.06791687011719 -12.049806594848633 -134.3008270263672 -21.2399959564209 -124.6563491821289 -130.91534423828125 -78.7584228515625 -72.32929229736328 -164.47987365722656 -39.24760055541992 -89.01461791992188 -17.1652889251709 -64.49565887451172 -31.557435989379883 -130.17579650878906 -28.909618377685547 -144.0301513671875 -114.3431625366211 -86.65470123291016 -38.96985626220703 -131.9778289794922 -67.49856567382812 -30.077760696411133 
u2062 -13.301512718200684 -38.18891525268555 -90.9816665649414 -109.48248291015625 -80.41161346435547 -30.132896423339844 -56.6473503112793 -107.99282836914062 -60.91571807861328 -45.548248291015625 -11.650247573852539 -94.94131469726562 -16.739425659179688 -92.44960021972656 -111.07555389404297 -55.8028564453125 -49.871097564697266 -113.05667114257812 -31.433595657348633 -59.31847381591797 -19.13758659362793 -47.41500473022461 -22.12501335144043 -82.40444946289062 -18.705244064331055 -89.9288330078125 -87.34523010253906 -65.82953643798828 -24.3745174407959 -94.91199493408203 -40.53092575073242 -19.76423454284668 
u3227 -22.382410049438477 -41.583778381347656 -84.28644561767578 -105.47022247314453 -79.33416748046875 -35.09571838378906 -59.49893569946289 -106.83726501464844 -62.747764587402344 -45.21532440185547 -14.871030807495117 -103.66109466552734 -15.472515106201172 -97.11683654785156 -113.90354919433594 -53.90241241455078 -46.08708190917969 -127.56663513183594 -35.11247253417969 -68.63774108886719 -24.853612899780273 -45.64692306518555 -20.55744743347168 -88.12112426757812 -22.23636817932129 -96.26631164550781 -86.8445816040039 -69.09642791748047 -29.831357955932617 -91.38638305664062 -38.76057052612305 -29.086015701293945 
u677 -31.6563663482666 -62.44221496582031 -138.3184814453125 -171.8437042236328 -129.59555053710938 -51.026485443115234 -95.85765838623047 -173.5513916015625 -97.97750091552734 -79.10453796386719 -20.639841079711914 -156.1375732421875 -21.318561553955078 -146.91259765625 -125.84548950195312 -88.15629577636719 -75.5144271850586 -188.66268920898438 -51.23067092895508 -103.18400573730469 -19.46392250061035 -70.3957748413086 -26.831462860107422 -139.4138946533203 -32.34821701049805 -156.98855590820312 -132.27151489257812 -104.45999908447266 -48.95317077636719 -145.5408935546875 -70.81773376464844 -37.11357116699219 
u913 -20.569704055786133 -39.31968688964844 -103.66383361816406 -117.11744689941406 -96.75524139404297 -28.160478591918945 -70.87484741210938 -125.09379577636719 -72.0818862915039 -56.146942138671875 -15.426729202270508 -119.26864624023438 -21.385757446289062 -110.19134521484375 -129.5954132080078 -69.93502807617188 -52.54533386230469 -131.537841796875 -34.97978591918945 -73.49768829345703 -13.98607063293457 -42.80485153198242 -21.286157608032227 -106.84110260009766 -25.627737045288086 -119.08668518066406 -99.91340637207031 -77.71350860595703 -34.463417053222656 -110.91368865966797 -57.974365234375 -28.546846389770508 
u3710 -18.06517791748047 -43.59336471557617 -106.28939056396484 -124.50750732421875 -95.43592834472656 -36.00788116455078 -70.40147399902344 -126.76516723632812 -71.75604248046875 -55.35563659667969 -14.680742263793945 -112.37455749511719 -18.01667022705078 -108.83545684814453 -117.97250366210938 -65.0029296875 -58.274200439453125 -134.357421875 -34.94990921020508 -71.47443389892578 -17.42122459411621 -52.32368469238281 -23.68004035949707 -102.03511047363281 -21.0478458404541 -112.6220703125 -98.71817016601562 -74.57705688476562 -32.315086364746094 -109.92291259765625 -51.14175796508789 -24.97844123840332 
u4398 -14.200079917907715 -35.08001708984375 -88.60250854492188 -111.1943130493164 -82.94446563720703 -14.243720054626465 -55.437068939208984 -113.32630920410156 -61.37224578857422 -42.66614532470703 -14.815155029296875 -113.6080551147461 -26.843050003051758 -107.11591339111328 -122.1454086303711 -69.20540618896484 -46.34587860107422 -117.25115966796875 -30.04207992553711 -66.8951644897461 -21.974300384521484 -39.641845703125 -4.8295793533325195 -88.53707885742188 -18.094860076904297 -92.73031616210938 -103.23978424072266 -73.92768096923828 -17.143564224243164 -104.39563751220703 -46.40682601928711 -27.887666702270508 
u3906 -15.839461326599121 -35.66738510131836 -85.75811767578125 -107.34127044677734 -76.6587142944336 -32.422794342041016 -56.4718132019043 -100.96437072753906 -62.46715545654297 -44.971046447753906 -10.964704513549805 -92.01216125488281 -9.868480682373047 -84.61680603027344 -107.59326934814453 -50.867088317871094 -50.40913009643555 -105.72036743164062 -28.940866470336914 -55.068214416503906 -15.031768798828125 -39.24360275268555 -25.779630661010742 -80.2135009765625 -20.27472496032715 -85.58447265625 -79.64312744140625 -57.64529037475586 -29.137765884399414 -93.25442504882812 -38.75558090209961 -16.664121627807617 
u2638 -17.84128761291504 -45.5904655456543 -101.65716552734375 -116.71394348144531 -91.72681427001953 -34.741737365722656 -70.06219482421875 -123.27510070800781 -69.62532806396484 -52.787635803222656 -10.936080932617188 -112.9356689453125 -18.771869659423828 -101.95791625976562 -120.78608703613281 -63.648162841796875 -58.12970733642578 -131.21987915039062 -34.56037139892578 -69.36125946044922 -18.54424476623535 -51.97618103027344 -28.983552932739258 -101.48147583007812 -22.6248836517334 -110.27259826660156 -96.652099609375 -72.4623794555664 -31.212385177612305 -108.37005615234375 -51.4613151550293 -24.313905715942383 
i123 -837.1045532226562 -2374.24365234375 -1075.8546142578125 -2612.921142578125 -1051.3681640625 -1819.3524169921875 -2211.297607421875 -2254.851318359375 -1591.3782958984375 -3265.649169921875 -1612.8369140625 -2655.3291015625 -1046.38671875 -1255.926025390625 -99.79417419433594 -834.7353515625 -2189.2353515625 -2870.107177734375 -3103.498046875 -2106.21923828125 -468.4809875488281 -1729.529052734375 -976.1984252929688 -1607.1951904296875 -782.5475463867188 -661.9453735351562 -1535.7935791015625 -1539.083984375 -3346.42919921875 -2266.138916015625 -2232.970703125 -1115.75439453125 
u3048 -4.9494805335998535 -3.7683792114257812 -6.857718467712402 -7.4894890785217285 -6.829912185668945 -20.39331817626953 -5.392404556274414 -9.194321632385254 -4.941108703613281 -4.869222640991211 -6.489643096923828 -7.401444435119629 -10.32217025756836 -7.240784168243408 -99.6995620727539 -5.054029941558838 -4.379850387573242 -9.501553535461426 -3.908783197402954 -6.0405497550964355 -16.392107009887695 -4.7707414627075195 -20.697433471679688 -7.596344470977783 -4.1368608474731445 -8.738373756408691 -6.368361473083496 -5.4774274826049805 -3.9442501068115234 -6.929203510284424 -4.706494331359863 -3.9591004848480225 
u3865 -11.7531156539917 -36.01123046875 -85.04273223876953 -100.40170288085938 -71.9459228515625 -33.07310104370117 -51.8948860168457 -99.87765502929688 -56.15980529785156 -40.620506286621094 -12.022132873535156 -84.17997741699219 -12.92819595336914 -82.31089782714844 -109.48109436035156 -48.996826171875 -46.05511474609375 -100.88349914550781 -29.05443572998047 -53.282470703125 -17.135881423950195 -43.61148452758789 -23.521333694458008 -75.19467163085938 -13.87917423248291 -80.7718505859375 -76.65400695800781 -58.07523727416992 -25.12681007385254 -87.33833312988281 -36.34360122680664 -15.747781753540039 
i66 -750.8355712890625 -2249.46240234375 -958.8336181640625 -2490.818603515625 -1083.027587890625 -1691.1658935546875 -2090.767822265625 -2122.87255859375 -1504.74365234375 -3101.511474609375 -1548.275634765625 -2544.244873046875 -969.0211791992188 -1184.8380126953125 -96.42166137695312 -876.1099853515625 -2080.0546875 -2713.6767578125 -2915.300537109375 -1939.4713134765625 -448.1358947753906 -1645.509521484375 -959.8075561523438 -1529.435302734375 -734.7767944335938 -627.6555786132812 -1385.4268798828125 -1485.120361328125 -3133.436767578125 -2207.227783203125 -2089.989013671875 -1041.7440185546875 
u799 -15.07483959197998 -47.515140533447266 -90.3023452758789 -104.9364242553711 -77.80355834960938 -37.70054626464844 -61.614620208740234 -114.47943115234375 -56.522178649902344 -43.918739318847656 -10.874244689941406 -105.02730560302734 -24.497140884399414 -93.17729187011719 -120.15963745117188 -57.30653381347656 -50.73911666870117 -127.60154724121094 -34.709476470947266 -61.34832000732422 -24.892244338989258 -56.52568817138672 -28.075395584106445 -88.21148681640625 -19.30657196044922 -101.60472106933594 -95.60872650146484 -70.9412841796875 -23.019853591918945 -91.40576934814453 -43.10636520385742 -26.99388313293457 
u902 -18.171255111694336 -33.32360076904297 -83.96116638183594 -112.530029296875 -81.60496520996094 -14.815573692321777 -58.24637985229492 -103.6661376953125 -64.48799133300781 -44.04682159423828 -15.005199432373047 -111.22135925292969 -17.696067810058594 -101.04765319824219 -119.17803192138672 -65.0936050415039 -50.95433807373047 -113.16862487792969 -27.965133666992188 -62.98303985595703 -20.70775604248047 -28.023090362548828 -6.956019401550293 -87.45027160644531 -22.77010154724121 -88.92500305175781 -95.96827697753906 -65.96775817871094 -25.68089485168457 -104.48798370361328 -45.54738998413086 -26.16920280456543 
u1949 -21.908632278442383 -42.00090026855469 -85.1554946899414 -105.66226959228516 -80.20858001708984 -34.26472473144531 -58.191951751708984 -106.61531066894531 -64.47264099121094 -46.72998046875 -13.340564727783203 -105.90432739257812 -15.643787384033203 -98.43006134033203 -115.17464447021484 -54.423179626464844 -44.838600158691406 -127.92938232421875 -36.01851272583008 -67.55912017822266 -23.2181453704834 -44.8787956237793 -23.688785552978516 -87.60395812988281 -22.284421920776367 -97.59176635742188 -89.91434478759766 -69.83968353271484 -31.121049880981445 -91.40442657470703 -40.26266098022461 -29.5927677154541 
u3142 -15.752394676208496 -40.71435546875 -98.75890350341797 -115.65829467773438 -85.94359588623047 -34.66056823730469 -63.52261734008789 -116.51332092285156 -65.53046417236328 -49.544166564941406 -13.93307113647461 -102.62989044189453 -16.70834732055664 -99.90116882324219 -115.33711242675781 -59.06719207763672 -53.53915786743164 -122.15597534179688 -33.21330261230469 -63.877410888671875 -17.880817413330078 -49.42063522338867 -23.30329704284668 -91.41542053222656 -17.33368682861328 -100.45790100097656 -91.0186996459961 -68.70195007324219 -30.005800247192383 -101.33394622802734 -45.28407669067383 -21.99357795715332 
u3399 -21.164260864257812 -50.13831329345703 -121.24370574951172 -138.36358642578125 -114.23649597167969 -40.08795166015625 -87.6871566772461 -151.59127807617188 -80.70465850830078 -69.29104614257812 -20.36976432800293 -137.3568572998047 -33.600242614746094 -127.58721160888672 -137.2564239501953 -82.42932891845703 -64.5809097290039 -162.73953247070312 -39.51673126220703 -89.44239044189453 -16.068527221679688 -60.26475524902344 -23.8640193939209 -131.0677947998047 -27.78278350830078 -147.79652404785156 -117.04389953613281 -90.6711196899414 -37.9112548828125 -129.09585571289062 -74.18589782714844 -35.635292053222656 
u1372 -22.18962287902832 -42.43121337890625 -102.04601287841797 -116.68034362792969 -96.65496826171875 -33.5485725402832 -72.7113265991211 -125.90225219726562 -73.2121353149414 -58.282432556152344 -14.235857009887695 -119.72620391845703 -19.635881423950195 -109.33512115478516 -127.55606079101562 -68.41261291503906 -53.234886169433594 -137.36544799804688 -35.39067840576172 -75.43085479736328 -15.92972183227539 -46.33100128173828 -24.285966873168945 -108.80645751953125 -24.79655647277832 -120.52381896972656 -98.3692398071289 -77.75645446777344 -35.93498992919922 -110.85710144042969 -57.746707916259766 -27.366376876831055 
u841 -25.2484073638916 -48.996463775634766 -127.3089370727539 -142.31040954589844 -118.47920227050781 -40.863182067871094 -84.53214263916016 -154.34823608398438 -92.83219146728516 -73.33270263671875 -17.105316162109375 -140.72706604003906 -20.59531021118164 -134.44456481933594 -135.30149841308594 -80.8543930053711 -64.60140991210938 -164.90927124023438 -44.598793029785156 -90.12804412841797 -9.809812545776367 -54.79033279418945 -29.312110900878906 -132.8660125732422 -30.717626571655273 -148.16319274902344 -118.16938781738281 -96.97310638427734 -50.43724060058594 -133.24525451660156 -69.07038879394531 -33.03522872924805 
u3657 -24.040945053100586 -42.79119110107422 -103.23857116699219 -121.35210418701172 -96.46749114990234 -34.2667121887207 -70.71772003173828 -125.51956176757812 -74.17450714111328 -55.48625183105469 -15.16197395324707 -119.43611145019531 -16.95592498779297 -113.46646118164062 -122.25912475585938 -66.31519317626953 -54.21516418457031 -141.1078338623047 -36.62651824951172 -77.39543914794922 -18.813282012939453 -47.880977630615234 -19.380205154418945 -106.60325622558594 -24.708553314208984 -118.21102905273438 -99.20642852783203 -77.79740142822266 -34.17285919189453 -109.20201110839844 -51.9813117980957 -30.6908016204834 
u1028 -18.570600509643555 -42.92222213745117 -111.58313751220703 -132.1885986328125 -103.72252655029297 -22.357715606689453 -73.40083312988281 -137.97340393066406 -74.19217681884766 -57.28302764892578 -16.835113525390625 -134.38465881347656 -31.02397918701172 -127.05658721923828 -129.26416015625 -79.77629089355469 -56.35996627807617 -145.65682983398438 -37.74077606201172 -80.84210205078125 -20.25654411315918 -52.886314392089844 -10.66250991821289 -113.75627136230469 -22.894336700439453 -121.87667846679688 -119.81398010253906 -89.21590423583984 -26.47966957092285 -123.96173095703125 -59.990753173828125 -31.45908546447754 
u3560 -17.224578857421875 -40.116363525390625 -100.19568634033203 -119.4690170288086 -93.39863586425781 -24.07288360595703 -64.74197387695312 -122.16525268554688 -67.9798355102539 -49.85163116455078 -12.414352416992188 -114.5213623046875 -23.268280029296875 -109.9173812866211 -117.88056945800781 -67.77813720703125 -53.842288970947266 -129.86862182617188 -34.661502838134766 -70.58091735839844 -20.10860824584961 -48.5147590637207 -16.665029525756836 -98.95915222167969 -22.818885803222656 -105.77622985839844 -104.67244720458984 -76.9974594116211 -23.312490463256836 -109.32245635986328 -49.61516189575195 -25.99092674255371 
u3804 -21.4005126953125 -46.024871826171875 -119.61736297607422 -139.75148010253906 -111.6939468383789 -27.498550415039062 -78.36980438232422 -147.08279418945312 -81.58927154541016 -60.739898681640625 -15.48757553100586 -138.88494873046875 -26.58074951171875 -132.51239013671875 -127.59974670410156 -80.63719177246094 -63.38288879394531 -158.9326934814453 -38.769893646240234 -87.13188171386719 -18.850589752197266 -56.04666519165039 -16.81806182861328 -122.24049377441406 -27.59694480895996 -134.69528198242188 -123.64317321777344 -92.32544708251953 -30.65642738342285 -127.50369262695312 -61.555572509765625 -33.034889221191406 
u4027 -17.436010360717773 -40.97859573364258 -105.4334487915039 -125.84596252441406 -97.02490997314453 -20.337844848632812 -67.85504150390625 -130.11013793945312 -70.70320129394531 -52.793418884277344 -15.678472518920898 -127.67330169677734 -28.17888832092285 -120.72282409667969 -126.32151794433594 -74.92493438720703 -53.50343704223633 -137.4320831298828 -35.96940231323242 -75.45243072509766 -20.249425888061523 -49.389469146728516 -11.038962364196777 -105.9616470336914 -21.541521072387695 -114.07568359375 -114.60648345947266 -84.7542953491211 -24.93412208557129 -116.94041442871094 -55.02743911743164 -29.96329689025879 
u4251 -21.12115478515625 -35.16300964355469 -98.17650604248047 -120.69207763671875 -93.37142944335938 -21.708229064941406 -70.24398803710938 -118.00930786132812 -73.33726501464844 -52.37571716308594 -12.848299026489258 -120.83242797851562 -18.3104248046875 -110.86454772949219 -118.63663482666016 -67.37367248535156 -55.925865173339844 -128.6074981689453 -32.961639404296875 -70.44515228271484 -15.098480224609375 -37.2536506652832 -15.07915210723877 -102.84353637695312 -25.0841007232666 -107.18145751953125 -101.79743194580078 -70.60855102539062 -31.726184844970703 -114.53202056884766 -53.94231033325195 -26.235471725463867 
u2987 -17.923629760742188 -37.01213073730469 -91.69596862792969 -101.41770935058594 -84.9387435913086 -33.63196563720703 -66.05238342285156 -110.28204345703125 -59.05279541015625 -52.51493835449219 -13.457948684692383 -101.155517578125 -26.323974609375 -94.17951965332031 -126.36451721191406 -61.61909484863281 -47.598548889160156 -115.94532775878906 -33.04964065551758 -61.018592834472656 -13.022292137145996 -44.176780700683594 -23.94790267944336 -93.06161499023438 -20.60139274597168 -106.20559692382812 -86.6464614868164 -65.88822174072266 -30.534135818481445 -94.79839324951172 -55.417701721191406 -25.379026412963867 
u835 -21.862836837768555 -46.66791534423828 -116.16399383544922 -131.2001495361328 -108.63108825683594 -36.50092697143555 -84.19428253173828 -141.88409423828125 -77.65367889404297 -65.77780151367188 -16.515625 -132.08070373535156 -29.112464904785156 -121.98683166503906 -134.07492065429688 -77.43478393554688 -61.249595642089844 -152.14991760253906 -39.74251937866211 -80.50045013427734 -14.063699722290039 -55.790000915527344 -23.963415145874023 -122.33544921875 -26.25602912902832 -138.41050720214844 -112.14468383789062 -85.19548797607422 -36.62434387207031 -122.31412506103516 -68.91717529296875 -32.54930114746094 
u2548 -15.168265342712402 -37.31683349609375 -92.93743133544922 -111.25619506835938 -85.5238265991211 -22.08443832397461 -58.00172805786133 -112.74275207519531 -63.08747863769531 -44.366172790527344 -11.29728889465332 -105.08427429199219 -22.351015090942383 -102.29130554199219 -114.98941040039062 -61.68756103515625 -49.88413619995117 -119.03756713867188 -32.59868240356445 -64.72399139404297 -20.51455307006836 -46.51602554321289 -16.995952606201172 -90.70291137695312 -19.89168930053711 -95.69439697265625 -97.93289184570312 -71.81724548339844 -19.641016006469727 -101.20730590820312 -44.398555755615234 -23.333208084106445 
i193 -629.117431640625 -1892.9114990234375 -813.5914916992188 -2070.0205078125 -866.5877685546875 -1474.5523681640625 -1719.001708984375 -1806.6226806640625 -1291.8746337890625 -2556.598388671875 -1265.8453369140625 -2083.2119140625 -849.44140625 -1019.1080322265625 -96.111083984375 -706.443359375 -1752.781005859375 -2298.95068359375 -2433.16650390625 -1653.4814453125 -350.93035888671875 -1354.574462890625 -780.9501342773438 -1267.1595458984375 -606.40576171875 -602.4932861328125 -1191.83740234375 -1215.22705078125 -2616.60888671875 -1779.7703857421875 -1777.902587890625 -856.7601928710938 
u3418 -16.94023895263672 -40.73146438598633 -104.62171173095703 -122.5294189453125 -96.93508911132812 -22.974674224853516 -66.01472473144531 -127.71173095703125 -70.110595703125 -51.68317413330078 -12.054845809936523 -120.0788345336914 -25.471464157104492 -115.15281677246094 -121.17716979980469 -71.79931640625 -54.93827819824219 -135.0294952392578 -34.92880630493164 -74.12764739990234 -20.39109230041504 -50.37361526489258 -15.730901718139648 -102.83168029785156 -23.219867706298828 -110.65544128417969 -109.59329223632812 -81.0733642578125 -23.467348098754883 -113.49236297607422 -52.85957717895508 -26.615957260131836 
u2695 -19.451452255249023 -49.90742874145508 -121.68276977539062 -143.57887268066406 -110.61236572265625 -36.416473388671875 -78.43682098388672 -148.7036590576172 -81.12212371826172 -63.23615264892578 -16.31230354309082 -133.6572723388672 -22.63467788696289 -130.42959594726562 -125.4937744140625 -76.62327575683594 -65.94367218017578 -164.19427490234375 -39.23737716674805 -86.60123443603516 -23.168636322021484 -61.355045318603516 -20.506938934326172 -117.71340942382812 -25.672483444213867 -134.10885620117188 -119.8315200805664 -91.42781829833984 -35.31470489501953 -123.16583251953125 -58.137821197509766 -33.482627868652344 
u3419 -19.050691604614258 -39.10978698730469 -95.86270904541016 -107.35005187988281 -90.29093933105469 -33.14950942993164 -68.67417907714844 -116.66212463378906 -63.42973327636719 -55.37193298339844 -14.794149398803711 -108.67491149902344 -25.41394805908203 -99.9998550415039 -128.10438537597656 -65.12240600585938 -50.59828567504883 -123.74420166015625 -32.219017028808594 -66.79469299316406 -14.610429763793945 -44.68828201293945 -23.365102767944336 -98.32728576660156 -22.998035430908203 -112.62673950195312 -91.09063720703125 -70.96239471435547 -31.65743064880371 -99.5760498046875 -57.271697998046875 -26.619993209838867 
u3138 -19.79641342163086 -43.276893615722656 -96.71102905273438 -114.99340057373047 -84.68316650390625 -32.12168502807617 -65.16898345947266 -115.86048889160156 -67.1543960571289 -47.22998046875 -11.374340057373047 -110.51297760009766 -15.447021484375 -99.92189025878906 -115.38764953613281 -60.16071319580078 -53.88508605957031 -124.72616577148438 -36.1978645324707 -64.12458038330078 -18.335256576538086 -47.240352630615234 -24.337345123291016 -91.99551391601562 -20.69667625427246 -101.96136474609375 -93.72222900390625 -69.01062774658203 -30.616926193237305 -102.75740814208984 -46.017765045166016 -25.061147689819336 
u4636 -24.837438583374023 -40.146976470947266 -111.06324005126953 -134.0751495361328 -106.0113296508789 -26.6364803314209 -82.24757385253906 -132.72390747070312 -82.00200653076172 -62.33300018310547 -14.904024124145508 -135.1747589111328 -20.52530288696289 -123.93743896484375 -124.42770385742188 -74.67179870605469 -62.33690643310547 -145.9373016357422 -37.52659606933594 -79.49064636230469 -13.738313674926758 -43.584938049316406 -17.381437301635742 -118.7363510131836 -27.621021270751953 -125.14773559570312 -111.6134262084961 -78.8697280883789 -38.29905700683594 -127.08175659179688 -63.00422286987305 -29.7008113861084 
u4160 -23.96282386779785 -42.855220794677734 -114.14382934570312 -135.32327270507812 -108.2370376586914 -30.222278594970703 -81.13878631591797 -137.88223266601562 -81.38053131103516 -61.85576629638672 -15.535728454589844 -133.71388244628906 -23.323413848876953 -125.31967163085938 -124.97314453125 -75.48509216308594 -64.45181274414062 -150.84657287597656 -37.60090637207031 -82.94046783447266 -15.69210433959961 -49.6994743347168 -19.08582878112793 -120.28034973144531 -26.686201095581055 -128.64112854003906 -113.28179168701172 -82.01790618896484 -35.96808624267578 -125.49064636230469 -62.51996612548828 -30.81337547302246 
u1630 -16.582849502563477 -31.600505828857422 -77.55974578857422 -88.49369812011719 -74.14920806884766 -32.02738571166992 -56.38212966918945 -97.57807922363281 -52.12544250488281 -44.70283508300781 -14.959991455078125 -88.01823425292969 -23.17409324645996 -83.63491821289062 -121.83488464355469 -52.92889404296875 -43.26161193847656 -106.16926574707031 -23.649574279785156 -59.14466094970703 -16.7761287689209 -38.45057678222656 -20.977190017700195 -84.31814575195312 -19.10711669921875 -95.6190185546875 -73.91809844970703 -58.51200485229492 -25.406862258911133 -80.28974151611328 -45.51028060913086 -25.14586067199707 
u3528 -19.938650131225586 -44.339988708496094 -116.74674224853516 -142.7154083251953 -108.3372573852539 -26.742374420166016 -77.5325698852539 -146.51348876953125 -78.62163543701172 -58.20269775390625 -18.95631217956543 -138.15565490722656 -29.034015655517578 -130.71095275878906 -127.52587890625 -82.1104736328125 -65.65242767333984 -158.60662841796875 -36.1135139465332 -88.13786315917969 -23.0321044921875 -55.99853515625 -8.983896255493164 -118.8128662109375 -26.652496337890625 -128.68899536132812 -121.98355102539062 -91.60045623779297 -29.239137649536133 -127.89645385742188 -58.705223083496094 -34.823856353759766 
u1815 -21.619949340820312 -41.317474365234375 -89.51607513427734 -108.43155670166016 -83.55680847167969 -32.785953521728516 -61.11806869506836 -112.56120300292969 -65.5981216430664 -47.218597412109375 -14.900362014770508 -107.42471313476562 -17.10326385498047 -101.17437744140625 -118.05667877197266 -58.668373107910156 -47.855438232421875 -128.79603576660156 -34.47736740112305 -70.59638214111328 -22.251394271850586 -44.82553482055664 -21.114219665527344 -93.01025390625 -23.12065315246582 -102.45712280273438 -90.3359603881836 -72.25137329101562 -31.2541446685791 -96.32047271728516 -43.75632095336914 -29.2244930267334 
u3625 -10.639365196228027 -23.19869613647461 -52.150535583496094 -60.96709060668945 -48.01234436035156 -25.81972885131836 -37.62734603881836 -65.24772644042969 -36.436279296875 -28.3337459564209 -9.903989791870117 -60.66326904296875 -15.328742980957031 -53.8028564453125 -111.8956069946289 -34.26177215576172 -31.278226852416992 -69.84126281738281 -16.096431732177734 -37.459571838378906 -17.958101272583008 -27.076160430908203 -22.60225486755371 -55.04656982421875 -13.952866554260254 -61.09898376464844 -50.95503234863281 -39.00996780395508 -16.525156021118164 -56.05900955200195 -27.938833236694336 -15.966974258422852 
u100 -22.293676376342773 -44.79829406738281 -115.92493438720703 -129.46713256835938 -108.96783447265625 -33.131813049316406 -81.81547546386719 -142.19284057617188 -78.91730499267578 -65.28305053710938 -18.1395206451416 -129.97018432617188 -28.996246337890625 -121.03315734863281 -135.6653289794922 -80.83467102050781 -60.36770248413086 -145.60916137695312 -37.19087600708008 -82.69817352294922 -9.903290748596191 -50.17726135253906 -22.845373153686523 -123.82005310058594 -29.15229606628418 -137.23785400390625 -108.74369049072266 -86.60183715820312 -38.571266174316406 -123.82390594482422 -70.46635437011719 -31.90232276916504 
u2655 -22.08580207824707 -44.94807434082031 -113.5287094116211 -126.99974060058594 -106.78585815429688 -33.77227783203125 -81.4376449584961 -139.6985321044922 -76.71117401123047 -64.2830810546875 -17.551708221435547 -127.97514343261719 -30.310909271240234 -119.1073989868164 -134.8285675048828 -79.36630249023438 -60.335060119628906 -144.36798095703125 -36.85810852050781 -80.07970428466797 -11.024581909179688 -50.90656280517578 -22.753211975097656 -121.63423156738281 -28.573911666870117 -135.25221252441406 -107.6165542602539 -84.89642333984375 -37.307777404785156 -121.09046936035156 -70.14920043945312 -31.489961624145508 
i134 -530.4260864257812 -1581.92578125 -717.7059326171875 -1804.9227294921875 -795.1788940429688 -1202.2222900390625 -1490.26416015625 -1553.8189697265625 -1084.4876708984375 -2168.90283203125 -1071.7265625 -1822.9652099609375 -691.00732421875 -888.7066650390625 -114.35356140136719 -640.5889892578125 -1473.3465576171875 -1972.6141357421875 -2038.610595703125 -1405.071044921875 -301.406494140625 -1154.5201416015625 -652.0106811523438 -1125.7706298828125 -519.2844848632812 -520.675537109375 -1023.2410888671875 -1053.1353759765625 -2186.675048828125 -1583.7996826171875 -1492.532470703125 -742.5250854492188 
u356 -21.147438049316406 -42.7971076965332 -105.52632141113281 -122.51128387451172 -99.73320007324219 -32.05775833129883 -75.339599609375 -132.34188842773438 -75.08202362060547 -60.12376403808594 -16.811609268188477 -123.73749542236328 -24.757221221923828 -112.88009643554688 -130.09312438964844 -72.83804321289062 -55.76154327392578 -138.59423828125 -35.08778762817383 -77.10796356201172 -12.101570129394531 -46.41006088256836 -25.124290466308594 -114.06828308105469 -26.704416275024414 -126.69010925292969 -102.09776306152344 -81.21305084228516 -38.017555236816406 -115.81879425048828 -62.9050407409668 -30.051881790161133 
u2927 -12.628859519958496 -36.18947982788086 -71.41034698486328 -84.73733520507812 -62.56501770019531 -29.833486557006836 -50.61668014526367 -91.74290466308594 -47.765708923339844 -36.197052001953125 -11.231300354003906 -84.93748474121094 -19.74631118774414 -72.98274230957031 -116.41761016845703 -47.98114013671875 -43.60619354248047 -98.42538452148438 -23.510082244873047 -49.69249725341797 -20.454580307006836 -40.985477447509766 -24.10466194152832 -72.24249267578125 -17.951297760009766 -83.94204711914062 -73.62976837158203 -56.234806060791016 -20.310964584350586 -74.62935638427734 -37.4308967590332 -22.800485610961914 
u659 -19.32598876953125 -38.22020721435547 -89.92124938964844 -104.35879516601562 -83.62615203857422 -29.735321044921875 -62.771297454833984 -109.59883117675781 -63.407936096191406 -48.94169616699219 -13.007394790649414 -106.9371566772461 -18.4298038482666 -97.03399658203125 -122.22200012207031 -60.437355041503906 -46.27381134033203 -120.05516052246094 -33.26844024658203 -63.500091552734375 -17.13497543334961 -40.10972213745117 -21.408510208129883 -91.38705444335938 -21.585018157958984 -102.10671997070312 -90.21002960205078 -68.89329528808594 -30.843156814575195 -97.5102310180664 -49.27705764770508 -24.954431533813477 
u140 -17.998022079467773 -45.72758483886719 -109.89352416992188 -131.15394592285156 -100.0566177368164 -33.87571716308594 -71.32171630859375 -132.7186737060547 -73.97718811035156 -56.79307556152344 -15.370355606079102 -118.85826873779297 -20.71783447265625 -115.85956573486328 -119.26405334472656 -68.350341796875 -60.42148208618164 -143.8715362548828 -36.827213287353516 -76.76446533203125 -20.536893844604492 -56.1499137878418 -21.95989227294922 -106.503662109375 -23.36671257019043 -118.34977722167969 -107.36573028564453 -81.4197006225586 -30.476213455200195 -113.31674194335938 -52.20138931274414 -28.2712459564209 
u2 -13.017949104309082 -36.90331268310547 -74.45665740966797 -87.53633117675781 -66.36940002441406 -30.73507308959961 -52.762088775634766 -95.79034423828125 -49.528648376464844 -38.47496032714844 -11.647815704345703 -87.80073547363281 -19.7393798828125 -76.24395751953125 -117.75918579101562 -50.227569580078125 -44.43657684326172 -102.20133972167969 -24.002487182617188 -52.329124450683594 -20.436031341552734 -41.455291748046875 -24.01615333557129 -75.49658203125 -18.85324478149414 -87.48255920410156 -75.91059875488281 -58.296993255615234 -21.58051872253418 -77.88732147216797 -39.148494720458984 -23.386476516723633 
u1811 -19.720691680908203 -43.18511962890625 -96.66583251953125 -115.04987335205078 -84.86210632324219 -32.192054748535156 -65.1809310913086 -115.91946411132812 -67.1716079711914 -47.157386779785156 -11.240753173828125 -110.37247467041016 -15.427064895629883 -99.89708709716797 -115.41828155517578 -60.14459991455078 -53.74574661254883 -124.77197265625 -36.219940185546875 -64.11772918701172 -18.515369415283203 -47.17061233520508 -24.41145133972168 -92.09677124023438 -20.55861473083496 -102.06228637695312 -93.94694519042969 -68.91764068603516 -30.5165958404541 -102.83975982666016 -45.97664260864258 -25.38328742980957 
u2209 -17.365983963012695 -37.3477783203125 -89.9217529296875 -101.50929260253906 -82.91899871826172 -30.36980628967285 -62.62888717651367 -108.88127136230469 -61.52092742919922 -49.69012451171875 -12.687944412231445 -103.93064880371094 -21.75912094116211 -94.435546875 -124.5151596069336 -59.70171356201172 -46.14966583251953 -117.0003662109375 -31.912004470825195 -62.34251403808594 -15.395057678222656 -42.238929748535156 -23.385751724243164 -91.95169067382812 -21.011089324951172 -102.89151000976562 -87.82069396972656 -67.2906494140625 -29.04109001159668 -95.48680877685547 -50.63136672973633 -24.877931594848633 
u4317 -21.626806259155273 -39.36307144165039 -78.33992767333984 -98.29948425292969 -74.25281524658203 -34.32326889038086 -55.39622116088867 -100.09310913085938 -57.921630859375 -42.214759826660156 -13.933755874633789 -98.45101928710938 -16.617551803588867 -92.13140869140625 -113.03246307373047 -50.64159393310547 -43.01734161376953 -122.84010314941406 -33.251956939697266 -65.83379364013672 -27.2595272064209 -44.63774490356445 -19.927940368652344 -82.35726928710938 -20.939512252807617 -90.24311828613281 -82.51415252685547 -65.7131576538086 -27.088300704956055 -84.74700164794922 -35.5667839050293 -28.53351402282715 
u2625 -24.295713424682617 -44.103370666503906 -116.07339477539062 -139.54881286621094 -109.8379898071289 -28.47260284423828 -83.84070587158203 -140.3853759765625 -82.99406433105469 -62.785911560058594 -15.41981029510498 -139.11279296875 -21.958080291748047 -128.46865844726562 -124.62985229492188 -78.16419219970703 -65.55606842041016 -154.65960693359375 -38.22059631347656 -83.88585662841797 -16.870288848876953 -48.65810012817383 -16.684478759765625 -121.757080078125 -28.581350326538086 -130.0840606689453 -117.07781219482422 -83.68122100830078 -36.94428253173828 -129.94314575195312 -63.2595100402832 -32.05189514160156 
u3816 -19.622207641601562 -45.26773452758789 -110.91120910644531 -129.2781219482422 -101.77903747558594 -32.65348434448242 -73.86910247802734 -133.59902954101562 -74.02572631835938 -56.52508544921875 -13.765520095825195 -119.7486801147461 -21.030529022216797 -115.26390075683594 -118.67359161376953 -70.68782806396484 -61.917198181152344 -142.79208374023438 -35.23036575317383 -77.03487396240234 -18.41154670715332 -54.525516510009766 -21.444555282592773 -109.11874389648438 -25.200529098510742 -120.45469665527344 -106.05162048339844 -80.0426025390625 -30.183351516723633 -115.13228607177734 -54.25925064086914 -28.6793155670166 
u1351 -16.889448165893555 -41.28730010986328 -103.52611541748047 -122.37899780273438 -95.99407958984375 -25.07384490966797 -66.35246276855469 -126.29911804199219 -69.61072540283203 -51.780975341796875 -13.007696151733398 -117.33488464355469 -24.70968246459961 -113.19184875488281 -119.85032653808594 -69.86061096191406 -55.06504440307617 -134.1155242919922 -35.01492691040039 -73.3187255859375 -20.343421936035156 -51.01041793823242 -16.919286727905273 -102.24293518066406 -22.549579620361328 -109.92459106445312 -107.27436828613281 -79.45503997802734 -23.771066665649414 -111.83930206298828 -51.74113082885742 -26.800390243530273 
u4152 -18.131452560424805 -34.25865936279297 -85.8622055053711 -96.73883056640625 -81.8165512084961 -33.82609939575195 -61.72457504272461 -106.95584106445312 -57.261077880859375 -49.437950134277344 -14.990612030029297 -96.32957458496094 -23.70600128173828 -91.99505615234375 -123.68051147460938 -57.40288543701172 -46.34368896484375 -116.25462341308594 -27.22292709350586 -64.46300506591797 -16.085166931152344 -41.95246124267578 -22.467992782592773 -91.76974487304688 -20.617591857910156 -104.94412231445312 -80.97115325927734 -63.51029586791992 -28.2766170501709 -87.90982055664062 -49.84360122680664 -26.89396095275879 
u50 -12.274809837341309 -53.466896057128906 -94.85005187988281 -112.14035034179688 -79.59213256835938 -37.34312057495117 -64.87395477294922 -120.0487060546875 -55.91309356689453 -43.948387145996094 -11.324239730834961 -110.94722747802734 -24.67068099975586 -95.90538024902344 -119.37571716308594 -60.624725341796875 -53.50035858154297 -133.68861389160156 -37.18741226196289 -60.68708801269531 -29.09099006652832 -60.82680892944336 -27.39826011657715 -87.35350036621094 -20.560731887817383 -102.1187744140625 -104.90010070800781 -75.24005126953125 -21.337663650512695 -96.00251007080078 -41.834529876708984 -28.83011817932129 
u4014 -16.695249557495117 -46.63795852661133 -101.07459259033203 -115.44966888427734 -89.99615478515625 -34.112220764160156 -69.9843978881836 -121.34339904785156 -68.92829895019531 -52.708587646484375 -10.159257888793945 -113.97041320800781 -19.247825622558594 -100.10194396972656 -122.63768768310547 -62.611671447753906 -57.91194534301758 -129.93585205078125 -35.46929168701172 -66.99723815917969 -19.172513961791992 -53.35377502441406 -30.340267181396484 -100.55485534667969 -22.433359146118164 -108.31951904296875 -98.30726623535156 -72.73324584960938 -29.831392288208008 -108.1641616821289 -50.67593765258789 -22.743928909301758 
u1970 -17.034923553466797 -41.96958923339844 -102.19585418701172 -120.42196655273438 -91.36442565917969 -35.18095397949219 -67.15930938720703 -121.6519775390625 -69.21257781982422 -52.823158264160156 -13.827981948852539 -107.52142333984375 -16.767105102539062 -104.0347900390625 -116.08766174316406 -62.125152587890625 -56.15715789794922 -128.7649688720703 -33.72581100463867 -68.01590728759766 -17.580839157104492 -50.52095413208008 -23.68702507019043 -97.04972839355469 -20.456897735595703 -106.75816345214844 -94.90394592285156 -71.62945556640625 -31.12068748474121 -106.04026794433594 -47.99917221069336 -23.512590408325195 
u3720 -21.485183715820312 -32.542144775390625 -93.97832489013672 -117.16136932373047 -89.02830505371094 -21.229812622070312 -68.40453338623047 -111.81327819824219 -71.0733642578125 -50.2608642578125 -13.542716979980469 -116.79891967773438 -16.91990089416504 -106.5434799194336 -116.74857330322266 -63.42012023925781 -54.50328826904297 -122.53985595703125 -32.28998947143555 -68.14596557617188 -14.684167861938477 -34.94058609008789 -13.681917190551758 -98.8572769165039 -24.166072845458984 -100.71922302246094 -96.56079864501953 -66.32964324951172 -31.13913917541504 -110.77600860595703 -50.81523513793945 -24.628995895385742 
u4207 -23.535476684570312 -46.966705322265625 -117.56410217285156 -133.9653778076172 -110.8488540649414 -35.430572509765625 -84.78947448730469 -144.8993682861328 -80.93451690673828 -66.86761474609375 -16.933069229125977 -135.41810607910156 -27.243999481201172 -125.21088409423828 -133.7049560546875 -79.22500610351562 -62.04541015625 -154.39532470703125 -39.52244186401367 -83.3426284790039 -13.151954650878906 -53.66389083862305 -24.21808433532715 -125.21397399902344 -28.2098331451416 -140.3297576904297 -113.14754486083984 -87.83258819580078 -39.564781188964844 -125.16743469238281 -68.98995971679688 -33.37088394165039 
u2740 -21.54673957824707 -46.66068649291992 -107.07415771484375 -125.39016723632812 -96.82670593261719 -36.587703704833984 -75.29492950439453 -127.70384216308594 -74.10161590576172 -56.321044921875 -13.215324401855469 -118.70947265625 -17.524526596069336 -109.08287048339844 -120.05877685546875 -65.23291778564453 -60.17557907104492 -136.94969177246094 -38.8759765625 -72.56993865966797 -16.812000274658203 -53.725379943847656 -26.739809036254883 -106.23001098632812 -22.678144454956055 -115.96224975585938 -100.51741027832031 -74.67268371582031 -34.07493591308594 -113.27627563476562 -53.70170974731445 -26.349058151245117 
u4494 -18.500213623046875 -40.560794830322266 -102.53113555908203 -112.86465454101562 -94.6642074584961 -35.449951171875 -72.6856689453125 -124.16046142578125 -65.57479858398438 -58.282798767089844 -15.195392608642578 -112.07966613769531 -30.369285583496094 -105.46385192871094 -130.14892578125 -68.71614837646484 -52.89522171020508 -131.20675659179688 -35.15272903442383 -70.22730255126953 -12.27250862121582 -51.01157760620117 -24.54090690612793 -105.54887390136719 -22.749500274658203 -121.22494506835938 -96.3532943725586 -74.38211822509766 -32.47705078125 -104.74622344970703 -61.78952407836914 -29.50803565979004 
u4016 -19.071054458618164 -50.45518112182617 -118.08808898925781 -131.18740844726562 -109.110595703125 -40.73582458496094 -83.23872375488281 -143.6990203857422 -77.12671661376953 -65.32003784179688 -12.653949737548828 -125.35792541503906 -22.51561737060547 -117.65264892578125 -128.18113708496094 -75.19221496582031 -66.37435913085938 -154.92027282714844 -36.65609359741211 -83.63163757324219 -18.597898483276367 -60.6779670715332 -28.802522659301758 -119.62450408935547 -26.12570571899414 -134.82315063476562 -107.7334976196289 -81.6932144165039 -35.925262451171875 -121.5538101196289 -62.9267463684082 -30.947656631469727 
u773 -22.881166458129883 -36.4040641784668 -104.40247344970703 -125.19512939453125 -98.12104797363281 -24.896663665771484 -76.57894897460938 -123.58699035644531 -77.321533203125 -57.366973876953125 -13.281379699707031 -126.57463073730469 -18.479080200195312 -115.45223999023438 -120.88017272949219 -68.9912109375 -58.64164733886719 -134.96029663085938 -35.1982536315918 -73.70061492919922 -12.631031036376953 -39.88749313354492 -17.350160598754883 -109.86209106445312 -25.720006942749023 -114.92234802246094 -104.09097290039062 -72.09066009521484 -35.93708038330078 -119.4241943359375 -58.27970504760742 -26.938993453979492 
u1690 -13.395709037780762 -37.57579803466797 -89.51220703125 -107.46949768066406 -79.00323486328125 -30.26456069946289 -55.66244888305664 -105.01809692382812 -59.443443298339844 -44.484710693359375 -12.193826675415039 -91.11550903320312 -17.039716720581055 -90.85836791992188 -110.05560302734375 -53.449462890625 -49.622623443603516 -110.46875 -31.419950485229492 -58.32423400878906 -18.88503074645996 -48.129493713378906 -22.5467586517334 -81.05043029785156 -17.392398834228516 -88.34658813476562 -84.55360412597656 -63.83461380004883 -23.14719581604004 -91.88086700439453 -39.04829025268555 -19.80387306213379 
u4097 -15.67504596710205 -40.570518493652344 -97.40641021728516 -114.9849624633789 -85.42990112304688 -35.71437072753906 -63.6689567565918 -115.11671447753906 -65.09855651855469 -50.04461669921875 -14.028074264526367 -100.35890197753906 -16.243833541870117 -97.52354431152344 -114.11044311523438 -58.08369445800781 -53.38922882080078 -119.92681884765625 -32.909027099609375 -63.14105224609375 -16.96824836730957 -49.26182174682617 -24.03484535217285 -90.6300048828125 -17.711118698120117 -98.98416137695312 -88.5384750366211 -67.04108428955078 -30.047555923461914 -100.68106079101562 -45.06645584106445 -21.214284896850586 
u2456 -14.707547187805176 -35.948551177978516 -92.7221908569336 -111.44866943359375 -86.18746185302734 -15.74423885345459 -57.91300582885742 -115.029052734375 -63.36272430419922 -44.87419891357422 -11.021228790283203 -113.91828155517578 -25.48603630065918 -106.08847045898438 -119.92648315429688 -68.32073974609375 -47.14942169189453 -118.12127685546875 -32.33693313598633 -65.5136489868164 -19.90215492248535 -42.2784538269043 -11.52476978302002 -91.57487487792969 -20.466917037963867 -95.37359619140625 -104.19515991210938 -74.89895629882812 -18.610002517700195 -107.20635223388672 -48.30607986450195 -23.68247413635254 
u4309 -26.89893913269043 -52.86344909667969 -116.28337860107422 -143.45045471191406 -107.16725158691406 -40.22422790527344 -81.79113006591797 -142.73060607910156 -83.47290802001953 -62.3023681640625 -16.276155471801758 -133.41111755371094 -17.952308654785156 -121.22029876708984 -118.76470947265625 -73.50907897949219 -66.43159484863281 -155.56211853027344 -43.52755355834961 -83.47359466552734 -17.31471824645996 -58.06624221801758 -26.303579330444336 -116.25396728515625 -29.61195945739746 -128.10350036621094 -110.79228973388672 -86.90777587890625 -40.8779296875 -125.03069305419922 -58.55917739868164 -29.45548439025879 
u4521 -21.316864013671875 -40.72624206542969 -79.77015686035156 -100.46673583984375 -74.85539245605469 -35.905887603759766 -55.76876449584961 -102.94931030273438 -59.8966064453125 -43.50518798828125 -14.60285758972168 -99.70199584960938 -15.464752197265625 -93.84620666503906 -113.09410095214844 -50.30902099609375 -42.98295593261719 -125.13887023925781 -34.101497650146484 -67.70491790771484 -26.635562896728516 -46.4309196472168 -21.38094139099121 -84.27330017089844 -20.483951568603516 -92.37112426757812 -83.89776611328125 -67.32090759277344 -27.5554256439209 -85.68245697021484 -35.550777435302734 -28.32407569885254 
u4574 -20.33040428161621 -42.59977722167969 -113.28361511230469 -133.37269592285156 -105.79312133789062 -22.539085388183594 -75.53560638427734 -138.1424102783203 -75.75341033935547 -56.081703186035156 -15.441993713378906 -133.57180786132812 -26.75762939453125 -126.48614501953125 -125.84527587890625 -79.55711364746094 -59.96086883544922 -147.18182373046875 -36.07551193237305 -81.36168670654297 -20.593233108520508 -50.95197677612305 -10.635843276977539 -115.48954772949219 -25.78630828857422 -123.22198486328125 -117.87317657470703 -86.68771362304688 -26.572656631469727 -125.33698272705078 -58.805599212646484 -30.854990005493164 
u3531 -21.242589950561523 -27.390090942382812 -83.41537475585938 -103.33990478515625 -77.37310791015625 -18.631942749023438 -61.64175796508789 -94.85317993164062 -67.71525573730469 -45.963905334472656 -7.143093109130859 -106.94105529785156 -10.502300262451172 -92.84272766113281 -113.2654800415039 -54.753265380859375 -47.79547882080078 -102.09889221191406 -30.609588623046875 -52.14825439453125 -8.760309219360352 -24.068668365478516 -20.47189712524414 -84.67416381835938 -21.951709747314453 -86.78987121582031 -85.02117919921875 -54.06413650512695 -34.12683868408203 -101.04657745361328 -47.82466506958008 -17.904314041137695 
u2080 -15.3678617477417 -49.08171081542969 -96.5350341796875 -114.51599884033203 -85.88713836669922 -36.25822448730469 -68.33755493164062 -122.23286437988281 -63.099365234375 -49.481040954589844 -12.725723266601562 -113.30640411376953 -23.015928268432617 -98.76863098144531 -122.31964111328125 -62.79008483886719 -56.470027923583984 -134.04205322265625 -33.5970458984375 -66.39586639404297 -24.38095474243164 -56.064029693603516 -26.91316795349121 -96.18513488769531 -22.592382431030273 -109.10379028320312 -100.57527923583984 -75.5329818725586 -26.749982833862305 -101.57386779785156 -47.95090103149414 -27.82060432434082 
u2772 -16.59891128540039 -38.79814529418945 -98.2237777709961 -119.6961669921875 -92.0517578125 -19.63550567626953 -63.135066986083984 -122.75178527832031 -67.22977447509766 -48.161338806152344 -13.48897933959961 -118.94288635253906 -26.617206573486328 -112.57286071777344 -121.13200378417969 -71.59508514404297 -52.91231918334961 -129.20184326171875 -32.79276657104492 -71.65415954589844 -21.277048110961914 -45.8570671081543 -11.053528785705566 -98.61294555664062 -21.663732528686523 -104.68736267089844 -108.28884887695312 -78.06578826904297 -20.831789016723633 -111.00244903564453 -50.82963943481445 -28.309850692749023 
u2826 -21.385717391967773 -28.65216064453125 -85.81565856933594 -105.73161315917969 -79.23701477050781 -20.082199096679688 -65.1496810913086 -99.16474914550781 -69.5579605102539 -46.368934631347656 -8.293451309204102 -108.85745239257812 -11.126171112060547 -96.40076446533203 -111.42697143554688 -54.05901336669922 -50.45859909057617 -108.57310485839844 -30.877758026123047 -57.51911163330078 -9.140575408935547 -29.306751251220703 -19.33892250061035 -91.14730834960938 -21.984376907348633 -91.83763122558594 -87.13253784179688 -55.63785934448242 -32.290306091308594 -103.477783203125 -48.14512252807617 -19.782873153686523 
u2464 -18.005109786987305 -44.29615783691406 -109.4626693725586 -128.13931274414062 -99.36931610107422 -33.76957702636719 -71.32723236083984 -131.86212158203125 -73.0466079711914 -56.36614227294922 -14.75389289855957 -117.33744812011719 -21.641149520874023 -114.77766418457031 -120.05293273925781 -68.52600860595703 -59.26560592651367 -141.3809356689453 -35.93864822387695 -75.93018341064453 -19.355899810791016 -55.55295944213867 -21.632638931274414 -106.80696105957031 -22.426759719848633 -117.69131469726562 -105.07420349121094 -80.06873321533203 -30.23598289489746 -113.07730865478516 -53.10782241821289 -27.198347091674805 
u4431 -20.832639694213867 -51.069332122802734 -125.460205078125 -148.32005310058594 -114.75164794921875 -36.765323638916016 -81.70126342773438 -153.7820281982422 -84.52611541748047 -65.4853744506836 -16.542160034179688 -139.92947387695312 -22.091190338134766 -134.8519744873047 -126.80412292480469 -79.27543640136719 -68.30381774902344 -170.56198120117188 -39.69242858886719 -89.7934341430664 -22.744421005249023 -61.60591125488281 -21.107576370239258 -122.95912170410156 -27.50213623046875 -140.54490661621094 -124.3121566772461 -94.54981231689453 -37.720375061035156 -127.7747573852539 -60.416011810302734 -35.179344177246094 
u3468 -23.903165817260742 -50.41415023803711 -113.42333984375 -136.58058166503906 -104.10171508789062 -36.769554138183594 -79.23506927490234 -136.84152221679688 -80.17017364501953 -61.970985412597656 -16.35276222229004 -131.2736358642578 -20.594436645507812 -119.23336791992188 -123.66858673095703 -72.446533203125 -63.019527435302734 -148.48915100097656 -42.04576110839844 -79.48540496826172 -17.340845108032227 -55.310672760009766 -25.83038902282715 -114.01103210449219 -26.552841186523438 -123.72012329101562 -110.43205261230469 -84.24308776855469 -37.822776794433594 -122.2923812866211 -58.760318756103516 -27.67342185974121 
u4055 -16.29194450378418 -38.696556091308594 -84.1673812866211 -95.80783081054688 -77.09005737304688 -33.687740325927734 -61.04856491088867 -105.31539916992188 -55.30194091796875 -45.5186767578125 -11.33283805847168 -97.20362854003906 -20.67490005493164 -86.08299255371094 -119.75247955322266 -55.15571594238281 -48.41670608520508 -115.84666442871094 -26.903976440429688 -59.95610046386719 -19.646848678588867 -46.02110290527344 -24.720375061035156 -86.24626159667969 -21.68975067138672 -99.78321838378906 -83.01626586914062 -63.00600814819336 -24.79021644592285 -86.2567367553711 -44.3893928527832 -25.680940628051758 
u160 -19.076345443725586 -47.00578308105469 -113.84982299804688 -134.8438262939453 -104.47090148925781 -34.52465057373047 -74.59471893310547 -137.43359375 -76.31295013427734 -59.273277282714844 -16.454723358154297 -122.57054138183594 -22.49899673461914 -120.47418212890625 -120.9792251586914 -71.11656188964844 -62.801429748535156 -149.61260986328125 -37.6690559387207 -80.74187469482422 -19.929859161376953 -58.50053024291992 -22.064807891845703 -112.03926086425781 -23.577470779418945 -124.79879760742188 -110.46324920654297 -83.84171295166016 -31.02166175842285 -116.54390716552734 -54.81089401245117 -30.660566329956055 
u4102 -20.499345779418945 -39.35575866699219 -95.48059844970703 -108.37019348144531 -89.39381408691406 -30.328876495361328 -67.51436614990234 -116.47430419921875 -67.3269271850586 -52.88487243652344 -13.274957656860352 -111.28215789794922 -21.426109313964844 -101.53034210205078 -126.1989974975586 -65.1563949584961 -49.6451416015625 -122.97793579101562 -34.53677749633789 -66.74546813964844 -14.438739776611328 -41.81766128540039 -23.455171585083008 -99.21199035644531 -23.000307083129883 -109.11219787597656 -92.31334686279297 -71.78441619873047 -33.057159423828125 -103.97296905517578 -54.99418258666992 -25.74277687072754 
u1640 -16.538835525512695 -39.36552047729492 -86.21681213378906 -99.72456359863281 -71.6501235961914 -30.31106185913086 -57.6960563659668 -100.59341430664062 -58.435462951660156 -38.94062042236328 -8.815027236938477 -96.21514892578125 -17.568288803100586 -85.67929077148438 -111.8405532836914 -49.839027404785156 -49.8458251953125 -105.55935668945312 -32.91982650756836 -53.76744842529297 -17.251340866088867 -47.987606048583984 -27.833377838134766 -82.00163269042969 -15.295376777648926 -85.51435852050781 -83.04266357421875 -58.99265670776367 -23.539133071899414 -91.26007843017578 -39.550716400146484 -18.316377639770508 
u2487 -19.347448348999023 -41.633235931396484 -105.70870971679688 -127.12236022949219 -98.7806396484375 -22.217498779296875 -70.48706817626953 -130.0597686767578 -71.92826080322266 -54.08533477783203 -15.909828186035156 -127.15599060058594 -27.296865463256836 -119.30390930175781 -124.86885833740234 -75.09478759765625 -54.99439239501953 -137.3023681640625 -37.159149169921875 -75.87903594970703 -19.115766525268555 -49.08430099487305 -11.87398910522461 -107.33516693115234 -23.706832885742188 -114.12077331542969 -112.10205078125 -84.16287994384766 -27.05577278137207 -118.85098266601562 -56.043792724609375 -29.33197593688965 
u3535 -24.426366806030273 -39.5446662902832 -110.05237579345703 -132.85791015625 -104.94129943847656 -26.197677612304688 -81.25543212890625 -131.47219848632812 -81.27952575683594 -61.46958923339844 -14.631433486938477 -133.93185424804688 -20.3806209564209 -122.78286743164062 -124.06372833251953 -73.92086791992188 -61.6991081237793 -144.3714599609375 -37.2130241394043 -78.52826690673828 -13.705371856689453 -42.94043731689453 -17.398672103881836 -117.36653137207031 -27.27436065673828 -123.77482604980469 -110.64771270751953 -77.9771499633789 -37.95482635498047 -125.98326110839844 -62.307865142822266 -29.6297550201416 
u3843 -23.69283103942871 -47.300445556640625 -120.88591003417969 -135.08226013183594 -114.0787124633789 -35.05840301513672 -86.59107208251953 -148.66665649414062 -81.55500030517578 -68.39948272705078 -18.670055389404297 -135.91249084472656 -31.395559310913086 -127.3173828125 -137.00912475585938 -83.98471069335938 -64.37796020507812 -154.94065856933594 -38.49399948120117 -86.49331665039062 -11.154645919799805 -54.28235626220703 -22.636247634887695 -129.89271545410156 -29.9785099029541 -144.8531036376953 -114.09699249267578 -90.20530700683594 -39.555564880371094 -127.90744018554688 -73.9366683959961 -34.096866607666016 
u1402 -17.081026077270508 -40.11351776123047 -103.88484954833984 -123.16778564453125 -97.3050765991211 -19.929080963134766 -66.6915512084961 -128.7832489013672 -70.48017883300781 -51.907508850097656 -12.510019302368164 -124.99027252197266 -27.199447631835938 -117.06534576416016 -123.66899108886719 -74.97457885742188 -53.53409957885742 -134.4578857421875 -34.89339828491211 -74.40898132324219 -19.899986267089844 -47.815155029296875 -12.922232627868652 -104.38064575195312 -23.226749420166016 -110.92672729492188 -112.93456268310547 -82.25384521484375 -22.929880142211914 -117.03900146484375 -54.90048599243164 -27.51616096496582 
u1682 -18.436479568481445 -41.86199188232422 -95.40975952148438 -111.86266326904297 -87.07965850830078 -32.729549407958984 -67.50069427490234 -114.47447204589844 -66.92369079589844 -50.580909729003906 -11.434995651245117 -106.94307708740234 -16.392318725585938 -96.00621795654297 -118.19422912597656 -59.590362548828125 -55.23443603515625 -121.08406066894531 -33.056434631347656 -64.3102035522461 -16.99786949157715 -46.714500427246094 -26.86404800415039 -95.51376342773438 -22.125032424926758 -103.14117431640625 -90.1109848022461 -67.0755844116211 -30.3743953704834 -103.33464050292969 -48.88418960571289 -22.60027503967285 
u4384 -17.623348236083984 -46.084007263183594 -99.41194152832031 -110.5775146484375 -87.92497253417969 -36.51784133911133 -68.18523406982422 -117.2828369140625 -67.631591796875 -51.22418212890625 -11.608024597167969 -108.35902404785156 -19.231063842773438 -97.07978057861328 -122.08858489990234 -58.5167236328125 -57.754066467285156 -125.21696472167969 -35.606502532958984 -66.55889892578125 -18.005403518676758 -53.743621826171875 -31.58809471130371 -98.66729736328125 -19.392925262451172 -104.74838256835938 -92.4869613647461 -69.40355682373047 -29.994966506958008 -103.22936248779297 -49.21937942504883 -21.468782424926758 
u3690 -22.762920379638672 -42.62254333496094 -96.71575927734375 -115.32466888427734 -91.09137725830078 -33.444644927978516 -67.86910247802734 -119.72569274902344 -69.590087890625 -52.51897430419922 -15.320670127868652 -116.34650421142578 -18.906795501708984 -108.46000671386719 -121.80169677734375 -63.54661560058594 -51.08619689941406 -137.19264221191406 -36.58220291137695 -74.05852508544922 -21.94011878967285 -47.0082893371582 -20.51651382446289 -100.82428741455078 -23.541685104370117 -111.46990966796875 -97.39572143554688 -75.74984741210938 -32.53948974609375 -104.03018188476562 -49.13656234741211 -30.552480697631836 
u1192 -24.138673782348633 -42.62299728393555 -115.6435775756836 -137.72389221191406 -108.71129608154297 -26.732624053955078 -83.07740020751953 -139.482421875 -82.21675872802734 -61.590675354003906 -15.433087348937988 -138.70118713378906 -22.042076110839844 -127.607421875 -125.27041625976562 -78.18995666503906 -65.58573150634766 -152.15721130371094 -36.30788040161133 -83.4888687133789 -15.915172576904297 -47.415706634521484 -14.783585548400879 -121.37590789794922 -28.678020477294922 -129.41465759277344 -115.91127014160156 -83.5400619506836 -36.267478942871094 -129.10240173339844 -63.21273422241211 -31.278417587280273 
u3797 -16.82472038269043 -41.52129364013672 -101.4110107421875 -120.95661926269531 -92.86077880859375 -31.29175567626953 -65.73636627197266 -121.73829650878906 -68.66340637207031 -51.90570068359375 -12.579902648925781 -108.9410400390625 -19.659669876098633 -105.62579345703125 -115.43504333496094 -63.651458740234375 -56.08538055419922 -129.80075073242188 -34.23440933227539 -69.38043975830078 -19.42021369934082 -51.50699234008789 -22.006174087524414 -97.36964416503906 -22.263277053833008 -106.0133056640625 -98.8610610961914 -73.87039184570312 -26.697839736938477 -106.58106231689453 -48.00404739379883 -24.10154914855957 
u2117 -21.591588973999023 -41.15605163574219 -89.09117126464844 -107.95310974121094 -83.07614135742188 -32.696434020996094 -60.82053756713867 -111.85467529296875 -65.24187469482422 -47.05975341796875 -14.895448684692383 -106.89157104492188 -16.75542640686035 -100.53707885742188 -117.9051513671875 -58.44568634033203 -47.567100524902344 -128.11309814453125 -34.334205627441406 -70.09002685546875 -22.18482208251953 -44.526878356933594 -21.082448959350586 -92.25442504882812 -23.189050674438477 -101.69468688964844 -89.83223724365234 -72.02393341064453 -31.29461669921875 -95.8642349243164 -43.281864166259766 -28.760934829711914 
u2862 -22.217458724975586 -38.17314147949219 -100.53823852539062 -125.9164810180664 -95.52040100097656 -24.556751251220703 -71.78509521484375 -121.442626953125 -74.04485321044922 -54.75630187988281 -15.187675476074219 -123.53106689453125 -19.125350952148438 -113.75123596191406 -120.31369018554688 -69.37522888183594 -56.7528076171875 -132.53912353515625 -35.14206314086914 -71.95157623291016 -16.55571746826172 -39.03177261352539 -15.22042465209961 -104.1709976196289 -25.011913299560547 -109.88768005371094 -103.9511489868164 -73.6833267211914 -34.17955017089844 -116.12834930419922 -54.78862380981445 -28.064977645874023 
u1428 -21.9544734954834 -31.752159118652344 -93.39601135253906 -112.6923599243164 -86.3428726196289 -24.329017639160156 -69.5733413696289 -108.38685607910156 -72.17904663085938 -50.96238708496094 -9.616792678833008 -112.91547393798828 -13.175334930419922 -101.71516418457031 -114.04718017578125 -58.64280700683594 -53.92003631591797 -117.90036010742188 -32.10441970825195 -62.462806701660156 -9.748602867126465 -34.79997634887695 -20.471952438354492 -97.50825500488281 -23.409387588500977 -101.04252624511719 -91.30299377441406 -60.99771499633789 -34.14360809326172 -108.1075210571289 -51.24381637573242 -21.62590980529785 
u1235 -5.486853122711182 -8.280677795410156 -15.427969932556152 -18.951784133911133 -13.80388069152832 -20.402774810791016 -11.627939224243164 -20.992494583129883 -11.303253173828125 -8.69605827331543 -7.021749496459961 -19.561279296875 -11.31589126586914 -16.255325317382812 -101.99462127685547 -11.309667587280273 -10.556791305541992 -21.637968063354492 -5.657936096191406 -11.640509605407715 -17.42823600769043 -9.527813911437988 -20.769176483154297 -16.392730712890625 -5.922135353088379 -18.649934768676758 -16.021421432495117 -12.919352531433105 -6.399133682250977 -17.41366958618164 -8.837834358215332 -6.581136703491211 
u910 -14.771815299987793 -53.96084976196289 -99.52200317382812 -114.79317474365234 -84.64273834228516 -38.22788619995117 -67.7688980102539 -126.3856201171875 -62.105430603027344 -48.05377197265625 -9.895734786987305 -116.21744537353516 -24.543230056762695 -99.74644470214844 -123.55603790283203 -64.39443969726562 -57.93347930908203 -139.67852783203125 -35.5110969543457 -66.09117889404297 -26.23836898803711 -63.031654357910156 -29.117265701293945 -95.41410827636719 -22.825862884521484 -112.90888977050781 -105.031494140625 -77.88054656982422 -22.975969314575195 -99.65948486328125 -46.77243423461914 -30.003435134887695 
u1824 -9.963141441345215 -13.135971069335938 -33.03821563720703 -35.287113189697266 -31.86412239074707 -24.778724670410156 -23.66715431213379 -39.58003234863281 -21.215667724609375 -19.6427059173584 -8.704833984375 -35.34747314453125 -15.289608001708984 -34.943328857421875 -106.93435668945312 -22.384855270385742 -16.94539451599121 -42.87405014038086 -11.969341278076172 -24.339744567871094 -15.56736946105957 -16.179187774658203 -21.037551879882812 -34.0050048828125 -9.634705543518066 -39.5145263671875 -29.992597579956055 -23.38712501525879 -11.926301956176758 -32.41519546508789 -20.303953170776367 -11.44035530090332 
u1093 -16.555593490600586 -38.73619842529297 -88.78720092773438 -101.07757568359375 -80.95626831054688 -34.28367233276367 -61.361148834228516 -111.14131164550781 -59.47138214111328 -46.90509033203125 -13.005678176879883 -101.16844177246094 -21.4028263092041 -92.18310546875 -121.99419403076172 -57.44109344482422 -49.36286163330078 -120.51904296875 -28.10997772216797 -64.21050262451172 -18.910131454467773 -46.45779800415039 -24.781347274780273 -91.60617065429688 -20.615495681762695 -104.77023315429688 -86.81130981445312 -66.5323715209961 -26.312334060668945 -90.85665130615234 -46.98238754272461 -26.12795066833496 
u2194 -19.472002029418945 -37.756229400634766 -83.62159729003906 -104.98462677001953 -74.66229248046875 -24.080703735351562 -50.80263900756836 -113.78047180175781 -68.50446319580078 -37.23529052734375 -12.152303695678711 -107.87631225585938 -20.849111557006836 -98.30059814453125 -122.55643463134766 -61.1715087890625 -46.44390869140625 -115.19174194335938 -34.54133224487305 -66.35612487792969 -13.454710006713867 -41.64469528198242 -16.16462516784668 -86.68914794921875 -23.48291015625 -97.21273803710938 -96.00952911376953 -77.41651153564453 -24.194795608520508 -94.49944305419922 -43.651371002197266 -28.580778121948242 
u1522 -24.188810348510742 -41.13853454589844 -111.08931732177734 -130.36289978027344 -104.59098815917969 -29.49565315246582 -81.71121978759766 -131.5546875 -79.7157974243164 -62.689659118652344 -13.581342697143555 -132.01138305664062 -21.42035675048828 -120.78653717041016 -124.91034698486328 -73.4546890258789 -60.75276184082031 -142.9702911376953 -38.787872314453125 -76.455810546875 -12.311620712280273 -44.495296478271484 -21.352319717407227 -116.11011505126953 -25.938392639160156 -124.16983032226562 -109.2867202758789 -76.36640930175781 -39.12721252441406 -123.87629699707031 -63.69676208496094 -29.219057083129883 
u2396 -20.484880447387695 -47.3184928894043 -121.84268951416016 -142.09384155273438 -111.2483901977539 -33.42137145996094 -80.38825225830078 -149.08258056640625 -84.5281982421875 -64.05634307861328 -15.181127548217773 -139.41195678710938 -24.433589935302734 -129.11868286132812 -131.46461486816406 -77.96009826660156 -66.1014404296875 -162.5846710205078 -37.3564567565918 -86.5010986328125 -15.632789611816406 -57.99045944213867 -24.124242782592773 -125.69271087646484 -29.0430908203125 -143.82421875 -121.70622253417969 -90.91690826416016 -36.51811218261719 -126.27788543701172 -63.89850616455078 -35.716087341308594 
u2833 -16.485654830932617 -49.68110275268555 -120.85398864746094 -134.6647491455078 -106.4603042602539 -28.234432220458984 -81.50287628173828 -146.12008666992188 -68.30823516845703 -57.307159423828125 -15.085371017456055 -130.1332550048828 -26.840251922607422 -120.78594970703125 -122.73725891113281 -82.30097961425781 -68.78529357910156 -148.44007873535156 -30.18651008605957 -80.7380599975586 -23.200035095214844 -59.60047912597656 -10.901532173156738 -114.77365112304688 -26.100847244262695 -126.00033569335938 -114.96231842041016 -86.78595733642578 -24.78643226623535 -123.48871612548828 -59.40213394165039 -28.282957077026367 
i53 -861.2295532226562 -2465.458740234375 -1054.746337890625 -2742.138427734375 -1038.901123046875 -1939.4879150390625 -2257.790283203125 -2342.651123046875 -1708.1904296875 -3357.1142578125 -1691.116943359375 -2710.9208984375 -1057.6597900390625 -1293.1629638671875 -63.88564682006836 -906.4722900390625 -2312.978759765625 -2977.56005859375 -3210.016357421875 -2199.09619140625 -484.0978698730469 -1798.7064208984375 -999.4464721679688 -1636.3963623046875 -776.8131713867188 -726.2499389648438 -1545.142822265625 -1572.757080078125 -3478.312255859375 -2297.771484375 -2351.193359375 -1161.7845458984375 
u2932 -15.436518669128418 -47.57185363769531 -90.41847229003906 -104.96804809570312 -78.18754577636719 -37.814064025878906 -61.70621871948242 -114.39884948730469 -56.757965087890625 -44.206878662109375 -11.116973876953125 -105.18196105957031 -24.288244247436523 -93.65168762207031 -119.98672485351562 -57.447509765625 -50.6877326965332 -128.18568420410156 -34.857723236083984 -61.750732421875 -25.074296951293945 -56.1024284362793 -28.058120727539062 -88.55738830566406 -19.43391990661621 -101.68988037109375 -95.55628204345703 -71.02657318115234 -23.31401252746582 -91.49884796142578 -42.93313980102539 -27.132902145385742 
u1151 -21.30486488342285 -27.110698699951172 -82.98846435546875 -102.79498291015625 -76.91413879394531 -18.367721557617188 -61.54819107055664 -94.35011291503906 -67.65899658203125 -45.721649169921875 -7.021425247192383 -106.64305877685547 -10.083354949951172 -92.57485961914062 -112.88365936279297 -54.46672058105469 -47.949562072753906 -101.80418395996094 -30.168712615966797 -51.92176055908203 -8.57186508178711 -23.794910430908203 -20.392013549804688 -84.198486328125 -21.858251571655273 -86.47332763671875 -84.66814422607422 -53.76986312866211 -34.251556396484375 -100.61864471435547 -47.50960159301758 -17.619279861450195 
u92 -17.779329299926758 -43.058876037597656 -105.39846801757812 -123.390380859375 -94.35098266601562 -35.775794982910156 -69.735107421875 -125.44419860839844 -71.0527572631836 -54.653602600097656 -14.389631271362305 -111.25350952148438 -17.583667755126953 -107.57893371582031 -117.56974792480469 -64.2504653930664 -57.76615905761719 -132.92153930664062 -34.45085906982422 -70.49464416503906 -17.410627365112305 -51.808353424072266 -23.619293212890625 -100.85957336425781 -20.853862762451172 -111.17083740234375 -97.65128326416016 -73.74918365478516 -32.3299674987793 -109.11872863769531 -50.318843841552734 -24.61094093322754 
u2924 -7.897566318511963 -10.693161010742188 -24.187353134155273 -26.58616828918457 -22.985780715942383 -23.512470245361328 -17.65117835998535 -29.778825759887695 -15.906471252441406 -14.366247177124023 -8.263185501098633 -26.0697021484375 -13.307682037353516 -25.48382568359375 -104.73408508300781 -16.192808151245117 -13.39625358581543 -32.12995529174805 -9.298885345458984 -17.963966369628906 -16.5792236328125 -13.183568000793457 -21.131549835205078 -25.392868041992188 -7.280686378479004 -29.162813186645508 -22.347761154174805 -17.771814346313477 -8.949579238891602 -24.113162994384766 -14.322186470031738 -8.851690292358398 
u445 -24.288156509399414 -43.561767578125 -117.16096496582031 -138.1093292236328 -110.61812591552734 -31.147029876708984 -84.91094970703125 -140.2493896484375 -83.55355072021484 -64.85604858398438 -16.926727294921875 -137.35606384277344 -22.154247283935547 -127.44003295898438 -126.38467407226562 -76.81387329101562 -65.3786392211914 -153.71592712402344 -38.76293182373047 -85.17170715332031 -15.074002265930176 -49.36643981933594 -18.5134220123291 -123.55598449707031 -27.72354507446289 -131.17044067382812 -114.61437225341797 -83.0418930053711 -38.630279541015625 -129.39048767089844 -64.52305603027344 -30.853147506713867 
u3100 -20.766881942749023 -30.014934539794922 -88.28270721435547 -108.52843475341797 -82.46717834472656 -19.828598022460938 -65.46248626708984 -102.48887634277344 -68.49541473388672 -48.091453552246094 -9.762950897216797 -110.79315948486328 -14.207809448242188 -98.50005340576172 -114.72731018066406 -58.45221710205078 -50.28532791137695 -110.69371032714844 -31.667802810668945 -59.066062927246094 -11.264217376708984 -29.906330108642578 -17.88777732849121 -91.65811157226562 -22.52456283569336 -93.00143432617188 -89.90735626220703 -59.27718734741211 -32.603599548339844 -105.6533203125 -49.73637008666992 -21.127939224243164 
u3473 -22.832181930541992 -38.04155731201172 -99.92678833007812 -120.6039047241211 -94.20927429199219 -27.07171630859375 -73.56086730957031 -119.35684204101562 -75.49297332763672 -55.174583435058594 -11.702653884887695 -121.40227508544922 -16.64056968688965 -109.62167358398438 -119.24271392822266 -65.74500274658203 -55.64784622192383 -129.3399200439453 -36.66094207763672 -69.12789154052734 -13.593667030334473 -39.872005462646484 -21.851497650146484 -105.32958221435547 -24.67871856689453 -108.68484497070312 -100.28669738769531 -70.70028686523438 -35.77924346923828 -116.3587875366211 -55.09701919555664 -23.827112197875977 
u3810 -23.023048400878906 -47.77020263671875 -107.89909362792969 -131.4591522216797 -98.65995025634766 -34.64673614501953 -75.52314758300781 -132.0711669921875 -74.6578140258789 -55.089195251464844 -15.746166229248047 -123.0558090209961 -20.741695404052734 -113.81661224365234 -117.03251647949219 -69.91326141357422 -61.92898941040039 -142.41860961914062 -38.988948822021484 -75.96672821044922 -17.544952392578125 -53.21499252319336 -22.2003116607666 -107.511962890625 -25.3879451751709 -118.29690551757812 -104.6415786743164 -78.9764633178711 -34.472373962402344 -115.97676849365234 -54.24563980102539 -31.037935256958008 
u1456 -18.051982879638672 -39.73815155029297 -90.82648468017578 -102.24485778808594 -83.864990234375 -36.024169921875 -64.5434799194336 -112.64155578613281 -58.93424987792969 -49.655906677246094 -14.375782012939453 -102.48283386230469 -25.586511611938477 -95.43833923339844 -124.0468521118164 -59.694725036621094 -50.75730895996094 -125.48092651367188 -29.009519577026367 -66.47864532470703 -19.98706817626953 -49.238868713378906 -23.562162399291992 -96.08958435058594 -20.59832000732422 -108.88720703125 -88.0228271484375 -68.15300750732422 -26.37856101989746 -91.69337463378906 -49.652286529541016 -27.90860939025879 
u4147 -19.323060989379883 -45.377506256103516 -110.7347183227539 -129.9903106689453 -102.19478607177734 -34.486106872558594 -73.48242950439453 -133.51629638671875 -75.05691528320312 -58.025352478027344 -14.493890762329102 -118.01177978515625 -21.34332275390625 -114.96967315673828 -118.82984161376953 -69.9273681640625 -61.57530212402344 -142.79019165039062 -36.31541061401367 -77.43895721435547 -17.758541107177734 -55.51028823852539 -23.298585891723633 -109.18931579589844 -24.641653060913086 -120.042236328125 -104.94770050048828 -80.03418731689453 -31.19545555114746 -115.16651153564453 -54.8259391784668 -27.461091995239258 
u4364 -15.47274112701416 -40.12936782836914 -98.66468048095703 -115.57392883300781 -86.3789291381836 -33.77423858642578 -63.2974739074707 -116.17657470703125 -65.03646850585938 -49.40702819824219 -13.608808517456055 -102.34725952148438 -17.56937026977539 -99.51576232910156 -114.89408874511719 -59.25402069091797 -53.20588302612305 -121.67816162109375 -33.335105895996094 -63.92530059814453 -18.199377059936523 -49.78728103637695 -22.99721908569336 -91.49214172363281 -18.1633358001709 -99.77827453613281 -91.43470001220703 -69.37557220458984 -29.072641372680664 -101.84358978271484 -45.3827018737793 -21.227285385131836 
u4401 -19.714143753051758 -43.14402389526367 -96.78228759765625 -114.95866394042969 -84.7844009399414 -32.24614334106445 -65.14920043945312 -115.98501586914062 -67.12056732177734 -47.121864318847656 -11.409076690673828 -110.3197021484375 -15.43527603149414 -100.06977081298828 -115.53486633300781 -60.13294982910156 -53.667625427246094 -124.80973815917969 -36.2977294921875 -64.23782348632812 -18.4406795501709 -47.187740325927734 -24.31503677368164 -92.16716003417969 -20.45945167541504 -102.11343383789062 -93.9130859375 -68.90811157226562 -30.52232551574707 -102.76287078857422 -45.898807525634766 -25.412092208862305 
u372 -21.953739166259766 -40.560157775878906 -94.89274597167969 -111.82617950439453 -89.07321166992188 -32.78150177001953 -66.24744415283203 -116.2611083984375 -67.24983978271484 -51.43589782714844 -15.223257064819336 -111.3753662109375 -19.113422393798828 -103.79906463623047 -121.21623229980469 -62.429771423339844 -49.817955017089844 -130.28709411621094 -35.18385696411133 -70.9212646484375 -19.070791244506836 -44.39332962036133 -21.11562156677246 -98.16807556152344 -23.956192016601562 -108.42424011230469 -92.75515747070312 -73.19689178466797 -33.08284378051758 -101.79022216796875 -49.482669830322266 -28.529821395874023 
u4648 -25.078168869018555 -50.77229690551758 -114.98186492919922 -137.76316833496094 -103.71971893310547 -39.50955581665039 -80.09183502197266 -139.59620666503906 -80.99751281738281 -60.404029846191406 -14.760295867919922 -131.94189453125 -21.254169464111328 -120.03084564208984 -121.4864501953125 -70.3005599975586 -64.55992889404297 -152.17507934570312 -42.474464416503906 -81.6090316772461 -18.003925323486328 -61.23939514160156 -28.2562255859375 -117.2696533203125 -24.764503479003906 -126.02153015136719 -110.62889862060547 -84.50062561035156 -36.57982635498047 -122.85904693603516 -57.745262145996094 -26.93584632873535 
u3445 -22.188613891601562 -50.748565673828125 -123.87711334228516 -140.2978057861328 -117.8895492553711 -41.432159423828125 -88.47592163085938 -154.69436645507812 -84.48292541503906 -70.17626953125 -14.750713348388672 -136.85630798339844 -23.90650177001953 -128.72744750976562 -132.646484375 -81.03517150878906 -68.6740493774414 -168.53024291992188 -37.598114013671875 -92.8797378540039 -18.215930938720703 -61.313758850097656 -27.014589309692383 -131.7758026123047 -29.423465728759766 -147.25685119628906 -115.89972686767578 -89.9359130859375 -40.40266418457031 -130.82376098632812 -68.32308959960938 -34.08642578125 
u4173 -6.275221347808838 -13.66400146484375 -24.90987205505371 -31.220766067504883 -22.733537673950195 -22.507858276367188 -18.075265884399414 -34.30403137207031 -18.858932495117188 -13.759885787963867 -7.481157302856445 -30.407913208007812 -10.91141128540039 -26.001358032226562 -104.5126953125 -17.385717391967773 -16.90455436706543 -35.293392181396484 -8.559261322021484 -18.82904815673828 -18.12674903869629 -14.904667854309082 -21.637081146240234 -25.903976440429688 -8.356675148010254 -29.776002883911133 -25.931745529174805 -20.807077407836914 -8.883569717407227 -27.995121002197266 -13.416836738586426 -8.418455123901367 
u2969 -22.60756492614746 -45.29282760620117 -117.74407958984375 -130.99424743652344 -109.90811920166016 -34.006317138671875 -83.69203186035156 -142.86135864257812 -79.08355712890625 -65.74337768554688 -17.17936134338379 -132.4735565185547 -28.638418197631836 -123.42526245117188 -135.13584899902344 -79.70332336425781 -61.113502502441406 -149.92349243164062 -38.890987396240234 -81.9712142944336 -11.944620132446289 -52.53426742553711 -22.88727378845215 -124.02886962890625 -27.652921676635742 -138.88583374023438 -111.23080444335938 -86.41897583007812 -38.101715087890625 -123.9460220336914 -69.73126983642578 -32.6495361328125 
i114 -791.176513671875 -2290.307373046875 -977.257080078125 -2531.940185546875 -1052.9189453125 -1773.3197021484375 -2155.31298828125 -2177.473388671875 -1523.58349609375 -3142.8583984375 -1558.27734375 -2577.58837890625 -1042.9127197265625 -1246.70556640625 -118.38172912597656 -813.0255126953125 -2092.564208984375 -2783.078125 -2999.309326171875 -2027.0751953125 -400.83056640625 -1614.04443359375 -929.1754760742188 -1568.1422119140625 -789.5886840820312 -664.4004516601562 -1464.8023681640625 -1448.0645751953125 -3209.9599609375 -2233.609130859375 -2121.456787109375 -1057.123291015625 
u2880 -15.034876823425293 -35.75281524658203 -77.49686431884766 -87.90623474121094 -70.39500427246094 -32.80278778076172 -55.22195816040039 -97.35862731933594 -51.680755615234375 -41.234375 -10.50678825378418 -88.51506042480469 -18.85384178161621 -78.38908386230469 -117.8046875 -50.71880340576172 -45.02826690673828 -105.84780883789062 -24.805950164794922 -55.655860900878906 -19.222753524780273 -42.481101989746094 -24.96940040588379 -79.39480590820312 -20.165000915527344 -91.65359497070312 -74.90704345703125 -57.27261734008789 -22.258394241333008 -79.51770782470703 -40.58195877075195 -23.488096237182617 
u561 -15.376948356628418 -30.629623413085938 -75.12146759033203 -86.20448303222656 -69.85101318359375 -24.83307647705078 -53.14653396606445 -90.35150146484375 -53.064048767089844 -41.537872314453125 -10.674076080322266 -90.00271606445312 -18.191654205322266 -79.30218505859375 -121.2503662109375 -50.690208435058594 -37.667320251464844 -95.45388793945312 -29.9478702545166 -50.59893035888672 -15.250699996948242 -33.71229934692383 -22.08024024963379 -75.10195922851562 -17.64115333557129 -83.90243530273438 -76.08718872070312 -57.49233627319336 -25.668588638305664 -83.42998504638672 -43.3574104309082 -19.70281410217285 
u2651 -19.61130142211914 -43.476627349853516 -96.9351806640625 -110.48707580566406 -83.44438934326172 -33.27301788330078 -65.89542388916016 -112.97621154785156 -66.95521545410156 -47.983238220214844 -10.977468490600586 -109.1778793334961 -19.105913162231445 -96.786376953125 -118.80897521972656 -56.57379150390625 -54.82871627807617 -120.19099426269531 -37.181495666503906 -63.70506286621094 -16.262901306152344 -52.340553283691406 -29.741743087768555 -95.30807495117188 -19.11485481262207 -99.23970031738281 -91.92998504638672 -68.21939086914062 -28.72025489807129 -102.40519714355469 -47.1463737487793 -18.960134506225586 
u3234 -13.399836540222168 -53.12263870239258 -99.19171142578125 -117.69998168945312 -85.56179809570312 -37.072166442871094 -68.91297149658203 -124.93452453613281 -59.846839904785156 -47.984214782714844 -12.223308563232422 -115.87625885009766 -24.516395568847656 -100.82589721679688 -120.52017211914062 -63.976593017578125 -55.6578254699707 -138.43417358398438 -37.05183792114258 -64.57384490966797 -27.817371368408203 -60.32221221923828 -26.63861656188965 -92.9122314453125 -22.641218185424805 -108.16749572753906 -107.9729232788086 -77.84288787841797 -24.182382583618164 -101.67082977294922 -45.54631423950195 -29.98247718811035 
u3990 -23.19718360900879 -39.58402633666992 -105.61450958251953 -124.16844177246094 -99.23479461669922 -28.68466567993164 -77.77801513671875 -124.66810607910156 -75.91073608398438 -59.392791748046875 -12.971120834350586 -125.3656005859375 -20.529685974121094 -114.19957733154297 -123.08573913574219 -69.80443572998047 -57.9458122253418 -134.3938751220703 -37.82927322387695 -71.71148681640625 -12.071662902832031 -42.272064208984375 -21.495588302612305 -109.3923110961914 -24.833406448364258 -116.22767639160156 -104.06790924072266 -72.3792495727539 -37.27684783935547 -118.26575469970703 -60.389930725097656 -27.049707412719727 
u1278 -19.849157333374023 -44.6140022277832 -97.84845733642578 -117.36617279052734 -92.77454376220703 -36.0163459777832 -73.36920166015625 -125.8082275390625 -70.00293731689453 -57.65924072265625 -14.599401473999023 -118.20362854003906 -25.999496459960938 -106.30485534667969 -126.57450866699219 -67.10911560058594 -54.50797653198242 -135.7357940673828 -35.737606048583984 -69.0958023071289 -15.156081199645996 -49.00241470336914 -26.8332462310791 -106.68009185791016 -24.493886947631836 -119.33897399902344 -99.50348663330078 -76.22098541259766 -35.265296936035156 -108.4675064086914 -59.60693359375 -29.23203468322754 
u3686 -21.344398498535156 -45.657379150390625 -118.63810729980469 -138.4850616455078 -111.0073013305664 -27.08843231201172 -77.75703430175781 -145.8655242919922 -81.05809783935547 -60.359596252441406 -14.967733383178711 -137.65638732910156 -26.480735778808594 -131.0811004638672 -126.92412567138672 -80.22776794433594 -63.006690979003906 -157.23338317871094 -38.49939727783203 -86.40062713623047 -18.67430877685547 -55.66895294189453 -16.94858741760254 -121.3412857055664 -27.916385650634766 -133.04364013671875 -122.52062225341797 -91.66698455810547 -29.972078323364258 -126.99302673339844 -61.316436767578125 -31.940202713012695 
u4155 -6.29253625869751 -13.198867797851562 -26.183263778686523 -32.16940689086914 -22.763856887817383 -21.704238891601562 -19.442575454711914 -34.43629455566406 -18.71422576904297 -13.685140609741211 -7.333412170410156 -32.39158630371094 -10.663959503173828 -26.1109619140625 -104.29562377929688 -17.10206413269043 -17.32918357849121 -35.77653121948242 -8.971355438232422 -17.998558044433594 -18.20970344543457 -15.471776008605957 -21.681541442871094 -26.38397216796875 -8.53173542022705 -30.285768508911133 -26.577970504760742 -20.699777603149414 -9.253866195678711 -29.12558364868164 -12.775471687316895 -8.548097610473633 
u2611 -20.512319564819336 -43.70821762084961 -92.15851593017578 -107.24070739746094 -87.4103775024414 -31.548446655273438 -67.07364654541016 -109.3023681640625 -65.42306518554688 -51.618995666503906 -13.106058120727539 -109.75870513916016 -19.077987670898438 -95.87857055664062 -121.63502502441406 -61.372108459472656 -53.227264404296875 -124.74153137207031 -36.503604888916016 -66.63481903076172 -21.347442626953125 -46.27539825439453 -23.920574188232422 -91.74737548828125 -23.86101722717285 -99.93521118164062 -91.29658508300781 -69.35291290283203 -29.57059669494629 -100.45406341552734 -48.03910446166992 -25.385225296020508 
i196 -1068.790283203125 -3145.09130859375 -1277.8997802734375 -3435.216064453125 -1417.55615234375 -2430.0126953125 -2945.32470703125 -2923.8916015625 -2028.267822265625 -4324.74853515625 -2139.670166015625 -3503.88232421875 -1419.506591796875 -1610.212646484375 -128.7049102783203 -1096.28271484375 -2860.589599609375 -3729.715576171875 -4137.13818359375 -2737.10693359375 -557.9943237304688 -2210.83349609375 -1278.7413330078125 -2067.005126953125 -1067.5205078125 -803.465576171875 -1937.8016357421875 -1967.9949951171875 -4408.5517578125 -3038.53759765625 -2900.778076171875 -1437.2054443359375 
u2260 -23.918546676635742 -40.91206741333008 -98.51651000976562 -123.22348022460938 -94.30709075927734 -29.655864715576172 -67.74507904052734 -121.71180725097656 -77.23291015625 -56.25524139404297 -16.940637588500977 -121.02313232421875 -15.761484146118164 -111.95452880859375 -123.22705841064453 -65.69932556152344 -53.9210090637207 -135.29339599609375 -34.148658752441406 -75.96688842773438 -15.936370849609375 -41.883384704589844 -20.009702682495117 -104.96733856201172 -25.4720516204834 -115.79510498046875 -98.83089447021484 -77.277587890625 -37.168128967285156 -109.30996704101562 -52.558284759521484 -30.962377548217773 
u4189 -17.53956413269043 -43.64234161376953 -106.43367767333984 -127.12555694580078 -98.28510284423828 -31.586275100708008 -69.69315338134766 -128.8984832763672 -72.0114974975586 -55.233612060546875 -15.006063461303711 -116.01360321044922 -21.742136001586914 -113.41946411132812 -118.41218566894531 -67.32707214355469 -58.29917526245117 -139.34251403808594 -36.04521560668945 -75.60620880126953 -20.16961669921875 -54.5825080871582 -20.60313606262207 -104.47257995605469 -22.77446174621582 -114.21832275390625 -105.21852111816406 -79.5954360961914 -28.143831253051758 -111.76705169677734 -51.20978927612305 -27.41416358947754 
u3430 -14.586628913879395 -36.34470748901367 -88.75856018066406 -107.1338882446289 -79.9671401977539 -28.109310150146484 -57.05088424682617 -106.17169189453125 -61.536643981933594 -43.613189697265625 -9.955009460449219 -95.51492309570312 -15.272464752197266 -91.07548522949219 -108.56847381591797 -54.66322326660156 -50.014102935791016 -112.28654479980469 -30.43726348876953 -59.060142517089844 -17.771730422973633 -44.02448272705078 -23.21687889099121 -84.042724609375 -20.354238510131836 -89.98147583007812 -87.03825378417969 -63.31647872924805 -23.800432205200195 -95.46992492675781 -40.3617057800293 -19.22934913635254 
u1435 -16.479841232299805 -34.74179458618164 -79.78060150146484 -89.21182250976562 -73.65643310546875 -33.1585807800293 -56.51228713989258 -98.44259643554688 -52.206092834472656 -43.738433837890625 -13.135684967041016 -89.71342468261719 -23.400625228881836 -84.00862121582031 -120.6890869140625 -52.22325897216797 -44.21300506591797 -109.22694396972656 -26.15637969970703 -58.69171142578125 -18.828039169311523 -42.926395416259766 -23.928386688232422 -84.61471557617188 -18.46409034729004 -95.38442993164062 -76.47956848144531 -59.669002532958984 -23.895368576049805 -80.90593719482422 -44.00564956665039 -24.49776268005371 
u1477 -17.71565055847168 -14.60107421875 -50.61736297607422 -73.11123657226562 -46.83293151855469 -10.51029109954834 -41.51913070678711 -56.73670959472656 -52.00440979003906 -26.062620162963867 -3.7194769382476807 -76.33416748046875 -2.4882044792175293 -61.97981262207031 -96.54794311523438 -31.91437339782715 -34.06525421142578 -61.01382064819336 -23.899681091308594 -33.17046356201172 -8.784714698791504 -10.524327278137207 -17.34341049194336 -56.00099182128906 -16.036277770996094 -43.700286865234375 -57.637603759765625 -29.914026260375977 -21.67619514465332 -77.1780776977539 -27.21918296813965 -6.45734977722168 
u2052 -25.495441436767578 -60.13692092895508 -131.2196502685547 -150.02093505859375 -114.84898376464844 -43.12211608886719 -89.34288787841797 -161.17965698242188 -91.29912567138672 -67.51657104492188 -13.443891525268555 -149.5308074951172 -20.81768035888672 -134.78451538085938 -128.11756896972656 -81.00315856933594 -73.45906829833984 -173.98495483398438 -45.52680969238281 -91.45551300048828 -17.692216873168945 -69.70404052734375 -31.135793685913086 -131.27703857421875 -28.08976936340332 -147.43601989746094 -125.3505859375 -94.66295623779297 -38.044219970703125 -135.42340087890625 -67.46190643310547 -28.505796432495117 
u2067 -16.492952346801758 -39.30680847167969 -102.26976013183594 -121.38783264160156 -95.20036315917969 -19.076797485351562 -65.12984466552734 -126.24923706054688 -68.95191192626953 -50.66596221923828 -12.545480728149414 -123.1007080078125 -27.317012786865234 -115.28215026855469 -123.25860595703125 -73.67913055419922 -52.23870849609375 -131.63992309570312 -34.616939544677734 -72.60848999023438 -20.09942626953125 -47.34782791137695 -12.304615020751953 -102.12100982666016 -22.71501922607422 -108.20314025878906 -111.4716796875 -81.50201416015625 -22.211198806762695 -115.2054443359375 -53.57472610473633 -26.933759689331055 
u3738 -15.871232032775879 -40.05520248413086 -83.33981323242188 -95.86383056640625 -75.92675018310547 -35.47443771362305 -58.7457160949707 -105.40412902832031 -54.99146270751953 -44.27220153808594 -12.464742660522461 -94.90296936035156 -22.494478225708008 -86.20571899414062 -120.9646987915039 -54.109893798828125 -47.70209503173828 -115.59407043457031 -28.81040382385254 -59.844688415527344 -21.302818298339844 -48.021183013916016 -25.959253311157227 -86.2880859375 -19.35257911682129 -97.6995849609375 -82.94242095947266 -64.63948059082031 -23.795042037963867 -85.49539947509766 -43.54667282104492 -24.362489700317383 
u3774 -19.209957122802734 -46.31258773803711 -113.40449523925781 -133.5175018310547 -104.76870727539062 -33.00638961791992 -74.0196304321289 -137.32693481445312 -76.55380249023438 -58.59086608886719 -14.886110305786133 -123.0492935180664 -22.31454086303711 -120.2105484008789 -120.52317810058594 -71.83195495605469 -62.59437942504883 -148.8477325439453 -37.16566848754883 -80.43689727783203 -19.5321102142334 -57.05554962158203 -22.082849502563477 -111.97770690917969 -24.63371467590332 -124.28773498535156 -111.10005950927734 -83.65120697021484 -30.185983657836914 -117.09226989746094 -55.23203659057617 -29.923593521118164 
u163 -17.926950454711914 -35.29884338378906 -83.33052825927734 -95.77140808105469 -77.79715728759766 -27.983428955078125 -59.37813186645508 -101.04098510742188 -58.55592346191406 -45.70960998535156 -11.886005401611328 -99.71141052246094 -19.535568237304688 -88.6815185546875 -122.898193359375 -56.66925811767578 -42.99064636230469 -108.78732299804688 -32.613548278808594 -57.65541076660156 -16.835474014282227 -37.98192596435547 -21.9615535736084 -84.40667724609375 -19.56062126159668 -93.27409362792969 -83.5578384399414 -63.724727630615234 -28.3505802154541 -92.13925170898438 -47.105587005615234 -22.3649959564209 
u3850 -15.27241039276123 -37.02805709838867 -93.76847076416016 -112.91807556152344 -87.70043182373047 -17.805152893066406 -59.52894973754883 -116.22769165039062 -64.86617279052734 -45.77592468261719 -10.34886360168457 -113.38699340820312 -24.16364097595215 -105.89408874511719 -118.22891998291016 -67.95262145996094 -49.03767013549805 -120.29248046875 -32.47783279418945 -65.89337921142578 -19.841493606567383 -43.121822357177734 -13.991731643676758 -92.84832763671875 -21.223194122314453 -97.09587097167969 -103.68600463867188 -74.16133117675781 -19.58416175842285 -107.72482299804688 -48.204402923583984 -24.135072708129883 
u640 -31.97984504699707 -59.168182373046875 -136.23036193847656 -166.62423706054688 -130.57147216796875 -45.36115264892578 -98.33556365966797 -169.2309112548828 -97.31012725830078 -76.88568115234375 -20.61973762512207 -154.95176696777344 -22.129161834716797 -145.34169006347656 -126.48735046386719 -88.79015350341797 -77.1063232421875 -185.5361785888672 -48.343379974365234 -101.64315032958984 -16.85419273376465 -65.0566635131836 -23.97964096069336 -141.70301818847656 -35.34785079956055 -157.55426025390625 -128.66456604003906 -102.22972869873047 -49.02875518798828 -145.759765625 -72.57119750976562 -38.50614547729492 
u637 -19.628965377807617 -42.37847137451172 -86.35910034179688 -105.61531829833984 -79.32980346679688 -34.87023162841797 -58.093631744384766 -109.44363403320312 -61.384727478027344 -44.60363006591797 -13.125089645385742 -104.87882232666016 -16.47793197631836 -97.73880004882812 -116.2059326171875 -56.082557678222656 -45.07032012939453 -128.55697631835938 -34.60836410522461 -66.68720245361328 -24.90056037902832 -46.04351043701172 -21.525129318237305 -87.18197631835938 -21.05596923828125 -97.6192626953125 -90.80716705322266 -69.77979278564453 -28.07743263244629 -92.1783218383789 -39.29307174682617 -28.8034725189209 
u2654 -22.90766716003418 -43.673118591308594 -92.11309051513672 -112.39884948730469 -86.84693908691406 -36.27727508544922 -64.37056732177734 -116.5294189453125 -67.19295501708984 -49.79521179199219 -15.701339721679688 -111.57371520996094 -17.97695541381836 -104.9671630859375 -118.03841400146484 -59.44053649902344 -49.697349548339844 -137.59295654296875 -35.9360237121582 -74.99177551269531 -24.772218704223633 -49.168209075927734 -20.97735023498535 -96.95639038085938 -23.58677864074707 -106.66279602050781 -93.56218719482422 -74.89146423339844 -31.77496337890625 -98.50699615478516 -44.190311431884766 -30.931337356567383 
u2161 -19.218799591064453 -44.5777587890625 -109.7798080444336 -128.51206970214844 -98.89557647705078 -36.120338439941406 -73.34752655029297 -130.8651123046875 -73.83507537841797 -56.97430419921875 -15.316719055175781 -116.71408081054688 -19.059593200683594 -112.63565063476562 -119.21664428710938 -67.46072387695312 -60.18769836425781 -139.67539978027344 -36.453147888183594 -74.07371520996094 -17.207456588745117 -53.842628479003906 -23.1214599609375 -106.046142578125 -22.715532302856445 -117.35198974609375 -102.17308044433594 -77.78288269042969 -33.966156005859375 -113.47142028808594 -52.93974685668945 -26.82697868347168 
i194 -481.711669921875 -1420.03076171875 -661.1309204101562 -1636.6793212890625 -731.8088989257812 -1093.7752685546875 -1341.981689453125 -1421.7962646484375 -991.7188720703125 -1946.5689697265625 -953.6801147460938 -1645.04296875 -616.2215576171875 -818.1798706054688 -128.9322967529297 -595.810302734375 -1327.1103515625 -1789.4324951171875 -1829.9813232421875 -1271.3411865234375 -269.9117126464844 -1061.47265625 -583.1593627929688 -1023.816650390625 -461.5393371582031 -505.12353515625 -923.4140014648438 -965.1270141601562 -1965.4334716796875 -1426.4654541015625 -1355.242919921875 -673.9142456054688 
u4154 -19.25008201599121 -38.98999786376953 -96.21961975097656 -108.17945098876953 -90.50210571289062 -32.51275634765625 -69.3759765625 -117.26876831054688 -64.16484832763672 -54.98151397705078 -14.519804000854492 -110.41407775878906 -24.913362503051758 -100.85845184326172 -128.09068298339844 -65.24883270263672 -50.93916320800781 -124.65589904785156 -32.43163299560547 -66.57608795166016 -14.601593971252441 -44.36222457885742 -23.01317024230957 -99.45268249511719 -23.442058563232422 -113.40525817871094 -92.63208770751953 -71.06719970703125 -31.346426010131836 -100.96465301513672 -57.34294509887695 -26.46929359436035 
u641 -18.16495704650879 -46.60508346557617 -118.52267456054688 -134.66358947753906 -104.57147979736328 -34.44318389892578 -75.98229217529297 -141.30723571777344 -76.5600814819336 -58.17516326904297 -15.626764297485352 -127.49354553222656 -22.616239547729492 -124.29911804199219 -124.52397155761719 -72.91459655761719 -61.877769470214844 -153.03292846679688 -38.28264236450195 -80.36675262451172 -20.993925094604492 -58.78476333618164 -20.503416061401367 -112.77278137207031 -21.278898239135742 -126.85661315917969 -114.3155746459961 -86.63148498535156 -33.77904510498047 -119.47437286376953 -56.237483978271484 -30.342493057250977 
u2108 -16.942792892456055 -43.728302001953125 -97.94767761230469 -113.319580078125 -88.80534362792969 -31.727394104003906 -67.60638427734375 -116.8758544921875 -68.02892303466797 -51.518043518066406 -9.962213516235352 -110.26603698730469 -17.79408836364746 -97.9345932006836 -120.67804718017578 -62.385963439941406 -56.37018585205078 -123.83596801757812 -33.64970016479492 -64.9764633178711 -17.94251251220703 -48.29415512084961 -27.921777725219727 -96.60041809082031 -22.937881469726562 -103.71688842773438 -94.9963607788086 -69.3756332397461 -29.348154067993164 -106.32671356201172 -49.7176628112793 -22.397138595581055 
u2424 -19.27962875366211 -40.779991149902344 -109.53557586669922 -135.8186798095703 -101.58372497558594 -29.05820083618164 -76.60432434082031 -134.3760986328125 -71.97269439697266 -55.403160095214844 -16.754180908203125 -124.19174194335938 -24.143672943115234 -118.2317886352539 -114.90103912353516 -70.46891021728516 -58.97991180419922 -143.40155029296875 -37.98460388183594 -74.73680114746094 -17.353248596191406 -53.28569793701172 -15.342360496520996 -108.97521209716797 -24.220746994018555 -118.37930297851562 -109.20150756835938 -80.91761016845703 -31.932859420776367 -119.35872650146484 -53.197811126708984 -30.58063316345215 
