6132 32
u1344 -108.4397964477539 -116.79264068603516 -114.72489929199219 -58.02476119995117 -161.44593811035156 -24.386262893676758 -157.28404235839844 -384.99444580078125 -340.639892578125 -48.12754821777344 -263.4790954589844 -37.839786529541016 -244.58380126953125 -54.75680923461914 -171.6830291748047 -232.8168182373047 -97.8724594116211 -254.6226806640625 -289.87945556640625 -31.721263885498047 -116.79307556152344 -21.024078369140625 -15.924001693725586 -166.283935546875 -159.9231719970703 -118.81181335449219 -283.4703674316406 -119.03057861328125 -161.56930541992188 -10.96438217163086 -22.467052459716797 -190.90765380859375 
u4829 -84.7411880493164 -104.43897247314453 -94.78460693359375 -52.564334869384766 -139.4666290283203 -33.856109619140625 -129.2293243408203 -324.4588623046875 -283.1973876953125 -41.030494689941406 -217.45352172851562 -35.30292892456055 -209.96731567382812 -47.189945220947266 -142.93711853027344 -189.8005828857422 -86.81372833251953 -209.80224609375 -290.7618713378906 -46.0139274597168 -105.4918212890625 -15.375535011291504 -20.0972957611084 -132.8995361328125 -135.1498565673828 -99.80680847167969 -237.1046905517578 -103.42521667480469 -131.36160278320312 -8.049375534057617 -21.441024780273438 -159.52261352539062 
u2356 -44.98772430419922 -50.307579040527344 -50.874237060546875 -26.333751678466797 -69.42183685302734 -59.77642822265625 -69.08133697509766 -172.163818359375 -152.07899475097656 -23.21647071838379 -118.22244262695312 -18.465669631958008 -109.225830078125 -24.455474853515625 -77.35874938964844 -99.81578063964844 -43.55602264404297 -107.52166748046875 -281.9113464355469 -86.96106719970703 -57.64277648925781 -38.874473571777344 -35.86398696899414 -75.62662506103516 -74.46015930175781 -54.11043167114258 -124.46617126464844 -51.97825622558594 -68.5484848022461 -11.969833374023438 -12.654613494873047 -84.8348388671875 
u3891 -115.3565902709961 -128.2526397705078 -124.05477905273438 -64.01309967041016 -177.2229766845703 -17.833589553833008 -170.1114959716797 -421.01568603515625 -372.760009765625 -50.8218994140625 -288.8260803222656 -41.61654281616211 -265.734375 -60.64358901977539 -186.35462951660156 -256.6786193847656 -108.00849151611328 -279.8466796875 -291.6078796386719 -23.211544036865234 -128.59471130371094 -14.970795631408691 -10.364194869995117 -181.89389038085938 -175.47547912597656 -130.76844787597656 -310.7026672363281 -129.56492614746094 -175.33724975585938 -10.624076843261719 -25.300838470458984 -206.79446411132812 
u3917 -122.8066635131836 -139.99781799316406 -133.5619659423828 -68.52310180664062 -190.2719268798828 -12.391618728637695 -182.22340393066406 -450.4017333984375 -396.2657470703125 -56.57958221435547 -305.0152282714844 -44.32180404663086 -285.44110107421875 -64.93921661376953 -198.9247589111328 -269.7787780761719 -116.5707778930664 -295.45013427734375 -294.487060546875 -14.819072723388672 -140.1563262939453 -9.168076515197754 -8.768903732299805 -190.49835205078125 -186.38487243652344 -138.7739715576172 -330.9104919433594 -140.7319793701172 -186.578369140625 -8.538747787475586 -25.260799407958984 -220.88909912109375 
u4265 -27.283836364746094 -27.784019470214844 -32.13897705078125 -15.10564136505127 -37.419837951660156 -73.93067169189453 -39.06975555419922 -98.07311248779297 -90.04640197753906 -18.87153434753418 -69.61788940429688 -10.001077651977539 -65.060546875 -16.053325653076172 -46.05413818359375 -57.42552185058594 -25.842620849609375 -59.841796875 -276.1846923828125 -108.55896759033203 -32.58050537109375 -48.81057357788086 -44.576499938964844 -45.260276794433594 -44.76206970214844 -30.155672073364258 -71.19731140136719 -31.28968620300293 -39.451393127441406 -14.84648323059082 -8.292850494384766 -49.660491943359375 
u1998 -122.2761001586914 -127.33170318603516 -126.7626953125 -62.79886245727539 -177.26548767089844 -15.29655647277832 -173.7253875732422 -425.2335205078125 -376.197509765625 -51.61393737792969 -291.4526062011719 -40.38466262817383 -268.96173095703125 -61.1877555847168 -190.8096466064453 -255.34815979003906 -109.68151092529297 -279.52874755859375 -291.6619567871094 -19.320781707763672 -128.61363220214844 -16.378074645996094 -10.530736923217773 -182.66580200195312 -177.15504455566406 -131.23439025878906 -315.6817321777344 -127.18350219726562 -180.00137329101562 -10.212127685546875 -24.918880462646484 -213.16326904296875 
u4530 -115.18614959716797 -130.59193420410156 -123.52420043945312 -64.96139526367188 -178.51246643066406 -17.941835403442383 -169.0298614501953 -418.43218994140625 -367.36029052734375 -50.50994110107422 -286.3777160644531 -41.12736129760742 -264.54193115234375 -61.31880569458008 -183.40721130371094 -252.2707061767578 -108.49491119384766 -276.05218505859375 -293.479248046875 -22.958019256591797 -128.7559356689453 -12.932480812072754 -11.186094284057617 -178.1956787109375 -174.0639190673828 -127.80870056152344 -309.6141662597656 -128.8910675048828 -175.99020385742188 -9.819345474243164 -25.668983459472656 -204.77639770507812 
u59 -50.124000549316406 -55.675498962402344 -55.8048095703125 -27.964298248291016 -75.34113311767578 -58.10456848144531 -75.10233306884766 -187.02288818359375 -165.75599670410156 -26.188066482543945 -127.08261108398438 -19.21284294128418 -118.33099365234375 -27.425067901611328 -83.97843933105469 -108.92372131347656 -47.34703826904297 -118.44583129882812 -283.0768127441406 -83.51428985595703 -61.79707336425781 -38.10649108886719 -35.60580825805664 -81.4726791381836 -80.29136657714844 -57.91005325317383 -135.9124298095703 -56.88459777832031 -75.0016860961914 -11.49555778503418 -12.347661972045898 -91.83245849609375 
u2494 -34.437110900878906 -40.27179718017578 -35.292724609375 -19.59249496459961 -53.158790588378906 -68.34293365478516 -50.625770568847656 -125.97844696044922 -111.50733947753906 -16.698911666870117 -85.89523315429688 -14.585790634155273 -84.17514038085938 -18.039306640625 -55.60173034667969 -73.81852722167969 -33.171852111816406 -77.62823486328125 -280.5600891113281 -97.17107391357422 -44.179534912109375 -39.50923156738281 -41.30070877075195 -53.547447204589844 -54.35902404785156 -38.51811599731445 -91.30918884277344 -41.12187194824219 -49.888282775878906 -12.29050064086914 -11.874279022216797 -65.35894775390625 
i412 -1100.8426513671875 -742.3021240234375 -1389.7049560546875 -404.7539978027344 -1427.1375732421875 -433.3776550292969 -1119.1529541015625 -2080.696044921875 -2433.160888671875 -836.1437377929688 -1541.1724853515625 -772.0651245117188 -1618.8216552734375 -813.06787109375 -1191.0965576171875 -2079.1591796875 -833.4339599609375 -1952.146484375 -126.10708618164062 -484.114990234375 -432.6105041503906 -741.7774658203125 -467.31341552734375 -1472.5860595703125 -339.95135498046875 -1395.9998779296875 -2042.4844970703125 -1201.3372802734375 -1236.1668701171875 -987.0099487304688 -654.9102172851562 -1192.8646240234375 
i723 -752.5347900390625 -500.8912048339844 -985.648681640625 -274.2613220214844 -981.7623291015625 -374.6693420410156 -747.9662475585938 -1381.27783203125 -1628.6436767578125 -586.1620483398438 -1046.9876708984375 -540.0810546875 -1106.1116943359375 -569.5181884765625 -804.5409545898438 -1419.23779296875 -570.1176147460938 -1302.3553466796875 -177.81312561035156 -414.8114013671875 -265.3919982910156 -559.2264404296875 -347.2536926269531 -1012.8042602539062 -196.2025909423828 -979.8283081054688 -1364.3680419921875 -839.82373046875 -823.4794921875 -728.0828247070312 -452.39935302734375 -801.1531982421875 
u4488 -73.98650360107422 -92.89286041259766 -80.51226806640625 -46.16868209838867 -124.1135482788086 -37.56976318359375 -111.39881134033203 -281.93438720703125 -244.7472686767578 -36.12975311279297 -191.96517944335938 -31.58912467956543 -184.64599609375 -40.739139556884766 -122.29627990722656 -163.7016143798828 -76.4231185913086 -177.50955200195312 -286.5635681152344 -55.76179122924805 -97.33380126953125 -15.207901954650879 -23.6544246673584 -115.6100082397461 -118.61485290527344 -82.49356079101562 -205.0108184814453 -91.93391418457031 -111.87120819091797 -8.270318984985352 -20.84954833984375 -140.1793212890625 
i36 -1338.130859375 -904.7275390625 -1681.6644287109375 -495.5625915527344 -1733.52783203125 -483.84503173828125 -1368.25634765625 -2556.4794921875 -2975.748291015625 -997.46826171875 -1893.543212890625 -925.0505981445312 -1980.121337890625 -970.2894897460938 -1461.3736572265625 -2530.698974609375 -1017.923583984375 -2376.376708984375 -110.17486572265625 -536.0079345703125 -543.4830932617188 -863.7010498046875 -530.6263427734375 -1793.83203125 -445.12322998046875 -1700.131591796875 -2488.700439453125 -1461.8199462890625 -1498.3043212890625 -1169.6278076171875 -773.8173828125 -1462.40966796875 
i902 -723.2737426757812 -464.0816345214844 -903.9820556640625 -262.4061279296875 -918.1197509765625 -344.9576416015625 -702.5570068359375 -1260.0791015625 -1534.423095703125 -547.114013671875 -956.0767211914062 -514.16650390625 -1009.0830688476562 -537.3733520507812 -741.0234375 -1338.1878662109375 -539.69287109375 -1230.5328369140625 -168.7492218017578 -410.0869140625 -254.5035858154297 -537.1736450195312 -349.6816711425781 -946.5017700195312 -175.5084991455078 -896.1013793945312 -1287.1976318359375 -788.2302856445312 -777.8916625976562 -672.2393188476562 -433.88916015625 -744.8641357421875 
u4671 -113.28266143798828 -118.8425064086914 -117.67027282714844 -59.40132522583008 -164.37928771972656 -22.638582229614258 -161.1908416748047 -394.6953125 -347.67132568359375 -48.45045471191406 -269.4248352050781 -37.10122299194336 -249.63189697265625 -56.89517593383789 -176.0324249267578 -236.2436981201172 -100.93518829345703 -260.7471923828125 -291.3504333496094 -28.269359588623047 -117.97813415527344 -21.946609497070312 -15.025381088256836 -169.05548095703125 -164.3954315185547 -121.40574645996094 -291.4436340332031 -118.5418701171875 -167.41494750976562 -9.852705001831055 -23.03176498413086 -195.90866088867188 
u1264 -95.90569305419922 -110.04210662841797 -104.40481567382812 -55.51792526245117 -150.0492401123047 -29.17772102355957 -140.8080291748047 -349.10919189453125 -306.29669189453125 -43.843467712402344 -237.22860717773438 -36.88434982299805 -224.24996948242188 -52.21662521362305 -153.96116638183594 -207.4745330810547 -92.8581314086914 -227.967529296875 -290.3902282714844 -39.00771713256836 -110.08065795898438 -17.03614044189453 -17.535009384155273 -146.19705200195312 -144.94288635253906 -106.33236694335938 -258.4311218261719 -110.20487976074219 -144.96908569335938 -9.581338882446289 -22.060443878173828 -172.66305541992188 
u3843 -64.2499008178711 -87.68036651611328 -70.18995666503906 -42.40273666381836 -112.39348602294922 -44.57208251953125 -100.1630630493164 -255.4569091796875 -219.8166046142578 -34.258018493652344 -171.91946411132812 -29.995527267456055 -168.09918212890625 -35.68910598754883 -109.40678405761719 -147.37730407714844 -69.03954315185547 -160.68313598632812 -287.62677001953125 -63.353023529052734 -90.93466186523438 -16.343040466308594 -27.1832332611084 -102.13094329833984 -107.11824035644531 -75.57136535644531 -182.3903350830078 -85.66873168945312 -98.63359832763672 -7.419584274291992 -19.71274185180664 -125.87387084960938 
u593 -120.47136688232422 -136.8452606201172 -131.7609405517578 -67.20957946777344 -186.3662567138672 -14.235292434692383 -178.5574493408203 -439.06463623046875 -386.01324462890625 -52.06358337402344 -296.4314270019531 -42.0545539855957 -277.55291748046875 -63.31791305541992 -194.6610565185547 -262.2976989746094 -114.13373565673828 -290.8509521484375 -292.81524658203125 -16.333415985107422 -134.14418029785156 -14.515236854553223 -8.490873336791992 -184.09506225585938 -183.07496643066406 -134.1862030029297 -323.4911804199219 -135.17881774902344 -186.4107666015625 -7.253400802612305 -25.6812744140625 -214.90347290039062 
u320 -79.35271453857422 -102.00975799560547 -87.06040954589844 -50.45071029663086 -134.62074279785156 -32.7601318359375 -121.45355987548828 -308.4619140625 -266.7850341796875 -38.77207946777344 -207.98526000976562 -34.03518295288086 -200.91757202148438 -43.32466506958008 -133.10450744628906 -178.5709686279297 -82.78282928466797 -195.15457153320312 -289.16290283203125 -49.52134323120117 -106.2838134765625 -10.911721229553223 -21.097707748413086 -124.4287338256836 -129.7678680419922 -91.05624389648438 -223.01234436035156 -99.72654724121094 -121.7059555053711 -6.292552947998047 -23.139812469482422 -151.9483642578125 
i596 -1970.520751953125 -1384.6365966796875 -2509.613037109375 -742.1854858398438 -2606.307373046875 -635.2529296875 -2051.638427734375 -3881.5166015625 -4481.76220703125 -1462.0909423828125 -2871.694091796875 -1340.2364501953125 -2985.512939453125 -1422.4378662109375 -2195.518310546875 -3781.826904296875 -1511.9105224609375 -3561.41650390625 -43.47251510620117 -678.8958129882812 -851.3370361328125 -1190.178955078125 -699.2130126953125 -2675.7216796875 -724.5016479492188 -2508.76025390625 -3716.15283203125 -2165.21923828125 -2224.58837890625 -1643.4993896484375 -1125.9720458984375 -2213.130859375 
u4004 -119.44184112548828 -129.53990173339844 -126.38880920410156 -66.46365356445312 -179.03855895996094 -15.923479080200195 -170.62351989746094 -423.94500732421875 -376.38226318359375 -54.14318084716797 -291.9246520996094 -43.369380950927734 -270.92291259765625 -61.126773834228516 -190.48008728027344 -256.2787170410156 -111.3450698852539 -280.70904541015625 -292.4853820800781 -23.583660125732422 -131.25047302246094 -12.411881446838379 -12.009939193725586 -183.3182373046875 -176.1877899169922 -130.7324981689453 -313.8661804199219 -131.30015563964844 -175.37875366210938 -11.011880874633789 -25.57727813720703 -210.22335815429688 
u4687 -117.9885482788086 -127.04053497314453 -126.47767639160156 -63.625606536865234 -174.9212188720703 -17.931062698364258 -172.34718322753906 -423.70770263671875 -376.16278076171875 -53.988670349121094 -288.1411437988281 -39.63515090942383 -269.28704833984375 -59.07619094848633 -191.1570281982422 -255.75843811035156 -108.13861846923828 -281.214111328125 -290.6456298828125 -24.225505828857422 -126.08174133300781 -19.47956085205078 -11.812849044799805 -182.02346801757812 -177.4039764404297 -133.23838806152344 -310.4879455566406 -129.82176208496094 -177.86111450195312 -10.775053024291992 -24.436737060546875 -209.4512939453125 
u4735 -66.0764389038086 -86.4680404663086 -69.91818237304688 -40.97024154663086 -111.9116439819336 -45.17485046386719 -98.3084487915039 -251.72393798828125 -215.83094787597656 -33.61695861816406 -170.18026733398438 -26.27947425842285 -164.93035888671875 -37.584651947021484 -105.56816101074219 -145.32240295410156 -68.62525177001953 -157.14541625976562 -287.55377197265625 -63.31936264038086 -87.87661743164062 -17.024635314941406 -27.82618522644043 -101.05516815185547 -104.59364318847656 -72.56166076660156 -183.02931213378906 -82.96994018554688 -99.25789642333984 -7.941009521484375 -17.959300994873047 -125.2801513671875 
u3179 -27.62926483154297 -33.37047576904297 -29.431900024414062 -17.27639389038086 -42.82392120361328 -73.17182159423828 -41.23084259033203 -102.92961883544922 -90.29393005371094 -14.691128730773926 -69.8905029296875 -13.708921432495117 -69.90274047851562 -15.336151123046875 -45.71592712402344 -58.51991271972656 -27.25617218017578 -62.901885986328125 -278.7195739746094 -103.96829986572266 -35.65476989746094 -44.143943786621094 -43.296531677246094 -43.44463348388672 -45.511138916015625 -32.69003677368164 -73.78370666503906 -33.95489501953125 -40.47246551513672 -13.487255096435547 -11.851337432861328 -52.817626953125 
u4463 -90.3073501586914 -107.23392486572266 -99.31950378417969 -53.67329025268555 -144.3329315185547 -30.39189338684082 -134.9626007080078 -337.00848388671875 -293.69598388671875 -43.51593780517578 -226.89425659179688 -35.771549224853516 -217.1756591796875 -48.89362716674805 -147.87876892089844 -196.05470275878906 -89.2694320678711 -216.95864868164062 -290.4090881347656 -41.78757858276367 -110.05146789550781 -15.058465003967285 -19.143293380737305 -139.00857543945312 -140.34754943847656 -101.61402893066406 -246.36952209472656 -107.15878295898438 -136.45211791992188 -7.48863410949707 -20.9521484375 -165.83444213867188 
u552 -74.58733367919922 -99.3814468383789 -82.39833068847656 -47.48146438598633 -128.7512664794922 -33.739898681640625 -116.51697540283203 -298.773193359375 -259.43267822265625 -39.57801055908203 -199.72879028320312 -32.463375091552734 -196.18194580078125 -38.98685836791992 -129.77259826660156 -170.9330596923828 -79.66849517822266 -186.29928588867188 -287.38995361328125 -52.31989669799805 -106.69680786132812 -8.741204261779785 -22.15095329284668 -119.90123748779297 -125.82456970214844 -88.40309143066406 -212.0153350830078 -98.33248901367188 -113.8225326538086 -5.372426986694336 -21.135177612304688 -148.4515380859375 
u2155 -111.1092758178711 -129.14096069335938 -119.77442932128906 -62.66744613647461 -175.7556915283203 -20.02604866027832 -164.1804656982422 -407.98748779296875 -357.347412109375 -50.42731475830078 -276.4905700683594 -42.53769302368164 -257.70111083984375 -60.12751388549805 -178.23326110839844 -243.5290985107422 -106.8477554321289 -267.11944580078125 -292.49261474609375 -23.802532196044922 -129.1005401611328 -10.415329933166504 -12.410795211791992 -172.64553833007812 -168.39088439941406 -123.53047180175781 -301.2867126464844 -128.73403930664062 -167.78488159179688 -8.838628768920898 -23.15250015258789 -200.01205444335938 
u1989 -122.26671600341797 -137.40769958496094 -131.71824645996094 -67.34671020507812 -187.7171173095703 -13.936662673950195 -179.42652893066406 -444.78271484375 -392.3077392578125 -55.89246368408203 -302.5694885253906 -42.89774703979492 -281.1016845703125 -64.11719512939453 -196.72703552246094 -267.2339172363281 -114.66231536865234 -292.99163818359375 -292.7615661621094 -17.06014633178711 -137.11805725097656 -11.797165870666504 -9.710630416870117 -190.45242309570312 -184.2919158935547 -136.60997009277344 -327.3297424316406 -137.7987823486328 -184.64663696289062 -9.589256286621094 -24.521724700927734 -218.22756958007812 
u2926 -27.365028381347656 -27.73798370361328 -33.48875427246094 -16.33260726928711 -39.302085876464844 -72.39649963378906 -40.35498809814453 -98.40142059326172 -88.77229309082031 -16.45301628112793 -73.05062866210938 -12.260942459106445 -64.49569702148438 -17.90133285522461 -43.781951904296875 -58.15562438964844 -25.931503295898438 -59.711669921875 -274.77813720703125 -107.02136993408203 -33.887420654296875 -49.26642990112305 -42.914649963378906 -46.84217071533203 -45.27238464355469 -29.11485481262207 -72.56260681152344 -32.56532287597656 -40.25926971435547 -15.084585189819336 -9.720443725585938 -48.19630432128906 
i1057 -1162.0228271484375 -789.96044921875 -1492.0421142578125 -439.8812561035156 -1515.2318115234375 -471.9150695800781 -1192.0892333984375 -2212.1552734375 -2572.119873046875 -883.5444946289062 -1656.6890869140625 -808.2467651367188 -1734.8963623046875 -844.1583251953125 -1284.4979248046875 -2210.76708984375 -888.8978881835938 -2041.52880859375 -148.43153381347656 -503.2174072265625 -457.7110900878906 -766.7789306640625 -460.81884765625 -1571.2200927734375 -375.4462890625 -1510.360107421875 -2154.478759765625 -1282.854248046875 -1292.2611083984375 -1053.7960205078125 -665.3865356445312 -1277.275634765625 
i997 -1536.574462890625 -1056.140869140625 -1912.1732177734375 -571.4486083984375 -1992.62255859375 -521.0572509765625 -1586.071044921875 -2934.055419921875 -3425.512451171875 -1125.75927734375 -2179.946533203125 -1065.8695068359375 -2273.5654296875 -1105.3497314453125 -1678.0399169921875 -2918.61376953125 -1166.805419921875 -2730.81103515625 -90.80155944824219 -576.2265625 -642.19970703125 -969.4273681640625 -582.61083984375 -2042.6038818359375 -532.2939453125 -1937.5589599609375 -2836.22900390625 -1670.633056640625 -1710.1343994140625 -1312.2962646484375 -884.0193481445312 -1693.0360107421875 
u1105 -25.490943908691406 -30.379539489746094 -29.07452392578125 -15.21880054473877 -39.781150817871094 -74.79731750488281 -38.516883850097656 -96.22374725341797 -85.15495300292969 -14.995572090148926 -66.40924072265625 -11.51667594909668 -63.807159423828125 -16.142322540283203 -42.02070617675781 -55.72731018066406 -24.922264099121094 -57.380340576171875 -278.4801940917969 -105.23578643798828 -33.89106750488281 -45.102989196777344 -44.195167541503906 -42.708168029785156 -41.55155944824219 -29.37065315246582 -70.01924133300781 -31.718809127807617 -38.04206085205078 -13.880929946899414 -8.918678283691406 -49.1207275390625 
i538 -1512.1588134765625 -1047.033935546875 -1936.4478759765625 -556.4180297851562 -1985.755615234375 -534.639404296875 -1548.7943115234375 -2963.8037109375 -3420.922607421875 -1119.09521484375 -2209.65234375 -1032.5111083984375 -2290.65478515625 -1102.6424560546875 -1679.2730712890625 -2897.439453125 -1155.7105712890625 -2712.830322265625 -111.9464111328125 -591.145263671875 -635.8555297851562 -948.3056640625 -566.5062255859375 -2061.046142578125 -541.850341796875 -1951.6290283203125 -2826.38671875 -1701.3218994140625 -1680.902587890625 -1303.885498046875 -865.925048828125 -1688.9498291015625 
u2017 -120.7457046508789 -130.8337860107422 -128.896728515625 -64.32274627685547 -179.8485565185547 -17.039506912231445 -174.99781799316406 -429.456787109375 -379.68841552734375 -54.500885009765625 -292.7453918457031 -41.8869743347168 -271.24493408203125 -61.560298919677734 -191.8642120361328 -258.2943420410156 -109.74124908447266 -284.016845703125 -291.340576171875 -20.46859359741211 -130.6438446044922 -17.095367431640625 -11.874792098999023 -184.66552734375 -177.8003692626953 -132.49461364746094 -316.4368591308594 -132.13340759277344 -179.80880737304688 -10.528970718383789 -23.967357635498047 -211.65032958984375 
u4944 -81.14031219482422 -99.40520477294922 -88.71124267578125 -49.23051071166992 -133.2393035888672 -35.90321350097656 -121.45056915283203 -305.344482421875 -266.17388916015625 -39.14421081542969 -206.61294555664062 -34.4787712097168 -197.32080078125 -44.883174896240234 -133.02476501464844 -179.1354522705078 -81.85514068603516 -195.52191162109375 -289.08465576171875 -49.56583786010742 -102.16668701171875 -15.466629981994629 -22.334508895874023 -126.11714935302734 -126.76542663574219 -91.0616455078125 -223.89259338378906 -98.26043701171875 -122.95220184326172 -8.44810676574707 -20.614337921142578 -151.05075073242188 
i241 -1784.0059814453125 -1244.207763671875 -2278.64208984375 -661.6790161132812 -2350.102294921875 -592.9313354492188 -1840.642822265625 -3526.61083984375 -4054.864013671875 -1320.22802734375 -2619.046875 -1211.3172607421875 -2711.218505859375 -1287.6165771484375 -1991.9132080078125 -3422.028076171875 -1366.504638671875 -3214.67626953125 -82.13050842285156 -643.8504028320312 -767.78271484375 -1088.3809814453125 -640.8614501953125 -2431.779052734375 -657.3184204101562 -2296.90625 -3350.281982421875 -1996.557373046875 -1992.1258544921875 -1511.8603515625 -1016.31005859375 -2002.259765625 
u386 -117.3805160522461 -126.88837432861328 -124.12368774414062 -61.61869430541992 -174.48728942871094 -19.86424446105957 -170.8909149169922 -418.0513916015625 -370.1890869140625 -53.3260498046875 -285.6138000488281 -39.52699661254883 -264.64483642578125 -59.121768951416016 -187.04115295410156 -252.89305114746094 -106.22550201416016 -276.88446044921875 -291.02178955078125 -23.584651947021484 -126.24266052246094 -19.070526123046875 -12.991643905639648 -180.37582397460938 -173.3652801513672 -129.1624298095703 -307.3468322753906 -128.90916442871094 -175.85855102539062 -11.000864028930664 -22.85238265991211 -206.74703979492188 
i609 -1465.9488525390625 -1014.859619140625 -1885.1610107421875 -542.7330932617188 -1922.760986328125 -524.664794921875 -1501.1805419921875 -2882.970947265625 -3321.151123046875 -1090.3828125 -2154.906982421875 -1001.3368530273438 -2229.45263671875 -1070.374755859375 -1642.2891845703125 -2815.93310546875 -1127.785888671875 -2631.703369140625 -117.98623657226562 -569.6487426757812 -626.9889526367188 -916.33740234375 -552.7057495117188 -2008.7362060546875 -529.4685668945312 -1901.4029541015625 -2741.39111328125 -1661.8013916015625 -1628.2537841796875 -1276.6776123046875 -841.3010864257812 -1641.31787109375 
u2981 -15.808152198791504 -11.233771324157715 -19.58489990234375 -9.640339851379395 -17.565650939941406 -82.81278228759766 -20.635034561157227 -48.470542907714844 -45.12010192871094 -12.351670265197754 -39.2835693359375 -7.900884628295898 -34.5401611328125 -11.186023712158203 -24.064332962036133 -26.516860961914062 -14.71004581451416 -27.985200881958008 -273.2623596191406 -120.0847396850586 -16.790695190429688 -56.64109420776367 -48.81733703613281 -25.94739532470703 -24.262420654296875 -14.237780570983887 -37.00984573364258 -16.31312370300293 -19.546714782714844 -16.17417335510254 -7.181305408477783 -25.13557243347168 
u1423 -126.50237274169922 -145.34852600097656 -137.12252807617188 -70.96412658691406 -197.3450469970703 -7.925111770629883 -187.86692810058594 -468.08013916015625 -410.83294677734375 -57.63114929199219 -316.0078430175781 -45.207759857177734 -296.04595947265625 -65.83843231201172 -206.7576141357422 -277.1343688964844 -121.4177474975586 -306.41192626953125 -294.7889404296875 -9.396251678466797 -147.1235809326172 -5.233704566955566 -5.9691901206970215 -196.52410888671875 -194.7312774658203 -143.48106384277344 -343.1564636230469 -144.3260955810547 -192.67172241210938 -6.622457504272461 -26.303455352783203 -229.48397827148438 
u3192 -12.086373329162598 -14.015387535095215 -14.90673828125 -10.9205904006958 -20.903587341308594 -83.05166625976562 -19.0233097076416 -48.621910095214844 -43.35350036621094 -6.987229347229004 -34.751953125 -10.547826766967773 -34.459320068359375 -9.550270080566406 -22.749238967895508 -27.890762329101562 -13.677735328674316 -28.397584915161133 -278.4103088378906 -117.18533325195312 -18.840057373046875 -50.25997543334961 -47.6234016418457 -22.992515563964844 -22.382675170898438 -16.180940628051758 -36.01643753051758 -15.166808128356934 -17.40277862548828 -14.178741455078125 -8.91171646118164 -25.781003952026367 
u1324 -127.71648406982422 -140.4504852294922 -137.61338806152344 -69.13226318359375 -194.89735412597656 -10.420854568481445 -187.29615783691406 -461.75634765625 -408.48785400390625 -55.54247283935547 -316.3890686035156 -44.55598831176758 -290.07916259765625 -66.24940490722656 -205.4781036376953 -278.8954772949219 -117.66942596435547 -305.204345703125 -294.5694885253906 -11.162151336669922 -143.80857849121094 -10.646470069885254 -7.24475622177124 -199.48922729492188 -190.54322814941406 -142.01475524902344 -341.7679138183594 -141.7298126220703 -192.31216430664062 -9.6109619140625 -24.75434112548828 -227.00115966796875 
u2649 -26.37298583984375 -30.57099151611328 -29.84088134765625 -16.056896209716797 -40.96385955810547 -72.95045471191406 -40.11357879638672 -101.68828582763672 -89.71434020996094 -15.59987735748291 -70.40927124023438 -11.746541976928711 -66.120849609375 -16.082149505615234 -45.00138854980469 -57.98704528808594 -25.682876586914062 -60.4619140625 -279.1245422363281 -104.85668182373047 -35.51701354980469 -44.993408203125 -43.236572265625 -45.242408752441406 -45.07035827636719 -31.074434280395508 -73.42091369628906 -31.68537712097168 -39.649513244628906 -13.605249404907227 -9.451908111572266 -51.315704345703125 
u3861 -110.84728240966797 -129.29042053222656 -121.089111328125 -64.4900131225586 -176.03953552246094 -16.792985916137695 -166.15968322753906 -413.87042236328125 -362.70196533203125 -51.18861389160156 -279.3023376464844 -44.05149459838867 -264.16558837890625 -58.41250991821289 -183.3075714111328 -243.65928649902344 -108.08003997802734 -268.71173095703125 -293.3055725097656 -22.36550521850586 -133.60423278808594 -7.59999942779541 -11.868749618530273 -173.51083374023438 -172.04664611816406 -126.82060241699219 -302.5880432128906 -129.8151397705078 -167.66058349609375 -6.7518463134765625 -24.58405303955078 -203.76504516601562 
u3368 -31.20159149169922 -36.44519805908203 -32.248382568359375 -17.721614837646484 -47.199745178222656 -71.66595458984375 -46.435325622558594 -116.34593963623047 -103.82347106933594 -15.081265449523926 -77.80239868164062 -13.169355392456055 -77.585205078125 -15.63604736328125 -52.81864929199219 -69.15769958496094 -30.31354522705078 -73.28445434570312 -279.1912536621094 -100.78728485107422 -37.62335205078125 -44.00238037109375 -41.4643669128418 -49.49102020263672 -51.17564392089844 -39.71669387817383 -83.21171569824219 -37.00410461425781 -46.906639099121094 -13.475948333740234 -11.612325668334961 -61.0205078125 
u1204 -127.0490951538086 -143.0143585205078 -137.24453735351562 -69.82780456542969 -194.9561309814453 -9.478456497192383 -187.1106719970703 -463.63665771484375 -408.60211181640625 -57.570068359375 -314.0380554199219 -44.47871017456055 -292.69866943359375 -66.15156555175781 -205.35655212402344 -277.2193298339844 -119.61812591552734 -304.80413818359375 -294.8845520019531 -11.116268157958984 -144.08152770996094 -7.639580726623535 -7.0047430992126465 -196.5189208984375 -192.07655334472656 -142.7417449951172 -341.4049987792969 -143.2505340576172 -192.05450439453125 -8.115652084350586 -25.476802825927734 -227.91799926757812 
u3337 -35.648536682128906 -39.909889221191406 -40.35235595703125 -19.671314239501953 -53.454246520996094 -67.09573364257812 -53.847023010253906 -134.43035888671875 -119.97285461425781 -20.429410934448242 -92.06143188476562 -13.231943130493164 -85.9281005859375 -20.643409729003906 -60.10282897949219 -77.74150085449219 -33.72801971435547 -82.75546264648438 -280.217529296875 -97.25252532958984 -45.728515625 -42.85465621948242 -40.71489334106445 -59.527366638183594 -58.75868225097656 -41.109622955322266 -97.43168640136719 -41.57421875 -53.446495056152344 -12.564546585083008 -9.30988883972168 -66.78753662109375 
i46 -1386.9085693359375 -941.374755859375 -1748.1929931640625 -518.8633422851562 -1801.3150634765625 -496.7537536621094 -1422.29541015625 -2655.32666015625 -3089.419677734375 -1031.3082275390625 -1971.1494140625 -958.1873779296875 -2059.14306640625 -1005.7693481445312 -1519.9293212890625 -2632.350830078125 -1059.7713623046875 -2463.95947265625 -107.49031066894531 -549.4668579101562 -566.772705078125 -889.2158203125 -542.2659912109375 -1866.388427734375 -469.10894775390625 -1766.122314453125 -2582.158935546875 -1518.5234375 -1556.18896484375 -1210.5294189453125 -797.1910400390625 -1522.8529052734375 
u743 -129.62611389160156 -142.89027404785156 -138.96238708496094 -69.67864990234375 -195.8913116455078 -8.71837043762207 -189.6751251220703 -466.940673828125 -411.64947509765625 -57.92718505859375 -316.3561706542969 -44.49819564819336 -294.4962158203125 -65.85103607177734 -207.52577209472656 -279.5708312988281 -119.8925552368164 -307.4920654296875 -294.0189514160156 -10.289684295654297 -144.29103088378906 -10.458878517150879 -7.368978023529053 -197.83673095703125 -193.8695526123047 -143.2261199951172 -343.4778747558594 -143.5354766845703 -194.748046875 -7.728178024291992 -26.177566528320312 -229.67135620117188 
u2257 -19.557952880859375 -20.66089630126953 -24.902084350585938 -10.748089790344238 -26.15886688232422 -78.70993041992188 -29.20951271057129 -72.48372650146484 -67.04609680175781 -15.957600593566895 -51.576812744140625 -7.45423698425293 -49.232330322265625 -12.922248840332031 -33.67973327636719 -40.96034240722656 -18.13916015625 -42.08935546875 -274.3872985839844 -115.20977020263672 -25.835983276367188 -51.9608154296875 -47.979305267333984 -34.44158172607422 -33.84181213378906 -21.828950881958008 -51.35408401489258 -24.69306755065918 -27.73705291748047 -14.815643310546875 -6.699564456939697 -36.35295104980469 
u671 -98.9720230102539 -115.05171966552734 -107.13322448730469 -56.93130111694336 -156.09019470214844 -27.88212776184082 -145.15550231933594 -362.33905029296875 -317.857177734375 -45.577110290527344 -246.02963256835938 -37.7422981262207 -230.947021484375 -53.96146011352539 -158.3730010986328 -216.49485778808594 -95.8515396118164 -237.04998779296875 -290.7538757324219 -35.89448165893555 -114.09043884277344 -14.674141883850098 -17.010847091674805 -152.5633544921875 -149.8748016357422 -109.65245056152344 -268.2892150878906 -114.10569763183594 -150.11590576171875 -9.398321151733398 -22.16366195678711 -178.72100830078125 
u283 -113.98857879638672 -128.59530639648438 -123.03758239746094 -62.57817459106445 -174.8466033935547 -18.36827278137207 -166.93836975097656 -411.7784423828125 -362.57012939453125 -51.141273498535156 -278.8414611816406 -40.62252426147461 -261.53228759765625 -60.353458404541016 -181.60948181152344 -246.3611602783203 -107.46984100341797 -270.28387451171875 -292.2961730957031 -23.759197235107422 -128.2397918701172 -13.12661075592041 -12.568029403686523 -173.30154418945312 -170.81468200683594 -125.54502868652344 -304.3341369628906 -128.73573303222656 -172.13760375976562 -8.63386344909668 -23.99343490600586 -202.76437377929688 
u1405 -74.26465606689453 -92.96532440185547 -80.99272155761719 -46.41047286987305 -123.52184295654297 -40.03590393066406 -110.62720489501953 -281.22686767578125 -244.40016174316406 -37.56092834472656 -191.62771606445312 -31.363454818725586 -184.47265625 -41.570560455322266 -121.82646179199219 -164.2470245361328 -76.39435577392578 -178.62310791015625 -286.0089416503906 -56.91410446166992 -93.9228515625 -17.294029235839844 -24.270780563354492 -115.94637298583984 -117.83079528808594 -83.58821105957031 -205.28306579589844 -91.74940490722656 -112.86925506591797 -9.930109024047852 -20.301280975341797 -139.6937255859375 
i1005 -1647.26123046875 -1148.490966796875 -2090.748291015625 -631.2531127929688 -2169.2587890625 -561.6444091796875 -1723.389404296875 -3235.406005859375 -3729.412353515625 -1249.9556884765625 -2383.43115234375 -1146.1556396484375 -2486.4921875 -1216.206298828125 -1836.3624267578125 -3171.763916015625 -1263.445556640625 -2980.83984375 -67.44322204589844 -600.2396240234375 -690.5115356445312 -1030.981201171875 -641.6978759765625 -2243.813232421875 -581.1702270507812 -2098.51123046875 -3124.41162109375 -1802.6285400390625 -1898.3682861328125 -1428.9276123046875 -964.0623168945312 -1846.15771484375 
u2818 -31.24053192138672 -34.22827911376953 -36.723052978515625 -17.133289337158203 -44.947059631347656 -69.83987426757812 -47.226051330566406 -117.99486541748047 -106.40821838378906 -20.461366653442383 -82.22280883789062 -11.152116775512695 -76.2637939453125 -17.946762084960938 -54.35746765136719 -67.23777770996094 -29.877113342285156 -71.810302734375 -277.7505187988281 -102.77313995361328 -40.58827209472656 -45.6314811706543 -42.082637786865234 -52.998069763183594 -53.05165100097656 -36.267887115478516 -84.55036926269531 -37.01008605957031 -46.441734313964844 -13.705121994018555 -8.684450149536133 -58.525299072265625 
u2521 -28.095314025878906 -32.592674255371094 -29.05474853515625 -16.011150360107422 -42.94043731689453 -73.54460906982422 -41.360023498535156 -103.21703338623047 -91.72096252441406 -14.480084419250488 -71.20919799804688 -11.778871536254883 -69.3653564453125 -15.786643981933594 -45.65525817871094 -60.81742858886719 -27.01831817626953 -62.592529296875 -278.97479248046875 -103.63311004638672 -35.00848388671875 -43.70853042602539 -43.22467803955078 -45.753562927246094 -45.116973876953125 -32.86433792114258 -74.88600158691406 -33.96766662597656 -40.984657287597656 -14.246475219726562 -9.813541412353516 -54.259765625 
u339 -108.54842376708984 -126.86331939697266 -118.28436279296875 -63.221858978271484 -172.5269317626953 -18.37986946105957 -161.86827087402344 -403.614501953125 -353.4188232421875 -49.715553283691406 -272.2618713378906 -43.06045913696289 -257.73101806640625 -57.30422592163086 -177.5421600341797 -238.2695770263672 -105.5790786743164 -262.616943359375 -292.8374938964844 -24.904857635498047 -129.8148651123047 -8.670929908752441 -12.62977409362793 -168.66043090820312 -167.65843200683594 -123.12309265136719 -295.9219665527344 -126.80625915527344 -164.281005859375 -6.953351974487305 -24.62893295288086 -198.60968017578125 
u893 -120.66426849365234 -128.74526977539062 -130.95489501953125 -64.64838409423828 -179.83396911621094 -15.655672073364258 -175.28965759277344 -428.5909423828125 -380.2523193359375 -51.717628479003906 -292.2217102050781 -43.51430130004883 -269.22357177734375 -62.91609573364258 -191.6398162841797 -258.3672180175781 -109.9388198852539 -284.55810546875 -292.1253967285156 -20.00777816772461 -133.0869598388672 -16.928993225097656 -12.507390975952148 -183.91110229492188 -176.80043029785156 -131.1425018310547 -318.4466857910156 -130.71852111816406 -178.82473754882812 -8.331197738647461 -25.156063079833984 -210.36428833007812 
u1601 -99.14752960205078 -112.03177642822266 -105.38105773925781 -55.08456039428711 -152.74595642089844 -28.389802932739258 -143.49183654785156 -357.1453857421875 -312.09521484375 -45.63323974609375 -241.53268432617188 -37.71274948120117 -225.93572998046875 -53.563838958740234 -155.19664001464844 -211.5777130126953 -93.1707534790039 -231.49700927734375 -290.5032043457031 -36.72616195678711 -111.73114013671875 -16.53136444091797 -18.02876853942871 -151.67245483398438 -147.67616271972656 -108.48056030273438 -264.2268371582031 -110.55085754394531 -147.02420043945312 -9.821149826049805 -20.730777740478516 -176.279296875 
u2205 -54.25745391845703 -80.9823989868164 -63.70292663574219 -40.23018264770508 -102.77022552490234 -46.90303039550781 -88.62921905517578 -237.04205322265625 -205.8863067626953 -31.313554763793945 -158.15359497070312 -26.161985397338867 -155.06744384765625 -34.84572982788086 -100.47029113769531 -137.4302215576172 -61.54883575439453 -147.091064453125 -289.70465087890625 -71.36359405517578 -87.26176452636719 -14.178521156311035 -30.508848190307617 -96.52400970458984 -99.47059631347656 -69.72467041015625 -169.43080139160156 -77.41796875 -86.85115814208984 -6.928989410400391 -18.52972412109375 -115.68801879882812 
i690 -862.9180297851562 -573.2740478515625 -1110.9964599609375 -314.933349609375 -1119.8162841796875 -393.10589599609375 -862.0194702148438 -1594.498291015625 -1876.082763671875 -661.8658447265625 -1201.114501953125 -611.7363891601562 -1265.094482421875 -639.6951904296875 -923.0819091796875 -1622.5357666015625 -652.5884399414062 -1498.4744873046875 -166.7266082763672 -439.31561279296875 -316.9143981933594 -616.6243286132812 -379.1748046875 -1155.850341796875 -240.67539978027344 -1112.8375244140625 -1571.4896240234375 -955.0301513671875 -946.0064697265625 -809.1070556640625 -511.2216491699219 -920.6549072265625 
u1646 -115.72673797607422 -135.1518096923828 -126.30911254882812 -66.8204345703125 -183.9113311767578 -13.88267707824707 -173.33302307128906 -432.73443603515625 -379.38018798828125 -52.71282958984375 -292.0996398925781 -44.7863883972168 -274.61224365234375 -61.1321907043457 -191.15184020996094 -255.7518768310547 -113.3012466430664 -282.29693603515625 -293.9917907714844 -17.153942108154297 -138.2743682861328 -6.115571022033691 -8.774442672729492 -181.33670043945312 -180.0659637451172 -132.7050323486328 -317.2392272949219 -134.20643615722656 -176.9886474609375 -6.541536331176758 -25.26113510131836 -212.59768676757812 
u926 -36.314537048339844 -39.59105682373047 -40.49627685546875 -20.078472137451172 -53.07707977294922 -67.62618255615234 -53.09247589111328 -132.181884765625 -117.74879455566406 -20.79832649230957 -92.06280517578125 -14.378904342651367 -85.35861206054688 -20.058147430419922 -59.99674987792969 -76.07472229003906 -33.90972137451172 -81.59259033203125 -278.8005676269531 -97.39888763427734 -45.00164794921875 -43.603370666503906 -41.055118560791016 -58.521080017089844 -57.73661804199219 -39.694828033447266 -96.08937072753906 -40.99505615234375 -53.402198791503906 -13.533533096313477 -10.704418182373047 -65.9156494140625 
u3872 -126.18303680419922 -143.3479461669922 -136.059814453125 -70.66287994384766 -196.1493682861328 -8.850038528442383 -186.7559356689453 -464.00775146484375 -408.4334716796875 -56.88499450683594 -315.2348937988281 -46.1796760559082 -293.46966552734375 -65.89727783203125 -205.07798767089844 -277.1414489746094 -119.72832489013672 -304.31011962890625 -294.6481018066406 -11.308895111083984 -145.61219787597656 -6.468873023986816 -7.060758113861084 -197.84469604492188 -192.75230407714844 -142.79478454589844 -340.9333801269531 -143.31260681152344 -190.91647338867188 -8.170358657836914 -26.115936279296875 -227.59442138671875 
u2140 -124.1742172241211 -135.80174255371094 -133.93861389160156 -67.8572769165039 -188.8563995361328 -13.260210037231445 -182.3230743408203 -448.32647705078125 -396.9390869140625 -55.47124481201172 -307.0561828613281 -43.77725601196289 -283.35980224609375 -64.08232116699219 -200.99046325683594 -270.9346008300781 -114.86527252197266 -296.70379638671875 -292.4646911621094 -15.809978485107422 -137.0218963623047 -13.872979164123535 -8.684293746948242 -193.66363525390625 -185.71116638183594 -138.77113342285156 -330.4431457519531 -138.0266571044922 -187.24176025390625 -10.77226448059082 -24.850738525390625 -220.73800659179688 
u3598 -23.584884643554688 -28.415809631347656 -27.32598876953125 -14.985730171203613 -36.88062286376953 -75.73529052734375 -36.04340362548828 -90.58361053466797 -79.60850524902344 -14.380936622619629 -61.7490234375 -11.297994613647461 -60.141326904296875 -15.19034194946289 -40.06510925292969 -51.43153381347656 -23.27489471435547 -54.109161376953125 -279.1374816894531 -107.47168731689453 -31.525894165039062 -46.83952713012695 -44.78534698486328 -39.269569396972656 -39.79595947265625 -27.791139602661133 -65.30867004394531 -28.941007614135742 -35.612205505371094 -13.422430038452148 -9.337156295776367 -45.69793701171875 
i878 -706.8009643554688 -443.2801818847656 -885.7781372070312 -258.7637023925781 -891.4339599609375 -346.2708435058594 -689.5867919921875 -1217.114013671875 -1483.45458984375 -535.0947875976562 -925.9190063476562 -507.3365478515625 -985.6758422851562 -523.284912109375 -721.8294067382812 -1303.747802734375 -530.8646850585938 -1191.15625 -178.88475036621094 -412.5052490234375 -237.9507293701172 -536.949951171875 -343.1227722167969 -927.2494506835938 -164.5018768310547 -885.6620483398438 -1254.421142578125 -762.432861328125 -766.0643310546875 -676.5892333984375 -419.0351867675781 -725.5477294921875 
u2506 -28.45922088623047 -32.971473693847656 -30.136932373046875 -16.647716522216797 -43.54761505126953 -72.59650421142578 -42.167396545410156 -105.89104461669922 -94.38359069824219 -15.107781410217285 -72.96099853515625 -11.969888687133789 -70.99212646484375 -15.516590118408203 -47.47434997558594 -62.38087463378906 -27.771949768066406 -64.47573852539062 -279.1112060546875 -103.3160171508789 -36.14814758300781 -43.83371353149414 -42.82175064086914 -46.62738800048828 -46.33000183105469 -33.89748001098633 -76.30601501464844 -34.36622619628906 -41.94823455810547 -13.811822891235352 -10.219425201416016 -55.375946044921875 
u141 -33.291160583496094 -37.043190002441406 -38.26129150390625 -18.784427642822266 -49.936363220214844 -68.78138732910156 -49.78514862060547 -126.07866668701172 -112.60002136230469 -20.152246475219727 -87.39520263671875 -13.389242172241211 -80.400390625 -19.754451751708984 -56.56462097167969 -72.47532653808594 -32.44396209716797 -76.85110473632812 -279.1551208496094 -99.37921905517578 -43.992095947265625 -43.571510314941406 -41.51787185668945 -56.86101531982422 -55.339508056640625 -38.171634674072266 -91.45097351074219 -38.88795471191406 -49.24224090576172 -12.960601806640625 -8.93191909790039 -62.2657470703125 
u327 -80.11377716064453 -100.23600006103516 -88.45547485351562 -50.41062545776367 -134.0338897705078 -33.52455139160156 -121.58478546142578 -307.033447265625 -266.68548583984375 -38.55540466308594 -207.3876953125 -34.850101470947266 -199.92218017578125 -43.752262115478516 -133.6255645751953 -178.42762756347656 -82.45055389404297 -195.39846801757812 -288.7055969238281 -49.71903610229492 -104.88795471191406 -13.208436012268066 -21.902891159057617 -125.14131927490234 -128.5339813232422 -91.28010559082031 -223.3754425048828 -98.87416076660156 -121.80013275146484 -6.840730667114258 -22.682727813720703 -151.55123901367188 
i18 -1482.87646484375 -1012.9803466796875 -1874.3348388671875 -553.39697265625 -1932.48095703125 -521.260986328125 -1528.2091064453125 -2871.578125 -3321.143798828125 -1107.427490234375 -2124.845458984375 -1023.3261108398438 -2219.204345703125 -1073.764892578125 -1636.3519287109375 -2820.02783203125 -1133.49658203125 -2648.3232421875 -98.5806884765625 -566.62353515625 -613.0919799804688 -941.1490478515625 -569.7452392578125 -2000.3375244140625 -510.75787353515625 -1897.700439453125 -2774.627197265625 -1627.1278076171875 -1669.5889892578125 -1292.525634765625 -853.11572265625 -1637.6109619140625 
u393 -121.47505950927734 -130.75450134277344 -128.26055908203125 -63.82231521606445 -180.84202575683594 -17.119951248168945 -176.26441955566406 -432.24578857421875 -382.94110107421875 -54.488365173339844 -295.6432189941406 -40.85068893432617 -272.779052734375 -61.5407600402832 -193.2539825439453 -261.5428771972656 -109.93770599365234 -286.34564208984375 -292.1087341308594 -19.528438568115234 -131.13832092285156 -16.859283447265625 -11.403135299682617 -186.86831665039062 -178.6932830810547 -133.41249084472656 -318.8636779785156 -132.28562927246094 -181.43222045898438 -10.692129135131836 -23.28289794921875 -213.90557861328125 
u2295 -38.847679138183594 -41.73395538330078 -43.94818115234375 -20.762630462646484 -56.04352569580078 -64.54481506347656 -58.053016662597656 -144.2850341796875 -130.13490295410156 -22.729829788208008 -100.77203369140625 -14.037481307983398 -91.82220458984375 -20.631683349609375 -66.15968322753906 -83.99674987792969 -36.490699768066406 -90.1956787109375 -278.2674255371094 -95.93138885498047 -48.48228454589844 -43.45768356323242 -38.76181411743164 -64.91669464111328 -64.08638000488281 -44.63223648071289 -104.10612487792969 -44.137847900390625 -57.823081970214844 -13.37232780456543 -10.42586898803711 -71.66018676757812 
u3354 -23.83940887451172 -26.62470245361328 -26.797988891601562 -14.655400276184082 -35.91716766357422 -76.65341186523438 -34.81951141357422 -86.25157928466797 -76.34574890136719 -14.279858589172363 -60.367523193359375 -11.353902816772461 -57.5479736328125 -15.446659088134766 -37.91072082519531 -50.40339660644531 -22.659263610839844 -51.86865234375 -278.4846496582031 -109.0989761352539 -28.841522216796875 -48.37712097167969 -45.539127349853516 -39.240577697753906 -37.67210388183594 -26.475236892700195 -63.69194412231445 -27.870954513549805 -34.814247131347656 -14.84351921081543 -9.072811126708984 -43.796295166015625 
u1957 -84.86968231201172 -103.90796661376953 -92.69746398925781 -52.15542221069336 -139.1273651123047 -32.24287414550781 -127.09009552001953 -323.425537109375 -281.4573974609375 -42.13873291015625 -218.739013671875 -34.88608932495117 -208.83636474609375 -45.650760650634766 -141.3888397216797 -187.3564910888672 -86.4881820678711 -207.32977294921875 -288.0522155761719 -46.92612838745117 -107.17306518554688 -14.036255836486816 -20.34139060974121 -133.84527587890625 -135.69654846191406 -96.80802917480469 -234.68251037597656 -102.82907104492188 -128.03555297851562 -7.480955123901367 -21.185768127441406 -159.29922485351562 
u4889 -110.19129180908203 -119.34046173095703 -117.36582946777344 -61.82892990112305 -165.7161102294922 -20.50004768371582 -160.4373016357422 -395.19561767578125 -351.473388671875 -49.00792694091797 -271.3114318847656 -39.282840728759766 -255.40081787109375 -54.99370193481445 -179.2274627685547 -239.4054412841797 -101.71634674072266 -260.9071044921875 -290.0710754394531 -30.746135711669922 -120.37446594238281 -17.85223388671875 -14.317586898803711 -170.19381713867188 -166.15370178222656 -123.55125427246094 -289.7126770019531 -122.1314697265625 -165.70413208007812 -11.315855026245117 -25.684890747070312 -197.0694580078125 
u4525 -121.0130386352539 -136.9534454345703 -130.04449462890625 -67.39601135253906 -187.0833282470703 -14.25297737121582 -177.4408721923828 -439.10040283203125 -386.01324462890625 -53.25566101074219 -299.5359191894531 -42.9908561706543 -277.1273193359375 -64.25157165527344 -192.60887145996094 -264.3304748535156 -113.84424591064453 -289.51776123046875 -294.50372314453125 -17.020809173583984 -136.2555694580078 -10.438515663146973 -9.454519271850586 -186.69256591796875 -181.89634704589844 -133.87367248535156 -325.1092224121094 -136.13661193847656 -184.00979614257812 -8.940980911254883 -25.49506378173828 -215.204345703125 
u3076 -43.488243103027344 -47.224769592285156 -48.956390380859375 -24.094303131103516 -63.737144470214844 -62.17735290527344 -64.3534927368164 -159.6380615234375 -141.66395568847656 -24.01727867126465 -110.1815185546875 -15.547445297241211 -101.591552734375 -24.383445739746094 -71.91404724121094 -92.31727600097656 -41.471412658691406 -100.26101684570312 -280.1004638671875 -91.0694808959961 -52.17045593261719 -41.76074981689453 -37.11904525756836 -69.8001937866211 -69.84690856933594 -48.48434829711914 -116.56617736816406 -49.01899719238281 -64.74040985107422 -12.674470901489258 -11.716365814208984 -78.80401611328125 
i90 -1160.29345703125 -776.6344604492188 -1455.6258544921875 -424.9351806640625 -1495.6239013671875 -444.5998229980469 -1176.30126953125 -2181.45361328125 -2557.135009765625 -867.76611328125 -1618.44384765625 -806.7227783203125 -1698.7501220703125 -844.8433227539062 -1252.0589599609375 -2181.92822265625 -877.5906372070312 -2045.558349609375 -126.14894104003906 -497.7474365234375 -457.9173889160156 -769.868896484375 -478.60528564453125 -1544.78515625 -364.6885986328125 -1467.5855712890625 -2141.1455078125 -1261.4912109375 -1290.497314453125 -1025.98388671875 -677.3717041015625 -1251.9755859375 
i482 -887.6691284179688 -582.8663330078125 -1115.6485595703125 -319.7351379394531 -1135.728515625 -384.6415710449219 -883.4515991210938 -1621.60595703125 -1923.633544921875 -672.3013305664062 -1209.9638671875 -626.5287475585938 -1277.3206787109375 -657.7218017578125 -937.482177734375 -1657.9039306640625 -666.0936889648438 -1544.8468017578125 -152.77806091308594 -443.02532958984375 -329.1916198730469 -627.1041259765625 -400.56689453125 -1173.7154541015625 -246.23423767089844 -1119.5877685546875 -1615.369140625 -965.6285400390625 -977.9447021484375 -813.208740234375 -531.9283447265625 -938.133056640625 
u3866 -114.3277816772461 -132.3333282470703 -124.71102905273438 -65.85134887695312 -180.17979431152344 -15.016695022583008 -170.72850036621094 -424.68402099609375 -372.503662109375 -52.456298828125 -286.8504943847656 -44.87472152709961 -270.5211181640625 -60.20045852661133 -187.9754180908203 -250.2561492919922 -110.31060028076172 -276.353759765625 -293.7786560058594 -20.056041717529297 -136.6737518310547 -7.459671974182129 -11.314786911010742 -178.59927368164062 -176.3423614501953 -130.0060577392578 -310.8908996582031 -132.73936462402344 -172.31680297851562 -6.930593490600586 -24.963153839111328 -208.43392944335938 
u290 -103.95220184326172 -120.07367706298828 -112.5985107421875 -58.4954948425293 -162.1963653564453 -24.30717658996582 -152.95359802246094 -378.8155517578125 -332.3126220703125 -47.36754608154297 -256.0954895019531 -38.299930572509766 -241.58154296875 -56.43630599975586 -165.62767028808594 -225.4534149169922 -99.48966217041016 -247.489501953125 -291.4659118652344 -31.85024642944336 -119.40888977050781 -13.912903785705566 -15.743223190307617 -158.62374877929688 -156.9058074951172 -114.65480041503906 -280.0613708496094 -119.64854431152344 -157.0452880859375 -8.690433502197266 -22.69742202758789 -186.42401123046875 
u138 -28.61522674560547 -31.10596466064453 -32.25016784667969 -15.298535346984863 -42.174949645996094 -73.18708801269531 -41.94023895263672 -105.52422332763672 -94.83836364746094 -18.259145736694336 -73.2952880859375 -11.687837600708008 -67.9786376953125 -16.850330352783203 -47.83772277832031 -60.48976135253906 -27.214889526367188 -63.473724365234375 -277.62481689453125 -104.16068267822266 -37.12957763671875 -46.090999603271484 -44.47922897338867 -47.96509552001953 -46.127593994140625 -30.919496536254883 -76.56242370605469 -33.213653564453125 -41.511802673339844 -13.605920791625977 -7.654175281524658 -52.8370361328125 
i354 -1895.8319091796875 -1323.248291015625 -2412.979736328125 -699.9345703125 -2497.371826171875 -616.1345825195312 -1956.640380859375 -3738.43505859375 -4303.146484375 -1398.372314453125 -2769.154296875 -1281.81640625 -2870.17431640625 -1358.922119140625 -2106.291259765625 -3625.41357421875 -1446.9813232421875 -3412.549072265625 -67.17582702636719 -669.1207275390625 -814.56591796875 -1147.8824462890625 -667.1721801757812 -2571.05908203125 -697.4006958007812 -2428.20947265625 -3554.376708984375 -2103.495849609375 -2112.67626953125 -1584.485595703125 -1076.819580078125 -2121.354736328125 
u794 -109.47852325439453 -123.60164642333984 -117.17521667480469 -61.26998519897461 -169.23265075683594 -20.494997024536133 -160.09300231933594 -396.173583984375 -347.890625 -49.40577697753906 -268.7768859863281 -41.18490219116211 -252.3394775390625 -57.6004524230957 -175.11021423339844 -235.32850646972656 -103.6919937133789 -258.50372314453125 -292.050048828125 -26.78634262084961 -124.71504211425781 -12.405640602111816 -13.693510055541992 -167.13900756835938 -164.10060119628906 -120.45433044433594 -292.6319885253906 -123.35037231445312 -163.86294555664062 -8.861108779907227 -23.832618713378906 -196.14639282226562 
u3591 -37.28961944580078 -44.879005432128906 -41.917144775390625 -22.820903778076172 -58.900733947753906 -65.52379608154297 -57.270606994628906 -143.24725341796875 -125.45420837402344 -19.680479049682617 -96.50997924804688 -15.793218612670898 -93.82269287109375 -21.63837432861328 -62.84571838378906 -82.83106994628906 -37.250038146972656 -89.06161499023438 -281.6150817871094 -93.55554962158203 -47.665740966796875 -39.19639587402344 -37.974002838134766 -60.048118591308594 -61.94328308105469 -45.47665786743164 -103.86174011230469 -45.77528381347656 -56.551109313964844 -12.138975143432617 -12.44110107421875 -72.28985595703125 
u3433 -28.827903747558594 -32.74346160888672 -31.921493530273438 -16.400814056396484 -43.043357849121094 -72.30848693847656 -42.79613494873047 -108.26012420654297 -96.55134582519531 -17.20756721496582 -75.3548583984375 -12.059713363647461 -69.86874389648438 -16.977493286132812 -48.6673583984375 -62.18815612792969 -27.675247192382812 -65.72988891601562 -278.9852600097656 -103.29325103759766 -38.20069885253906 -44.97727584838867 -43.065975189208984 -48.815589904785156 -47.91886901855469 -33.042240142822266 -78.20649719238281 -33.634857177734375 -42.55370330810547 -13.365129470825195 -8.859195709228516 -54.426727294921875 
u2012 -120.9045639038086 -128.0025634765625 -127.98573303222656 -64.3680648803711 -178.65794372558594 -16.407960891723633 -174.3175506591797 -427.84478759765625 -379.46221923828125 -53.74861145019531 -293.6492004394531 -42.30172348022461 -270.25018310546875 -61.08614730834961 -192.48008728027344 -258.2054748535156 -109.31786346435547 -283.3238525390625 -291.3104553222656 -21.18593978881836 -129.3678436279297 -17.52355194091797 -11.534475326538086 -186.02935791015625 -177.9095916748047 -132.20094299316406 -316.2758483886719 -130.1198272705078 -179.37646484375 -11.115097045898438 -24.289382934570312 -211.96871948242188 
u4582 -107.38983917236328 -121.34957122802734 -116.37416076660156 -59.9861946105957 -165.61695861816406 -22.88792610168457 -156.9414520263672 -388.79052734375 -342.701416015625 -48.835960388183594 -264.6836853027344 -38.91276168823242 -247.20382690429688 -58.000553131103516 -171.32106018066406 -233.40736389160156 -101.86518096923828 -255.355712890625 -291.7666015625 -30.000438690185547 -121.24931335449219 -14.810250282287598 -14.640417098999023 -164.91360473632812 -160.81565856933594 -118.55732727050781 -288.1643371582031 -121.7811279296875 -161.90817260742188 -9.797760009765625 -22.660686492919922 -191.4356689453125 
u4106 -110.40044403076172 -132.02296447753906 -120.74632263183594 -64.19436645507812 -177.1753387451172 -17.56755256652832 -166.8925323486328 -416.3907470703125 -362.89666748046875 -52.53956604003906 -280.1673278808594 -42.12874984741211 -264.572509765625 -59.27272415161133 -181.9236297607422 -245.0999298095703 -108.93970489501953 -270.3966064453125 -293.13641357421875 -23.051036834716797 -132.67481994628906 -7.822098731994629 -11.001066207885742 -172.952392578125 -173.48939514160156 -127.10203552246094 -303.7434997558594 -131.73670959472656 -169.38592529296875 -7.248434066772461 -24.46847915649414 -203.17916870117188 
u538 -102.30115509033203 -119.4794692993164 -111.81629943847656 -58.97797775268555 -161.33921813964844 -24.48204231262207 -151.8459930419922 -377.3353271484375 -330.7315673828125 -47.476295471191406 -255.24459838867188 -38.69381332397461 -240.9034423828125 -55.2026481628418 -165.5287322998047 -223.9105987548828 -99.22000885009766 -246.250732421875 -291.5000915527344 -32.18758773803711 -119.63398742675781 -13.412667274475098 -15.335393905639648 -157.60598754882812 -156.4218292236328 -114.82884216308594 -277.8131408691406 -118.5992431640625 -155.7049560546875 -8.27281379699707 -23.12448501586914 -185.66665649414062 
u951 -30.96715545654297 -34.402076721191406 -34.1453857421875 -17.482341766357422 -45.84326934814453 -70.91221618652344 -45.798545837402344 -114.33513641357422 -101.56690979003906 -17.61759376525879 -79.4869384765625 -12.167539596557617 -74.19677734375 -18.303592681884766 -51.33282470703125 -66.00325012207031 -29.58985137939453 -69.40667724609375 -279.3134765625 -101.85626983642578 -39.00685119628906 -44.97842788696289 -42.31413650512695 -51.170997619628906 -50.38871765136719 -35.091251373291016 -83.16386413574219 -35.310943603515625 -45.618934631347656 -13.548469543457031 -9.666929244995117 -57.7635498046875 
u3467 -31.187156677246094 -33.60314178466797 -36.362762451171875 -16.749980926513672 -43.72057342529297 -72.05714416503906 -45.21149444580078 -111.94121551513672 -101.48057556152344 -20.71605110168457 -78.38720703125 -10.999914169311523 -73.3602294921875 -18.485706329345703 -50.794281005859375 -65.12889099121094 -29.229103088378906 -68.96734619140625 -276.7685546875 -105.08776092529297 -38.02079772949219 -47.5888786315918 -44.36183547973633 -50.451988220214844 -49.6036376953125 -33.4293098449707 -81.27983093261719 -36.81062316894531 -44.953514099121094 -14.140153884887695 -8.68826675415039 -55.34942626953125 
u1311 -117.56067657470703 -131.06724548339844 -126.25021362304688 -65.63082885742188 -181.24574279785156 -14.696290969848633 -172.17515563964844 -426.91015625 -375.220458984375 -51.31310272216797 -291.5585632324219 -41.55586624145508 -270.343505859375 -62.0167121887207 -188.69337463378906 -254.9925079345703 -111.22486114501953 -279.80828857421875 -293.0589904785156 -19.578472137451172 -132.57688903808594 -11.189873695373535 -9.055753707885742 -182.60324096679688 -177.8717803955078 -130.8658905029297 -315.7124328613281 -131.1554412841797 -177.29653930664062 -9.138025283813477 -24.476089477539062 -210.368408203125 
i890 -1167.7994384765625 -776.993408203125 -1485.0965576171875 -446.79052734375 -1516.3082275390625 -460.2749938964844 -1203.251953125 -2230.85888671875 -2602.161865234375 -875.6348876953125 -1661.21435546875 -818.5985107421875 -1745.8658447265625 -858.6369018554688 -1292.3363037109375 -2234.94189453125 -900.7251586914062 -2070.9912109375 -140.2950897216797 -512.5198974609375 -460.8946228027344 -772.455078125 -485.3592224121094 -1585.4249267578125 -382.13189697265625 -1521.5377197265625 -2188.334716796875 -1301.531494140625 -1327.4722900390625 -1066.2938232421875 -666.7637329101562 -1291.656494140625 
u2726 -14.198243141174316 -14.106375694274902 -16.512008666992188 -11.398404121398926 -19.54041290283203 -85.6051254272461 -13.392053604125977 -40.94286346435547 -36.20719909667969 -10.612996101379395 -34.107818603515625 -7.667276382446289 -25.121614456176758 -12.33279800415039 -18.164369583129883 -24.441665649414062 -15.466469764709473 -26.848909378051758 -272.3737487792969 -122.6524887084961 -9.57440185546875 -57.165428161621094 -46.6795539855957 -20.25048065185547 -20.550216674804688 -10.028826713562012 -34.88832473754883 -10.666152000427246 -20.391700744628906 -17.342731475830078 -9.128524780273438 -20.730573654174805 
u1618 -78.39746856689453 -102.02465057373047 -87.07827758789062 -49.666385650634766 -133.79750061035156 -34.378631591796875 -120.9911880493164 -308.07879638671875 -266.92633056640625 -39.276634216308594 -206.60580444335938 -34.2266731262207 -200.31884765625 -43.155399322509766 -132.98216247558594 -178.02027893066406 -81.84160614013672 -195.44216918945312 -288.2779846191406 -49.00577926635742 -105.26899719238281 -11.430909156799316 -21.257902145385742 -124.70003509521484 -128.99085998535156 -91.57070922851562 -222.1745147705078 -99.98149108886719 -121.23473358154297 -6.469568252563477 -21.566898345947266 -152.00009155273438 
u1879 -26.258590698242188 -25.68498992919922 -32.68733215332031 -15.669888496398926 -36.18303680419922 -72.91123962402344 -36.506980895996094 -91.11553192138672 -83.18238830566406 -16.58479118347168 -65.3497314453125 -11.410234451293945 -59.19873046875 -17.879512786865234 -41.17333984375 -52.80027770996094 -25.163841247558594 -55.7650146484375 -275.689697265625 -110.10294342041016 -31.26495361328125 -49.289127349853516 -44.79094696044922 -42.08116912841797 -41.4847412109375 -26.352678298950195 -69.11231994628906 -28.12818717956543 -36.352394104003906 -14.144021987915039 -9.95327377319336 -44.52912902832031 
u332 -88.84281158447266 -107.52342987060547 -97.66160583496094 -54.13370132446289 -145.5382843017578 -29.762514114379883 -133.9732208251953 -335.17999267578125 -292.2462158203125 -41.928321838378906 -226.557373046875 -37.98362350463867 -216.77618408203125 -48.01448440551758 -146.9386444091797 -196.0181427001953 -89.02355194091797 -215.17425537109375 -289.70562744140625 -42.07746505737305 -111.65231323242188 -12.47011661529541 -19.509618759155273 -138.64425659179688 -139.43251037597656 -100.60917663574219 -244.77308654785156 -107.46284484863281 -134.285400390625 -7.340536117553711 -22.586669921875 -165.61593627929688 
u1930 -88.22074127197266 -106.7741928100586 -97.20262145996094 -53.247615814208984 -143.93223571777344 -31.995241165161133 -132.21498107910156 -332.35491943359375 -290.32330322265625 -42.660743713378906 -225.1356201171875 -35.98965835571289 -213.81683349609375 -49.06962966918945 -144.8931121826172 -196.13404846191406 -88.86270904541016 -214.70263671875 -289.5431213378906 -43.64596176147461 -107.88737487792969 -14.555459022521973 -19.32509422302246 -138.10830688476562 -137.9357452392578 -100.48611450195312 -244.0769805908203 -106.30340576171875 -134.8243408203125 -8.912591934204102 -21.354259490966797 -163.59686279296875 
u2491 -29.39618682861328 -33.26921844482422 -30.083358764648438 -17.221721649169922 -44.06311798095703 -72.1888656616211 -41.37708282470703 -105.48003387451172 -94.06101989746094 -14.699177742004395 -73.30130004882812 -13.048208236694336 -71.14132690429688 -16.467880249023438 -46.871246337890625 -62.57426452636719 -28.120765686035156 -64.27816772460938 -279.5286560058594 -103.24695587158203 -36.32508850097656 -42.588661193847656 -43.18765640258789 -46.84821319580078 -46.0965576171875 -33.49649429321289 -77.27940368652344 -33.79765319824219 -41.389991760253906 -14.117029190063477 -10.977203369140625 -55.533935546875 
u1312 -115.8720932006836 -129.8611297607422 -123.9967041015625 -64.65099334716797 -179.3988800048828 -15.57011604309082 -170.0441436767578 -422.1263427734375 -370.46478271484375 -50.758079528808594 -288.5216979980469 -41.22063064575195 -266.6290283203125 -61.02544021606445 -185.6178741455078 -252.43614196777344 -108.75382232666016 -276.14166259765625 -293.1448669433594 -20.600460052490234 -131.75218200683594 -11.065049171447754 -9.689741134643555 -180.941162109375 -175.3533172607422 -128.9242706298828 -311.7167053222656 -129.65660095214844 -174.60867309570312 -9.341913223266602 -24.297100067138672 -207.82522583007812 
i268 -830.152099609375 -536.5972290039062 -1043.3446044921875 -302.7861633300781 -1057.0391845703125 -374.1355895996094 -820.0108032226562 -1484.768798828125 -1778.68798828125 -625.5032958984375 -1119.0208740234375 -586.1742553710938 -1182.5836181640625 -611.0123291015625 -867.2130126953125 -1544.2626953125 -624.0530395507812 -1423.935546875 -166.0972900390625 -436.082763671875 -299.4057312011719 -596.7581176757812 -377.90362548828125 -1097.0015869140625 -221.21812438964844 -1046.3656005859375 -1494.993896484375 -903.00634765625 -904.8416748046875 -768.7557983398438 -488.9300842285156 -869.090087890625 
i358 -853.25830078125 -553.722900390625 -1077.1839599609375 -311.5912170410156 -1088.4896240234375 -381.3633117675781 -845.619384765625 -1538.48193359375 -1832.725341796875 -643.4961547851562 -1159.048095703125 -601.6509399414062 -1224.139404296875 -627.8782958984375 -896.52734375 -1591.2158203125 -643.5347290039062 -1466.8056640625 -166.60818481445312 -442.57818603515625 -309.1988830566406 -610.057861328125 -382.5619812011719 -1133.160888671875 -232.44773864746094 -1083.315185546875 -1540.40087890625 -930.5595703125 -932.3084716796875 -792.559814453125 -500.8556823730469 -897.8756103515625 
u1394 -65.21927642822266 -83.21338653564453 -69.14356994628906 -41.05538558959961 -109.9414291381836 -45.7154541015625 -96.64929962158203 -247.0125732421875 -213.22706604003906 -32.99165344238281 -168.80502319335938 -29.293012619018555 -162.44827270507812 -35.343997955322266 -106.88563537597656 -142.8611297607422 -67.94007110595703 -155.35134887695312 -284.57757568359375 -64.31124114990234 -84.43118286132812 -19.075401306152344 -26.957571029663086 -100.77831268310547 -103.82197570800781 -72.26948547363281 -179.6331329345703 -80.93946838378906 -98.2623519897461 -10.105640411376953 -19.362071990966797 -124.09182739257812 
u4142 -116.52323150634766 -122.1271743774414 -122.38813781738281 -61.02647018432617 -170.3080291748047 -20.367250442504883 -167.7173309326172 -409.455322265625 -363.18890380859375 -51.69757843017578 -280.8086242675781 -40.556819915771484 -259.64239501953125 -58.038028717041016 -184.16929626464844 -246.90882873535156 -103.86534881591797 -270.74005126953125 -290.7132873535156 -25.746456146240234 -123.77204895019531 -20.10419464111328 -14.55817985534668 -178.302734375 -169.98829650878906 -126.71803283691406 -301.9647521972656 -125.26614379882812 -171.614013671875 -11.413724899291992 -22.996280670166016 -203.08050537109375 
u3809 -17.47589874267578 -19.123329162597656 -19.693878173828125 -10.588162422180176 -25.079978942871094 -80.83444213867188 -25.29911231994629 -62.468772888183594 -55.37278747558594 -11.4990816116333 -44.605865478515625 -8.285032272338867 -42.749053955078125 -11.970802307128906 -27.72001838684082 -34.94834899902344 -16.22962188720703 -35.179168701171875 -277.557373046875 -114.48567199707031 -23.023178100585938 -50.63398361206055 -47.805870056152344 -29.40233612060547 -28.280014038085938 -18.83659553527832 -45.51533889770508 -20.606077194213867 -24.586570739746094 -14.838308334350586 -7.134430408477783 -32.282470703125 
i418 -837.9036865234375 -548.3975219726562 -1054.1915283203125 -300.2134704589844 -1069.5386962890625 -376.7550964355469 -831.703125 -1513.40234375 -1805.973388671875 -639.6447143554688 -1129.831787109375 -592.9315795898438 -1197.7850341796875 -622.4266967773438 -879.6295166015625 -1558.869384765625 -625.6465454101562 -1452.1995849609375 -155.74363708496094 -430.250244140625 -303.8129577636719 -599.990234375 -385.8456726074219 -1102.6563720703125 -221.47019958496094 -1052.5093994140625 -1519.3095703125 -902.8070068359375 -920.200439453125 -771.5505981445312 -505.0341491699219 -877.9715576171875 
u248 -37.152244567871094 -40.803932189941406 -42.01860046386719 -20.398067474365234 -55.092750549316406 -67.28115844726562 -55.825096130371094 -138.0367431640625 -122.97734069824219 -20.769498825073242 -95.116455078125 -14.086977005004883 -88.26626586914062 -21.23324203491211 -62.18678283691406 -79.78398132324219 -35.32238006591797 -85.86459350585938 -279.6039733886719 -95.73043060302734 -45.97412109375 -43.79815673828125 -40.40981674194336 -61.198692321777344 -59.91896057128906 -41.9073371887207 -100.41221618652344 -42.53080749511719 -55.642784118652344 -12.66628646850586 -9.908639907836914 -68.59426879882812 
i250 -1031.117431640625 -687.1127319335938 -1312.8775634765625 -381.86590576171875 -1333.2398681640625 -428.5956726074219 -1041.2850341796875 -1924.783447265625 -2259.576904296875 -777.6942749023438 -1442.4462890625 -720.9898071289062 -1515.531005859375 -754.7359008789062 -1113.1644287109375 -1946.0762939453125 -783.489990234375 -1800.63037109375 -151.9350128173828 -478.4141845703125 -393.8962097167969 -701.239013671875 -431.2593994140625 -1383.176513671875 -313.6468505859375 -1323.608642578125 -1891.7923583984375 -1133.3492431640625 -1140.2496337890625 -937.5993041992188 -597.5084228515625 -1112.338623046875 
i917 -704.7193603515625 -451.0059509277344 -882.1854858398438 -249.4225616455078 -895.1434326171875 -340.8538818359375 -682.8472900390625 -1225.69482421875 -1488.557373046875 -532.1127319335938 -928.9365844726562 -502.915283203125 -982.2428588867188 -526.2427978515625 -715.863037109375 -1299.5728759765625 -523.1005249023438 -1196.6864013671875 -173.31324768066406 -410.46221923828125 -241.4873809814453 -533.07666015625 -343.7812805175781 -919.8515014648438 -166.0568389892578 -876.1598510742188 -1249.059326171875 -767.64306640625 -755.7373657226562 -660.270263671875 -425.8421325683594 -721.456787109375 
u4113 -120.5199203491211 -139.8190155029297 -130.52146911621094 -68.21684265136719 -189.96836853027344 -12.432435989379883 -180.1261749267578 -448.63250732421875 -393.13726806640625 -56.58308410644531 -303.5107727050781 -43.63858413696289 -283.937744140625 -63.99506759643555 -197.1842803955078 -267.0620422363281 -116.6535415649414 -293.00128173828125 -294.1458435058594 -15.585201263427734 -140.18528747558594 -7.26882266998291 -7.828649044036865 -189.56591796875 -186.55393981933594 -138.1240692138672 -328.4800109863281 -140.4955291748047 -183.92874145507812 -8.534669876098633 -24.660037994384766 -219.48480224609375 
u3576 -20.685829162597656 -24.01709747314453 -15.987106323242188 -9.670964241027832 -29.620277404785156 -81.42542266845703 -27.977441787719727 -68.98009490966797 -64.77497863769531 -7.720871925354004 -48.6561279296875 -8.317136764526367 -49.45892333984375 -6.917896270751953 -32.84635925292969 -45.10191345214844 -21.013816833496094 -46.132781982421875 -275.14459228515625 -112.11797332763672 -23.025405883789062 -49.2484016418457 -45.594730377197266 -30.87670135498047 -31.636138916015625 -25.177446365356445 -48.85054397583008 -24.997358322143555 -29.29792022705078 -15.134723663330078 -9.508100509643555 -40.004486083984375 
u823 -71.01932525634766 -99.7867660522461 -79.63381958007812 -46.33650588989258 -126.13903045654297 -36.61570739746094 -112.39154815673828 -290.04766845703125 -251.6007843017578 -39.15534210205078 -194.44415283203125 -29.12030601501465 -191.72552490234375 -40.28860855102539 -124.23811340332031 -167.47776794433594 -78.42049407958984 -180.5787353515625 -286.9596252441406 -56.31510543823242 -103.43150329589844 -9.113770484924316 -23.660207748413086 -115.2667465209961 -122.59922790527344 -85.184814453125 -206.4282989501953 -97.39128112792969 -112.24968719482422 -6.326093673706055 -21.217830657958984 -143.255126953125 
u4347 -40.43366241455078 -44.98192596435547 -45.41204833984375 -23.318927764892578 -60.618202209472656 -63.71922302246094 -59.99352264404297 -151.4825439453125 -134.3310089111328 -21.939523696899414 -104.47528076171875 -15.62510871887207 -96.54229736328125 -23.136947631835938 -68.10328674316406 -87.44560241699219 -39.32891082763672 -94.98040771484375 -280.0559997558594 -92.80416107177734 -50.27738952636719 -41.41048049926758 -37.89261245727539 -66.57135772705078 -66.54354858398438 -46.53444290161133 -110.41264343261719 -45.70979309082031 -60.15868377685547 -12.330663681030273 -11.88265609741211 -75.19024658203125 
u3723 -39.434242248535156 -44.04186248779297 -45.16600036621094 -23.043376922607422 -59.640281677246094 -64.07630920410156 -58.90778350830078 -147.0567626953125 -130.95716857910156 -21.200510025024414 -103.22097778320312 -14.698118209838867 -94.32470703125 -23.583938598632812 -66.18418884277344 -85.60807800292969 -38.525245666503906 -92.35830688476562 -280.0309753417969 -94.27017974853516 -48.839324951171875 -42.23396682739258 -37.84444046020508 -65.1378402709961 -64.68991088867188 -44.229068756103516 -108.40800476074219 -44.85096740722656 -59.982505798339844 -13.215105056762695 -11.853057861328125 -72.65695190429688 
i784 -1747.5804443359375 -1236.7039794921875 -2277.811767578125 -672.0776977539062 -2321.84130859375 -599.0430908203125 -1814.3076171875 -3535.135986328125 -4022.415771484375 -1303.7662353515625 -2645.248291015625 -1195.3292236328125 -2732.439697265625 -1282.967529296875 -2007.5064697265625 -3396.822509765625 -1366.0521240234375 -3175.209228515625 -98.54750061035156 -620.0719604492188 -781.7183227539062 -1053.039794921875 -627.6712036132812 -2433.2861328125 -670.4349365234375 -2300.96923828125 -3317.156005859375 -2016.759033203125 -1966.7257080078125 -1524.9571533203125 -995.497802734375 -1998.557373046875 
i646 -1876.3023681640625 -1311.585205078125 -2388.959228515625 -699.33544921875 -2466.496337890625 -617.81201171875 -1943.452880859375 -3654.373291015625 -4230.09423828125 -1385.2176513671875 -2711.646240234375 -1269.9693603515625 -2825.7626953125 -1344.54833984375 -2077.3701171875 -3576.02294921875 -1434.706298828125 -3359.96533203125 -60.547054290771484 -647.2882690429688 -803.4750366210938 -1135.079833984375 -655.6087036132812 -2531.93701171875 -679.115234375 -2385.556396484375 -3501.106689453125 -2040.6708984375 -2088.134033203125 -1561.773193359375 -1064.4827880859375 -2082.24658203125 
u690 -78.84229278564453 -97.47992706298828 -85.97366333007812 -48.7318229675293 -129.8557891845703 -36.931640625 -117.9048843383789 -297.21282958984375 -258.66302490234375 -38.25200653076172 -201.1832275390625 -35.15492630004883 -193.26126098632812 -43.56864547729492 -128.90113830566406 -173.3134307861328 -79.3674545288086 -189.66433715820312 -288.6412658691406 -51.62557601928711 -101.19064331054688 -15.130959510803223 -23.732702255249023 -122.8752670288086 -123.30894470214844 -88.59956359863281 -216.89796447753906 -96.66366577148438 -117.66155242919922 -8.039361953735352 -20.52181625366211 -147.31143188476562 
u1834 -25.295677185058594 -24.988487243652344 -29.344039916992188 -13.188023567199707 -32.39208221435547 -75.83355712890625 -35.587867736816406 -87.10314178466797 -79.05006408691406 -17.376615524291992 -61.018768310546875 -9.175146102905273 -58.12591552734375 -14.519908905029297 -40.327880859375 -48.51689147949219 -21.673294067382812 -52.525604248046875 -275.2889404296875 -110.7549819946289 -29.390640258789062 -52.20383834838867 -46.830989837646484 -39.92473602294922 -39.86637878417969 -25.30882453918457 -62.32759475708008 -28.171674728393555 -34.75012969970703 -13.974906921386719 -7.8399434089660645 -43.811187744140625 
u886 -128.21710205078125 -140.7451629638672 -137.83685302734375 -68.99939727783203 -192.79270935058594 -9.472856521606445 -187.0032196044922 -461.36798095703125 -408.0020751953125 -57.680206298828125 -313.1061706542969 -43.96218490600586 -291.6563720703125 -65.16704559326172 -205.53746032714844 -276.7452697753906 -118.12682342529297 -304.27679443359375 -293.0442199707031 -12.869884490966797 -142.4312286376953 -11.248284339904785 -8.462240219116211 -195.92514038085938 -191.78648376464844 -141.75389099121094 -339.6141052246094 -141.69151306152344 -192.23092651367188 -8.334880828857422 -26.548908233642578 -227.0555419921875 
i377 -1385.8394775390625 -939.7669677734375 -1740.9061279296875 -514.2836303710938 -1797.45654296875 -492.2187805175781 -1419.8489990234375 -2657.01220703125 -3087.110107421875 -1031.568603515625 -1965.463134765625 -957.9004516601562 -2054.373046875 -1005.0166625976562 -1515.2955322265625 -2624.951416015625 -1055.6912841796875 -2466.2998046875 -103.47511291503906 -546.5248413085938 -566.9239501953125 -888.72119140625 -545.42529296875 -1859.8966064453125 -465.66412353515625 -1761.193603515625 -2582.042724609375 -1514.79931640625 -1556.83349609375 -1207.1826171875 -802.5130004882812 -1517.64404296875 
u1330 -114.1055679321289 -120.9965591430664 -121.44938659667969 -60.153873443603516 -168.1028289794922 -23.283540725708008 -163.4897003173828 -400.294677734375 -356.53948974609375 -49.909950256347656 -275.6954650878906 -39.546817779541016 -252.73614501953125 -58.922794342041016 -180.26695251464844 -244.08448791503906 -102.54850006103516 -266.84417724609375 -291.6964111328125 -27.53976058959961 -121.75917053222656 -21.1036376953125 -14.857831954956055 -175.12228393554688 -164.71681213378906 -123.88639831542969 -297.8868103027344 -123.12980651855469 -169.02609252929688 -12.152252197265625 -21.67359161376953 -198.3466796875 
u4243 -26.979759216308594 -31.63402557373047 -30.757217407226562 -15.830784797668457 -41.59857940673828 -73.94500732421875 -40.473045349121094 -100.38573455810547 -88.84638977050781 -16.049272537231445 -69.35958862304688 -10.691198348999023 -65.95782470703125 -17.72005844116211 -43.54656982421875 -58.99195861816406 -26.35045623779297 -60.3621826171875 -279.2213439941406 -105.02283477783203 -34.287628173828125 -45.53990936279297 -43.6430778503418 -44.64661407470703 -43.50505065917969 -30.139406204223633 -73.62364196777344 -32.92036437988281 -40.39038848876953 -13.775945663452148 -8.571413040161133 -50.8016357421875 
u164 -30.37207794189453 -34.331260681152344 -33.95524597167969 -17.267223358154297 -46.06134796142578 -71.19367980957031 -45.079551696777344 -114.31542205810547 -101.83378601074219 -17.667863845825195 -79.43731689453125 -12.491472244262695 -74.11801147460938 -17.518856048583984 -51.38432312011719 -66.10548400878906 -29.18543243408203 -69.4202880859375 -278.4569396972656 -101.4472885131836 -39.39936828613281 -44.42216491699219 -42.6434211730957 -51.127296447753906 -50.11341857910156 -34.45132827758789 -82.65644836425781 -35.54603576660156 -45.359397888183594 -13.446268081665039 -9.475318908691406 -57.723876953125 
u2043 -84.75228118896484 -102.5496597290039 -93.2061767578125 -51.064144134521484 -138.5411834716797 -33.8348388671875 -127.25196075439453 -319.4989013671875 -279.3853759765625 -41.316627502441406 -216.22052001953125 -34.85124588012695 -207.08297729492188 -47.0563850402832 -139.7033233642578 -187.71983337402344 -85.1175308227539 -205.113037109375 -287.9654235839844 -46.88816452026367 -104.20555114746094 -15.929986000061035 -21.14656639099121 -133.3309326171875 -132.8889617919922 -96.02366638183594 -234.0607452392578 -102.56350708007812 -129.00030517578125 -9.129632949829102 -20.668827056884766 -158.10763549804688 
u691 -81.0655288696289 -100.30211639404297 -88.46308898925781 -50.045772552490234 -133.8649444580078 -35.01100158691406 -121.63727569580078 -306.774169921875 -266.97607421875 -39.28770446777344 -207.23049926757812 -36.03630447387695 -199.09088134765625 -44.5294303894043 -133.10887145996094 -178.87049865722656 -81.91486358642578 -195.69677734375 -289.0397644042969 -49.14840316772461 -104.37287902832031 -13.707459449768066 -22.6822566986084 -126.7524642944336 -127.29719543457031 -91.49540710449219 -223.61134338378906 -99.357421875 -121.27117156982422 -7.568330764770508 -20.98952865600586 -151.89804077148438 
u4248 -38.35596466064453 -43.21904754638672 -43.571807861328125 -22.814464569091797 -58.643409729003906 -64.96521759033203 -58.00371551513672 -145.4537353515625 -128.90187072753906 -20.487947463989258 -100.46127319335938 -15.895864486694336 -93.49346923828125 -22.58016586303711 -65.10401916503906 -84.03074645996094 -37.287864685058594 -90.41006469726562 -281.0105895996094 -94.1498794555664 -49.64106750488281 -41.586326599121094 -39.0023078918457 -64.10376739501953 -63.451751708984375 -44.91276931762695 -105.85945129394531 -44.70713806152344 -57.487953186035156 -12.534482955932617 -11.549869537353516 -71.83648681640625 
u3913 -124.43291473388672 -140.83506774902344 -135.05409240722656 -68.73483276367188 -191.7344207763672 -11.623445510864258 -184.64305114746094 -455.585693359375 -401.39306640625 -57.52886962890625 -308.8036193847656 -44.17690658569336 -288.248779296875 -65.18177032470703 -201.9788360595703 -273.2006530761719 -117.23627471923828 -299.18646240234375 -294.7636413574219 -13.937175750732422 -141.3165740966797 -9.688538551330566 -8.340841293334961 -193.2242431640625 -188.5060577392578 -140.7317657470703 -334.6765441894531 -141.85450744628906 -189.0352783203125 -8.935033798217773 -25.201961517333984 -223.48516845703125 
u5011 -117.42357635498047 -126.4063949584961 -124.48051452636719 -63.25791549682617 -174.6723175048828 -18.11973762512207 -170.32664489746094 -418.1700439453125 -370.2386474609375 -51.20520782470703 -285.6496887207031 -41.54645919799805 -264.8182373046875 -59.38148880004883 -187.33863830566406 -252.2454376220703 -106.5424575805664 -276.93084716796875 -292.3863220214844 -23.073986053466797 -127.61814880371094 -17.31641387939453 -12.52888298034668 -180.6541748046875 -173.85911560058594 -129.8124542236328 -308.0347595214844 -127.9521484375 -174.88671875 -10.179925918579102 -24.105701446533203 -206.78500366210938 
u1434 -132.62747192382812 -146.5026092529297 -142.6558380126953 -71.56527709960938 -200.3077850341797 -7.18205451965332 -193.5333709716797 -477.1802978515625 -421.63873291015625 -58.798606872558594 -323.8846740722656 -45.3458366394043 -301.0411376953125 -68.07646179199219 -212.3941192626953 -286.3889465332031 -122.9982681274414 -315.2314453125 -295.0382995605469 -7.874629497528076 -147.7879180908203 -9.110062599182129 -6.49439001083374 -202.67453002929688 -197.65870666503906 -146.73414611816406 -352.0725402832031 -146.9097442626953 -199.24786376953125 -7.800422668457031 -26.326618194580078 -234.802734375 
u855 -105.2876205444336 -129.84523010253906 -114.11781311035156 -64.39060974121094 -172.67445373535156 -20.75914192199707 -159.2020721435547 -403.29296875 -349.57574462890625 -50.22920227050781 -270.8957824707031 -39.87186813354492 -257.115966796875 -56.32320022583008 -175.7860870361328 -236.2236785888672 -105.95624542236328 -262.9735107421875 -293.43682861328125 -26.731060028076172 -125.57862854003906 -8.204880714416504 -10.200613021850586 -166.03970336914062 -169.19300842285156 -123.98713684082031 -293.0863342285156 -124.85606384277344 -164.80453491210938 -7.341615676879883 -25.16667938232422 -197.76052856445312 
u1773 -56.568336486816406 -77.44275665283203 -60.011383056640625 -36.41585922241211 -99.21288299560547 -50.797607421875 -84.49616241455078 -219.59259033203125 -189.0021514892578 -28.39036750793457 -149.80148315429688 -25.33155632019043 -143.7149658203125 -34.3946418762207 -90.55854797363281 -128.7193145751953 -60.566383361816406 -136.55181884765625 -286.65362548828125 -71.48409271240234 -79.82853698730469 -18.015785217285156 -31.0444393157959 -88.9277572631836 -91.04304504394531 -62.486087799072266 -161.1241912841797 -73.27212524414062 -85.14643096923828 -9.191400527954102 -17.90209197998047 -109.13186645507812 
u3017 -16.528106689453125 -16.036415100097656 -20.57098388671875 -10.57420825958252 -22.869712829589844 -83.80609893798828 -22.463647842407227 -53.796287536621094 -49.38691711425781 -12.765572547912598 -41.549285888671875 -8.344118118286133 -37.978515625 -12.705379486083984 -24.788759231567383 -32.46220397949219 -15.98757266998291 -32.435455322265625 -274.558837890625 -118.8013687133789 -17.963607788085938 -54.528839111328125 -49.3048210144043 -28.16625213623047 -23.931076049804688 -16.03203010559082 -41.28236770629883 -20.12568473815918 -21.38146209716797 -16.704660415649414 -6.4294819831848145 -27.82209587097168 
u1903 -21.72991180419922 -23.335533142089844 -19.212509155273438 -11.26097583770752 -30.70623016357422 -79.16223907470703 -29.251047134399414 -72.3676986694336 -66.07072448730469 -9.347458839416504 -50.503509521484375 -8.906579971313477 -51.795196533203125 -10.664726257324219 -33.32185363769531 -44.63252258300781 -20.469497680664062 -43.8115234375 -277.4283447265625 -110.60851287841797 -23.348861694335938 -47.55372619628906 -45.711097717285156 -32.87798309326172 -32.35597229003906 -24.802003860473633 -53.20216751098633 -24.72450065612793 -30.405860900878906 -15.45362663269043 -8.958637237548828 -42.02293395996094 
u1093 -31.082054138183594 -35.85369110107422 -33.84553527832031 -18.177326202392578 -47.83867645263672 -71.0912857055664 -47.119529724121094 -116.00609588623047 -102.69325256347656 -16.17780876159668 -79.48544311523438 -13.31330680847168 -76.99313354492188 -17.704116821289062 -51.35107421875 -67.77662658691406 -29.70758819580078 -71.1717529296875 -279.77618408203125 -100.84809112548828 -39.129913330078125 -43.57442855834961 -42.00785446166992 -50.90137481689453 -50.07929992675781 -36.969852447509766 -84.13233947753906 -37.86387634277344 -45.878883361816406 -13.826831817626953 -10.451408386230469 -59.497955322265625 
u1107 -25.547714233398438 -30.59752655029297 -29.185440063476562 -15.377026557922363 -39.901145935058594 -74.59278869628906 -38.760032653808594 -96.48986053466797 -85.25749206542969 -14.979004859924316 -66.62579345703125 -11.853303909301758 -64.13607788085938 -16.28472137451172 -41.95292663574219 -55.81568908691406 -24.875137329101562 -57.5498046875 -278.7076721191406 -105.25305938720703 -33.850830078125 -45.14611053466797 -44.15305709838867 -42.717796325683594 -41.69525146484375 -29.516557693481445 -70.26264953613281 -31.898405075073242 -38.228187561035156 -13.921558380126953 -9.116046905517578 -49.1668701171875 
u4542 -104.54871368408203 -114.19405364990234 -111.04025268554688 -58.74583053588867 -158.1890106201172 -26.27745246887207 -151.7395477294922 -374.94097900390625 -331.86785888671875 -45.725128173828125 -257.2486267089844 -37.4063835144043 -239.16549682617188 -54.424129486083984 -167.53627014160156 -227.6510772705078 -95.68766021728516 -249.10650634765625 -291.2198486328125 -34.79740524291992 -112.93385314941406 -20.79930877685547 -16.36774253845215 -161.32574462890625 -156.62461853027344 -115.97981262207031 -277.0500183105469 -114.38829040527344 -158.60818481445312 -11.339818954467773 -23.953876495361328 -185.64599609375 
u3605 -30.400978088378906 -35.683753967285156 -34.523162841796875 -18.46451187133789 -47.250511169433594 -71.209228515625 -45.76288604736328 -113.32115936279297 -100.23246765136719 -16.823213577270508 -77.91641235351562 -12.957326889038086 -75.31698608398438 -19.177310943603516 -49.93328857421875 -66.62586975097656 -29.83831024169922 -69.0970458984375 -280.0338439941406 -101.46077728271484 -37.959716796875 -43.677040100097656 -41.98328399658203 -49.35814666748047 -49.22645568847656 -34.981266021728516 -83.03919982910156 -37.13182067871094 -45.97863006591797 -13.723062515258789 -10.246334075927734 -57.698150634765625 
u1370 -101.39051055908203 -116.54395294189453 -110.4869384765625 -57.44538497924805 -159.47911071777344 -26.836061477661133 -150.1614227294922 -372.5078125 -326.80511474609375 -45.888275146484375 -252.36740112304688 -38.3795051574707 -236.88198852539062 -54.945438385009766 -163.5350799560547 -221.56129455566406 -98.3476791381836 -243.756103515625 -289.9659423828125 -32.32638168334961 -116.37181091308594 -16.355873107910156 -15.761602401733398 -157.45742797851562 -154.2334747314453 -113.71138000488281 -275.0094909667969 -116.91981506347656 -154.88168334960938 -9.172428131103516 -21.389747619628906 -183.03857421875 
u2453 -26.87775421142578 -25.832557678222656 -21.333145141601562 -11.408795356750488 -35.537742614746094 -78.32943725585938 -35.29120635986328 -85.69719696044922 -78.83491516113281 -7.715558052062988 -59.805908203125 -8.950117111206055 -57.397918701171875 -9.698471069335938 -40.349517822265625 -53.53651428222656 -23.41167449951172 -56.94281005859375 -277.744384765625 -105.58831024169922 -26.85589599609375 -49.413726806640625 -43.217281341552734 -39.92790985107422 -37.49366760253906 -30.273683547973633 -63.1369514465332 -26.939924240112305 -36.10150909423828 -14.199563980102539 -7.949192523956299 -49.392059326171875 
u4612 -64.54045867919922 -90.34996795654297 -70.29708862304688 -41.60232162475586 -113.77355194091797 -41.669281005859375 -99.06330108642578 -257.36102294921875 -221.92689514160156 -35.617637634277344 -174.9134521484375 -25.77360725402832 -168.57571411132812 -38.54092025756836 -106.45210266113281 -151.70204162597656 -69.72199249267578 -159.7738037109375 -286.3399658203125 -64.88228607177734 -91.094970703125 -12.957100868225098 -25.446088790893555 -103.16826629638672 -109.02674865722656 -74.0548095703125 -185.7722930908203 -86.12361145019531 -100.5692367553711 -8.781625747680664 -20.67656707763672 -126.97964477539062 
u3474 -13.879342079162598 -14.54587459564209 -18.291213989257812 -8.229580879211426 -17.71184539794922 -85.06326293945312 -19.26926612854004 -47.959251403808594 -45.17716979980469 -14.136860847473145 -35.165191650390625 -6.505048751831055 -33.3681640625 -10.951297760009766 -22.362337112426758 -28.277420043945312 -13.20815372467041 -28.116304397583008 -274.5943603515625 -121.25155639648438 -16.667861938476562 -55.14265441894531 -50.673763275146484 -24.121131896972656 -22.056076049804688 -14.181445121765137 -35.31767654418945 -17.65479850769043 -18.623817443847656 -16.00101661682129 -5.741508960723877 -24.280393600463867 
u2550 -34.470924377441406 -40.163597106933594 -36.88031005859375 -19.397838592529297 -52.816307067871094 -68.01361083984375 -52.956764221191406 -130.94024658203125 -115.98878479003906 -16.904367446899414 -89.1109619140625 -13.17997932434082 -86.1092529296875 -18.1434326171875 -59.05256652832031 -76.74497985839844 -33.46654510498047 -80.75326538085938 -280.289794921875 -96.4847640991211 -43.36244201660156 -41.992427825927734 -39.4394416809082 -56.765342712402344 -57.352386474609375 -42.80373001098633 -93.73731994628906 -41.14302062988281 -52.666969299316406 -13.18086051940918 -11.378839492797852 -67.6226806640625 
u407 -116.63141632080078 -129.9738006591797 -124.28170776367188 -63.79368209838867 -177.6659698486328 -18.37700080871582 -169.2300262451172 -418.58221435546875 -368.4990234375 -52.47618103027344 -285.6118469238281 -40.82619094848633 -264.8953857421875 -61.13750076293945 -184.47340393066406 -251.89451599121094 -108.68737030029297 -276.1094970703125 -292.2729797363281 -22.552913665771484 -129.0272979736328 -14.028794288635254 -11.788717269897461 -178.35028076171875 -173.1041717529297 -127.87709045410156 -309.6081848144531 -129.92466735839844 -174.94308471679688 -9.865079879760742 -24.099220275878906 -206.20559692382812 
u564 -75.65486907958984 -99.24152374267578 -81.86268615722656 -49.68227767944336 -129.90354919433594 -34.81855773925781 -114.9546890258789 -295.11004638671875 -254.9449005126953 -37.263221740722656 -199.40316772460938 -33.7899284362793 -193.7440185546875 -40.772884368896484 -127.56785583496094 -169.7551727294922 -81.1553726196289 -187.61929321289062 -288.2005310058594 -53.518123626708984 -102.89608764648438 -10.877358436584473 -21.516584396362305 -118.3210678100586 -124.93785095214844 -86.97880554199219 -213.05348205566406 -96.39492797851562 -114.88353729248047 -6.388219833374023 -23.395587921142578 -145.84738159179688 
u1266 -87.99539947509766 -102.56163787841797 -96.22695922851562 -51.57876968383789 -139.09095764160156 -34.063385009765625 -129.5446014404297 -321.81842041015625 -281.8983154296875 -41.206512451171875 -218.55459594726562 -34.844051361083984 -207.187255859375 -48.56828689575195 -141.5991973876953 -190.50428771972656 -86.32878875732422 -209.2630615234375 -289.3678894042969 -45.9461784362793 -102.81015014648438 -18.69829559326172 -20.33045768737793 -134.08523559570312 -133.35533142089844 -97.43917846679688 -238.2217559814453 -102.21994018554688 -132.9036865234375 -9.829427719116211 -20.909236907958984 -159.06842041015625 
u2096 -119.86518096923828 -138.42970275878906 -130.53880310058594 -67.24037170410156 -188.0094451904297 -13.078279495239258 -178.64463806152344 -443.38348388671875 -389.75054931640625 -55.35357666015625 -300.5220031738281 -42.03635787963867 -281.26934814453125 -63.22427749633789 -195.39222717285156 -264.3573913574219 -115.35675811767578 -290.05352783203125 -291.7133483886719 -16.660930633544922 -137.7168426513672 -9.06655216217041 -8.292242050170898 -187.0975341796875 -184.3914337158203 -135.6072540283203 -325.2044372558594 -138.6921844482422 -184.11697387695312 -8.579244613647461 -24.962738037109375 -217.69091796875 
u2673 -40.24115753173828 -46.16277313232422 -45.08534240722656 -22.69741439819336 -61.232017517089844 -64.82054138183594 -59.97350311279297 -150.3570556640625 -133.1533966064453 -22.040712356567383 -103.57977294921875 -14.813615798950195 -96.31561279296875 -23.209701538085938 -66.73390197753906 -88.06089782714844 -38.596778869628906 -93.72769165039062 -281.106689453125 -92.64043426513672 -50.210052490234375 -40.8349609375 -38.556575775146484 -65.3478012084961 -64.93560791015625 -45.98965835571289 -109.58189392089844 -47.128631591796875 -61.03491973876953 -12.826608657836914 -10.82486343383789 -74.81182861328125 
u720 -107.74048614501953 -125.4608383178711 -118.38200378417969 -62.41978073120117 -170.95838928222656 -19.307313919067383 -161.3628387451172 -401.21881103515625 -351.50103759765625 -49.39543914794922 -270.3592224121094 -42.22658157348633 -256.0103759765625 -57.503604888916016 -177.6694793701172 -236.57054138183594 -105.25537872314453 -260.53265380859375 -293.2140197753906 -25.16854476928711 -129.0417938232422 -9.72811222076416 -12.667074203491211 -167.46826171875 -166.2488555908203 -122.98045349121094 -294.2765197753906 -125.59548950195312 -163.48699951171875 -7.251008987426758 -24.00405502319336 -197.31536865234375 
u2315 -31.77709197998047 -33.51543426513672 -36.46464538574219 -17.276973724365234 -44.89922332763672 -69.37552642822266 -47.80431365966797 -118.01061248779297 -106.28520202636719 -19.4124698638916 -82.76058959960938 -11.013788223266602 -76.29376220703125 -17.578243255615234 -54.73106384277344 -67.35334777832031 -30.31163787841797 -72.3624267578125 -277.6997375488281 -102.60950469970703 -39.87696838378906 -46.283973693847656 -41.45016098022461 -53.11267852783203 -53.48054504394531 -36.52470779418945 -84.93571472167969 -36.116851806640625 -46.837547302246094 -13.401510238647461 -9.523563385009766 -59.120819091796875 
u907 -28.88115692138672 -31.88288116455078 -29.180953979492188 -17.179447174072266 -43.682289123535156 -72.06639099121094 -41.78376007080078 -103.74730682373047 -94.61128234863281 -12.02272891998291 -72.4013671875 -14.199804306030273 -72.1324462890625 -14.209449768066406 -49.174224853515625 -62.50276184082031 -28.03197479248047 -65.03900146484375 -278.5086364746094 -103.03568267822266 -36.15101623535156 -43.588680267333984 -42.56390380859375 -46.211753845214844 -45.89617919921875 -34.789188385009766 -75.45948791503906 -33.87242126464844 -41.171043395996094 -14.010931015014648 -12.173091888427734 -56.515289306640625 
u4752 -98.88687896728516 -119.64192962646484 -108.30859375 -58.937984466552734 -161.0602264404297 -22.71452522277832 -150.20420837402344 -375.69561767578125 -327.090087890625 -46.97510528564453 -253.15341186523438 -39.45302200317383 -241.4532470703125 -53.181827545166016 -164.3731231689453 -219.5532989501953 -98.98294830322266 -241.4970703125 -291.8233337402344 -31.929058074951172 -122.36259460449219 -7.96547794342041 -13.948568344116211 -155.3782958984375 -156.6562042236328 -114.03086853027344 -274.0819396972656 -119.25273132324219 -150.90460205078125 -7.157449722290039 -23.524452209472656 -185.49673461914062 
u3349 -30.24797821044922 -34.150413513183594 -34.22846984863281 -18.487041473388672 -46.14209747314453 -72.39312744140625 -43.437217712402344 -109.36248016357422 -96.98475646972656 -17.083711624145508 -76.45172119140625 -13.085432052612305 -71.77639770507812 -19.752033233642578 -47.64164733886719 -65.32551574707031 -29.454566955566406 -67.51858520507812 -279.36083984375 -102.95951080322266 -35.41937255859375 -45.106163024902344 -42.3300895690918 -48.626258850097656 -47.16346740722656 -33.55734634399414 -81.80528259277344 -35.13664245605469 -45.028297424316406 -14.862417221069336 -10.252340316772461 -55.213775634765625 
i387 -887.3150024414062 -580.12548828125 -1112.5162353515625 -317.93536376953125 -1130.674560546875 -385.3375244140625 -880.0382690429688 -1608.393798828125 -1915.2109375 -666.121337890625 -1203.988525390625 -622.9014892578125 -1270.616455078125 -650.4036254882812 -933.9110107421875 -1650.505859375 -664.6301879882812 -1534.6546630859375 -156.17474365234375 -442.10101318359375 -328.1202087402344 -623.8277587890625 -394.37384033203125 -1167.5224609375 -245.83470153808594 -1117.73876953125 -1603.2120361328125 -962.8408203125 -966.26611328125 -807.173095703125 -525.1036376953125 -932.7076416015625 
u2510 -33.190330505371094 -39.46623992919922 -33.91954040527344 -18.898296356201172 -51.474205017089844 -68.9159164428711 -49.58380889892578 -124.67314910888672 -110.12019348144531 -15.87453556060791 -84.532470703125 -14.741949081420898 -82.1356201171875 -16.95172882080078 -55.85588073730469 -72.36723327636719 -32.07183074951172 -76.55355834960938 -280.16748046875 -97.52104949951172 -43.38584899902344 -40.769065856933594 -40.90412521362305 -53.808998107910156 -54.51335144042969 -39.54043960571289 -89.18977355957031 -39.50083923339844 -49.056739807128906 -12.626852035522461 -11.674858093261719 -64.60861206054688 
u1775 -55.71825408935547 -76.51367950439453 -59.02397155761719 -35.9452018737793 -98.11910247802734 -51.44395446777344 -83.25540924072266 -216.31768798828125 -186.22901916503906 -27.992380142211914 -147.43841552734375 -25.062284469604492 -141.869140625 -34.026302337646484 -89.27497863769531 -126.84819030761719 -59.876731872558594 -134.48828125 -286.5912780761719 -72.31946563720703 -78.76507568359375 -18.252784729003906 -31.40443992614746 -87.46736907958984 -89.72947692871094 -61.36679458618164 -158.8954620361328 -72.45985412597656 -83.85308074951172 -9.20539665222168 -17.69438934326172 -107.67889404296875 
i389 -898.3310546875 -589.8963623046875 -1130.1077880859375 -323.6578674316406 -1149.1552734375 -388.4862060546875 -894.5758666992188 -1635.240234375 -1943.93603515625 -675.2937622070312 -1224.0267333984375 -631.9478759765625 -1292.6634521484375 -661.043701171875 -947.14697265625 -1677.58154296875 -675.8079223632812 -1558.454345703125 -154.4011688232422 -447.85760498046875 -332.8656311035156 -631.18505859375 -397.92120361328125 -1187.04296875 -250.6689910888672 -1136.078369140625 -1627.5604248046875 -976.7752685546875 -983.36572265625 -819.4325561523438 -531.779296875 -949.222412109375 
u4403 -31.626075744628906 -33.21916961669922 -36.88897705078125 -17.273189544677734 -44.05809783935547 -70.72832489013672 -46.02338409423828 -115.20085906982422 -104.49794006347656 -19.373262405395508 -80.1629638671875 -11.498289108276367 -74.34262084960938 -17.999359130859375 -53.05366516113281 -66.51557922363281 -29.48621368408203 -71.74951171875 -276.8436279296875 -103.66907501220703 -38.73921203613281 -47.956119537353516 -43.080169677734375 -52.376548767089844 -51.63084411621094 -35.67924880981445 -83.47517395019531 -35.51103210449219 -46.085594177246094 -13.513845443725586 -9.315643310546875 -57.11334228515625 
