947 32
u380 -245.82763671875 -441.7544860839844 -489.9645080566406 -449.6256408691406 -175.33050537109375 -319.5577697753906 -265.89044189453125 -169.7120361328125 -37.26704025268555 -343.2125244140625 -182.34130859375 -108.35981750488281 -136.6107940673828 -420.5696716308594 -524.2841796875 -86.81092834472656 -299.720947265625 -263.00323486328125 -118.13105773925781 -65.71739196777344 -166.6920623779297 -355.1048889160156 -207.70053100585938 -165.15676879882812 -159.41656494140625 -27.402938842773438 -21.10809326171875 -515.5391235351562 -317.07574462890625 -116.90353393554688 -245.30055236816406 -520.57080078125 
u56 -199.15451049804688 -373.9184265136719 -417.1262512207031 -369.1506652832031 -128.0216064453125 -300.27044677734375 -240.60890197753906 -138.70376586914062 -23.311952590942383 -257.5167236328125 -149.17544555664062 -72.39918518066406 -163.84274291992188 -342.5245056152344 -440.32843017578125 -76.0143814086914 -241.81434631347656 -211.72305297851562 -82.77000427246094 -42.562713623046875 -196.1443634033203 -272.1502990722656 -138.78836059570312 -110.38723754882812 -113.57373046875 -17.122177124023438 -12.441883087158203 -431.674072265625 -257.5718994140625 -90.36289978027344 -201.5326690673828 -438.2294616699219 
u492 -325.2828674316406 -559.2962646484375 -614.507080078125 -584.925537109375 -261.3117980957031 -357.0273742675781 -315.8876037597656 -225.10690307617188 -55.87606430053711 -492.80859375 -236.15078735351562 -167.2788543701172 -92.49483489990234 -565.6253662109375 -665.6053466796875 -107.18521881103516 -400.7930908203125 -345.64581298828125 -172.3744659423828 -96.38906860351562 -107.51367950439453 -508.2422180175781 -319.3621520996094 -255.4005126953125 -237.01754760742188 -45.00415802001953 -29.14266586303711 -668.5029907226562 -428.54193115234375 -159.98611450195312 -324.7431640625 -666.870849609375 
i65 -72.73678588867188 -45.3687744140625 -39.25387954711914 -237.63754272460938 -47.457271575927734 -91.8072280883789 -36.628849029541016 -125.64187622070312 -140.22164916992188 -204.75506591796875 -202.24606323242188 -77.29051208496094 -181.52574157714844 -140.7491455078125 -180.2654571533203 -2.0265558760002023e-06 -63.08985900878906 -118.94430541992188 -57.707122802734375 -166.1480255126953 -554.9614868164062 -147.24557495117188 -192.06600952148438 -122.73330688476562 -90.03195190429688 -81.05150604248047 -320.77410888671875 -204.42562866210938 -190.55526733398438 -40.16293716430664 -144.5953826904297 -270.9906921386719 
u599 -169.3271484375 -335.69268798828125 -373.1539001464844 -321.0150451660156 -93.91567993164062 -286.34368896484375 -226.84263610839844 -119.1495361328125 -14.847085952758789 -202.98486328125 -129.66552734375 -49.68287658691406 -179.6560821533203 -287.9865417480469 -388.94439697265625 -69.75747680664062 -207.4972381591797 -181.33273315429688 -65.26933288574219 -30.527557373046875 -215.0438690185547 -216.95590209960938 -98.49844360351562 -76.4217529296875 -82.25131225585938 -12.995978355407715 -11.503379821777344 -377.0574951171875 -216.51876831054688 -73.98403930664062 -171.9281463623047 -387.4382019042969 
u280 -207.0528564453125 -390.5708312988281 -430.5774841308594 -383.9375305175781 -135.42214965820312 -304.3938903808594 -245.35801696777344 -144.80410766601562 -26.121889114379883 -274.84844970703125 -155.23348999023438 -79.04695129394531 -157.3695831298828 -356.1374206542969 -455.258544921875 -76.91695404052734 -253.67274475097656 -221.94366455078125 -90.71226501464844 -46.91667175292969 -192.43849182128906 -288.2586975097656 -149.98294067382812 -120.98187255859375 -121.57305908203125 -22.56212615966797 -13.661331176757812 -447.3382568359375 -270.2288818359375 -95.49385070800781 -208.3697052001953 -455.8302917480469 
u484 -243.54672241210938 -442.3500671386719 -487.0646057128906 -447.4354553222656 -175.19009399414062 -321.5386962890625 -269.36492919921875 -172.90267944335938 -35.89545822143555 -340.84783935546875 -182.34860229492188 -109.97679138183594 -136.38217163085938 -426.6146545410156 -522.115234375 -90.2454605102539 -302.9453125 -262.39007568359375 -115.95469665527344 -61.82292175292969 -162.2148895263672 -360.8498840332031 -204.86099243164062 -162.51019287109375 -157.24331665039062 -32.04454803466797 -19.743961334228516 -519.4874267578125 -318.75616455078125 -115.39207458496094 -245.9450225830078 -524.1634521484375 
u681 -265.9709167480469 -474.7008972167969 -521.684326171875 -482.0935363769531 -198.4737548828125 -330.28375244140625 -280.56024169921875 -184.0 -40.32381057739258 -382.272216796875 -196.13906860351562 -121.86766052246094 -125.31954193115234 -458.1210021972656 -558.9212646484375 -90.8764419555664 -325.625 -281.69586181640625 -131.8192596435547 -69.82684326171875 -151.23313903808594 -395.5932922363281 -234.43972778320312 -186.35089111328125 -178.03369140625 -32.583595275878906 -21.058368682861328 -555.9464111328125 -348.9969482421875 -126.57914733886719 -265.78326416015625 -560.5157470703125 
u323 -399.8855895996094 -664.88525390625 -725.4288330078125 -712.00341796875 -346.0265808105469 -392.418212890625 -353.857177734375 -281.84423828125 -78.79370880126953 -629.7750854492188 -284.153564453125 -230.4184112548828 -48.88637924194336 -710.1824951171875 -795.6190795898438 -124.59889221191406 -496.04144287109375 -432.11383056640625 -221.43174743652344 -133.59620666503906 -55.02179718017578 -654.8253173828125 -428.6982116699219 -342.8367919921875 -314.2015686035156 -64.78315734863281 -36.216766357421875 -812.94873046875 -530.9112548828125 -203.69833374023438 -401.06231689453125 -801.65966796875 
u710 -328.9586486816406 -562.9049072265625 -619.8873901367188 -592.322021484375 -264.8466491699219 -358.42364501953125 -317.2521667480469 -228.24078369140625 -57.755489349365234 -500.066650390625 -239.14157104492188 -171.75425720214844 -90.38268280029297 -573.409912109375 -672.120849609375 -109.49800109863281 -405.74163818359375 -350.499755859375 -173.92991638183594 -99.96339416503906 -104.33243560791016 -515.817626953125 -325.5133361816406 -260.78955078125 -241.53353881835938 -45.540748596191406 -29.812129974365234 -675.2806396484375 -433.08062744140625 -161.82186889648438 -327.3359375 -672.66357421875 
i10 -136.448486328125 -104.38592529296875 -125.13496398925781 -353.3960266113281 -145.84674072265625 -59.32139587402344 -22.344322204589844 -193.4375 -183.6611328125 -382.4195556640625 -270.0481262207031 -157.9795379638672 -137.14320373535156 -260.5721130371094 -260.93621826171875 -80.84059143066406 -201.5399627685547 -202.13467407226562 -101.56544494628906 -244.48548889160156 -540.388427734375 -295.9381408691406 -363.0640563964844 -272.49163818359375 -193.411376953125 -126.68573760986328 -388.0521240234375 -349.62506103515625 -288.79229736328125 -72.67117309570312 -210.36924743652344 -359.6845397949219 
u464 -284.0865783691406 -495.3328552246094 -548.1453857421875 -514.396728515625 -219.29525756835938 -339.2354736328125 -284.01318359375 -195.02444458007812 -46.94498062133789 -411.451904296875 -204.63507080078125 -136.41148376464844 -115.5954818725586 -486.6586608886719 -590.5975341796875 -93.03007507324219 -345.4395751953125 -300.47662353515625 -143.4473114013672 -80.696044921875 -142.3736114501953 -424.9692687988281 -259.7114562988281 -205.99945068359375 -198.8746337890625 -32.02888488769531 -25.166015625 -583.6222534179688 -367.84490966796875 -135.88546752929688 -283.36968994140625 -583.9342041015625 
u510 -255.82354736328125 -459.2078552246094 -505.7876892089844 -466.6228942871094 -188.22802734375 -325.7460021972656 -275.0864562988281 -179.3155517578125 -38.36141586303711 -364.11932373046875 -188.59033203125 -116.82185363769531 -130.4712371826172 -446.6947937011719 -541.7548828125 -90.26837158203125 -315.60791015625 -274.324951171875 -123.73048400878906 -67.85829162597656 -155.81199645996094 -381.3077087402344 -221.06643676757812 -176.59552001953125 -169.40176391601562 -32.67790222167969 -19.779888153076172 -540.3198852539062 -336.00982666015625 -122.57717895507812 -257.80474853515625 -543.3759765625 
u77 -270.4747009277344 -467.9796447753906 -518.59521484375 -479.7314758300781 -201.62823486328125 -330.95745849609375 -277.8006591796875 -184.70132446289062 -35.87514114379883 -378.2811279296875 -192.82736206054688 -117.42680358886719 -127.79869842529297 -457.4855041503906 -552.3259887695312 -91.02985382080078 -313.5379638671875 -274.38836669921875 -124.60221862792969 -67.87086486816406 -150.7074737548828 -395.9996643066406 -234.59231567382812 -185.18536376953125 -182.39324951171875 -26.78882598876953 -14.564460754394531 -556.8872680664062 -356.90155029296875 -124.91160583496094 -269.27923583984375 -559.638916015625 
u314 -361.0417785644531 -607.1476440429688 -666.640625 -647.8961181640625 -300.9295349121094 -372.8765869140625 -333.45556640625 -251.5361328125 -67.7078628540039 -557.6058959960938 -260.95831298828125 -198.5494842529297 -71.31029510498047 -630.3973388671875 -727.5341186523438 -118.27189636230469 -447.4903564453125 -384.8721923828125 -196.2105255126953 -114.72959899902344 -83.33048248291016 -573.875244140625 -374.1242370605469 -298.2706298828125 -273.3744812011719 -51.54203796386719 -34.16632843017578 -734.0523681640625 -472.3046875 -179.64944458007812 -357.75335693359375 -728.5494384765625 
i61 -91.12185668945312 -65.0657958984375 -83.10716247558594 -253.46554565429688 -87.1092529296875 -69.04261016845703 -24.343626022338867 -145.83609008789062 -148.92034912109375 -252.6270751953125 -202.71237182617188 -106.50419616699219 -171.59385681152344 -179.98269653320312 -184.9978485107422 -69.08177947998047 -134.0297088623047 -138.0458984375 -76.04150390625 -186.84849548339844 -527.52685546875 -194.86294555664062 -246.54306030273438 -181.97747802734375 -120.39910888671875 -112.8637466430664 -329.3045959472656 -252.8148193359375 -203.20632934570312 -47.1317024230957 -149.80723571777344 -267.8591003417969 
i24 -107.72125244140625 -73.61846923828125 -91.34574890136719 -301.3185729980469 -96.69122314453125 -69.4575424194336 -24.6788387298584 -169.33636474609375 -157.50796508789062 -293.78271484375 -226.4041748046875 -117.30308532714844 -160.1475067138672 -210.82272338867188 -220.8975067138672 -66.12136840820312 -151.83164978027344 -167.61105346679688 -87.20452880859375 -210.16651916503906 -538.1840209960938 -231.52883911132812 -278.9742126464844 -205.2872314453125 -139.15084838867188 -120.51717376708984 -360.32269287109375 -287.49755859375 -234.7489013671875 -55.21211624145508 -175.3657684326172 -315.7044372558594 
i39 -123.0771484375 -91.30978393554688 -94.41105651855469 -325.9435119628906 -98.82611083984375 -78.12334442138672 -33.55300521850586 -164.57656860351562 -170.18994140625 -319.26934814453125 -232.90509033203125 -126.62498474121094 -160.92808532714844 -214.65670776367188 -233.0430145263672 -52.48195266723633 -140.65248107910156 -173.80889892578125 -81.41839599609375 -205.58314514160156 -558.53369140625 -241.32553100585938 -286.0000305175781 -209.42718505859375 -165.09756469726562 -113.46202850341797 -366.9261779785156 -292.05999755859375 -258.050048828125 -53.01845169067383 -193.27073669433594 -334.8246765136719 
u147 -179.178466796875 -348.8226623535156 -389.8133850097656 -336.3414611816406 -104.98312377929688 -291.0657958984375 -230.5965118408203 -123.87655639648438 -21.299081802368164 -223.03314208984375 -137.458740234375 -60.64628601074219 -173.42214965820312 -305.1069030761719 -412.1787109375 -69.55809783935547 -219.6951446533203 -192.86172485351562 -74.59983825683594 -34.38908386230469 -212.3051300048828 -233.07778930664062 -107.26699829101562 -87.84536743164062 -92.84707641601562 -17.940635681152344 -15.232982635498047 -396.4515380859375 -226.70584106445312 -81.00894165039062 -181.7108917236328 -404.8483581542969 
u191 -240.10357666015625 -434.3824157714844 -480.9632873535156 -440.1724548339844 -169.1788330078125 -317.5293884277344 -263.9349670410156 -165.90933227539062 -33.7447624206543 -332.5577392578125 -178.60415649414062 -101.94117736816406 -140.5240020751953 -410.8556823730469 -512.1805419921875 -86.23615264892578 -294.1988525390625 -254.96697998046875 -112.35835266113281 -61.840301513671875 -168.96473693847656 -345.6067199707031 -200.32797241210938 -158.56716918945312 -153.4454345703125 -24.193153381347656 -18.535659790039062 -504.57574462890625 -310.8070068359375 -112.76396179199219 -238.9467010498047 -510.5285949707031 
u170 -344.5617980957031 -584.4345703125 -640.1552124023438 -616.5609130859375 -284.6294250488281 -367.17022705078125 -325.4967346191406 -242.70285034179688 -61.78312301635742 -525.4185791015625 -247.80047607421875 -185.44581604003906 -82.03282928466797 -607.9735107421875 -697.6979370117188 -114.86944580078125 -424.68768310546875 -369.01953125 -183.0280303955078 -106.19053649902344 -92.02167510986328 -549.8951416015625 -348.2422790527344 -278.0218505859375 -256.5836486816406 -51.910850524902344 -28.897491455078125 -708.0841064453125 -456.5416259765625 -172.222900390625 -346.339111328125 -703.3294677734375 
u229 -259.99420166015625 -469.5442199707031 -518.155517578125 -479.4643859863281 -193.01022338867188 -327.919677734375 -278.89617919921875 -181.34674072265625 -42.4604377746582 -376.327880859375 -193.89993286132812 -124.38258361816406 -125.2049331665039 -453.0704650878906 -556.151611328125 -90.21236419677734 -327.194091796875 -283.1383972167969 -132.4768524169922 -71.29049682617188 -152.7670135498047 -389.4176940917969 -228.80569458007812 -183.57330322265625 -175.1209716796875 -35.783485412597656 -25.982349395751953 -550.0249633789062 -336.80902099609375 -125.06315612792969 -260.4281005859375 -551.7794189453125 
u626 -240.37335205078125 -437.0718078613281 -480.5676574707031 -440.1607360839844 -171.8961181640625 -318.614990234375 -266.0687255859375 -168.9031982421875 -34.64192581176758 -334.1754150390625 -177.218994140625 -105.13352966308594 -139.14443969726562 -418.8124694824219 -513.5022583007812 -85.77967071533203 -295.48956298828125 -257.5283203125 -112.92097473144531 -60.80653381347656 -166.5503387451172 -351.6309509277344 -198.41677856445312 -157.198486328125 -153.27066040039062 -29.822898864746094 -18.199359893798828 -511.614990234375 -314.133056640625 -113.6090087890625 -242.9724884033203 -515.838134765625 
u471 -304.0375061035156 -528.2247314453125 -580.4552001953125 -551.286376953125 -239.73251342773438 -347.86004638671875 -303.5202331542969 -212.75625610351562 -51.64406967163086 -453.60986328125 -222.55160522460938 -154.9473419189453 -103.68254852294922 -530.74267578125 -629.67919921875 -105.57230377197266 -377.19403076171875 -325.49627685546875 -158.07252502441406 -89.91278076171875 -121.8130874633789 -469.9707946777344 -293.1943054199219 -233.8448486328125 -217.36758422851562 -41.12510681152344 -28.295944213867188 -630.1055908203125 -399.092529296875 -148.98410034179688 -304.11273193359375 -629.2064208984375 
i66 -34.773162841796875 -34.33757019042969 -36.2319221496582 -203.93646240234375 -40.87411117553711 -95.75218963623047 -23.32624053955078 -110.98135375976562 -127.77169036865234 -181.17474365234375 -202.96337890625 -68.81202697753906 -205.35508728027344 -106.69558715820312 -162.3528594970703 -19.397003173828125 -79.10148620605469 -106.6014404296875 -28.376922607421875 -142.81251525878906 -552.8743896484375 -110.25735473632812 -152.52249145507812 -111.47161865234375 -84.20635986328125 -78.33629608154297 -305.2263488769531 -186.0465087890625 -157.14926147460938 -14.610690116882324 -128.4089813232422 -244.012451171875 
u3 -222.38320922851562 -404.9831848144531 -450.5076599121094 -409.0035705566406 -150.0152587890625 -310.43017578125 -254.2367401123047 -155.77197265625 -27.95372200012207 -298.03521728515625 -164.68795776367188 -89.25971984863281 -151.2562713623047 -383.3003845214844 -476.84405517578125 -83.9293212890625 -266.74493408203125 -233.96795654296875 -95.34144592285156 -53.63441467285156 -178.76622009277344 -316.2555236816406 -173.09085083007812 -136.544189453125 -136.7567138671875 -21.50177764892578 -13.95022964477539 -472.3551025390625 -291.34173583984375 -101.59738159179688 -224.27439880371094 -479.4002380371094 
u396 -392.7077331542969 -657.0460815429688 -717.3812255859375 -698.5064697265625 -335.6976623535156 -389.065673828125 -351.8987731933594 -273.47412109375 -74.56713104248047 -619.2122192382812 -282.16802978515625 -221.47483825683594 -52.90475082397461 -691.4090576171875 -785.0364990234375 -123.33271789550781 -484.32598876953125 -419.6326904296875 -217.96485900878906 -127.73936462402344 -62.83600616455078 -639.4842529296875 -415.6489562988281 -335.52606201171875 -307.7301330566406 -62.42710876464844 -35.13433074951172 -797.1011962890625 -526.1900024414062 -197.6893310546875 -392.05242919921875 -790.0789794921875 
u659 -285.2290344238281 -501.0771179199219 -551.501708984375 -516.77490234375 -218.38409423828125 -338.76324462890625 -291.83880615234375 -198.71463012695312 -45.855648040771484 -419.78631591796875 -209.22564697265625 -137.10389709472656 -114.53099822998047 -495.7596130371094 -593.18798828125 -97.7503433227539 -350.45208740234375 -303.6363830566406 -142.3029022216797 -81.66355895996094 -136.1084442138672 -434.2739562988281 -262.9739074707031 -211.09295654296875 -198.72607421875 -36.447593688964844 -22.826614379882812 -593.6685791015625 -376.82891845703125 -137.90518188476562 -284.4327392578125 -594.9881591796875 
u127 -386.8717956542969 -645.9954833984375 -703.7994995117188 -688.088134765625 -330.5023498535156 -385.6617431640625 -347.06890869140625 -271.97430419921875 -73.93470001220703 -604.0357055664062 -275.5272216796875 -218.40000915527344 -56.411678314208984 -682.86962890625 -771.55810546875 -122.72637939453125 -477.3389892578125 -414.92431640625 -212.65223693847656 -126.17446899414062 -66.04932403564453 -627.328857421875 -408.2969665527344 -327.7706298828125 -300.3531188964844 -62.01317596435547 -34.03654479980469 -787.27685546875 -514.71240234375 -195.5565185546875 -386.52752685546875 -778.3797607421875 
u516 -307.0634460449219 -534.0965576171875 -586.9197387695312 -555.86181640625 -241.99246215820312 -349.92138671875 -307.12933349609375 -216.422607421875 -52.463863372802734 -458.267333984375 -220.52899169921875 -155.02198791503906 -100.58293914794922 -538.976318359375 -632.6047973632812 -103.15029907226562 -382.3809814453125 -328.6634521484375 -157.8733367919922 -89.510498046875 -115.46244049072266 -479.3337707519531 -292.1416320800781 -232.7730712890625 -218.51626586914062 -45.469200134277344 -27.714630126953125 -638.848388671875 -404.009033203125 -151.03323364257812 -308.2396240234375 -636.9818115234375 
u92 -315.88983154296875 -542.606201171875 -594.8548583984375 -567.7265625 -253.37197875976562 -353.4207763671875 -310.0560607910156 -224.21743774414062 -53.280818939208984 -471.3824462890625 -227.82736206054688 -162.5701446533203 -98.6368637084961 -556.6942138671875 -644.9818115234375 -107.38980102539062 -388.251953125 -338.41033935546875 -162.93028259277344 -93.29792785644531 -110.84879302978516 -495.0340270996094 -307.9378967285156 -243.35821533203125 -226.38790893554688 -45.31928253173828 -25.589397430419922 -653.71728515625 -416.53076171875 -156.334716796875 -319.58746337890625 -651.21435546875 
u715 -290.14141845703125 -507.0299377441406 -558.8782348632812 -526.2010498046875 -223.68038940429688 -340.52142333984375 -294.4805603027344 -200.87307739257812 -47.65407180786133 -426.69903564453125 -212.80288696289062 -141.2285919189453 -112.58431243896484 -502.5389709472656 -602.8026123046875 -100.0814208984375 -357.39410400390625 -308.8651123046875 -146.97764587402344 -83.03721618652344 -132.3015594482422 -441.3809509277344 -271.1151428222656 -215.9100341796875 -202.46182250976562 -35.985679626464844 -24.914180755615234 -600.8196411132812 -379.38720703125 -140.69561767578125 -288.9532470703125 -602.295166015625 
u66 -271.4340515136719 -472.9552307128906 -522.1976928710938 -486.2546081542969 -202.27377319335938 -332.7092590332031 -278.3314514160156 -188.24160766601562 -40.27425765991211 -386.28765869140625 -196.15371704101562 -124.24473571777344 -123.64775848388672 -467.2298889160156 -558.6439208984375 -93.79666137695312 -323.51617431640625 -282.03521728515625 -125.93132019042969 -73.26695251464844 -149.4650421142578 -405.6815490722656 -238.71560668945312 -192.03729248046875 -186.71517944335938 -33.082908630371094 -16.0992431640625 -563.3626708984375 -360.6915283203125 -128.2354736328125 -270.389892578125 -567.391357421875 
u727 -318.2270202636719 -547.0370483398438 -597.7801513671875 -572.098876953125 -256.3379821777344 -352.9437255859375 -309.6209716796875 -223.73153686523438 -54.834102630615234 -476.77020263671875 -229.61883544921875 -165.42799377441406 -95.69518280029297 -560.7470703125 -649.470947265625 -106.43402099609375 -392.21856689453125 -340.7528076171875 -164.82847595214844 -95.44184875488281 -113.46280670166016 -497.2152404785156 -310.8126525878906 -248.24798583984375 -231.6304931640625 -46.05498504638672 -25.37210464477539 -657.3811645507812 -420.79681396484375 -156.72491455078125 -318.95904541015625 -654.4368896484375 
u186 -320.8606262207031 -550.381591796875 -605.1879272460938 -577.6798095703125 -254.96768188476562 -353.40447998046875 -309.2783508300781 -220.96182250976562 -56.199031829833984 -480.3780517578125 -232.5072021484375 -164.86570739746094 -93.6446762084961 -551.916015625 -654.97802734375 -103.26084899902344 -396.40679931640625 -339.90130615234375 -170.56800842285156 -95.16093444824219 -114.4885025024414 -493.1236877441406 -312.1481628417969 -249.7645263671875 -232.01174926757812 -43.17674255371094 -30.374618530273438 -654.9027099609375 -415.34942626953125 -157.05368041992188 -316.280517578125 -654.1529541015625 
u427 -243.44927978515625 -440.4303283691406 -487.0754089355469 -447.0705261230469 -172.68649291992188 -318.871337890625 -266.4012145996094 -168.2655029296875 -35.6442985534668 -337.92852783203125 -179.84945678710938 -107.05204772949219 -137.33999633789062 -414.5085144042969 -520.132080078125 -85.04253387451172 -301.06488037109375 -258.5611572265625 -119.13533020019531 -61.717529296875 -166.7610626220703 -349.2411804199219 -202.47256469726562 -160.64389038085938 -154.7608642578125 -27.135581970214844 -22.662498474121094 -511.80267333984375 -309.90277099609375 -114.31449890136719 -241.3063201904297 -516.2279052734375 
i93 -103.26763916015625 -72.36181640625 -73.47523498535156 -255.75637817382812 -78.53439331054688 -70.41255187988281 -32.79745101928711 -142.15872192382812 -149.59262084960938 -261.228271484375 -199.21548461914062 -92.00205993652344 -159.98526000976562 -170.54562377929688 -187.07972717285156 -51.62337112426758 -126.44465637207031 -141.3857421875 -69.68490600585938 -191.0741424560547 -527.8646850585938 -187.55111694335938 -253.03646850585938 -176.31103515625 -128.4095458984375 -93.90680694580078 -318.2628479003906 -246.31866455078125 -206.24887084960938 -57.83884048461914 -164.0127716064453 -266.7216491699219 
u31 -263.3918762207031 -460.5330505371094 -509.5036315917969 -469.0055236816406 -194.13629150390625 -328.38140869140625 -267.1248779296875 -181.73590087890625 -45.94443893432617 -368.7467041015625 -190.54275512695312 -114.51750183105469 -128.84507751464844 -446.1425476074219 -543.7591552734375 -86.1124038696289 -309.9495849609375 -274.71380615234375 -113.19017028808594 -77.56491088867188 -157.63490295410156 -385.5625305175781 -230.68136596679688 -177.8487548828125 -176.6800537109375 -29.6263427734375 -16.487812042236328 -547.5382690429688 -342.56597900390625 -125.8568115234375 -260.00225830078125 -552.850830078125 
u565 -286.1219177246094 -501.3324279785156 -550.0927734375 -517.6776123046875 -220.47085571289062 -339.20404052734375 -291.8101501464844 -200.97335815429688 -46.684505462646484 -417.7574462890625 -208.04730224609375 -140.0917205810547 -113.5642318725586 -501.3533020019531 -593.748046875 -97.89940643310547 -352.51446533203125 -306.0321044921875 -143.3740692138672 -80.57427978515625 -135.1337127685547 -436.7315368652344 -263.6655578613281 -210.37139892578125 -198.69265747070312 -39.564430236816406 -23.252593994140625 -596.4324340820312 -376.1370849609375 -139.33697509765625 -287.79766845703125 -597.0587158203125 
u542 -294.4209289550781 -513.93798828125 -569.3480834960938 -536.9317626953125 -230.17837524414062 -347.21051025390625 -298.0902404785156 -209.42608642578125 -51.63290023803711 -436.93798828125 -214.59503173828125 -151.0948944091797 -107.52144622802734 -520.152099609375 -615.1939697265625 -104.2458724975586 -368.71136474609375 -319.4195556640625 -150.43565368652344 -86.69496154785156 -122.21167755126953 -461.4054260253906 -278.4607849121094 -220.68426513671875 -209.11492919921875 -43.32936096191406 -28.551528930664062 -617.2728881835938 -386.83660888671875 -144.13632202148438 -297.84002685546875 -615.5504150390625 
u614 -239.213134765625 -437.7411193847656 -482.8899230957031 -435.5503845214844 -168.98959350585938 -317.33819580078125 -266.659423828125 -164.16729736328125 -35.32627487182617 -333.97900390625 -179.78192138671875 -99.87080383300781 -139.9668731689453 -408.7466735839844 -515.4659423828125 -82.96804809570312 -296.96856689453125 -254.10269165039062 -114.82212829589844 -57.899993896484375 -168.8538055419922 -343.9525451660156 -196.90005493164062 -154.51165771484375 -148.72601318359375 -26.932571411132812 -21.42115020751953 -508.41595458984375 -308.24566650390625 -113.36241149902344 -239.6765899658203 -514.037353515625 
u716 -177.8013916015625 -347.3216247558594 -388.2439880371094 -334.8426818847656 -102.61831665039062 -290.4803771972656 -230.5397186279297 -123.32054138183594 -17.981752395629883 -220.10809326171875 -136.9344482421875 -54.72248840332031 -175.4567108154297 -300.1426696777344 -405.07708740234375 -70.60580444335938 -216.1106414794922 -189.60015869140625 -70.84535217285156 -35.25083923339844 -209.90858459472656 -232.17514038085938 -110.34140014648438 -85.37594604492188 -90.39126586914062 -12.15201473236084 -12.814453125 -389.839111328125 -227.22216796875 -78.62956237792969 -179.7724151611328 -401.0603942871094 
i48 -132.27304077148438 -96.64688110351562 -100.15406799316406 -343.4071350097656 -112.829833984375 -76.94091033935547 -33.010372161865234 -177.35247802734375 -173.47976684570312 -331.01983642578125 -239.2435302734375 -134.49378967285156 -154.9087677001953 -245.49423217773438 -250.7425994873047 -58.36623764038086 -145.9513702392578 -185.1436767578125 -99.07258605957031 -218.8273162841797 -559.2108764648438 -268.7970886230469 -304.8349304199219 -219.00048828125 -161.36688232421875 -129.24855041503906 -387.4162292480469 -304.503662109375 -272.6314697265625 -61.3765754699707 -193.0207977294922 -359.7352600097656 
u345 -216.31396484375 -402.0607604980469 -445.3739929199219 -401.9903259277344 -144.71432495117188 -307.31207275390625 -251.3127899169922 -150.21572875976562 -29.399675369262695 -289.40435791015625 -162.94989013671875 -87.66932678222656 -151.94229125976562 -370.1798400878906 -473.93170166015625 -80.6143798828125 -267.30291748046875 -231.8548583984375 -99.62046813964844 -50.3441162109375 -184.8944549560547 -302.3014831542969 -165.77090454101562 -130.74813842773438 -129.87261962890625 -22.906898498535156 -19.166217803955078 -463.077392578125 -276.32666015625 -99.86549377441406 -217.15147399902344 -470.0024108886719 
u770 -321.3919982910156 -553.0507202148438 -605.958251953125 -578.4144287109375 -259.8738708496094 -356.1539306640625 -312.4968566894531 -226.40921020507812 -56.66445541381836 -484.216796875 -232.07827758789062 -168.7078399658203 -93.7350082397461 -567.53173828125 -658.6898193359375 -107.13175964355469 -399.01025390625 -346.2039794921875 -169.2727508544922 -96.65965270996094 -108.44812774658203 -506.5765686035156 -315.2751770019531 -251.7191162109375 -233.73464965820312 -47.84306335449219 -28.254356384277344 -665.586181640625 -423.65283203125 -159.9642333984375 -324.21954345703125 -661.9217529296875 
u332 -333.0707702636719 -570.3036499023438 -622.7417602539062 -597.8409423828125 -271.3977966308594 -360.8592529296875 -316.77362060546875 -233.81671142578125 -60.77279281616211 -506.14959716796875 -239.859130859375 -178.89427185058594 -86.10018157958984 -585.82861328125 -678.9832763671875 -108.74195098876953 -411.08477783203125 -358.40557861328125 -178.54493713378906 -102.3521728515625 -104.64319610595703 -525.6455078125 -329.7660217285156 -266.07855224609375 -246.88717651367188 -52.384559631347656 -28.876747131347656 -686.6007690429688 -440.5516357421875 -165.32186889648438 -332.622802734375 -682.32763671875 
u615 -205.768798828125 -384.1747741699219 -426.3298034667969 -382.5920104980469 -133.43121337890625 -302.76556396484375 -243.9122772216797 -142.7828369140625 -25.288278579711914 -267.47991943359375 -152.556884765625 -77.67118835449219 -159.79733276367188 -349.5951843261719 -450.7916259765625 -77.9284896850586 -249.2102813720703 -218.116943359375 -88.95213317871094 -46.073394775390625 -192.0943145751953 -281.1816101074219 -148.93594360351562 -117.27603149414062 -118.62326049804688 -18.90813446044922 -14.96950912475586 -441.6300048828125 -262.74603271484375 -93.60169982910156 -206.4910125732422 -449.3629455566406 
u463 -246.0728759765625 -445.7727966308594 -492.8893737792969 -451.7989196777344 -177.26663208007812 -320.9266662597656 -267.5953369140625 -170.03778076171875 -36.619625091552734 -344.768798828125 -181.72860717773438 -109.91288757324219 -135.5485382080078 -421.2089538574219 -526.8848266601562 -85.40330505371094 -305.19384765625 -262.90625 -122.22929382324219 -63.287628173828125 -164.73316955566406 -356.5978088378906 -206.82113647460938 -164.84210205078125 -158.45361328125 -27.962417602539062 -22.83078384399414 -518.5484619140625 -315.21319580078125 -116.15948486328125 -244.6224822998047 -521.8187255859375 
u75 -230.28256225585938 -414.9950866699219 -460.7940979003906 -419.8094177246094 -157.33047485351562 -312.32550048828125 -257.0646667480469 -160.92056274414062 -30.81353187561035 -312.3485107421875 -171.64157104492188 -93.94871520996094 -146.06964111328125 -393.8415222167969 -487.93780517578125 -85.67414093017578 -276.181884765625 -240.70355224609375 -97.96772766113281 -58.29475402832031 -175.8784942626953 -327.2057800292969 -183.27420043945312 -145.50173950195312 -144.905517578125 -23.37610626220703 -12.897541046142578 -486.66082763671875 -301.29827880859375 -105.22007751464844 -226.5566864013672 -493.8268127441406 
u136 -397.1017150878906 -663.0573120117188 -724.0210571289062 -705.797607421875 -341.1656188964844 -391.4978332519531 -353.67138671875 -276.4053039550781 -75.65825653076172 -627.1288452148438 -284.3128662109375 -225.20237731933594 -51.346920013427734 -700.0716552734375 -794.0137329101562 -125.235595703125 -490.52960205078125 -426.40020751953125 -221.9087677001953 -130.21031188964844 -59.168617248535156 -648.299560546875 -422.9524841308594 -341.7646484375 -312.4563293457031 -63.18175506591797 -36.08441162109375 -806.3438720703125 -531.3805541992188 -201.72103881835938 -397.48779296875 -797.714111328125 
u750 -218.31027221679688 -404.8467102050781 -444.3064270019531 -402.9410705566406 -145.66644287109375 -305.9385986328125 -252.7931671142578 -150.45498657226562 -26.112260818481445 -291.11639404296875 -156.63162231445312 -78.43745422363281 -153.84800720214844 -369.8503723144531 -470.104736328125 -75.83245086669922 -263.96954345703125 -228.66387939453125 -93.65983581542969 -50.189605712890625 -185.41929626464844 -298.3482360839844 -162.60415649414062 -129.87841796875 -128.5001220703125 -18.11285400390625 -13.979183197021484 -461.69256591796875 -281.84332275390625 -103.07029724121094 -221.3873748779297 -467.4125671386719 
u665 -191.00119018554688 -366.6008605957031 -403.8180847167969 -355.0690612792969 -118.45108032226562 -296.73211669921875 -238.47889709472656 -134.10025024414062 -18.93016242980957 -241.2740478515625 -142.60784912109375 -65.40171813964844 -167.61126708984375 -328.8534851074219 -424.82940673828125 -73.82803344726562 -232.1495819091797 -202.98541259765625 -79.55320739746094 -35.95538330078125 -202.02552795410156 -258.2106628417969 -126.06808471679688 -100.359375 -104.12091064453125 -19.39971923828125 -11.040245056152344 -417.37957763671875 -249.26068115234375 -86.26542663574219 -195.7249298095703 -426.5503234863281 
u228 -249.89382934570312 -446.5827331542969 -494.9589538574219 -455.9205017089844 -178.861328125 -321.34765625 -268.6909484863281 -172.28887939453125 -36.526187896728516 -348.58770751953125 -183.40664672851562 -109.12229919433594 -135.26980590820312 -424.0231018066406 -527.0816040039062 -87.01375579833984 -304.89111328125 -263.1470031738281 -119.83183288574219 -64.34329223632812 -161.5144500732422 -360.9388732910156 -210.71517944335938 -166.45526123046875 -160.42694091796875 -26.539817810058594 -20.151607513427734 -522.3942260742188 -319.77899169921875 -117.06620788574219 -246.80494689941406 -526.7877197265625 
u268 -244.53753662109375 -444.7852478027344 -490.4111022949219 -451.7414855957031 -175.60366821289062 -320.19195556640625 -268.28900146484375 -170.07327270507812 -38.18122482299805 -343.748046875 -183.29226684570312 -111.40003967285156 -134.45425415039062 -422.9422302246094 -526.682373046875 -86.87639617919922 -305.96649169921875 -264.04339599609375 -120.56660461425781 -63.30696105957031 -166.1178436279297 -356.2596740722656 -206.24685668945312 -164.83541870117188 -158.95181274414062 -30.889671325683594 -23.763431549072266 -517.4375 -314.4766845703125 -116.072509765625 -244.70433044433594 -521.9405517578125 
u747 -223.30166625976562 -409.5984191894531 -455.5635070800781 -406.9306335449219 -153.89923095703125 -311.0195007324219 -252.2117156982422 -151.81100463867188 -29.321252822875977 -301.29241943359375 -165.88815307617188 -85.40794372558594 -152.54129028320312 -378.9472351074219 -484.328857421875 -77.18185424804688 -268.99871826171875 -235.61251831054688 -101.08955383300781 -51.96429443359375 -182.70726013183594 -311.3955383300781 -174.11550903320312 -135.16983032226562 -134.8369140625 -16.975723266601562 -17.04922103881836 -471.3148193359375 -286.74981689453125 -104.89122009277344 -227.67250061035156 -477.1833190917969 
u171 -360.5931091308594 -604.44921875 -662.0921020507812 -642.3878173828125 -301.2738952636719 -373.7025146484375 -333.5887451171875 -254.86691284179688 -65.99390411376953 -552.5267944335938 -257.450439453125 -197.02049255371094 -73.61766815185547 -637.0718994140625 -722.2662963867188 -117.3974609375 -443.314208984375 -385.29345703125 -191.85475158691406 -112.92221069335938 -80.44709014892578 -578.6240234375 -370.3321838378906 -294.29364013671875 -270.9311218261719 -54.490440368652344 -29.88482666015625 -736.6534423828125 -476.06292724609375 -181.02719116210938 -362.7017822265625 -730.280029296875 
u73 -307.1908264160156 -521.5615844726562 -574.0797729492188 -543.432373046875 -238.53732299804688 -346.22918701171875 -299.7342834472656 -210.82876586914062 -47.5474967956543 -446.7110595703125 -217.92620849609375 -146.0572967529297 -105.23155975341797 -525.2271728515625 -616.8295288085938 -100.12832641601562 -363.715087890625 -313.782958984375 -148.71873474121094 -84.04449462890625 -126.65290069580078 -463.9764709472656 -284.5017395019531 -228.767578125 -217.30178833007812 -38.09955596923828 -18.649517059326172 -625.072509765625 -405.41546630859375 -147.59747314453125 -303.77703857421875 -626.95556640625 
u155 -362.8819885253906 -611.6814575195312 -671.0206909179688 -651.0008544921875 -305.9472961425781 -375.60223388671875 -331.7482604980469 -252.2718505859375 -69.30095672607422 -563.0900268554688 -260.89483642578125 -202.1199188232422 -69.90389251708984 -635.6317138671875 -732.9251098632812 -116.22119140625 -450.91357421875 -390.085205078125 -199.76219177246094 -116.28044128417969 -83.75260162353516 -579.261962890625 -377.2832946777344 -302.60601806640625 -277.7421569824219 -52.39839172363281 -34.339454650878906 -738.935302734375 -476.4429931640625 -181.81021118164062 -360.4351806640625 -731.8116455078125 
u700 -301.655517578125 -525.8405151367188 -576.0067138671875 -544.6658935546875 -238.42355346679688 -347.218505859375 -301.60760498046875 -212.57589721679688 -50.86989974975586 -448.1707763671875 -218.44970703125 -152.6575469970703 -105.07015228271484 -531.462890625 -624.0444946289062 -101.78326416015625 -374.4033203125 -325.11383056640625 -156.1470489501953 -88.17745971679688 -122.26371002197266 -469.2942810058594 -287.2597351074219 -229.19219970703125 -213.84182739257812 -43.35875701904297 -26.27417755126953 -628.6815185546875 -397.6639404296875 -149.34420776367188 -304.9991455078125 -626.6925048828125 
i41 -161.59524536132812 -120.5606689453125 -133.33021545410156 -364.5520324707031 -158.10122680664062 -54.91596221923828 -27.998523712158203 -190.82156372070312 -197.26104736328125 -408.524658203125 -267.1040344238281 -166.50782775878906 -119.03377532958984 -277.2332458496094 -271.76165771484375 -69.33558654785156 -203.8778533935547 -207.533935546875 -117.27415466308594 -251.2023468017578 -543.51025390625 -323.4491882324219 -397.4830627441406 -289.45703125 -217.62429809570312 -121.1972885131836 -391.1904602050781 -364.273681640625 -307.30511474609375 -87.08866882324219 -224.9187774658203 -371.7425842285156 
u114 -210.72714233398438 -395.5413513183594 -437.7345275878906 -392.3345642089844 -139.20733642578125 -305.49102783203125 -249.05848693847656 -146.61590576171875 -26.909257888793945 -281.7711181640625 -159.62838745117188 -81.96037292480469 -155.55531311035156 -361.5024108886719 -463.75750732421875 -79.821044921875 -260.90411376953125 -225.70205688476562 -94.03758239746094 -48.80511474609375 -187.8175506591797 -294.1096496582031 -159.22482299804688 -125.73388671875 -125.05783081054688 -20.80267333984375 -16.695106506347656 -454.148681640625 -272.6966552734375 -96.7716064453125 -211.6736602783203 -462.0115661621094 
u739 -325.5340270996094 -559.1524658203125 -612.1817626953125 -585.4461669921875 -264.5821838378906 -358.0090637207031 -314.8794860839844 -229.33352661132812 -57.79026412963867 -491.84295654296875 -234.7965087890625 -171.91468811035156 -91.39083099365234 -575.08935546875 -665.9524536132812 -108.1907958984375 -404.1116943359375 -350.55548095703125 -172.1663360595703 -98.4984130859375 -105.72061920166016 -514.587646484375 -321.1653747558594 -256.39337158203125 -237.82418823242188 -48.73059844970703 -28.626976013183594 -673.2235107421875 -429.473388671875 -162.26995849609375 -328.3460693359375 -669.3726806640625 
u642 -276.23590087890625 -488.1388244628906 -538.6771850585938 -501.5441589355469 -209.2772216796875 -336.4508056640625 -286.04534912109375 -192.147216796875 -43.889591217041016 -402.89337158203125 -201.61935424804688 -132.3944549560547 -119.88680267333984 -481.7818298339844 -580.0665893554688 -95.02403259277344 -339.13330078125 -295.9037170410156 -138.22828674316406 -76.01971435546875 -141.5339813232422 -419.6411437988281 -248.90542602539062 -200.203125 -190.73428344726562 -36.721763610839844 -23.720489501953125 -578.9725952148438 -364.317626953125 -133.52105712890625 -279.04095458984375 -579.56591796875 
u803 -230.94537353515625 -417.7113342285156 -463.3488464355469 -421.0390930175781 -159.24746704101562 -312.80096435546875 -258.23211669921875 -160.79342651367188 -29.76291847229004 -311.924072265625 -170.7991943359375 -92.60691833496094 -147.3078155517578 -393.4068908691406 -489.25762939453125 -84.61431121826172 -277.715576171875 -242.60430908203125 -101.79411315917969 -57.378265380859375 -173.0006561279297 -329.4597473144531 -185.16690063476562 -145.34017944335938 -142.13433837890625 -22.24622344970703 -12.616081237792969 -488.2861328125 -297.9696044921875 -107.44306945800781 -229.3542938232422 -494.2890319824219 
u580 -257.7051086425781 -464.2078552246094 -512.2789306640625 -468.8370056152344 -189.23941040039062 -326.7593994140625 -277.0603942871094 -177.73068237304688 -40.67837905883789 -369.02349853515625 -191.43161010742188 -114.24293518066406 -130.93731689453125 -444.3816833496094 -549.7938842773438 -88.44416046142578 -320.14862060546875 -275.9291076660156 -126.98445129394531 -67.93637084960938 -154.5433807373047 -380.9172058105469 -224.84072875976562 -176.909423828125 -167.10296630859375 -29.652603149414062 -24.097904205322266 -542.1588745117188 -333.5084228515625 -125.95262145996094 -260.8343505859375 -545.924560546875 
u808 -287.5278015136719 -501.3634338378906 -553.8544921875 -516.560302734375 -218.72439575195312 -337.1998291015625 -291.11212158203125 -198.73211669921875 -47.50082015991211 -421.1527099609375 -215.73812866210938 -137.66200256347656 -111.69609832763672 -493.4409484863281 -595.2013549804688 -99.1382064819336 -353.60675048828125 -303.9682312011719 -141.9427947998047 -83.97705078125 -137.1231231689453 -433.8753356933594 -268.0704650878906 -213.12774658203125 -201.69992065429688 -35.99992370605469 -23.605831146240234 -595.3574829101562 -377.5103759765625 -137.56246948242188 -280.18756103515625 -599.1383056640625 
u85 -279.99786376953125 -483.5299377441406 -535.6532592773438 -501.7674865722656 -212.29696655273438 -336.70941162109375 -283.6377868652344 -193.68402099609375 -42.00092697143555 -400.3709716796875 -200.13711547851562 -130.80870056152344 -120.0822982788086 -482.9355163574219 -573.3103637695312 -94.96241760253906 -333.75225830078125 -291.12322998046875 -132.40391540527344 -75.13873291015625 -142.03260803222656 -420.5299377441406 -249.76223754882812 -200.81781005859375 -193.70449829101562 -33.48069763183594 -17.449195861816406 -577.7364501953125 -369.0126953125 -133.93206787109375 -280.36669921875 -579.7750244140625 
i44 -188.53692626953125 -135.71719360351562 -141.47731018066406 -408.7266540527344 -182.63153076171875 -43.34593963623047 -38.669010162353516 -225.82015991210938 -208.49673461914062 -465.42156982421875 -277.311767578125 -179.3876190185547 -110.0588607788086 -324.9675598144531 -306.116455078125 -81.87438201904297 -219.77833557128906 -234.63613891601562 -145.77003479003906 -283.68292236328125 -536.8690185546875 -367.4522399902344 -441.9948425292969 -317.3729248046875 -228.78317260742188 -139.00794982910156 -423.2109375 -390.60467529296875 -339.5577392578125 -110.11866760253906 -250.26051330566406 -409.1849060058594 
i40 -129.9339599609375 -88.57403564453125 -107.03761291503906 -341.4161071777344 -113.07608032226562 -69.13822174072266 -24.479949951171875 -184.33187866210938 -168.72268676757812 -332.88677978515625 -243.67813110351562 -134.51133728027344 -147.2338104248047 -245.63693237304688 -254.1105499267578 -65.50895690917969 -170.0996551513672 -195.86734008789062 -96.98228454589844 -224.19090270996094 -550.8052368164062 -272.2390441894531 -313.4224548339844 -230.782958984375 -159.28244018554688 -130.5927276611328 -385.2731628417969 -318.07867431640625 -266.04083251953125 -62.915897369384766 -194.12937927246094 -358.3675231933594 
u456 -353.6583557128906 -600.8573608398438 -655.0421752929688 -632.4541015625 -294.8563537597656 -370.866455078125 -329.1986389160156 -248.97262573242188 -64.32080841064453 -545.144775390625 -254.97653198242188 -193.83995056152344 -75.0007553100586 -625.4674072265625 -715.5385131835938 -114.50212097167969 -437.43505859375 -381.59503173828125 -192.5105743408203 -111.31121826171875 -89.4267349243164 -566.5369873046875 -362.3230285644531 -291.2041015625 -268.4274597167969 -55.966575622558594 -30.02032470703125 -725.97412109375 -471.18450927734375 -177.60577392578125 -355.2987060546875 -720.2869873046875 
u436 -292.69708251953125 -511.2770690917969 -562.3447875976562 -531.0205078125 -226.81185913085938 -342.64202880859375 -295.3131408691406 -203.85498046875 -48.81156539916992 -431.70648193359375 -214.25149536132812 -145.9415740966797 -110.0820541381836 -510.2212829589844 -609.0048217773438 -101.42244720458984 -362.2337646484375 -313.9596862792969 -150.58494567871094 -84.70500183105469 -131.29222106933594 -448.0915832519531 -275.8709411621094 -220.7957763671875 -206.60757446289062 -39.03722381591797 -26.49932861328125 -607.1011352539062 -384.08612060546875 -142.955078125 -293.29339599609375 -608.1082763671875 
u523 -263.9527587890625 -458.9797058105469 -506.4880065917969 -473.0578308105469 -197.25189208984375 -327.48046875 -270.34869384765625 -178.62283325195312 -33.78523635864258 -365.413330078125 -186.08822631835938 -112.99195861816406 -133.88206481933594 -445.0994567871094 -541.954833984375 -86.31920623779297 -306.10577392578125 -271.3653259277344 -124.17851257324219 -67.06365966796875 -159.03453063964844 -379.1783142089844 -226.89767456054688 -181.28717041015625 -174.99765014648438 -20.587142944335938 -15.036579132080078 -537.008056640625 -342.53759765625 -125.98692321777344 -265.69769287109375 -541.147216796875 
u532 -259.0302734375 -462.5081481933594 -509.8876037597656 -472.5841979980469 -191.16348266601562 -327.286376953125 -276.349853515625 -180.9212646484375 -39.28937911987305 -369.52935791015625 -190.97845458984375 -118.61402893066406 -129.36740112304688 -449.8402404785156 -546.7329711914062 -92.07832336425781 -318.3868408203125 -276.0697021484375 -124.79270935058594 -69.59333801269531 -154.13450622558594 -385.4455261230469 -225.99948120117188 -180.3851318359375 -172.44970703125 -31.0845947265625 -20.364986419677734 -543.9453735351562 -339.48760986328125 -123.65989685058594 -259.61956787109375 -547.5220947265625 
u273 -189.7255859375 -361.4902038574219 -404.4823303222656 -354.2272644042969 -113.82650756835938 -293.64111328125 -235.02577209472656 -130.75302124023438 -23.001100540161133 -239.75048828125 -142.15719604492188 -65.42951965332031 -167.4307403564453 -319.9693298339844 -421.88140869140625 -70.76873016357422 -230.70408630371094 -201.62973022460938 -77.55857849121094 -41.38706970214844 -203.3433380126953 -251.03530883789062 -124.23959350585938 -98.6123046875 -102.28302001953125 -17.11803436279297 -13.257980346679688 -412.50909423828125 -240.19451904296875 -84.3548583984375 -187.5009002685547 -420.8338317871094 
u707 -247.22354125976562 -447.9461975097656 -493.9082946777344 -451.4792785644531 -177.32998657226562 -322.693603515625 -270.7446594238281 -171.56781005859375 -34.82723617553711 -347.13916015625 -181.81878662109375 -107.47309875488281 -136.49717712402344 -426.3840637207031 -527.435302734375 -87.32572937011719 -302.14532470703125 -263.0614929199219 -118.85087585449219 -62.06846618652344 -161.8299102783203 -362.8438415527344 -207.47000122070312 -164.62982177734375 -159.92181396484375 -29.664466857910156 -20.320404052734375 -522.6490478515625 -323.90313720703125 -117.01606750488281 -250.06651306152344 -527.0677490234375 
u649 -184.31866455078125 -356.2510681152344 -397.7554016113281 -346.4478454589844 -109.59384155273438 -292.72637939453125 -234.8074493408203 -128.67144775390625 -19.668832778930664 -232.531982421875 -141.29730224609375 -61.40797424316406 -170.91661071777344 -314.7412414550781 -416.38140869140625 -72.32146453857422 -225.47450256347656 -197.5545654296875 -74.92256164550781 -38.01121520996094 -205.3237762451172 -244.99014282226562 -119.52719116210938 -93.8079833984375 -98.47744750976562 -15.490035057067871 -13.280715942382812 -404.3477783203125 -237.15618896484375 -81.71844482421875 -186.08168029785156 -413.4566955566406 
u299 -312.8519592285156 -541.72265625 -594.5380859375 -565.1209716796875 -249.51174926757812 -352.7587890625 -306.8230895996094 -217.68829345703125 -54.61893844604492 -469.40673828125 -227.78964233398438 -161.46937561035156 -98.37847137451172 -547.67138671875 -647.6290283203125 -105.95365905761719 -387.42950439453125 -335.7708740234375 -165.0940399169922 -92.42092895507812 -117.50659942626953 -487.1769104003906 -303.9098815917969 -243.62298583984375 -227.12637329101562 -44.453521728515625 -29.983078002929688 -647.0718994140625 -412.4139404296875 -154.65618896484375 -315.0423583984375 -645.3671875 
u815 -216.05667114257812 -404.4188537597656 -448.8683776855469 -393.3080749511719 -139.29598999023438 -304.72882080078125 -253.76136779785156 -148.67019653320312 -28.72466468811035 -294.66156005859375 -172.96249389648438 -80.03602600097656 -148.4407501220703 -358.6676940917969 -469.6827392578125 -82.57124328613281 -269.424072265625 -225.14340209960938 -92.58421325683594 -54.26531982421875 -187.3577117919922 -300.5293273925781 -166.00363159179688 -133.2239990234375 -131.1959228515625 -22.915390014648438 -15.047283172607422 -463.700927734375 -284.55731201171875 -97.68692016601562 -202.50999450683594 -477.8912048339844 
u517 -354.7671813964844 -601.0121459960938 -656.9078369140625 -635.11865234375 -296.1598815917969 -370.877197265625 -330.7809143066406 -249.4989013671875 -65.7726821899414 -546.3482666015625 -254.87542724609375 -194.75318908691406 -74.7247543334961 -627.8558349609375 -717.2747192382812 -115.07025146484375 -440.457275390625 -382.17303466796875 -192.1342315673828 -112.03340148925781 -85.9468765258789 -569.2271728515625 -363.1960144042969 -290.66156005859375 -267.5638732910156 -55.06365203857422 -31.315853118896484 -728.2457275390625 -469.41265869140625 -178.25100708007812 -356.260498046875 -721.6580810546875 
u297 -376.1231994628906 -631.8116455078125 -690.2160034179688 -671.3677978515625 -321.1622009277344 -381.8367004394531 -341.7825622558594 -264.834228515625 -71.6497573852539 -586.9760131835938 -268.7886962890625 -211.40089416503906 -62.33767318725586 -667.9658203125 -754.7153930664062 -119.86030578613281 -467.561767578125 -406.74078369140625 -205.58079528808594 -122.13545227050781 -70.40137481689453 -611.2760009765625 -395.7214660644531 -315.89947509765625 -290.6133728027344 -59.47557830810547 -33.562843322753906 -769.865966796875 -499.94073486328125 -190.43905639648438 -378.0682373046875 -760.3702392578125 
u96 -299.3970031738281 -523.762451171875 -573.802490234375 -542.4522705078125 -237.46591186523438 -347.31494140625 -300.5151672363281 -211.65509033203125 -50.62722396850586 -445.755126953125 -217.6083984375 -153.06175231933594 -105.8526840209961 -530.1890869140625 -622.348388671875 -101.7699966430664 -373.12744140625 -325.27227783203125 -156.49427795410156 -86.7393798828125 -123.22913360595703 -467.6881408691406 -284.8931579589844 -227.39727783203125 -212.72442626953125 -44.47064971923828 -26.575828552246094 -625.7705078125 -395.14080810546875 -148.81036376953125 -304.875 -624.1695556640625 
u472 -225.45751953125 -417.1551208496094 -459.6017761230469 -415.7153015136719 -155.74081420898438 -312.93426513671875 -256.8233642578125 -157.64398193359375 -31.017183303833008 -309.98480224609375 -168.16131591796875 -93.94795227050781 -146.69615173339844 -390.8179016113281 -488.69219970703125 -81.92228698730469 -277.6636962890625 -241.26754760742188 -103.50004577636719 -54.27012634277344 -179.01951599121094 -323.5917053222656 -176.69351196289062 -142.34652709960938 -140.326416015625 -26.41722869873047 -16.163002014160156 -482.62579345703125 -296.2576904296875 -105.06195068359375 -226.8737335205078 -489.2695007324219 
u625 -246.22903442382812 -444.6943054199219 -489.1000061035156 -449.4284362792969 -177.75820922851562 -320.61480712890625 -268.872314453125 -172.316650390625 -35.94721603393555 -344.74810791015625 -180.9622802734375 -108.66172790527344 -136.40809631347656 -427.9760437011719 -522.9688720703125 -87.17417907714844 -302.05853271484375 -263.087890625 -116.33906555175781 -63.79801940917969 -163.58729553222656 -360.9609680175781 -207.04653930664062 -164.484619140625 -159.0899658203125 -29.762245178222656 -18.106990814208984 -521.2747192382812 -321.9224853515625 -116.77742004394531 -247.8538360595703 -525.000244140625 
u93 -330.4164733886719 -563.940185546875 -617.2697143554688 -593.72998046875 -270.0115661621094 -359.9007568359375 -316.5469055175781 -233.06527709960938 -58.75425338745117 -498.3658447265625 -237.27413940429688 -175.2992401123047 -89.27767181396484 -583.802734375 -672.5271606445312 -110.29623413085938 -409.22412109375 -355.517333984375 -173.5781707763672 -100.56832885742188 -102.04285430908203 -522.40869140625 -328.5355529785156 -261.6507568359375 -242.84988403320312 -48.95085144042969 -28.33078384399414 -681.7747802734375 -435.0625 -164.8997802734375 -332.84423828125 -676.9461669921875 
u163 -216.52679443359375 -402.5099792480469 -442.8457946777344 -397.8200988769531 -144.61654663085938 -307.1633605957031 -251.7642364501953 -150.72625732421875 -27.170969009399414 -288.75567626953125 -161.7313232421875 -84.11491394042969 -152.8204345703125 -371.1744079589844 -469.63409423828125 -79.6388168334961 -263.032958984375 -229.00555419921875 -95.96766662597656 -48.78550720214844 -185.8372344970703 -303.1227111816406 -163.60733032226562 -129.43048095703125 -129.2457275390625 -23.35106658935547 -14.360000610351562 -463.84075927734375 -282.468017578125 -99.29386901855469 -218.0661163330078 -471.9440002441406 
u512 -214.05474853515625 -398.9808044433594 -441.3486022949219 -396.8595886230469 -144.21221923828125 -307.46405029296875 -251.59388732910156 -150.47244262695312 -26.80571937561035 -285.38946533203125 -159.34417724609375 -85.27253723144531 -154.73214721679688 -371.6866149902344 -468.669921875 -81.59330749511719 -263.27862548828125 -230.51763916015625 -95.55644226074219 -49.25502014160156 -183.23060607910156 -303.3842468261719 -162.42965698242188 -128.49349975585938 -128.12698364257812 -22.959808349609375 -15.824295043945312 -462.49700927734375 -278.18658447265625 -99.49786376953125 -217.7476348876953 -467.6058044433594 
u172 -370.1423645019531 -620.1651611328125 -676.6568603515625 -659.961181640625 -312.1087951660156 -377.54071044921875 -338.4284362792969 -260.8212890625 -69.39852142333984 -571.1746215820312 -264.3834533691406 -205.9241180419922 -66.44255828857422 -653.578125 -741.2537841796875 -121.19084167480469 -457.9859619140625 -396.48284912109375 -199.8977508544922 -117.97590637207031 -76.28705596923828 -595.300537109375 -385.4305725097656 -307.916748046875 -282.8836364746094 -58.19495391845703 -31.95419692993164 -756.032958984375 -490.13800048828125 -186.08193969726562 -369.8878173828125 -748.58544921875 
u783 -268.953125 -477.6925354003906 -525.964599609375 -488.4627990722656 -200.82916259765625 -331.81622314453125 -282.16253662109375 -187.62286376953125 -41.346553802490234 -389.61126708984375 -197.89785766601562 -124.91020202636719 -123.82733917236328 -467.4035339355469 -564.1422729492188 -93.73699188232422 -329.7852783203125 -286.312255859375 -131.0127410888672 -74.26632690429688 -147.6855926513672 -404.5340881347656 -239.49954223632812 -192.31591796875 -182.81341552734375 -33.60392761230469 -20.39175796508789 -563.4442138671875 -355.4451904296875 -129.00576782226562 -269.216552734375 -566.3970947265625 
u453 -316.7978210449219 -543.716552734375 -596.40234375 -569.4149169921875 -255.10623168945312 -354.4716796875 -309.4282531738281 -224.70742797851562 -54.5383415222168 -472.68865966796875 -227.70626831054688 -164.2646942138672 -97.8717269897461 -559.5128173828125 -647.2918701171875 -106.94930267333984 -390.94268798828125 -340.62640380859375 -163.56117248535156 -94.37852478027344 -109.9188003540039 -498.2032775878906 -309.1641540527344 -244.59027099609375 -227.9403076171875 -45.876075744628906 -26.47533416748047 -656.1061401367188 -416.52587890625 -157.73275756835938 -321.07672119140625 -652.67626953125 
i111 -89.33126831054688 -79.19926452636719 -84.29243469238281 -181.89208984375 -62.222042083740234 -61.082740783691406 -16.611513137817383 -81.01179504394531 -129.56552124023438 -183.29376220703125 -164.64398193359375 -75.69279479980469 -172.92062377929688 -131.08023071289062 -145.3534393310547 -42.88057327270508 -105.73863220214844 -110.50527954101562 -34.30854797363281 -126.32627868652344 -520.728759765625 -141.27584838867188 -218.58786010742188 -126.81982421875 -98.2467041015625 -67.9232177734375 -277.5821533203125 -195.55673217773438 -163.3062744140625 -25.828174591064453 -96.98344421386719 -213.9432373046875 
i74 -52.53010559082031 -39.634765625 -41.84189224243164 -202.7412109375 -43.561946868896484 -98.15758514404297 -33.648799896240234 -107.16172790527344 -127.99488067626953 -174.87103271484375 -181.343994140625 -75.14601135253906 -199.2506866455078 -111.10687255859375 -153.1386260986328 -15.843177795410156 -64.30137634277344 -101.747314453125 -42.864349365234375 -142.02903747558594 -553.2757568359375 -120.87472534179688 -160.14572143554688 -114.86605834960938 -87.77587890625 -78.21648406982422 -296.3114929199219 -189.18603515625 -165.52536010742188 -28.259784698486328 -136.36351013183594 -236.517822265625 
u552 -204.76177978515625 -386.8495178222656 -430.5727233886719 -380.2379455566406 -132.68124389648438 -303.35943603515625 -244.45216369628906 -141.15142822265625 -26.602754592895508 -271.1395263671875 -154.25839233398438 -77.36976623535156 -158.92259216308594 -349.5610046386719 -456.174072265625 -75.34371185302734 -250.37181091308594 -219.18087768554688 -91.05116271972656 -46.26023864746094 -193.8517608642578 -282.8016052246094 -145.95022583007812 -116.74667358398438 -119.68402099609375 -20.816009521484375 -17.196624755859375 -443.4764404296875 -265.11248779296875 -93.15577697753906 -206.9342803955078 -450.5410461425781 
u522 -316.32769775390625 -542.9765625 -597.4053344726562 -568.86279296875 -251.82070922851562 -352.3734436035156 -307.86114501953125 -218.74810791015625 -53.48977279663086 -472.86553955078125 -229.41986083984375 -160.5538787841797 -98.41790008544922 -548.3271484375 -647.2584838867188 -105.27508544921875 -387.79296875 -335.18402099609375 -164.69554138183594 -93.00169372558594 -115.65799713134766 -488.3279113769531 -307.1416931152344 -245.2183837890625 -228.43865966796875 -40.81652069091797 -27.20378875732422 -648.32861328125 -414.35107421875 -154.80194091796875 -314.86627197265625 -647.136962890625 
u403 -403.7845764160156 -673.1815795898438 -732.5375366210938 -719.5096435546875 -350.9223937988281 -394.49615478515625 -354.9875793457031 -283.4420166015625 -80.46576690673828 -638.5457153320312 -286.4548034667969 -234.36424255371094 -45.436519622802734 -716.22900390625 -804.6140747070312 -124.82949829101562 -502.3814697265625 -437.6370849609375 -227.43434143066406 -135.2914276123047 -54.84662628173828 -662.3861083984375 -433.2646179199219 -349.537353515625 -319.2622985839844 -67.3991470336914 -37.051551818847656 -820.8031005859375 -537.0565185546875 -206.43603515625 -403.7978515625 -809.6005859375 
u290 -303.2976379394531 -527.028076171875 -577.6013793945312 -547.658935546875 -242.33578491210938 -349.2295837402344 -301.231201171875 -215.64913940429688 -50.40861129760742 -450.78900146484375 -220.09075927734375 -156.41929626464844 -105.34484100341797 -537.1610107421875 -626.3008422851562 -104.04043579101562 -374.28228759765625 -329.2823486328125 -157.4822540283203 -89.85614013671875 -120.52982330322266 -475.1767272949219 -291.0846252441406 -232.53179931640625 -217.15390014648438 -44.30707550048828 -23.40762710571289 -632.724365234375 -401.05487060546875 -150.48605346679688 -307.25555419921875 -630.0484619140625 
u373 -373.9667663574219 -631.4475708007812 -686.827392578125 -668.447021484375 -318.4432678222656 -380.4681091308594 -340.0466003417969 -262.9510803222656 -71.14302825927734 -584.0791625976562 -268.0115966796875 -211.07334899902344 -62.61684799194336 -662.878173828125 -752.959228515625 -119.517333984375 -465.043701171875 -405.36358642578125 -207.9330291748047 -120.99739074707031 -75.48798370361328 -606.0985107421875 -391.9236145019531 -315.52587890625 -289.4073791503906 -61.32923126220703 -33.29192352294922 -765.5576171875 -498.3631591796875 -189.38845825195312 -375.1197509765625 -757.5472412109375 
u799 -206.42547607421875 -387.2187194824219 -430.1336364746094 -374.0858459472656 -128.24578857421875 -299.1436767578125 -247.8123016357422 -141.65084838867188 -24.19297218322754 -271.39727783203125 -164.788818359375 -68.81083679199219 -155.90232849121094 -338.3739929199219 -446.412353515625 -80.05679321289062 -252.31068420410156 -210.27706909179688 -81.71418762207031 -48.33270263671875 -193.8086395263672 -279.5041809082031 -150.90817260742188 -118.2169189453125 -119.24139404296875 -18.207664489746094 -10.539325714111328 -442.5452880859375 -270.104248046875 -90.87889099121094 -192.46104431152344 -457.8714904785156 
u759 -263.2193908691406 -470.4807434082031 -516.3424682617188 -478.1797790527344 -195.42205810546875 -328.4065246582031 -279.2152099609375 -183.20184326171875 -40.22055435180664 -378.05328369140625 -194.3970947265625 -120.12351989746094 -126.42876434326172 -456.0271301269531 -553.7009887695312 -91.79961395263672 -324.46099853515625 -279.5924987792969 -127.75129699707031 -70.84100341796875 -152.60560607910156 -391.7256774902344 -231.40829467773438 -185.13671875 -175.75924682617188 -32.33953857421875 -19.692516326904297 -552.572998046875 -346.0882568359375 -125.80281066894531 -262.1663818359375 -556.536865234375 
u45 -252.55755615234375 -445.1576843261719 -491.5332946777344 -452.5796813964844 -179.7840576171875 -321.6039123535156 -270.3636474609375 -173.759033203125 -31.28459358215332 -346.9281005859375 -180.08987426757812 -103.74357604980469 -135.42161560058594 -429.0066223144531 -519.2235717773438 -86.93091583251953 -296.47412109375 -256.7499694824219 -110.54219055175781 -60.81388854980469 -162.0635223388672 -364.1051940917969 -207.28610229492188 -166.33334350585938 -164.81997680664062 -27.288719177246094 -11.301490783691406 -524.3390502929688 -334.0625 -116.88766479492188 -250.84010314941406 -529.7923583984375 
u199 -285.90838623046875 -505.3660583496094 -552.5087890625 -518.29833984375 -222.32302856445312 -339.490234375 -292.0395202636719 -200.44076538085938 -47.727115631103516 -422.76751708984375 -209.49212646484375 -142.29920959472656 -112.46154022216797 -501.4536437988281 -597.8046875 -97.94171905517578 -355.725830078125 -308.4710998535156 -147.7324676513672 -82.38877868652344 -136.88526916503906 -438.0664367675781 -266.0473937988281 -213.71343994140625 -199.97683715820312 -40.34471130371094 -24.336135864257812 -599.298095703125 -377.7738037109375 -139.33053588867188 -286.61883544921875 -599.373779296875 
u438 -315.96484375 -544.068359375 -597.1241455078125 -567.2613525390625 -251.02200317382812 -353.0462646484375 -306.11444091796875 -219.03555297851562 -54.11404037475586 -473.89300537109375 -228.59860229492188 -161.0961456298828 -97.43737030029297 -550.0263671875 -647.033447265625 -103.15142059326172 -385.51495361328125 -337.06719970703125 -164.82533264160156 -94.46119689941406 -117.66455841064453 -491.1795349121094 -304.3494567871094 -246.4779052734375 -230.15472412109375 -44.347572326660156 -26.25058364868164 -649.2089233398438 -418.9884033203125 -155.84210205078125 -315.9161376953125 -648.864990234375 
u766 -175.5638427734375 -344.1036682128906 -383.0887756347656 -331.8617248535156 -99.84063720703125 -288.9639892578125 -230.7033233642578 -123.26832580566406 -16.997690200805664 -214.40948486328125 -133.94540405273438 -55.09355163574219 -176.59645080566406 -300.1868591308594 -401.16534423828125 -71.75143432617188 -215.93235778808594 -188.38140869140625 -69.69068908691406 -33.17588806152344 -210.4449920654297 -228.76815795898438 -106.33395385742188 -83.9876708984375 -88.02029418945312 -14.608084678649902 -12.13534164428711 -388.8348388671875 -224.628173828125 -77.77586364746094 -177.71791076660156 -398.5667419433594 
u254 -347.3595275878906 -586.509521484375 -642.608642578125 -620.5623779296875 -288.6213073730469 -369.1263732910156 -325.1716003417969 -245.61685180664062 -62.37180709838867 -528.7233276367188 -247.92803955078125 -187.22618103027344 -81.15331268310547 -612.611083984375 -700.0545654296875 -114.92568969726562 -426.34979248046875 -372.24237060546875 -183.21519470214844 -108.26487731933594 -89.71247100830078 -554.8482666015625 -352.8305969238281 -280.41876220703125 -259.4756774902344 -51.3109130859375 -28.586997985839844 -712.4952392578125 -459.493896484375 -174.204833984375 -349.82415771484375 -706.712646484375 
u628 -254.91751098632812 -458.2140808105469 -504.1668395996094 -465.0523376464844 -187.5772705078125 -325.39154052734375 -275.1407775878906 -179.0828857421875 -38.15031051635742 -362.185546875 -187.33633422851562 -116.42805480957031 -130.9381561279297 -445.5290832519531 -540.6657104492188 -89.7229232788086 -315.01025390625 -273.4827880859375 -123.75190734863281 -66.83383178710938 -155.8598175048828 -379.1371154785156 -220.06259155273438 -174.98089599609375 -167.8052978515625 -32.73358917236328 -20.89032745361328 -539.91162109375 -333.8675537109375 -122.11349487304688 -257.90985107421875 -541.988037109375 
u390 -294.539794921875 -520.7345581054688 -570.4737548828125 -536.3472900390625 -230.99600219726562 -344.267822265625 -293.8460998535156 -204.839599609375 -51.93093490600586 -440.847412109375 -214.68328857421875 -149.54139709472656 -105.35900115966797 -515.4495849609375 -616.2504272460938 -95.16213989257812 -367.5299072265625 -321.7366943359375 -156.89695739746094 -88.90419006347656 -133.0499725341797 -455.6272277832031 -275.7560119628906 -225.42364501953125 -211.07723999023438 -44.45941925048828 -27.60388946533203 -613.452880859375 -388.3179931640625 -146.73382568359375 -294.96575927734375 -613.3314208984375 
u592 -246.50540161132812 -445.8730163574219 -491.0997619628906 -451.2392272949219 -177.99075317382812 -321.56683349609375 -269.66619873046875 -173.19546508789062 -36.33158493041992 -347.050537109375 -182.24368286132812 -110.16123962402344 -135.6482696533203 -430.3611145019531 -525.1637573242188 -87.67940521240234 -303.9442138671875 -264.7028503417969 -117.20747375488281 -64.04927062988281 -162.13670349121094 -363.4973449707031 -207.93051147460938 -165.59469604492188 -160.0201416015625 -30.639312744140625 -18.812393188476562 -523.0037231445312 -323.016357421875 -116.94960021972656 -248.54615783691406 -526.80908203125 
u527 -222.15362548828125 -408.5293273925781 -452.6112976074219 -407.2525329589844 -149.26605224609375 -308.15802001953125 -254.40428161621094 -153.1270751953125 -30.092309951782227 -297.154052734375 -165.86651611328125 -87.32914733886719 -150.26400756835938 -376.7253112792969 -479.516845703125 -79.73521423339844 -270.60626220703125 -234.84918212890625 -99.96519470214844 -52.08665466308594 -181.2772979736328 -309.4000549316406 -170.72097778320312 -133.7930908203125 -132.46673583984375 -23.188987731933594 -16.493942260742188 -472.37164306640625 -283.005615234375 -103.279296875 -220.8365020751953 -479.6761779785156 
u259 -318.5077209472656 -549.2874755859375 -602.5670166015625 -573.3448486328125 -255.49044799804688 -355.60748291015625 -309.1719665527344 -221.63302612304688 -55.5658073425293 -479.45263671875 -231.21267700195312 -165.36473083496094 -95.41439056396484 -557.6787109375 -656.5150756835938 -106.39080810546875 -393.52215576171875 -341.24432373046875 -168.7480010986328 -94.28176879882812 -114.36859893798828 -497.5860290527344 -311.3116760253906 -249.5650634765625 -233.09051513671875 -45.63134765625 -30.011306762695312 -657.2420043945312 -420.520751953125 -157.42013549804688 -321.0498046875 -654.874267578125 
u397 -285.9415283203125 -503.1381530761719 -551.9174194335938 -517.2698974609375 -217.30850219726562 -339.078369140625 -292.39990234375 -199.38385009765625 -45.35475540161133 -419.19732666015625 -210.23052978515625 -138.20289611816406 -113.62517547607422 -497.3051452636719 -595.8051147460938 -98.31867980957031 -350.66607666015625 -305.57818603515625 -144.78538513183594 -81.19003295898438 -136.87843322753906 -436.2057189941406 -263.0157165527344 -212.00482177734375 -200.14434814453125 -40.14263916015625 -24.323055267333984 -595.0151977539062 -379.1549072265625 -139.24786376953125 -287.2264404296875 -597.9635009765625 
i121 -116.57760620117188 -49.05613708496094 -109.67314147949219 -266.4673767089844 -62.33907699584961 -24.733736038208008 -24.532909393310547 -160.63485717773438 -125.55399322509766 -275.44024658203125 -167.20083618164062 -95.23777770996094 -171.430908203125 -191.12167358398438 -194.0447235107422 -78.40428161621094 -151.71217346191406 -176.85440063476562 -96.89125061035156 -185.28501892089844 -489.8689880371094 -201.86276245117188 -260.3356628417969 -168.87075805664062 -101.78121948242188 -112.9580307006836 -334.2914733886719 -259.0384521484375 -182.7646484375 -47.33101272583008 -154.3006134033203 -258.6810607910156 
u757 -273.74066162109375 -484.0098571777344 -532.695556640625 -496.0986022949219 -205.9244384765625 -333.8244323730469 -284.3289489746094 -190.62826538085938 -42.71652603149414 -397.8990478515625 -200.8292236328125 -128.3574981689453 -121.26396942138672 -475.5471496582031 -571.7332153320312 -94.4922866821289 -335.3758544921875 -290.961669921875 -133.9559783935547 -75.86518859863281 -144.8178253173828 -412.7862243652344 -245.77694702148438 -197.31732177734375 -187.42242431640625 -34.487701416015625 -20.445552825927734 -571.8026733398438 -361.6104736328125 -131.45660400390625 -273.5782470703125 -574.4942626953125 
u122 -288.116455078125 -506.2179870605469 -555.0281982421875 -520.6033935546875 -222.69265747070312 -339.687744140625 -291.9159240722656 -200.38961791992188 -47.390010833740234 -423.92144775390625 -210.97354125976562 -140.6084747314453 -112.0510482788086 -500.6249084472656 -598.8273315429688 -97.55854797363281 -353.6070556640625 -308.1978454589844 -146.93980407714844 -82.83010864257812 -136.09181213378906 -438.9933776855469 -267.8678894042969 -214.16436767578125 -201.83950805664062 -38.803565979003906 -23.653026580810547 -599.5062866210938 -380.2401123046875 -139.81655883789062 -287.80108642578125 -600.79931640625 
u387 -408.1382751464844 -675.001220703125 -739.6031494140625 -726.587646484375 -352.9222106933594 -394.9520568847656 -358.7917785644531 -283.6562194824219 -79.87079620361328 -645.6546020507812 -292.6341552734375 -234.4015350341797 -45.301509857177734 -715.939697265625 -811.2483520507812 -129.4786834716797 -505.51971435546875 -435.28271484375 -228.51573181152344 -135.68601989746094 -51.58246612548828 -663.0982666015625 -442.4926452636719 -353.68963623046875 -321.5568542480469 -60.44854736328125 -38.45282745361328 -822.704833984375 -538.8955078125 -205.60662841796875 -404.21368408203125 -812.697509765625 
u788 -255.89608764648438 -459.5762634277344 -505.0925598144531 -466.9943542480469 -188.7254638671875 -325.8445739746094 -274.4291076660156 -179.71139526367188 -39.419673919677734 -364.29779052734375 -188.4749755859375 -117.79307556152344 -129.79173278808594 -447.1772766113281 -541.7838134765625 -89.45868682861328 -315.6986083984375 -274.73248291015625 -123.70219421386719 -68.04164123535156 -156.1779022216797 -381.0775451660156 -221.05264282226562 -176.02783203125 -169.47604370117188 -33.25231170654297 -20.069839477539062 -541.2086791992188 -335.364501953125 -122.058837890625 -257.87628173828125 -543.9183349609375 
u244 -278.64111328125 -494.4374694824219 -541.23876953125 -505.1442565917969 -213.73776245117188 -335.8983154296875 -287.6044006347656 -194.66351318359375 -44.55588150024414 -407.75714111328125 -205.41680908203125 -134.49449157714844 -117.03002166748047 -485.9471740722656 -584.1464233398438 -95.94063568115234 -342.90228271484375 -299.6953125 -141.9459991455078 -78.08229064941406 -142.1107940673828 -422.9830017089844 -255.69345092773438 -203.99224853515625 -193.11605834960938 -37.94988250732422 -23.03614044189453 -584.364990234375 -368.792724609375 -134.47055053710938 -279.8165283203125 -585.582275390625 
u333 -306.1728515625 -531.9572143554688 -581.446533203125 -553.16357421875 -247.26065063476562 -351.0540771484375 -301.1221923828125 -217.66632080078125 -53.18986129760742 -455.65142822265625 -219.01913452148438 -159.6544647216797 -102.01213836669922 -542.75390625 -631.903076171875 -102.71456146240234 -380.75494384765625 -333.82781982421875 -160.33042907714844 -91.80404663085938 -118.97559356689453 -480.7652282714844 -294.8519592285156 -235.34521484375 -220.36328125 -45.74652862548828 -26.879329681396484 -639.3513793945312 -402.92657470703125 -153.10284423828125 -311.06024169921875 -634.39501953125 
u221 -304.74176025390625 -527.8369750976562 -581.6986083984375 -551.7978515625 -239.29061889648438 -348.0209655761719 -301.77288818359375 -211.02719116210938 -51.572383880615234 -454.31915283203125 -222.83111572265625 -153.5210418701172 -103.97332000732422 -528.03759765625 -628.5298461914062 -102.7018051147461 -376.489501953125 -324.82159423828125 -157.65171813964844 -88.9306640625 -122.5265884399414 -468.5099182128906 -291.8855895996094 -233.30474853515625 -217.99835205078125 -39.20524597167969 -27.46597671508789 -627.6751098632812 -398.2025146484375 -148.63601684570312 -302.98095703125 -627.800048828125 
u239 -307.87896728515625 -534.1486206054688 -584.3417358398438 -553.2991943359375 -242.88534545898438 -349.31109619140625 -303.18017578125 -214.15133666992188 -51.5470085144043 -459.40087890625 -223.81500244140625 -155.25086975097656 -101.27629852294922 -536.74560546875 -632.6660766601562 -101.93789672851562 -377.00555419921875 -328.031005859375 -159.7900848388672 -89.8577880859375 -123.37207794189453 -476.6660461425781 -293.5060119628906 -236.42657470703125 -221.57763671875 -44.14354705810547 -25.30038070678711 -634.8466796875 -408.71844482421875 -151.120361328125 -308.80926513671875 -636.356689453125 
u560 -253.33767700195312 -455.5761413574219 -501.5802917480469 -462.5315856933594 -184.63186645507812 -324.44403076171875 -273.67474365234375 -177.65277099609375 -37.79343032836914 -359.09136962890625 -186.93701171875 -114.72554016113281 -132.0368194580078 -441.6813049316406 -536.8303833007812 -89.35254669189453 -312.03717041015625 -271.2685852050781 -121.78471374511719 -66.81239318847656 -157.30067443847656 -375.9596252441406 -217.23757934570312 -173.0416259765625 -166.2911376953125 -31.910568237304688 -19.581233978271484 -535.1536865234375 -332.1575927734375 -120.65182495117188 -254.95204162597656 -538.9903564453125 
u153 -390.7658386230469 -651.207763671875 -712.766357421875 -697.2490234375 -334.3667297363281 -386.649658203125 -348.7896423339844 -271.3115539550781 -75.93195343017578 -612.5885620117188 -281.2842102050781 -221.2287139892578 -54.387996673583984 -683.788818359375 -781.5576782226562 -124.04360961914062 -485.04815673828125 -417.17095947265625 -217.87754821777344 -127.83735656738281 -64.76380157470703 -629.1768798828125 -416.6913146972656 -333.3948974609375 -303.7253723144531 -57.1793212890625 -37.28642272949219 -789.585205078125 -513.6695556640625 -196.615234375 -386.46527099609375 -781.605224609375 
u501 -237.2584228515625 -431.6440124511719 -477.4627380371094 -435.4413146972656 -167.31378173828125 -317.59637451171875 -264.09454345703125 -164.83660888671875 -33.130069732666016 -329.6451416015625 -176.47711181640625 -100.89872741699219 -141.90884399414062 -409.1851501464844 -509.1141357421875 -86.04666137695312 -290.66497802734375 -252.58230590820312 -110.16346740722656 -59.46356201171875 -169.31898498535156 -343.4161682128906 -195.11630249023438 -154.9168701171875 -151.13433837890625 -25.84557342529297 -18.68880844116211 -503.13909912109375 -309.6221923828125 -111.37026977539062 -238.71253967285156 -508.2203674316406 
u684 -272.24395751953125 -481.4009704589844 -531.29833984375 -496.1457214355469 -204.43243408203125 -332.6741943359375 -284.06365966796875 -189.04421997070312 -43.5276985168457 -394.2451171875 -200.68490600585938 -127.97850036621094 -121.72432708740234 -470.7941589355469 -570.7278442382812 -95.12305450439453 -335.77935791015625 -289.3736572265625 -134.15269470214844 -75.45074462890625 -144.7128448486328 -407.9300842285156 -245.21701049804688 -195.06048583984375 -184.79141235351562 -32.43352508544922 -22.928192138671875 -567.7396240234375 -355.29547119140625 -130.049560546875 -270.67987060546875 -570.69091796875 
i59 -65.63641357421875 -64.93165588378906 -69.19525146484375 -268.8014221191406 -96.82473754882812 -95.43589782714844 -25.568965911865234 -141.5303955078125 -162.67825317382812 -275.29248046875 -253.67117309570312 -115.48289489746094 -184.33250427246094 -164.29074096679688 -206.46702575683594 -34.835819244384766 -124.77983093261719 -143.44424438476562 -49.638916015625 -180.64564514160156 -568.1673583984375 -180.59689331054688 -241.79415893554688 -183.5755615234375 -141.09326171875 -96.69159698486328 -339.9947509765625 -263.31817626953125 -230.94277954101562 -33.659488677978516 -175.5956268310547 -301.1552429199219 
u87 -275.5545654296875 -476.2650451660156 -529.5181884765625 -491.5195007324219 -207.49798583984375 -335.0340576171875 -280.69415283203125 -190.4393310546875 -40.67729568481445 -390.9603271484375 -196.0816650390625 -124.38740539550781 -122.67229461669922 -472.6361389160156 -564.779541015625 -93.25041198730469 -325.1441650390625 -284.00177001953125 -126.53907775878906 -73.32502746582031 -145.0074005126953 -410.9706115722656 -242.76492309570312 -192.55194091796875 -189.88101196289062 -31.230918884277344 -16.34759521484375 -570.3373413085938 -364.64788818359375 -129.301025390625 -275.2705078125 -570.8607177734375 
u714 -211.45352172851562 -390.2245178222656 -432.6664123535156 -392.0421447753906 -140.23245239257812 -305.5838623046875 -244.3003387451172 -146.59835815429688 -27.53788948059082 -274.93304443359375 -153.01943969726562 -81.96446228027344 -157.2624969482422 -358.3038024902344 -457.3662109375 -76.99423217773438 -253.96302795410156 -223.63433837890625 -91.61137390136719 -48.62809753417969 -188.64759826660156 -289.7767028808594 -155.90158081054688 -121.1181640625 -123.25363159179688 -19.252700805664062 -14.820201873779297 -450.112548828125 -267.18182373046875 -96.40904235839844 -212.28871154785156 -456.6505432128906 
u424 -336.2879333496094 -571.2724609375 -627.5347900390625 -603.7054443359375 -273.6910095214844 -361.3956604003906 -316.8926696777344 -232.45510864257812 -60.30776596069336 -510.2425537109375 -245.36566162109375 -177.69007873535156 -85.73009490966797 -582.7125244140625 -683.1641845703125 -111.093505859375 -415.203857421875 -357.04022216796875 -179.7101593017578 -102.71534729003906 -103.1506118774414 -524.281005859375 -338.9170227050781 -269.4141845703125 -249.29525756835938 -44.308509826660156 -30.642616271972656 -684.7811889648438 -438.52496337890625 -165.34454345703125 -332.28485107421875 -682.8399658203125 
u118 -296.4320373535156 -517.5347290039062 -567.3505249023438 -535.6275634765625 -232.23214721679688 -343.37945556640625 -297.168701171875 -207.71047973632812 -49.66868209838867 -438.26068115234375 -216.25177001953125 -148.38450622558594 -107.25945281982422 -519.1661376953125 -612.7899169921875 -100.13947296142578 -366.20684814453125 -318.243896484375 -151.9879608154297 -86.60557556152344 -128.53611755371094 -456.7503356933594 -280.1971740722656 -223.726318359375 -209.87945556640625 -41.327247619628906 -23.765609741210938 -616.5510864257812 -390.47369384765625 -144.47366333007812 -296.15142822265625 -615.8355712890625 
u116 -313.13037109375 -541.3078002929688 -591.857666015625 -561.046630859375 -248.12423706054688 -351.47802734375 -306.19915771484375 -217.60183715820312 -52.2585563659668 -468.8753662109375 -227.81411743164062 -158.7661895751953 -98.7370834350586 -546.6217041015625 -641.5070190429688 -103.45639038085938 -383.651123046875 -333.30560302734375 -162.96070861816406 -91.98863220214844 -120.23987579345703 -486.7523498535156 -301.0220031738281 -243.4359130859375 -227.134521484375 -45.11487579345703 -24.935993194580078 -644.5848388671875 -417.02056884765625 -154.46722412109375 -314.06646728515625 -646.0228271484375 
u142 -298.90081787109375 -519.3320922851562 -572.2625122070312 -540.0050048828125 -234.10037231445312 -346.818115234375 -296.845703125 -206.92642211914062 -49.91404342651367 -442.52374267578125 -217.05752563476562 -148.99607849121094 -107.79381561279297 -518.690185546875 -619.0112915039062 -100.26943969726562 -366.98541259765625 -318.90032958984375 -154.2520294189453 -84.92317199707031 -127.98542022705078 -458.2452087402344 -281.7978820800781 -225.7430419921875 -212.67459106445312 -39.316864013671875 -26.51622772216797 -617.320556640625 -391.5584716796875 -146.17678833007812 -300.095458984375 -617.0555419921875 
u265 -348.5254211425781 -588.9757690429688 -646.3624267578125 -624.577392578125 -286.0462341308594 -365.7619934082031 -324.61859130859375 -239.52401733398438 -63.17910385131836 -531.1593017578125 -251.54052734375 -184.13487243652344 -79.39690399169922 -601.4515380859375 -702.9240112304688 -111.37472534179688 -429.65521240234375 -368.605712890625 -187.48793029785156 -107.25727844238281 -96.23322296142578 -544.0343017578125 -353.5671691894531 -282.60540771484375 -259.4813537597656 -45.955467224121094 -31.998836517333984 -704.191650390625 -454.2666015625 -173.21810913085938 -344.0372314453125 -702.354736328125 
u546 -283.7345275878906 -500.3943176269531 -551.2211303710938 -514.328125 -218.0517578125 -339.852294921875 -291.48638916015625 -196.69619750976562 -45.54377365112305 -416.7127685546875 -207.5596923828125 -137.1706085205078 -115.8432846069336 -494.0289001464844 -594.2134399414062 -96.52375793457031 -349.90740966796875 -303.4358825683594 -144.50975036621094 -77.78634643554688 -136.0703887939453 -432.7203063964844 -260.7743225097656 -207.7066650390625 -197.27587890625 -37.51294708251953 -25.21253204345703 -592.7879028320312 -373.246826171875 -137.61776733398438 -286.7340087890625 -593.3931884765625 
u812 -320.1011657714844 -548.3895874023438 -596.2789306640625 -571.70849609375 -253.82156372070312 -348.1622314453125 -309.371337890625 -222.90802001953125 -58.146114349365234 -477.63360595703125 -240.05166625976562 -165.8287811279297 -89.96321868896484 -554.118408203125 -649.6058349609375 -108.861572265625 -397.3018798828125 -337.89874267578125 -162.92298889160156 -97.13514709472656 -118.35852813720703 -489.4046325683594 -314.6423645019531 -250.2783203125 -233.59866333007812 -47.829864501953125 -25.573898315429688 -659.2327880859375 -418.82421875 -153.69619750976562 -306.78662109375 -661.29541015625 
u388 -332.2735290527344 -567.5294189453125 -622.9447021484375 -597.9654541015625 -269.0700378417969 -360.24334716796875 -317.7821350097656 -230.2413330078125 -58.34524154663086 -503.86846923828125 -241.69564819335938 -173.41786193847656 -88.77010345458984 -576.8140869140625 -677.7030029296875 -110.48881530761719 -409.823486328125 -353.80120849609375 -176.3571014404297 -101.10520935058594 -104.56961822509766 -519.0677490234375 -331.3954162597656 -265.46563720703125 -245.04446411132812 -44.825462341308594 -30.67559814453125 -678.3485107421875 -436.3333740234375 -165.028076171875 -330.82086181640625 -677.2645263671875 
u585 -267.9920654296875 -475.5459289550781 -525.9777221679688 -489.2604675292969 -201.02987670898438 -331.92352294921875 -281.1737976074219 -186.2725830078125 -42.56711959838867 -387.26690673828125 -198.1893310546875 -125.46260070800781 -123.83531951904297 -464.7048034667969 -565.4492797851562 -94.34903717041016 -330.48883056640625 -285.9773864746094 -131.59901428222656 -73.91273498535156 -147.34083557128906 -401.8148498535156 -240.07376098632812 -190.4608154296875 -182.32080078125 -31.464149475097656 -23.36996078491211 -560.7162475585938 -350.59771728515625 -127.84133911132812 -268.3187255859375 -563.141845703125 
u11 -189.72689819335938 -359.8265075683594 -405.8276672363281 -353.9732360839844 -114.9495849609375 -297.544189453125 -235.4720916748047 -132.55850219726562 -21.506738662719727 -238.8948974609375 -140.7489013671875 -63.13908386230469 -168.0562744140625 -320.7735900878906 -422.1910400390625 -73.20561981201172 -228.28199768066406 -199.57168579101562 -74.32113647460938 -39.76628112792969 -200.28343200683594 -255.39266967773438 -122.86355590820312 -96.42025756835938 -103.67633056640625 -15.707465171813965 -12.457008361816406 -412.5145263671875 -244.314208984375 -83.81353759765625 -190.48338317871094 -420.9515075683594 
u111 -182.96365356445312 -355.0307922363281 -395.0429992675781 -342.8876037597656 -108.48013305664062 -291.99298095703125 -232.5071258544922 -126.48388671875 -22.165376663208008 -229.156982421875 -139.59005737304688 -62.97697448730469 -171.1909942626953 -311.9215393066406 -418.52777099609375 -70.2435302734375 -224.8562774658203 -197.45562744140625 -77.61709594726562 -37.205902099609375 -210.28807067871094 -240.19863891601562 -113.70944213867188 -92.62786865234375 -96.27487182617188 -18.627059936523438 -16.067291259765625 -402.64013671875 -232.22067260742188 -83.65980529785156 -185.7698211669922 -411.8573913574219 
u647 -225.79574584960938 -415.4005432128906 -459.5117492675781 -414.3039245605469 -153.43441772460938 -310.73406982421875 -257.9713134765625 -156.0614013671875 -30.54698371887207 -306.0775146484375 -169.01657104492188 -90.25541687011719 -147.94436645507812 -384.6484069824219 -488.02947998046875 -81.89353942871094 -276.69781494140625 -239.2020263671875 -103.13050842285156 -53.39460754394531 -177.83668518066406 -318.6417541503906 -177.20364379882812 -139.61480712890625 -136.7742919921875 -24.446273803710938 -18.00310516357422 -481.2056884765625 -290.4434814453125 -105.59040832519531 -226.0822296142578 -487.9731140136719 
u262 -356.9045715332031 -602.8880004882812 -660.5672607421875 -640.6024169921875 -295.7967224121094 -371.37255859375 -330.3777160644531 -247.78289794921875 -65.8795394897461 -549.5316162109375 -258.49884033203125 -193.3587188720703 -73.99971771240234 -621.7049560546875 -721.74365234375 -116.50262451171875 -441.1392822265625 -381.2252197265625 -193.77513122558594 -113.05203247070312 -88.2658462524414 -565.3941650390625 -367.6714782714844 -294.75054931640625 -270.0152282714844 -50.75244903564453 -33.88446807861328 -724.7745971679688 -469.111083984375 -179.06375122070312 -354.8021240234375 -721.4388427734375 
u169 -281.629150390625 -494.4109802246094 -544.0748901367188 -510.6664123535156 -217.40252685546875 -338.48406982421875 -289.8778076171875 -198.89794921875 -45.83720779418945 -409.630859375 -205.21469116210938 -137.8594207763672 -116.6578598022461 -495.7275695800781 -587.8800659179688 -98.26972961425781 -347.60443115234375 -303.7079162597656 -140.6432647705078 -78.41363525390625 -134.9004364013672 -431.6329650878906 -259.6459655761719 -204.47509765625 -194.577392578125 -38.710670471191406 -24.529998779296875 -590.76318359375 -369.32843017578125 -137.60305786132812 -286.91864013671875 -589.8873291015625 
u703 -314.2862854003906 -544.137451171875 -596.5426635742188 -568.142822265625 -252.35324096679688 -353.2515869140625 -308.8150329589844 -221.09927368164062 -55.69785690307617 -473.114990234375 -228.44631958007812 -164.8350067138672 -96.64318084716797 -555.4024658203125 -647.8349609375 -105.81288146972656 -390.9776611328125 -339.2747802734375 -164.88316345214844 -94.04254150390625 -113.78226470947266 -494.1556701660156 -305.7035217285156 -244.1798095703125 -228.44192504882812 -47.22528839111328 -27.880714416503906 -652.6010131835938 -415.146728515625 -155.03799438476562 -316.4833984375 -650.004638671875 
u335 -406.5263366699219 -674.8046264648438 -733.3754272460938 -723.0887451171875 -354.3051452636719 -394.40826416015625 -359.7118225097656 -287.3196105957031 -79.59403228759766 -640.9434204101562 -288.0662841796875 -234.76609802246094 -45.18331527709961 -722.590087890625 -807.3864135742188 -130.44869995117188 -505.83123779296875 -437.705322265625 -225.18946838378906 -136.2344207763672 -49.778602600097656 -665.6942138671875 -439.7429504394531 -351.7545166015625 -319.8122253417969 -65.87503814697266 -36.900535583496094 -827.989990234375 -541.3274536132812 -207.309814453125 -405.99224853515625 -814.9927978515625 
u21 -244.9791259765625 -436.2792663574219 -483.6576843261719 -443.3498229980469 -173.9659423828125 -318.88055419921875 -264.34661865234375 -168.98809814453125 -34.31630325317383 -337.70166015625 -180.76959228515625 -104.48890686035156 -138.89950561523438 -418.0385437011719 -514.2531127929688 -86.86837768554688 -292.5670166015625 -255.8681640625 -110.81849670410156 -62.810577392578125 -166.7139129638672 -353.1630554199219 -203.13101196289062 -160.91571044921875 -157.47314453125 -25.363624572753906 -14.931926727294922 -512.0888671875 -318.29150390625 -113.914306640625 -242.3695831298828 -518.4012451171875 
u422 -390.3139953613281 -653.3043212890625 -714.0037841796875 -697.6390380859375 -334.5777893066406 -387.6263732910156 -348.67547607421875 -270.7481689453125 -75.81497955322266 -614.6589965820312 -280.775390625 -222.33924865722656 -54.02987289428711 -687.4378662109375 -784.3975219726562 -124.13412475585938 -485.10797119140625 -420.99615478515625 -219.02552795410156 -129.01258850097656 -65.76126861572266 -633.1004638671875 -417.2275085449219 -336.86279296875 -306.9497985839844 -60.154075622558594 -37.673561096191406 -791.7786865234375 -518.8914184570312 -198.394287109375 -389.68927001953125 -783.8079833984375 
u564 -193.73452758789062 -369.2029113769531 -408.4128112792969 -360.6094055175781 -120.796630859375 -297.8133544921875 -239.14634704589844 -136.224853515625 -21.08317756652832 -246.61285400390625 -144.827880859375 -68.98921203613281 -166.52157592773438 -333.4008483886719 -430.55865478515625 -75.47864532470703 -236.07191467285156 -207.11795043945312 -81.45506286621094 -39.886199951171875 -199.46861267089844 -263.3534240722656 -131.59799194335938 -104.3814697265625 -106.8326416015625 -19.29297637939453 -12.539146423339844 -422.66571044921875 -250.71783447265625 -87.86265563964844 -197.2040557861328 -430.8319396972656 
u363 -308.94573974609375 -534.8807373046875 -586.2537231445312 -557.169677734375 -247.24722290039062 -351.37677001953125 -305.3992004394531 -218.31301879882812 -52.903255462646484 -460.49774169921875 -223.087158203125 -159.07737731933594 -101.4308090209961 -546.262451171875 -636.2611694335938 -104.8283920288086 -383.044921875 -333.26324462890625 -160.0944366455078 -90.54653930664062 -116.27771759033203 -484.2764587402344 -297.8624572753906 -237.01708984375 -221.47207641601562 -45.117393493652344 -26.333499908447266 -642.4081420898438 -407.48675537109375 -153.354248046875 -313.30133056640625 -639.69580078125 
u338 -326.9877624511719 -564.0641479492188 -615.880615234375 -586.573486328125 -264.9878845214844 -357.99066162109375 -314.6513671875 -226.44906616210938 -57.84879684448242 -497.16900634765625 -237.212646484375 -170.32298278808594 -89.72881317138672 -571.1778564453125 -669.860107421875 -106.854248046875 -403.259521484375 -349.7069091796875 -174.6702117919922 -98.65248107910156 -109.5090103149414 -512.901611328125 -322.8161315917969 -259.4652099609375 -240.89859008789062 -47.93498992919922 -29.1424560546875 -673.8458251953125 -434.408935546875 -161.72344970703125 -327.02410888671875 -671.852783203125 
i88 -229.180908203125 -158.85214233398438 -188.51109313964844 -476.8787536621094 -229.31265258789062 -5.26439094543457 -28.225351333618164 -284.2963562011719 -215.53005981445312 -546.967041015625 -305.5862121582031 -206.31651306152344 -81.58831024169922 -429.8857116699219 -379.55047607421875 -114.27249145507812 -301.89324951171875 -311.96612548828125 -188.29478454589844 -320.97821044921875 -510.50189208984375 -460.7407531738281 -530.9217529296875 -363.44708251953125 -225.86508178710938 -188.99034118652344 -486.19927978515625 -461.16986083984375 -379.43524169921875 -129.75421142578125 -268.0205078125 -492.6248474121094 
u805 -360.2767028808594 -606.5916748046875 -655.9144897460938 -639.9158935546875 -297.3011779785156 -364.2840576171875 -329.33984375 -248.69082641601562 -67.79521942138672 -553.4837646484375 -271.1236877441406 -196.9813690185547 -66.23882293701172 -621.6290283203125 -715.6810913085938 -118.72810363769531 -446.4337158203125 -378.516357421875 -189.4729461669922 -115.98683166503906 -96.15335845947266 -560.681396484375 -375.1241760253906 -300.062744140625 -277.1676940917969 -54.73149108886719 -24.87838363647461 -730.9476318359375 -474.702392578125 -172.79067993164062 -338.507568359375 -733.317626953125 
u583 -177.54055786132812 -345.5811462402344 -385.3439025878906 -333.4686584472656 -101.42483520507812 -289.15582275390625 -229.3207550048828 -122.79629516601562 -18.11741065979004 -216.08721923828125 -135.39306640625 -54.99772644042969 -174.62661743164062 -298.7438659667969 -402.48162841796875 -69.1558609008789 -215.51405334472656 -188.06198120117188 -70.67823791503906 -33.22218322753906 -211.4213104248047 -228.25881958007812 -107.09756469726562 -83.27645874023438 -89.39346313476562 -13.757719993591309 -12.751045227050781 -388.8289794921875 -224.4332275390625 -77.49107360839844 -177.80982971191406 -399.5940246582031 
u465 -236.27822875976562 -432.0816955566406 -482.7666931152344 -437.0936584472656 -167.35565185546875 -320.56842041015625 -258.76214599609375 -164.19949340820312 -38.23081588745117 -333.20745849609375 -174.25927734375 -106.08677673339844 -139.52294921875 -409.3187561035156 -516.9317626953125 -82.69908142089844 -292.46002197265625 -256.602294921875 -115.00276184082031 -64.50238037109375 -172.01890563964844 -345.3223571777344 -193.10580444335938 -154.44854736328125 -155.20745849609375 -27.269935607910156 -24.309837341308594 -502.9932861328125 -308.2281494140625 -109.67875671386719 -238.45896911621094 -504.9145202636719 
u12 -256.8388671875 -451.2397155761719 -501.0152893066406 -461.2233581542969 -186.96463012695312 -326.2717590332031 -271.20458984375 -177.77420043945312 -36.771366119384766 -358.24188232421875 -184.12445068359375 -111.65715026855469 -132.2196807861328 -439.9046325683594 -533.1865234375 -88.3551254272461 -304.1793212890625 -264.7030334472656 -115.59059143066406 -64.89845275878906 -158.50218200683594 -375.9009094238281 -215.48263549804688 -171.21697998046875 -170.34552001953125 -28.64478302001953 -15.488765716552734 -535.4322509765625 -338.5177001953125 -119.02671813964844 -256.8680419921875 -538.807373046875 
u115 -241.39096069335938 -442.1750183105469 -486.6591491699219 -442.2853088378906 -170.42193603515625 -319.61297607421875 -265.05950927734375 -167.82406616210938 -35.21306228637695 -340.5128173828125 -178.5828857421875 -104.98939514160156 -137.50241088867188 -416.6091613769531 -517.9898071289062 -82.05906677246094 -297.298583984375 -260.4872131347656 -116.75642395019531 -63.811737060546875 -169.7364044189453 -353.2131042480469 -198.64236450195312 -161.89877319335938 -156.65213012695312 -31.39124298095703 -19.580951690673828 -512.3378295898438 -318.12188720703125 -115.06605529785156 -242.4328155517578 -517.552001953125 
i64 -22.620574951171875 -4.347014427185059 -10.937945365905762 -163.96353149414062 -2.7954370975494385 -97.17071533203125 -29.461259841918945 -99.63005065917969 -107.04869842529297 -120.28759765625 -162.76748657226562 -41.13014221191406 -212.14405822753906 -72.03817749023438 -127.57975769042969 -14.7470703125 -41.14396667480469 -72.19869995117188 -34.06390380859375 -125.4576416015625 -542.05615234375 -68.91763305664062 -92.78317260742188 -69.09817504882812 -43.228271484375 -72.43157958984375 -278.30908203125 -147.07928466796875 -112.56838989257812 -10.942965507507324 -102.69441223144531 -200.34298706054688 
u662 -251.11770629882812 -451.7552795410156 -497.0577697753906 -457.3274841308594 -182.0531005859375 -322.9791259765625 -271.2406005859375 -174.67617797851562 -36.73386764526367 -354.20068359375 -184.61862182617188 -111.53312683105469 -133.88636779785156 -434.3761291503906 -531.4879150390625 -88.19163513183594 -307.23345947265625 -267.0474548339844 -120.05842590332031 -65.51499938964844 -160.7585906982422 -369.5102233886719 -213.35940551757812 -170.38296508789062 -163.91500854492188 -30.12427520751953 -18.688716888427734 -529.386962890625 -329.232666015625 -118.93962097167969 -251.6334991455078 -533.7523193359375 
u771 -296.23406982421875 -517.3195190429688 -567.4933471679688 -535.9423828125 -231.90792846679688 -344.59857177734375 -297.6221008300781 -207.89859008789062 -49.23124313354492 -438.32965087890625 -215.34317016601562 -148.6013641357422 -108.02910614013672 -520.6966552734375 -614.22265625 -100.87281036376953 -366.227783203125 -319.1099853515625 -151.71632385253906 -86.23779296875 -127.21817779541016 -458.2449035644531 -279.7545471191406 -223.7181396484375 -210.4508056640625 -41.79943084716797 -25.27373504638672 -617.1195678710938 -391.41796875 -145.45944213867188 -298.83917236328125 -616.1611328125 
u709 -290.36761474609375 -507.6164245605469 -560.070556640625 -526.655517578125 -222.92221069335938 -340.47332763671875 -295.2131042480469 -201.59619140625 -47.18626022338867 -427.900146484375 -213.09332275390625 -141.5164031982422 -112.26058197021484 -503.4873352050781 -603.3949584960938 -99.82862854003906 -357.11407470703125 -309.1764831542969 -147.08128356933594 -84.00363159179688 -131.4835968017578 -442.4039611816406 -271.2554626464844 -216.38739013671875 -203.0826416015625 -36.38768768310547 -25.28363800048828 -601.9158935546875 -380.84991455078125 -140.4263916015625 -289.164306640625 -602.8726806640625 
u674 -265.52178955078125 -470.6352233886719 -520.4337768554688 -482.1986389160156 -198.79055786132812 -330.82958984375 -278.28057861328125 -183.71173095703125 -41.80520248413086 -379.82281494140625 -194.79901123046875 -122.29951477050781 -126.5457992553711 -457.4124450683594 -560.1568603515625 -92.74268341064453 -324.31317138671875 -282.3270568847656 -129.89060974121094 -71.40142822265625 -151.67091369628906 -394.1266174316406 -234.33456420898438 -186.3795166015625 -179.09335327148438 -31.52007293701172 -22.516422271728516 -555.0094604492188 -346.06201171875 -127.71807861328125 -266.57489013671875 -557.248779296875 
u515 -171.79498291015625 -338.7811584472656 -377.9502868652344 -325.8550109863281 -96.57321166992188 -287.31585693359375 -228.66612243652344 -120.52508544921875 -15.665849685668945 -208.03387451171875 -132.15267944335938 -52.38945007324219 -178.3491973876953 -293.9618225097656 -394.74176025390625 -70.8613052368164 -211.8502655029297 -184.59695434570312 -67.31431579589844 -31.239974975585938 -212.6165008544922 -222.53414916992188 -101.77493286132812 -79.81936645507812 -84.94577026367188 -13.475478172302246 -11.781890869140625 -381.99755859375 -219.485107421875 -75.44786071777344 -174.40309143066406 -391.7242736816406 
u797 -276.9574279785156 -481.5898742675781 -530.3821411132812 -494.5909118652344 -206.24044799804688 -332.72100830078125 -284.26727294921875 -192.02203369140625 -37.49728775024414 -395.0196533203125 -199.70779418945312 -121.05888366699219 -123.0793685913086 -469.3172302246094 -564.4850463867188 -94.5972671508789 -326.03125 -284.5581359863281 -129.14256286621094 -76.01422119140625 -145.32542419433594 -408.8899841308594 -249.38809204101562 -197.55859375 -187.80087280273438 -28.43109130859375 -16.233036041259766 -569.4361572265625 -367.10479736328125 -131.27938842773438 -274.21844482421875 -573.218017578125 
u425 -367.6943054199219 -615.8973999023438 -676.6155395507812 -658.7147216796875 -306.1673278808594 -373.8968505859375 -337.8357238769531 -254.1302490234375 -68.97539520263672 -568.0476684570312 -265.56524658203125 -200.42869567871094 -68.0089340209961 -636.57861328125 -737.3670654296875 -118.07939147949219 -455.75048828125 -388.2359619140625 -200.3988800048828 -116.5728759765625 -80.16400909423828 -580.3341064453125 -382.0125427246094 -304.202880859375 -277.3498229980469 -49.81927490234375 -35.55596160888672 -742.0450439453125 -478.1396484375 -182.51370239257812 -361.178466796875 -737.5972900390625 
u28 -179.33718872070312 -342.4231872558594 -372.9543762207031 -330.0047912597656 -102.23895263671875 -281.7086486816406 -228.27540588378906 -124.42945861816406 -10.98045539855957 -211.55108642578125 -131.94808959960938 -42.01081848144531 -179.8397216796875 -298.7915954589844 -391.1051025390625 -69.64036560058594 -211.0352325439453 -183.55548095703125 -59.00968933105469 -32.408721923828125 -217.8769989013672 -214.73715209960938 -108.20285034179688 -88.9022216796875 -86.84982299804688 -5.842196464538574 -0.6866360902786255 -381.77606201171875 -230.45538330078125 -86.58576965332031 -181.52064514160156 -391.9046936035156 
