5186 32
u3301 -17.964210510253906 -139.52078247070312 -26.375137329101562 -11.450148582458496 -20.897640228271484 -42.313663482666016 -20.45651626586914 -83.40885925292969 -38.49769592285156 -11.961012840270996 -86.71627807617188 -12.016077041625977 -36.439903259277344 -28.130979537963867 -23.44626808166504 -50.85319519042969 -30.261280059814453 -81.34589385986328 -36.213294982910156 -75.33234405517578 -52.57309341430664 -46.597721099853516 -29.72216033935547 -51.19968032836914 -21.140396118164062 -19.930782318115234 -43.91938781738281 -32.512550354003906 -14.476490020751953 -63.85662078857422 -28.837942123413086 -11.430599212646484 
u887 -17.48501968383789 -135.71697998046875 -29.895668029785156 -13.050990104675293 -21.431198120117188 -46.695682525634766 -22.07199478149414 -83.80485534667969 -38.449317932128906 -11.926627159118652 -80.54670715332031 -9.830965042114258 -34.54969787597656 -31.683713912963867 -20.522985458374023 -50.027374267578125 -34.47592544555664 -78.16559600830078 -36.6224365234375 -70.94983673095703 -52.4408073425293 -44.523441314697266 -33.774383544921875 -54.11227035522461 -25.254047393798828 -22.67169189453125 -42.93690490722656 -35.53599166870117 -10.455765724182129 -67.78156280517578 -26.580106735229492 -10.29893684387207 
u2473 -19.832386016845703 -128.169921875 -28.40512466430664 -13.912795066833496 -21.360553741455078 -40.90120315551758 -21.807453155517578 -76.48809814453125 -36.800048828125 -13.121325492858887 -75.52082824707031 -14.350425720214844 -37.85613250732422 -34.84319305419922 -21.604238510131836 -45.966163635253906 -35.60878372192383 -73.82025909423828 -33.36167907714844 -69.37381744384766 -55.581871032714844 -42.72890853881836 -34.459625244140625 -47.20415115356445 -20.420852661132812 -22.452335357666016 -50.42790222167969 -30.306241989135742 -14.657186508178711 -76.07897186279297 -32.156314849853516 -10.842201232910156 
u4555 -19.32707977294922 -127.8720703125 -27.904781341552734 -13.326285362243652 -20.1363525390625 -43.40645980834961 -18.20317840576172 -74.85929870605469 -36.68360900878906 -14.833399772644043 -73.67141723632812 -13.699346542358398 -37.27325439453125 -33.492897033691406 -20.968320846557617 -44.40679931640625 -35.826786041259766 -72.5800552368164 -33.68367004394531 -68.63861846923828 -54.50951385498047 -40.994083404541016 -33.98046112060547 -49.01584243774414 -20.895797729492188 -21.626800537109375 -51.5281982421875 -30.666074752807617 -12.117481231689453 -76.07868194580078 -30.980321884155273 -9.970905303955078 
u253 -27.361881256103516 -78.65045166015625 -33.70897674560547 -14.085402488708496 -29.84564208984375 -22.727724075317383 -12.620498657226562 -45.13712692260742 -19.959993362426758 -10.919045448303223 -48.650482177734375 -17.031925201416016 -53.994224548339844 -50.34893035888672 -14.678717613220215 -26.721406936645508 -48.1415901184082 -45.21213912963867 -19.267425537109375 -41.899940490722656 -69.27173614501953 -26.279727935791016 -47.87353515625 -29.002824783325195 -11.592572212219238 -29.87287139892578 -76.78988647460938 -18.374319076538086 -16.555095672607422 -111.1306381225586 -49.044193267822266 -12.492095947265625 
u269 -21.612754821777344 -103.98495483398438 -33.9997444152832 -18.247852325439453 -26.113235473632812 -42.518924713134766 -23.807403564453125 -70.38949584960938 -32.60125732421875 -10.33244800567627 -58.074432373046875 -7.6492919921875 -42.43816375732422 -46.89630126953125 -16.292020797729492 -41.534706115722656 -49.4425163269043 -58.41360092163086 -29.772247314453125 -56.01679229736328 -63.403648376464844 -34.87565994262695 -41.24842071533203 -46.075382232666016 -24.021133422851562 -21.59497833251953 -57.92396545410156 -35.763275146484375 -13.2801513671875 -101.21538543701172 -32.736324310302734 -5.494846343994141 
u3643 -18.637710571289062 -151.6440887451172 -22.184059143066406 -11.597613334655762 -16.058170318603516 -51.28898239135742 -19.981731414794922 -85.86732482910156 -40.56675720214844 -17.8607120513916 -85.66206359863281 -10.930938720703125 -30.23259925842285 -26.31305503845215 -24.37471580505371 -50.486717224121094 -26.91879653930664 -86.81580352783203 -36.35986328125 -80.29203033447266 -46.134178161621094 -47.43216323852539 -26.382850646972656 -55.71084976196289 -25.300437927246094 -20.79574203491211 -41.32481384277344 -35.33969497680664 -9.775090217590332 -60.757713317871094 -24.34510612487793 -12.48460578918457 
u4295 -16.266536712646484 -143.66416931152344 -24.396156311035156 -10.950297355651855 -15.681922912597656 -51.022830963134766 -18.170452117919922 -82.54632568359375 -40.08372116088867 -19.107952117919922 -76.48811340332031 -10.652942657470703 -29.27421760559082 -28.449453353881836 -22.95979118347168 -48.41533660888672 -31.518611907958984 -83.0634994506836 -38.204261779785156 -76.30864715576172 -46.62886428833008 -44.819583892822266 -29.546371459960938 -56.45988082885742 -26.073814392089844 -18.770618438720703 -44.31663513183594 -32.302268981933594 -10.750386238098145 -64.65605926513672 -22.327863693237305 -12.735282897949219 
u310 -25.112857818603516 -95.98809814453125 -32.78803253173828 -15.80246639251709 -26.825489044189453 -34.2701530456543 -18.842445373535156 -57.14936447143555 -30.07952308654785 -9.160834312438965 -57.30377197265625 -18.464311599731445 -47.15979766845703 -45.062416076660156 -16.882036209106445 -33.45427703857422 -44.624149322509766 -58.2684440612793 -23.272804260253906 -51.448463439941406 -62.329734802246094 -29.843852996826172 -44.69630432128906 -36.61014175415039 -15.184308052062988 -30.68490982055664 -68.59922790527344 -25.381872177124023 -14.322101593017578 -98.2930679321289 -40.25497817993164 -12.223518371582031 
u888 -22.067150115966797 -107.02053833007812 -31.817485809326172 -13.750971794128418 -27.508522033691406 -31.627763748168945 -14.408889770507812 -60.79092025756836 -27.811769485473633 -14.631495475769043 -62.5687255859375 -13.700767517089844 -45.07880401611328 -42.39751434326172 -17.104196548461914 -36.81477355957031 -42.16366958618164 -57.176448822021484 -28.599472045898438 -54.802162170410156 -63.597564697265625 -36.58883285522461 -37.721656799316406 -41.882205963134766 -17.829315185546875 -22.27269744873047 -59.18647766113281 -25.860082626342773 -14.279918670654297 -91.4547348022461 -40.36601638793945 -9.646175384521484 
u2782 -13.492827415466309 -173.4814910888672 -18.420433044433594 -8.040114402770996 -8.950233459472656 -52.38885498046875 -19.822818756103516 -99.96240234375 -48.99585723876953 -23.83332061767578 -94.43157958984375 -8.195643424987793 -22.784486770629883 -18.06624412536621 -25.874013900756836 -58.696136474609375 -20.874225616455078 -100.98070526123047 -43.081092834472656 -92.18856811523438 -36.40077590942383 -57.4445915222168 -17.314697265625 -58.61568069458008 -24.847366333007812 -16.303138732910156 -27.697860717773438 -31.3916072845459 -8.647626876831055 -35.794517517089844 -15.009450912475586 -16.60367774963379 
u4935 -13.306002616882324 -146.57806396484375 -27.37216567993164 -13.364108085632324 -21.514102935791016 -52.635128021240234 -26.26369857788086 -93.03828430175781 -42.228858947753906 -15.491759300231934 -83.48619079589844 -7.323570728302002 -27.14920997619629 -31.535734176635742 -22.47489356994629 -53.89368438720703 -32.5520133972168 -83.7100601196289 -40.138999938964844 -78.18378448486328 -49.8569221496582 -48.3372917175293 -28.485992431640625 -61.35818862915039 -29.532344818115234 -16.506954193115234 -35.10552978515625 -42.17781066894531 -10.725796699523926 -61.84618377685547 -21.604978561401367 -6.857881546020508 
u3911 -14.50708293914795 -146.55023193359375 -23.32659912109375 -11.914900779724121 -15.904083251953125 -52.405208587646484 -20.282054901123047 -85.92811584472656 -40.551300048828125 -19.08677101135254 -79.26840209960938 -10.927959442138672 -27.51665687561035 -29.12471580505371 -23.377336502075195 -49.58604431152344 -31.344776153564453 -82.84465789794922 -38.352256774902344 -78.77594757080078 -47.26483154296875 -46.18376541137695 -27.138832092285156 -58.75129318237305 -27.53934097290039 -16.208927154541016 -41.53663635253906 -35.20772933959961 -11.797383308410645 -63.32581329345703 -21.87257194519043 -11.322200775146484 
u4747 -16.358055114746094 -143.86431884765625 -23.111923217773438 -9.860827445983887 -15.584056854248047 -47.485538482666016 -17.711837768554688 -84.58811950683594 -39.17601776123047 -18.12865447998047 -83.02755737304688 -11.526205062866211 -32.49402618408203 -27.037946701049805 -23.260499954223633 -49.88544464111328 -29.31222915649414 -82.0593032836914 -36.52510070800781 -78.9626693725586 -47.95795822143555 -46.39751052856445 -28.070068359375 -54.56985855102539 -23.22187042236328 -18.271583557128906 -44.52995300292969 -31.740163803100586 -11.475732803344727 -62.62419891357422 -23.992219924926758 -11.543840408325195 
u2193 -17.67557144165039 -151.8241729736328 -20.718387603759766 -10.23285961151123 -15.266845703125 -49.72185134887695 -16.21694564819336 -84.29937744140625 -38.14045715332031 -18.455488204956055 -89.61041259765625 -12.152372360229492 -32.78484344482422 -22.872472763061523 -24.969099044799805 -50.07408905029297 -25.374858856201172 -87.34345245361328 -36.54296875 -80.86034393310547 -44.3016357421875 -45.71345901489258 -26.210548400878906 -55.048648834228516 -24.170547485351562 -20.86251449584961 -42.72532653808594 -34.4467658996582 -9.20910930633545 -56.919471740722656 -24.232694625854492 -13.195505142211914 
u4242 -16.621112823486328 -140.5999755859375 -28.216999053955078 -13.77161693572998 -21.371299743652344 -49.59965133666992 -23.503395080566406 -87.49223327636719 -39.67252731323242 -14.521323204040527 -81.21536254882812 -8.794729232788086 -30.885393142700195 -32.620628356933594 -21.457075119018555 -51.57124328613281 -33.87832260131836 -80.1351089477539 -38.26564025878906 -74.21393585205078 -50.74556350708008 -46.8870735168457 -30.073524475097656 -56.7142219543457 -26.89478302001953 -19.56359100341797 -41.06346130371094 -38.19333267211914 -11.07377815246582 -67.42034149169922 -24.4545955657959 -8.788314819335938 
u4611 -8.459738731384277 -198.8929901123047 -15.789066314697266 -7.6665449142456055 -7.973907947540283 -63.249908447265625 -20.383419036865234 -112.98235321044922 -51.709625244140625 -25.684003829956055 -109.50572967529297 -8.044232368469238 -12.795373916625977 -9.419504165649414 -30.4841251373291 -65.99225616455078 -10.792109489440918 -111.34928131103516 -52.331199645996094 -105.6189956665039 -31.782642364501953 -65.32453155517578 -11.149444580078125 -73.7248306274414 -31.852783203125 -9.502469062805176 -17.205787658691406 -40.8997802734375 -9.64106273651123 -23.721853256225586 -10.528036117553711 -12.550939559936523 
u2696 -16.88961410522461 -146.555908203125 -25.07260513305664 -12.875555992126465 -19.924358367919922 -46.1458854675293 -23.438373565673828 -88.60762023925781 -42.10472869873047 -9.123696327209473 -91.26872253417969 -12.585529327392578 -34.42866516113281 -24.585752487182617 -23.82753562927246 -52.46930694580078 -29.37063217163086 -86.40766143798828 -34.256324768066406 -77.39717102050781 -49.55424118041992 -47.565242767333984 -30.053070068359375 -53.366947174072266 -22.456031799316406 -19.864349365234375 -41.3890380859375 -35.738712310791016 -13.930845260620117 -57.68573760986328 -25.172231674194336 -12.632731437683105 
i118 -789.1024780273438 -950.234130859375 -1694.31494140625 -2524.401611328125 -2535.52978515625 -2174.5078125 -2307.15771484375 -2167.320068359375 -2081.694091796875 -1445.2218017578125 -905.5325927734375 -775.3126220703125 -303.4035949707031 -1445.6534423828125 -885.6589965820312 -823.1469116210938 -2100.19921875 -1306.8394775390625 -2123.438232421875 -401.62518310546875 -1291.6129150390625 -982.7324829101562 -1453.3709716796875 -2208.647216796875 -1719.5997314453125 -521.3438110351562 -525.322509765625 -2358.9404296875 -1615.416015625 -2648.567138671875 -1293.05419921875 -175.23704528808594 
u839 -19.113994598388672 -148.5595703125 -22.450027465820312 -11.718886375427246 -16.556983947753906 -50.45305252075195 -19.97052764892578 -83.63949584960938 -39.596221923828125 -17.97691535949707 -83.16781616210938 -11.196599960327148 -30.845354080200195 -27.72962760925293 -24.091230392456055 -49.12373352050781 -28.154354095458984 -85.48290252685547 -35.157936096191406 -78.33071899414062 -46.39199447631836 -46.03010177612305 -27.36096954345703 -54.35844802856445 -24.935001373291016 -21.36023712158203 -43.53620910644531 -34.52355194091797 -10.311392784118652 -63.32152557373047 -24.756925582885742 -13.373495101928711 
u3365 -10.575684547424316 -204.8730010986328 -17.349193572998047 -11.258959770202637 -13.783958435058594 -61.85189437866211 -21.330245971679688 -111.80545043945312 -53.345703125 -20.921899795532227 -123.15444946289062 -17.056154251098633 -11.217866897583008 -7.160207748413086 -32.581275939941406 -65.74853515625 -6.310206890106201 -114.54257202148438 -52.202213287353516 -106.89942169189453 -31.290428161621094 -67.5304946899414 -7.474026203155518 -74.25804138183594 -29.400062561035156 -11.490056037902832 -18.206390380859375 -43.910587310791016 -11.398223876953125 -17.314870834350586 -13.450937271118164 -12.0037841796875 
u3896 -17.924938201904297 -140.22604370117188 -27.051902770996094 -14.861563682556152 -21.1712646484375 -46.11112594604492 -25.909412384033203 -84.06959533691406 -41.70527267456055 -11.478793144226074 -82.713134765625 -14.281946182250977 -34.17364501953125 -30.87764549255371 -23.267656326293945 -49.44953155517578 -32.69728469848633 -81.62906646728516 -33.4891357421875 -74.68318939208984 -50.471710205078125 -45.56760025024414 -31.38922882080078 -51.30815505981445 -22.55841064453125 -21.45105743408203 -45.65931701660156 -34.64397430419922 -14.333465576171875 -67.27169036865234 -26.85493278503418 -11.788732528686523 
u4413 -29.627174377441406 -65.35720825195312 -35.8342170715332 -16.333377838134766 -26.650711059570312 -25.903291702270508 -13.008304595947266 -39.24013900756836 -22.78465461730957 -7.0987114906311035 -39.33009338378906 -19.043638229370117 -60.016822814941406 -52.54784393310547 -12.391547203063965 -23.451921463012695 -56.305545806884766 -41.270259857177734 -14.875640869140625 -36.46977996826172 -69.84320831298828 -18.43301773071289 -55.28239440917969 -24.02202033996582 -9.437691688537598 -35.53629684448242 -86.24732971191406 -16.694700241088867 -14.823219299316406 -121.6775894165039 -47.5228157043457 -12.849710464477539 
u114 -14.042716026306152 -168.56036376953125 -24.05542755126953 -11.41037654876709 -19.16655731201172 -50.9216194152832 -25.778718948364258 -100.13343811035156 -46.491886138916016 -13.594834327697754 -102.74919128417969 -11.125589370727539 -25.460695266723633 -20.185293197631836 -27.47882080078125 -60.23988342285156 -21.39022445678711 -96.5080337524414 -43.19153594970703 -89.31448364257812 -45.36513137817383 -57.05637741088867 -20.991668701171875 -61.7638053894043 -26.26611328125 -15.464245796203613 -28.76165771484375 -39.275169372558594 -13.354387283325195 -44.15294647216797 -21.332983016967773 -10.665958404541016 
u4537 -21.821266174316406 -101.56646728515625 -30.766124725341797 -14.179621696472168 -22.221046447753906 -41.24924087524414 -17.921680450439453 -62.65505599975586 -30.331125259399414 -12.233256340026855 -53.87040710449219 -10.539411544799805 -43.57482147216797 -43.741798400878906 -16.2692928314209 -35.566429138183594 -47.09077072143555 -60.0385856628418 -25.085227966308594 -54.17504119873047 -58.86577606201172 -30.12717056274414 -43.583465576171875 -42.11410140991211 -21.57695770263672 -25.748451232910156 -63.998199462890625 -28.121007919311523 -12.026727676391602 -97.22602081298828 -32.935848236083984 -11.930427551269531 
u3981 -16.818161010742188 -149.84744262695312 -25.700801849365234 -12.99390697479248 -21.580821990966797 -45.20832443237305 -21.307964324951172 -85.58824157714844 -40.12339401245117 -17.270906448364258 -88.56779479980469 -15.08820915222168 -30.62034797668457 -27.836416244506836 -24.322294235229492 -51.97014617919922 -26.849254608154297 -84.82202911376953 -40.08148193359375 -78.5078125 -48.0373420715332 -49.66069412231445 -24.89641571044922 -55.3788948059082 -23.015464782714844 -18.798110961914062 -40.281036376953125 -34.074344635009766 -13.356855392456055 -58.298377990722656 -26.939176559448242 -11.55870246887207 
u2260 -7.425561428070068 -208.6897735595703 -13.841384887695312 -6.559113502502441 -5.4036946296691895 -62.57799530029297 -21.821624755859375 -118.13066101074219 -56.600669860839844 -26.76142692565918 -115.82086944580078 -8.439581871032715 -10.291048049926758 -4.845170974731445 -31.808855056762695 -70.16614532470703 -8.019404411315918 -117.44998931884766 -53.16912078857422 -110.80035400390625 -27.48357391357422 -68.81966400146484 -6.445335865020752 -73.94126892089844 -30.669971466064453 -7.572030067443848 -11.316879272460938 -39.30511474609375 -7.264522552490234 -9.520971298217773 -4.335348129272461 -14.214180946350098 
u299 -24.97341537475586 -92.18954467773438 -31.25208282470703 -11.062891960144043 -21.713172912597656 -35.63923263549805 -14.696453094482422 -54.4216423034668 -26.130807876586914 -13.353754997253418 -48.18937683105469 -10.493234634399414 -50.06742858886719 -45.608154296875 -15.81186580657959 -32.42633056640625 -49.5265007019043 -57.11654281616211 -22.959487915039062 -49.87177276611328 -58.050079345703125 -25.335803985595703 -45.58930969238281 -33.12558364868164 -18.036945343017578 -30.30474090576172 -70.92320251464844 -20.5762996673584 -10.843523979187012 -103.08057403564453 -35.34138107299805 -14.935352325439453 
u386 -24.495590209960938 -99.98681640625 -32.49467086791992 -17.46578598022461 -24.567195892333984 -36.85976028442383 -20.343841552734375 -60.41964340209961 -33.24275207519531 -9.174208641052246 -57.76167297363281 -17.9810791015625 -48.06433868408203 -43.13188171386719 -16.686243057250977 -36.53333282470703 -46.929500579833984 -58.9765739440918 -24.224227905273438 -53.74536895751953 -60.998443603515625 -30.12131118774414 -43.58576965332031 -37.662960052490234 -16.575824737548828 -28.192138671875 -66.34190368652344 -27.39332389831543 -13.201292037963867 -97.13777923583984 -37.08669662475586 -10.745864868164062 
u2173 -24.10531997680664 -99.45401000976562 -32.08008575439453 -12.984789848327637 -27.626514434814453 -28.509485244750977 -12.319236755371094 -57.84162521362305 -26.511323928833008 -11.403212547302246 -60.53546142578125 -12.27121353149414 -52.25160217285156 -42.275390625 -14.605109214782715 -35.32373809814453 -46.255802154541016 -53.76581954956055 -25.132179260253906 -50.406044006347656 -65.03275299072266 -32.343563079833984 -39.73326873779297 -36.67848587036133 -15.447922706604004 -22.54349136352539 -62.44239807128906 -24.24397087097168 -12.978192329406738 -95.55699920654297 -40.95792007446289 -10.833999633789062 
u37 -28.52872085571289 -73.49203491210938 -33.90512466430664 -14.389395713806152 -23.816558837890625 -27.2283878326416 -10.000717163085938 -41.80955123901367 -23.059877395629883 -9.108691215515137 -43.34596252441406 -18.336191177368164 -57.95967102050781 -47.849937438964844 -13.314745903015137 -25.015283584594727 -53.308597564697266 -44.384944915771484 -17.749534606933594 -40.384925842285156 -66.52592468261719 -20.585933685302734 -52.53594207763672 -26.61199378967285 -9.731118202209473 -33.45021057128906 -83.59889221191406 -15.118643760681152 -13.702940940856934 -114.52725982666016 -44.56167984008789 -13.871469497680664 
u709 -27.117706298828125 -75.73150634765625 -33.863346099853516 -14.979472160339355 -27.177474975585938 -27.12967872619629 -14.634471893310547 -45.579586029052734 -23.7012882232666 -8.649195671081543 -46.501495361328125 -18.37980079650879 -55.61553955078125 -49.662322998046875 -14.299681663513184 -26.90484046936035 -50.9842414855957 -47.18171310424805 -18.20252227783203 -42.11864471435547 -67.14788055419922 -22.60422134399414 -50.359718322753906 -28.576723098754883 -11.02639102935791 -33.196990966796875 -79.49853515625 -18.5195369720459 -15.470731735229492 -111.53250885009766 -45.45492172241211 -13.314718246459961 
u2158 -16.855594635009766 -151.74147033691406 -24.49053192138672 -13.549498558044434 -19.88711166381836 -51.21342086791992 -20.818084716796875 -86.85212707519531 -42.169639587402344 -16.110754013061523 -88.00764465332031 -16.483869552612305 -27.65964698791504 -27.189138412475586 -24.436594009399414 -49.65943908691406 -27.012798309326172 -88.3660888671875 -39.729736328125 -80.45939636230469 -46.57090759277344 -49.0609016418457 -25.48529052734375 -57.95866775512695 -24.47557830810547 -20.535350799560547 -41.28901672363281 -35.5908203125 -14.078924179077148 -59.27234649658203 -27.1146297454834 -12.49427604675293 
u2946 -9.713299751281738 -194.53111267089844 -21.294235229492188 -7.963561058044434 -8.811397552490234 -63.53499984741211 -20.81378173828125 -111.83511352539062 -55.52053451538086 -27.642393112182617 -104.69706726074219 -10.052734375 -10.05974006652832 -11.378622055053711 -27.339061737060547 -63.86035919189453 -11.306231498718262 -110.26591491699219 -55.57817840576172 -99.777587890625 -37.207794189453125 -60.86155319213867 -12.602920532226562 -77.58241271972656 -31.15866470336914 -7.529278755187988 -16.33367156982422 -40.2373046875 -8.375049591064453 -27.70729637145996 -10.451200485229492 -13.526483535766602 
u344 -14.262038230895996 -157.96092224121094 -25.813251495361328 -11.515807151794434 -18.15726089477539 -51.30276870727539 -22.956130981445312 -93.92950439453125 -44.563419342041016 -18.824129104614258 -88.88557434082031 -8.423545837402344 -24.785799026489258 -25.753957748413086 -24.379350662231445 -55.714012145996094 -26.079753875732422 -88.63140869140625 -43.0621337890625 -82.6161880493164 -47.12045669555664 -53.05768966674805 -23.99456024169922 -61.20634841918945 -27.15017318725586 -16.854541778564453 -30.824417114257812 -37.78407287597656 -8.878997802734375 -50.891944885253906 -20.71095848083496 -9.178218841552734 
u297 -15.202109336853027 -133.25277709960938 -29.38943099975586 -12.251193046569824 -23.676288604736328 -41.84367752075195 -20.853057861328125 -84.24403381347656 -38.980674743652344 -16.2171688079834 -78.06147766113281 -11.782506942749023 -32.84846496582031 -32.863014221191406 -18.10894203186035 -50.970611572265625 -33.51637649536133 -75.48981475830078 -38.871620178222656 -69.1489028930664 -54.13196563720703 -45.780704498291016 -33.68091583251953 -56.21470260620117 -22.309085845947266 -16.09457015991211 -43.465545654296875 -34.64323425292969 -12.909940719604492 -66.40962982177734 -26.883901596069336 -10.336446762084961 
u79 -21.30626678466797 -104.13284301757812 -31.38079071044922 -10.510565757751465 -22.87226104736328 -34.56834030151367 -17.372364044189453 -61.218013763427734 -32.61189270019531 -14.083090782165527 -59.79106140136719 -15.963390350341797 -45.08973693847656 -41.29802703857422 -18.17243003845215 -37.940940856933594 -41.243831634521484 -64.2217788696289 -27.725372314453125 -55.308570861816406 -57.25032043457031 -32.61619186401367 -42.95326232910156 -39.63222122192383 -17.61347198486328 -27.513931274414062 -63.42724609375 -23.387205123901367 -11.846461296081543 -87.11406707763672 -33.936214447021484 -13.055908203125 
u1212 -19.158103942871094 -112.67031860351562 -33.38945770263672 -17.403827667236328 -26.26403045654297 -44.46054458618164 -24.623302459716797 -74.93949890136719 -34.225830078125 -9.839192390441895 -63.42820739746094 -8.3187837600708 -38.927223205566406 -44.000633239746094 -16.579355239868164 -42.960304260253906 -46.4166374206543 -63.9409294128418 -30.775222778320312 -59.137794494628906 -59.86787414550781 -37.41438674926758 -41.129661560058594 -49.02872848510742 -25.495758056640625 -22.401622772216797 -53.13908386230469 -37.70892333984375 -12.64697551727295 -91.5885238647461 -31.46590232849121 -6.388328552246094 
u1738 -16.296276092529297 -146.34848022460938 -27.21312713623047 -14.245192527770996 -25.640838623046875 -44.276248931884766 -24.31197166442871 -86.15316772460938 -39.59257125854492 -15.828766822814941 -85.82803344726562 -13.418853759765625 -29.28617286682129 -31.684926986694336 -22.783906936645508 -51.68360900878906 -28.295413970947266 -81.15677642822266 -38.49400329589844 -75.32476043701172 -52.94272232055664 -49.96139144897461 -25.965431213378906 -57.251224517822266 -25.100418090820312 -17.049537658691406 -36.740692138671875 -38.23211669921875 -13.20241928100586 -60.67552947998047 -29.414907455444336 -9.00279426574707 
u2223 -15.441603660583496 -154.56150817871094 -24.214405059814453 -10.919970512390137 -19.103404998779297 -47.4802131652832 -20.071971893310547 -90.96664428710938 -40.47128677368164 -20.315383911132812 -87.94512939453125 -10.46829605102539 -27.099519729614258 -26.48621940612793 -24.109594345092773 -53.876182556152344 -25.195842742919922 -87.48273468017578 -42.60106658935547 -81.36798858642578 -47.06871032714844 -52.90391159057617 -24.205291748046875 -58.73405075073242 -24.535247802734375 -17.28614044189453 -35.473724365234375 -34.373531341552734 -12.132479667663574 -54.593040466308594 -25.810483932495117 -11.83775520324707 
u347 -11.061732292175293 -172.32281494140625 -22.485923767089844 -8.644976615905762 -17.824169158935547 -54.10578918457031 -22.147117614746094 -102.69725036621094 -46.50300216674805 -19.631986618041992 -99.458740234375 -11.107332229614258 -18.138826370239258 -19.17580223083496 -26.843225479125977 -60.37395477294922 -17.985210418701172 -100.34297180175781 -48.198062896728516 -90.46739959716797 -40.23033142089844 -59.105960845947266 -20.01734161376953 -68.40989685058594 -28.28900909423828 -14.107399940490723 -27.04027557373047 -37.7398681640625 -12.732394218444824 -36.90904998779297 -16.960073471069336 -13.654463768005371 
u143 -9.221781730651855 -177.77328491210938 -21.977935791015625 -10.046858787536621 -16.447734832763672 -56.722862243652344 -23.697647094726562 -107.18433380126953 -49.208595275878906 -20.224716186523438 -99.81265258789062 -8.164356231689453 -16.296632766723633 -18.384347915649414 -25.277406692504883 -62.634544372558594 -19.058231353759766 -101.15550231933594 -48.19221496582031 -92.7051010131836 -39.199623107910156 -60.41776657104492 -18.896873474121094 -70.34899139404297 -30.414413452148438 -10.833134651184082 -21.993080139160156 -41.85906982421875 -10.731358528137207 -34.28624725341797 -13.898202896118164 -11.772668838500977 
u2039 -16.525352478027344 -142.06753540039062 -26.646263122558594 -12.867342948913574 -21.350223541259766 -41.80240249633789 -20.8287353515625 -84.08787536621094 -37.75422668457031 -18.442907333374023 -81.06597900390625 -10.189005851745605 -33.150352478027344 -33.185279846191406 -21.939119338989258 -50.82780456542969 -31.607181549072266 -77.68273162841797 -39.35310363769531 -74.9280014038086 -56.29219055175781 -50.17866897583008 -28.06884002685547 -53.72983932495117 -24.47955322265625 -16.03655242919922 -37.586273193359375 -34.735382080078125 -14.420845985412598 -67.2259292602539 -32.9211311340332 -7.778074264526367 
u4109 -17.684402465820312 -159.67465209960938 -25.024017333984375 -13.740889549255371 -19.130844116210938 -55.34270477294922 -25.408222198486328 -92.05667114257812 -43.58950424194336 -20.36382484436035 -87.47067260742188 -9.358521461486816 -24.7067813873291 -27.897138595581055 -25.535459518432617 -55.346458435058594 -26.039249420166016 -90.24930572509766 -41.39653015136719 -83.05144500732422 -45.987525939941406 -51.37937545776367 -23.403526306152344 -62.27682876586914 -29.90312957763672 -18.637027740478516 -33.77876281738281 -41.63688659667969 -8.558613777160645 -59.285179138183594 -21.759218215942383 -9.547538757324219 
u3026 -11.342089653015137 -184.70970153808594 -19.710132598876953 -8.397261619567871 -9.936565399169922 -62.382022857666016 -22.004295349121094 -107.1361083984375 -50.1590690612793 -23.985795974731445 -100.10296630859375 -7.240672588348389 -15.324525833129883 -16.01627540588379 -28.094507217407227 -64.01546478271484 -18.036266326904297 -102.64569854736328 -47.80371856689453 -98.40648651123047 -37.55476379394531 -59.49653244018555 -13.060157775878906 -73.1340560913086 -33.18252944946289 -7.738293647766113 -22.25420379638672 -41.09074020385742 -8.753921508789062 -36.42186737060547 -8.325910568237305 -11.7965669631958 
u1343 -15.877058982849121 -134.67510986328125 -22.1826171875 -8.736716270446777 -15.115318298339844 -44.29701614379883 -10.259910583496094 -76.16122436523438 -33.50492858886719 -19.89739418029785 -76.5177001953125 -10.847383499145508 -37.698646545410156 -28.0955867767334 -21.332944869995117 -44.421173095703125 -33.5141487121582 -76.82238006591797 -36.457435607910156 -73.05463409423828 -49.16202926635742 -42.423519134521484 -31.435897827148438 -51.62094497680664 -22.039451599121094 -19.640918731689453 -49.48408508300781 -27.850584030151367 -12.529972076416016 -67.74613189697266 -28.465551376342773 -12.434463500976562 
i155 -820.1483764648438 -946.9205322265625 -1779.3863525390625 -2592.287109375 -2654.261962890625 -2254.900390625 -2409.6259765625 -2310.62841796875 -2164.777587890625 -1498.4459228515625 -943.9090576171875 -826.7869873046875 -315.3937072753906 -1569.58837890625 -936.2035522460938 -883.8228149414062 -2196.893798828125 -1360.6522216796875 -2187.115966796875 -415.31500244140625 -1340.027587890625 -1018.1513061523438 -1537.8294677734375 -2359.68798828125 -1774.207275390625 -521.2144165039062 -510.26837158203125 -2486.3916015625 -1708.8480224609375 -2779.16455078125 -1356.957763671875 -177.00192260742188 
u2636 -17.590198516845703 -129.53109741210938 -23.778167724609375 -8.596606254577637 -18.00204849243164 -40.351139068603516 -12.789806365966797 -75.61408996582031 -31.504335403442383 -18.429819107055664 -75.20370483398438 -9.439642906188965 -39.40779113769531 -30.82294273376465 -20.44331169128418 -44.92594909667969 -34.30716323852539 -72.27918243408203 -35.18394470214844 -69.91796112060547 -52.66958999633789 -41.99411392211914 -31.637535095214844 -49.75444412231445 -20.5830078125 -19.440185546875 -49.8321533203125 -26.67188835144043 -12.285717010498047 -70.89691925048828 -29.405332565307617 -13.115386962890625 
u2076 -20.744709014892578 -136.00997924804688 -24.90509033203125 -12.024821281433105 -17.545494079589844 -48.09560775756836 -17.497238159179688 -74.83280944824219 -36.37799072265625 -19.456567764282227 -72.140380859375 -11.349407196044922 -33.675941467285156 -33.276023864746094 -21.911977767944336 -44.03197479248047 -32.39627456665039 -77.49202728271484 -34.35460662841797 -72.0117416381836 -50.52793884277344 -42.01542282104492 -31.36859130859375 -51.003353118896484 -23.88237762451172 -23.370960235595703 -50.23979187011719 -31.8558406829834 -10.95071029663086 -77.01973724365234 -29.401464462280273 -11.981698989868164 
u194 -17.354984283447266 -146.1590576171875 -27.842872619628906 -13.096941947937012 -25.04205322265625 -41.65932846069336 -19.671348571777344 -83.80451965332031 -38.15516662597656 -16.42543601989746 -84.88661193847656 -10.793169021606445 -33.554161071777344 -29.840871810913086 -20.879419326782227 -50.77050018310547 -31.71487808227539 -77.15038299560547 -37.76731872558594 -72.21312713623047 -54.239051818847656 -49.25837326049805 -25.110000610351562 -54.94040298461914 -24.78122329711914 -13.733899116516113 -36.49440002441406 -35.92979431152344 -10.775420188903809 -63.190223693847656 -29.734182357788086 -8.968097686767578 
u1585 -24.056262969970703 -93.49874877929688 -30.737503051757812 -12.225050926208496 -25.022659301757812 -28.638521194458008 -13.717933654785156 -57.565975189208984 -23.29642677307129 -14.848639488220215 -54.954071044921875 -11.455390930175781 -50.18055725097656 -45.606834411621094 -17.220998764038086 -34.62004852294922 -46.5180549621582 -52.725582122802734 -26.89996337890625 -52.27953338623047 -64.80276489257812 -32.8182258605957 -41.25171661376953 -36.080570220947266 -14.945107460021973 -24.778247833251953 -67.42283630371094 -19.299863815307617 -16.858295440673828 -101.56682586669922 -40.935916900634766 -12.559806823730469 
u1565 -16.66363525390625 -148.69761657714844 -28.431549072265625 -14.578326225280762 -21.704647064208984 -51.328853607177734 -24.916122436523438 -91.83346557617188 -41.332881927490234 -13.932330131530762 -86.51251220703125 -8.489717483520508 -28.894418716430664 -30.0887508392334 -22.48076820373535 -54.347381591796875 -32.08903121948242 -84.0040054321289 -40.48192596435547 -77.13275909423828 -49.31209182739258 -49.890316009521484 -27.93114471435547 -59.07246017456055 -27.598129272460938 -19.22539520263672 -36.99397277832031 -39.65684509277344 -10.775901794433594 -62.808082580566406 -23.71256446838379 -8.793802261352539 
u646 -18.225433349609375 -143.83380126953125 -24.967613220214844 -9.225348472595215 -20.063312530517578 -41.01933670043945 -14.974349975585938 -83.80691528320312 -37.79059600830078 -11.555397987365723 -91.06037902832031 -10.271062850952148 -39.075958251953125 -22.762426376342773 -22.18244743347168 -50.7275390625 -31.16360092163086 -80.9701156616211 -36.05767822265625 -75.51557159423828 -52.65237045288086 -47.10586929321289 -26.78240203857422 -51.31827163696289 -19.557964324951172 -17.45853042602539 -41.80369567871094 -30.041799545288086 -12.79008674621582 -59.159461975097656 -28.191518783569336 -13.33643627166748 
u2268 -19.37398910522461 -136.32080078125 -27.802490234375 -12.061144828796387 -21.219451904296875 -41.377010345458984 -19.268390655517578 -80.939697265625 -37.75501251220703 -10.935696601867676 -84.54190063476562 -11.849065780639648 -38.019615173339844 -28.51607322692871 -22.518400192260742 -49.049903869628906 -32.1417350769043 -78.69341278076172 -34.832130432128906 -72.34647369384766 -54.0438232421875 -45.44746780395508 -31.60114288330078 -49.15785598754883 -20.314678192138672 -20.924148559570312 -46.16624450683594 -31.20699119567871 -13.855209350585938 -68.1059799194336 -30.383153915405273 -11.580207824707031 
u2750 -9.24790096282959 -197.6433868408203 -16.266826629638672 -8.055815696716309 -8.673885345458984 -62.864192962646484 -20.23978042602539 -111.42787170410156 -51.01921463012695 -25.36358070373535 -108.6820068359375 -8.763205528259277 -13.076784133911133 -9.876432418823242 -30.548234939575195 -65.11872100830078 -10.78479290008545 -110.7094955444336 -51.89930725097656 -104.69010162353516 -32.00675582885742 -64.57833862304688 -11.277717590332031 -73.02313232421875 -31.37781524658203 -10.179577827453613 -18.54412841796875 -40.35263442993164 -9.743450164794922 -25.4836483001709 -11.424352645874023 -12.71816635131836 
u2216 -19.87188720703125 -126.39694213867188 -28.918785095214844 -12.544142723083496 -22.607982635498047 -38.74180221557617 -18.383060455322266 -75.21572875976562 -35.33564758300781 -12.122099876403809 -76.72618103027344 -12.299482345581055 -40.67296600341797 -33.24732971191406 -20.412641525268555 -45.719139099121094 -36.14394760131836 -72.3115005493164 -33.12183380126953 -66.90308380126953 -57.594139099121094 -41.949398040771484 -34.346336364746094 -46.91750717163086 -19.81235122680664 -21.064544677734375 -49.52252197265625 -30.301687240600586 -13.921764373779297 -75.65128326416016 -33.7819709777832 -10.611198425292969 
u2647 -29.990699768066406 -60.839996337890625 -36.69715118408203 -16.11812973022461 -27.113021850585938 -24.32688331604004 -14.284530639648438 -36.97129440307617 -21.9966983795166 -6.989904880523682 -35.81550598144531 -19.276371002197266 -61.40138244628906 -55.50543975830078 -12.093642234802246 -21.842164993286133 -57.93166732788086 -39.15412521362305 -13.548301696777344 -34.908607482910156 -70.4107437133789 -17.225147247314453 -56.585113525390625 -21.52073860168457 -9.099350929260254 -36.23662185668945 -88.93745422363281 -15.13858699798584 -15.709282875061035 -126.43180084228516 -48.3922004699707 -13.01007080078125 
u3552 -18.89305877685547 -114.03829956054688 -33.17708969116211 -17.295780181884766 -26.278778076171875 -44.64206314086914 -25.058490753173828 -75.67129516601562 -34.53953552246094 -10.034281730651855 -64.34162902832031 -8.227818489074707 -38.32286834716797 -43.68549346923828 -16.868680953979492 -43.65715789794922 -45.60274124145508 -64.6910171508789 -31.024337768554688 -59.94178009033203 -59.49207305908203 -37.9824333190918 -40.672698974609375 -49.60902786254883 -25.848587036132812 -22.14861297607422 -52.32734680175781 -38.13364028930664 -12.491979598999023 -90.43448638916016 -31.06165885925293 -6.193899154663086 
u581 -19.757728576660156 -126.24923706054688 -28.157554626464844 -12.115160942077637 -21.584178924560547 -37.167118072509766 -17.824291229248047 -75.9150390625 -33.70307922363281 -13.63654613494873 -76.5267333984375 -10.871381759643555 -41.05122375488281 -34.17724609375 -20.715909957885742 -46.131309509277344 -35.86037826538086 -71.50496673583984 -33.93016815185547 -68.18643951416016 -58.63121795654297 -43.58943557739258 -34.15886688232422 -45.99471664428711 -19.725494384765625 -20.38983917236328 -48.82575988769531 -29.724607467651367 -15.218164443969727 -77.0222396850586 -35.2809944152832 -9.819713592529297 
u2474 -7.745076656341553 -177.3976287841797 -17.533992767333984 -6.262881278991699 -10.793647766113281 -56.04369354248047 -17.939414978027344 -104.45281982421875 -46.9815673828125 -26.03947639465332 -96.0897216796875 -8.207754135131836 -16.21769142150879 -16.536466598510742 -26.455617904663086 -61.01439666748047 -18.85184097290039 -100.84630584716797 -49.56512451171875 -95.40351104736328 -36.29842758178711 -59.7711296081543 -15.735679626464844 -69.4934310913086 -28.746047973632812 -8.847729682922363 -25.057327270507812 -34.11659240722656 -12.095837593078613 -32.291709899902344 -12.216291427612305 -15.404074668884277 
u3914 -22.317554473876953 -111.76925659179688 -29.537036895751953 -11.88654613494873 -22.95279312133789 -34.41989517211914 -16.431377410888672 -67.8731689453125 -31.545289993286133 -8.484763145446777 -71.73228454589844 -12.431360244750977 -47.49803161621094 -35.758934020996094 -19.521902084350586 -41.052162170410156 -39.780025482177734 -67.25214385986328 -27.85778045654297 -61.437278747558594 -59.65215301513672 -36.865474700927734 -39.23223876953125 -39.6631965637207 -15.922043800354004 -25.613239288330078 -59.25105285644531 -25.684858322143555 -15.809499740600586 -84.8677749633789 -36.57247543334961 -12.615144729614258 
u999 -23.490684509277344 -92.12606811523438 -31.72475814819336 -14.23852825164795 -22.73968505859375 -38.73044204711914 -16.69952392578125 -56.95663070678711 -27.959436416625977 -11.958369255065918 -47.691436767578125 -10.537246704101562 -47.033958435058594 -46.95995330810547 -14.920226097106934 -32.40746307373047 -50.57107925415039 -55.06528854370117 -22.468345642089844 -49.54358673095703 -61.053245544433594 -26.674861907958984 -46.832618713378906 -38.100399017333984 -20.031524658203125 -27.692974090576172 -69.33848571777344 -25.827939987182617 -12.026734352111816 -105.0757827758789 -35.49812698364258 -12.029170989990234 
u1523 -16.233375549316406 -144.37681579589844 -25.16287612915039 -11.62073040008545 -16.31988525390625 -51.587223052978516 -20.008499145507812 -84.13302612304688 -40.46604537963867 -19.025440216064453 -77.01759338378906 -9.732946395874023 -29.069917678833008 -29.511999130249023 -23.351152420043945 -48.97322082519531 -31.733470916748047 -82.62548065185547 -37.94645690917969 -77.29825592041016 -47.008426666259766 -45.66215896606445 -29.341415405273438 -56.79240798950195 -26.69698715209961 -18.13011932373047 -43.89579772949219 -33.78603744506836 -10.870465278625488 -66.82010650634766 -22.264158248901367 -11.658321380615234 
u3762 -17.18006134033203 -138.47256469726562 -25.876052856445312 -11.741419792175293 -14.981212615966797 -45.87974166870117 -15.200820922851562 -80.54689025878906 -38.84455871582031 -18.65184211730957 -79.26393127441406 -12.901927947998047 -35.71306610107422 -28.593420028686523 -21.673826217651367 -48.651573181152344 -33.26762008666992 -77.45728302001953 -38.70117950439453 -74.48200225830078 -51.99869155883789 -44.90982437133789 -33.08417510986328 -52.542728424072266 -22.533790588378906 -18.943572998046875 -46.01423645019531 -32.0928955078125 -10.687162399291992 -68.45429229736328 -29.163442611694336 -8.02347183227539 
u1905 -26.30929183959961 -87.69927978515625 -33.14909362792969 -14.658907890319824 -24.78546905517578 -30.59893226623535 -14.743724822998047 -51.87534713745117 -27.309236526489258 -9.537383079528809 -53.09088134765625 -17.67742347717285 -52.122314453125 -45.39380645751953 -15.573355674743652 -31.678285598754883 -47.92275619506836 -52.7624626159668 -21.76953887939453 -47.725318908691406 -64.67920684814453 -26.910076141357422 -47.44194030761719 -32.60480880737305 -12.978676795959473 -30.702587127685547 -73.44319152832031 -21.351598739624023 -13.964715957641602 -103.7326431274414 -41.7912483215332 -12.24041748046875 
u368 -4.544780254364014 -206.82186889648438 -15.778587341308594 -5.537657737731934 -8.97249984741211 -64.01354217529297 -21.620712280273438 -120.32115173339844 -53.726707458496094 -27.355030059814453 -114.20092010498047 -6.662842273712158 -7.404001235961914 -7.638532638549805 -31.999155044555664 -70.91285705566406 -8.516955375671387 -117.43399047851562 -57.93906021118164 -110.50128173828125 -29.748638153076172 -70.88105010986328 -7.782711505889893 -79.75909423828125 -33.74189376831055 -5.9077348709106445 -10.152778625488281 -41.304195404052734 -11.984515190124512 -13.520071029663086 -7.348623275756836 -13.596504211425781 
u2063 -17.66204833984375 -142.75338745117188 -23.05150604248047 -11.568015098571777 -14.557132720947266 -50.28299331665039 -17.360279083251953 -81.0430908203125 -38.26600646972656 -19.82115936279297 -76.77796936035156 -11.59587287902832 -31.444604873657227 -27.798574447631836 -23.105375289916992 -46.78491973876953 -30.697071075439453 -80.8481216430664 -35.6219482421875 -76.49166107177734 -46.76717758178711 -43.23959732055664 -29.289024353027344 -54.54207992553711 -24.541030883789062 -19.554039001464844 -46.387359619140625 -31.427724838256836 -9.442530632019043 -66.7970199584961 -23.837995529174805 -12.894351959228516 
i175 -649.6055908203125 -856.2313232421875 -1416.958740234375 -2081.7900390625 -2122.800048828125 -1785.2540283203125 -1870.24951171875 -1849.1497802734375 -1711.4686279296875 -1178.06689453125 -778.4710693359375 -661.6967163085938 -266.49090576171875 -1248.5269775390625 -755.6928100585938 -740.0962524414062 -1720.1246337890625 -1148.9034423828125 -1790.8897705078125 -379.5809020996094 -1100.898681640625 -822.9273071289062 -1190.6876220703125 -1887.2156982421875 -1426.011962890625 -392.0213623046875 -377.95843505859375 -2022.6646728515625 -1314.154541015625 -2180.896240234375 -1069.322998046875 -164.3046875 
u3382 -31.673320770263672 -51.375579833984375 -37.1876335144043 -16.06634521484375 -27.482627868652344 -21.91253089904785 -11.052101135253906 -31.114164352416992 -19.3068790435791 -5.694334506988525 -31.605010986328125 -19.849058151245117 -65.1427993774414 -56.597572326660156 -10.40710735321045 -18.669282913208008 -60.685733795166016 -34.27877426147461 -11.242401123046875 -29.55017852783203 -73.06890106201172 -13.11162281036377 -59.83216857910156 -18.59056282043457 -7.145645618438721 -37.81672286987305 -93.82987976074219 -13.291831016540527 -15.175849914550781 -131.32553100585938 -50.84708023071289 -13.42936897277832 
u121 -20.30347442626953 -124.81057739257812 -28.26293182373047 -11.723002433776855 -22.170310974121094 -37.78987503051758 -18.15725326538086 -74.99287414550781 -34.63148498535156 -10.80866527557373 -78.21420288085938 -12.447599411010742 -41.894744873046875 -32.60980987548828 -21.206087112426758 -45.549034118652344 -35.22282791137695 -73.22284698486328 -32.29749298095703 -67.72924041748047 -56.749244689941406 -41.76423263549805 -34.35826873779297 -45.24300765991211 -18.310890197753906 -22.616241455078125 -51.69038391113281 -28.713010787963867 -15.154655456542969 -75.1489028930664 -33.31741714477539 -11.94076919555664 
u2585 -21.52017593383789 -145.3607940673828 -25.00374984741211 -12.69815731048584 -19.50098419189453 -49.22159194946289 -22.130470275878906 -80.23800659179688 -38.65948486328125 -18.63921546936035 -78.54327392578125 -11.108537673950195 -31.497697830200195 -31.804365158081055 -22.977537155151367 -48.07807922363281 -29.711193084716797 -82.28665924072266 -35.88373565673828 -75.15262603759766 -49.88981628417969 -45.083011627197266 -27.91124725341797 -53.85385513305664 -25.172882080078125 -22.653881072998047 -44.202423095703125 -34.74421310424805 -10.189414978027344 -71.8633804321289 -28.606557846069336 -12.486026763916016 
u4356 -18.100799560546875 -151.7484893798828 -21.495956420898438 -10.509509086608887 -14.712928771972656 -50.47809982299805 -17.38922119140625 -84.85079956054688 -40.1088981628418 -17.699724197387695 -87.48464965820312 -11.636619567871094 -31.453561782836914 -23.94630241394043 -24.855154037475586 -50.541786193847656 -26.315441131591797 -87.57691955566406 -36.57300567626953 -80.65653228759766 -44.83024215698242 -46.813777923583984 -25.96027374267578 -55.000125885009766 -24.420608520507812 -20.64398193359375 -42.29924011230469 -33.414466857910156 -9.809473037719727 -57.472373962402344 -23.361265182495117 -13.402107238769531 
u2072 -22.276439666748047 -122.96884155273438 -27.192787170410156 -11.670416831970215 -18.325366973876953 -44.64408493041992 -17.292835235595703 -69.85528564453125 -33.34630584716797 -16.781465530395508 -65.66140747070312 -11.05320930480957 -38.836708068847656 -36.90227508544922 -19.949071884155273 -40.971778869628906 -37.297122955322266 -71.3435287475586 -30.59062957763672 -65.50223541259766 -53.47833251953125 -37.15633010864258 -35.71534729003906 -46.454647064208984 -22.594749450683594 -24.799884796142578 -56.457672119140625 -28.326513290405273 -11.465326309204102 -85.88288116455078 -31.23737144470215 -13.417581558227539 
u4137 -20.58576202392578 -124.44537353515625 -27.24551773071289 -9.58591365814209 -20.898113250732422 -35.82222366333008 -13.049652099609375 -72.67353820800781 -33.202423095703125 -10.718764305114746 -79.16122436523438 -11.919353485107422 -44.956459045410156 -28.787565231323242 -19.821165084838867 -44.58287048339844 -36.57576370239258 -70.70636749267578 -31.548843383789062 -66.25464630126953 -56.667640686035156 -40.03873825073242 -33.36457061767578 -44.44144058227539 -16.856346130371094 -20.530506134033203 -52.596649169921875 -25.280920028686523 -13.13821792602539 -72.8477554321289 -32.071475982666016 -13.577932357788086 
u2665 -13.898459434509277 -167.24111938476562 -24.111927032470703 -12.47315502166748 -22.739761352539062 -50.92750930786133 -27.511219024658203 -98.23030090332031 -45.339778900146484 -17.04488754272461 -99.73538208007812 -14.749643325805664 -21.026559829711914 -23.98866844177246 -27.676115036010742 -58.53205108642578 -19.152637481689453 -95.54286193847656 -44.623199462890625 -87.8935317993164 -45.63298416137695 -56.95188522338867 -18.943504333496094 -64.78643035888672 -26.975807189941406 -16.15106201171875 -28.100929260253906 -40.41061782836914 -13.54576301574707 -43.140281677246094 -22.637014389038086 -11.067757606506348 
u3185 -17.142147064208984 -137.68304443359375 -27.3155517578125 -14.957274436950684 -19.797077178955078 -50.9578742980957 -22.437152862548828 -82.30096435546875 -39.39118957519531 -16.881799697875977 -74.85232543945312 -10.147737503051758 -31.10064125061035 -33.39019012451172 -22.08332633972168 -48.53050994873047 -35.16135025024414 -78.27298736572266 -36.31719970703125 -72.81539154052734 -51.228031158447266 -43.86784744262695 -32.05199432373047 -56.9647102355957 -27.646236419677734 -18.348796844482422 -45.28236389160156 -38.41183853149414 -11.701685905456543 -73.79056549072266 -24.372053146362305 -8.704051971435547 
u150 -17.423282623291016 -143.62371826171875 -26.40557861328125 -12.786849021911621 -20.309982299804688 -44.940792083740234 -23.075172424316406 -85.90196228027344 -40.7668342590332 -13.014254570007324 -86.26882934570312 -13.045930862426758 -33.6522216796875 -28.578893661499023 -23.630083084106445 -51.43208312988281 -30.17495346069336 -82.66153717041016 -36.8572998046875 -77.33406829833984 -50.94283676147461 -47.704280853271484 -28.86827850341797 -52.526790618896484 -22.244186401367188 -19.651580810546875 -42.24870300292969 -33.766380310058594 -13.789146423339844 -62.94239044189453 -26.938520431518555 -11.138856887817383 
u610 -19.456462860107422 -113.18756103515625 -25.84467315673828 -10.451956748962402 -16.37982940673828 -41.94831466674805 -11.48116683959961 -64.93165588378906 -31.89622688293457 -16.892927169799805 -60.45509338378906 -11.808961868286133 -42.17766571044922 -36.193511962890625 -18.08710289001465 -37.023094177246094 -41.29738998413086 -66.61356353759766 -28.717361450195312 -61.678260803222656 -52.84889221191406 -33.47421646118164 -38.83069610595703 -43.5854377746582 -19.853229522705078 -24.24249267578125 -61.181427001953125 -24.208349227905273 -11.257174491882324 -84.1020278930664 -30.302221298217773 -13.455818176269531 
u3519 -24.400741577148438 -95.86077880859375 -32.852359771728516 -17.847457885742188 -26.300262451171875 -35.92377853393555 -23.93122100830078 -59.30686569213867 -31.45970344543457 -8.235259056091309 -54.92018127441406 -17.623668670654297 -47.90282440185547 -47.130210876464844 -17.55721092224121 -32.98368835449219 -47.37947463989258 -58.451900482177734 -21.338287353515625 -52.263099670410156 -60.176307678222656 -29.60654067993164 -45.56647491455078 -35.757503509521484 -16.504837036132812 -30.967605590820312 -70.02690124511719 -26.159025192260742 -16.18507194519043 -102.16773223876953 -39.15871047973633 -12.443470001220703 
u3690 -14.319037437438965 -156.3856201171875 -25.104976654052734 -11.272528648376465 -17.576095581054688 -49.875431060791016 -20.63817596435547 -92.47496032714844 -43.243350982666016 -18.065534591674805 -89.99809265136719 -11.270956039428711 -26.13657569885254 -24.29231834411621 -24.14604377746582 -54.97374725341797 -25.686885833740234 -87.0699462890625 -42.44732666015625 -82.6249771118164 -46.805259704589844 -52.69779586791992 -25.63250732421875 -61.0209846496582 -25.506351470947266 -15.212708473205566 -35.94618225097656 -35.756439208984375 -11.406497955322266 -53.200965881347656 -21.2571964263916 -10.420621871948242 
u419 -20.381893157958984 -139.19732666015625 -23.333728790283203 -11.783011436462402 -17.331512451171875 -48.48512649536133 -18.667686462402344 -78.04042053222656 -37.06761932373047 -17.236318588256836 -78.03973388671875 -11.895036697387695 -34.09608459472656 -30.426427841186523 -23.149633407592773 -45.76457214355469 -30.983234405517578 -81.11270904541016 -32.54753875732422 -73.6592788696289 -47.91202163696289 -42.2647590637207 -30.128822326660156 -51.26334762573242 -24.002593994140625 -23.164199829101562 -49.19856262207031 -32.55464172363281 -10.646134376525879 -70.17977142333984 -26.469572067260742 -13.812808990478516 
u2858 -26.550357818603516 -82.69467163085938 -33.76881408691406 -13.056090354919434 -28.428367614746094 -23.612192153930664 -9.418376922607422 -48.33085250854492 -22.208932876586914 -9.817925453186035 -51.2130126953125 -12.732736587524414 -58.95740509033203 -46.64745330810547 -12.048583030700684 -29.26097297668457 -51.9026985168457 -44.54372787475586 -20.42035675048828 -42.00708770751953 -68.93714141845703 -26.34756851196289 -45.10912322998047 -30.048372268676758 -12.146599769592285 -25.55047607421875 -71.98431396484375 -19.336164474487305 -13.607852935791016 -107.71595001220703 -45.15986251831055 -11.923776626586914 
u3767 -24.00042724609375 -94.4986572265625 -31.25625991821289 -14.9508695602417 -22.451515197753906 -39.59852981567383 -15.644367218017578 -55.00179672241211 -27.553789138793945 -14.388163566589355 -48.24452209472656 -11.248270034790039 -47.079078674316406 -46.720542907714844 -15.979216575622559 -31.586641311645508 -49.847713470458984 -55.36240768432617 -22.797943115234375 -50.64141082763672 -61.00499725341797 -26.852008819580078 -45.171478271484375 -39.062198638916016 -20.411128997802734 -28.01082992553711 -69.40797424316406 -26.697423934936523 -11.686224937438965 -106.42903900146484 -36.48434066772461 -10.892507553100586 
u2217 -8.419547080993652 -167.3006591796875 -19.586151123046875 -7.026427268981934 -12.53219223022461 -55.10270690917969 -18.370880126953125 -103.42794036865234 -46.04304504394531 -21.354000091552734 -95.12286376953125 -8.529075622558594 -17.913881301879883 -19.91744041442871 -23.267805099487305 -58.466636657714844 -20.42746353149414 -95.70348358154297 -46.21247863769531 -92.08365631103516 -42.24617004394531 -56.55593490600586 -19.279983520507812 -70.00485229492188 -28.279586791992188 -8.278599739074707 -27.74334716796875 -36.661624908447266 -13.82542610168457 -38.87700653076172 -14.488859176635742 -13.303153038024902 
u4681 -16.877609252929688 -145.57313537597656 -22.2423095703125 -8.806998252868652 -13.43341064453125 -39.645511627197266 -18.083473205566406 -82.9984130859375 -41.63819885253906 -18.821393966674805 -84.72979736328125 -11.026716232299805 -33.011817932128906 -26.78188133239746 -22.53654670715332 -49.02184295654297 -28.551570892333984 -83.6462631225586 -34.17628479003906 -79.06131744384766 -47.993648529052734 -49.03012466430664 -24.050186157226562 -47.47331619262695 -18.419700622558594 -20.292278289794922 -40.17999267578125 -24.437536239624023 -12.112616539001465 -52.374961853027344 -24.075429916381836 -17.518972396850586 
u4836 -12.265280723571777 -187.94386291503906 -19.884456634521484 -11.075987815856934 -13.770267486572266 -62.99102783203125 -24.54347038269043 -107.3018569946289 -49.53116989135742 -23.367046356201172 -103.51421356201172 -9.066856384277344 -15.150362014770508 -15.842546463012695 -29.8909854888916 -63.997032165527344 -16.528949737548828 -106.12667846679688 -49.13993453979492 -98.81671142578125 -35.00208282470703 -60.488094329833984 -14.595726013183594 -72.06715393066406 -32.76118087768555 -12.238030433654785 -23.178756713867188 -43.36537170410156 -9.01327896118164 -36.780982971191406 -12.164525985717773 -11.371596336364746 
u4697 -21.837562561035156 -112.18234252929688 -28.658775329589844 -12.782637596130371 -24.65044403076172 -35.39687728881836 -15.436431884765625 -65.76344299316406 -29.86081886291504 -15.326634407043457 -65.77278137207031 -13.618597030639648 -43.49547576904297 -38.707862854003906 -18.89045524597168 -39.19328308105469 -39.30015182495117 -64.70743560791016 -30.480796813964844 -59.778221130371094 -58.26451873779297 -36.82686233520508 -35.567726135253906 -43.17269515991211 -17.74675750732422 -23.703922271728516 -58.43284606933594 -25.318510055541992 -14.457502365112305 -85.57750701904297 -36.13811111450195 -13.144508361816406 
u1675 -26.25849151611328 -91.40182495117188 -31.983837127685547 -12.001090049743652 -22.998863220214844 -35.830379486083984 -16.48273468017578 -53.216182708740234 -26.007295608520508 -13.606781959533691 -46.38450622558594 -10.301214218139648 -49.81842803955078 -47.78782653808594 -15.853774070739746 -31.465349197387695 -49.747005462646484 -56.34055709838867 -21.725189208984375 -48.82678985595703 -59.696510314941406 -25.19948959350586 -46.13402557373047 -33.43796157836914 -18.853736877441406 -30.88653564453125 -71.02641296386719 -22.03413200378418 -11.007330894470215 -106.96686553955078 -36.80575180053711 -14.680110931396484 
u4942 -19.740238189697266 -125.65533447265625 -33.8946647644043 -16.368427276611328 -25.72258758544922 -44.9004020690918 -24.74502944946289 -82.64543151855469 -36.341712951660156 -9.249104499816895 -75.57823181152344 -7.702014923095703 -37.058372497558594 -38.22051239013672 -18.456418991088867 -48.301307678222656 -40.36251449584961 -70.96373748779297 -35.46326446533203 -65.1113510131836 -57.38172149658203 -43.73495864868164 -36.94715881347656 -51.67776870727539 -24.209789276123047 -23.91252899169922 -46.43727111816406 -36.97235107421875 -11.818686485290527 -80.14037322998047 -30.61066246032715 -7.804271697998047 
u4229 -15.027430534362793 -150.7493133544922 -22.58035659790039 -8.534892082214355 -12.132526397705078 -52.16493606567383 -14.905876159667969 -88.56263732910156 -41.92459487915039 -17.321462631225586 -86.02813720703125 -12.699016571044922 -28.126794815063477 -22.130094528198242 -23.803430557250977 -50.84355163574219 -26.67086410522461 -89.30518341064453 -38.13123321533203 -83.71907043457031 -42.8175163269043 -47.06703567504883 -26.150917053222656 -58.34707260131836 -23.79507827758789 -16.088985443115234 -44.86830139160156 -29.94655418395996 -13.590326309204102 -56.92719268798828 -19.23615837097168 -14.899883270263672 
u4306 -21.723793029785156 -109.47824096679688 -31.41469955444336 -16.074195861816406 -23.451248168945312 -42.256717681884766 -20.063495635986328 -69.60609436035156 -32.49462127685547 -10.862702369689941 -62.22190856933594 -10.186660766601562 -42.57746124267578 -42.173133850097656 -16.32337760925293 -40.352142333984375 -46.21171951293945 -63.28312301635742 -28.943382263183594 -57.78527069091797 -58.34156799316406 -34.961063385009766 -40.75328063964844 -44.74686050415039 -21.61770248413086 -25.27904510498047 -58.79856872558594 -31.64204216003418 -12.354551315307617 -92.43668365478516 -32.83717727661133 -9.838703155517578 
u4767 -22.853778839111328 -106.86190795898438 -28.452938079833984 -11.947016716003418 -18.710121154785156 -41.46944046020508 -16.144577026367188 -61.46999740600586 -30.935640335083008 -14.215292930603027 -55.64421081542969 -11.720745086669922 -43.24436950683594 -41.53302764892578 -17.97681999206543 -35.452842712402344 -43.3791389465332 -63.94088363647461 -25.62713623046875 -58.40430450439453 -56.546913146972656 -31.443523406982422 -41.843711853027344 -41.3032112121582 -20.897857666015625 -26.49404525756836 -64.98509216308594 -25.138051986694336 -12.854546546936035 -95.83716583251953 -32.99698257446289 -13.843576431274414 
u4360 -18.896869659423828 -131.8997802734375 -28.703075408935547 -15.33399486541748 -21.385223388671875 -48.67084884643555 -22.95937728881836 -80.16438293457031 -38.091461181640625 -13.701319694519043 -72.29415893554688 -10.131694793701172 -33.5457763671875 -35.49281311035156 -20.12604331970215 -46.44563293457031 -37.79500198364258 -75.00116729736328 -33.59928894042969 -68.50211334228516 -53.26097869873047 -41.76998519897461 -33.50383758544922 -53.090572357177734 -25.90814971923828 -20.78466796875 -46.91929626464844 -36.331138610839844 -11.346385955810547 -76.92913055419922 -27.01881980895996 -10.133407592773438 
u2231 -16.018020629882812 -138.17794799804688 -27.230831146240234 -12.707049369812012 -19.962383270263672 -49.09419631958008 -21.965904235839844 -85.26638793945312 -39.194305419921875 -15.122817039489746 -78.01345825195312 -9.35578441619873 -31.262331008911133 -31.810293197631836 -21.388410568237305 -50.12122344970703 -34.19485855102539 -78.4844741821289 -37.443077087402344 -73.4621810913086 -50.5269775390625 -44.6960334777832 -31.07324981689453 -56.048641204833984 -25.975574493408203 -17.661365509033203 -44.052001953125 -35.79643249511719 -11.537038803100586 -69.16230010986328 -23.62959098815918 -9.870071411132812 
u773 -17.126220703125 -157.8050079345703 -23.69542694091797 -12.478484153747559 -17.32906723022461 -53.6152458190918 -22.577804565429688 -90.04139709472656 -42.430580139160156 -20.156824111938477 -85.71392822265625 -9.708806991577148 -25.85772132873535 -26.78896141052246 -24.430761337280273 -53.45873260498047 -26.578739166259766 -87.86531829833984 -40.267250061035156 -82.46302032470703 -46.644439697265625 -50.353572845458984 -24.01740264892578 -60.935123443603516 -28.18798065185547 -17.27728271484375 -35.630950927734375 -38.30179977416992 -9.305771827697754 -59.69220733642578 -22.58778953552246 -10.809438705444336 
u3424 -15.871516227722168 -147.1101837158203 -27.317581176757812 -12.526885032653809 -19.43539047241211 -49.87385940551758 -23.040626525878906 -90.79365539550781 -41.108863830566406 -13.482417106628418 -86.0572509765625 -8.432844161987305 -30.5009708404541 -28.85255241394043 -21.933202743530273 -52.93321990966797 -30.888790130615234 -83.8825912475586 -38.646392822265625 -77.7089614868164 -48.84952926635742 -48.84843063354492 -29.706520080566406 -57.12751388549805 -26.419116973876953 -19.902088165283203 -37.30824279785156 -38.00569534301758 -9.858305931091309 -59.946434020996094 -23.959299087524414 -9.333566665649414 
u185 -23.613555908203125 -134.34091186523438 -26.8646240234375 -15.6709623336792 -21.912002563476562 -46.812137603759766 -24.67831039428711 -74.09135437011719 -37.78565979003906 -17.012624740600586 -70.97787475585938 -12.504676818847656 -35.05400085449219 -37.50096893310547 -20.666818618774414 -43.63874816894531 -34.31914138793945 -75.74810028076172 -29.040634155273438 -67.80315399169922 -53.43647003173828 -41.13374710083008 -33.240089416503906 -48.91152572631836 -23.98363494873047 -26.84033203125 -49.5821533203125 -35.30891418457031 -9.878559112548828 -81.4899673461914 -32.235225677490234 -12.23676872253418 
u97 -22.71737289428711 -104.0537109375 -28.93588638305664 -14.164080619812012 -19.013214111328125 -41.337650299072266 -18.068748474121094 -61.04391098022461 -31.247453689575195 -16.683849334716797 -51.67842102050781 -11.712484359741211 -42.58882141113281 -43.477394104003906 -17.999784469604492 -35.195953369140625 -45.469425201416016 -60.71528244018555 -25.041091918945312 -57.28624725341797 -58.38652801513672 -30.47897720336914 -41.65758514404297 -42.045902252197266 -21.31851577758789 -24.510005950927734 -64.27798461914062 -26.497541427612305 -11.650938034057617 -98.25089263916016 -32.207889556884766 -12.176656723022461 
u111 -16.683387756347656 -152.2649383544922 -22.860767364501953 -7.730929374694824 -16.1123046875 -44.39393997192383 -15.169578552246094 -91.13160705566406 -42.096805572509766 -9.386345863342285 -98.96778869628906 -8.56396198272705 -40.418975830078125 -16.31915855407715 -22.894765853881836 -55.63520812988281 -29.782405853271484 -88.19646453857422 -37.447967529296875 -81.20446014404297 -48.404483795166016 -48.052310943603516 -25.322341918945312 -53.142635345458984 -19.678447723388672 -15.604279518127441 -38.00904846191406 -32.18567657470703 -11.778960227966309 -49.875282287597656 -21.98914909362793 -14.224263191223145 
u1419 -19.89624786376953 -153.30230712890625 -24.889850616455078 -13.46427059173584 -18.842483520507812 -52.343021392822266 -24.540958404541016 -87.36930847167969 -41.23698043823242 -20.507097244262695 -81.42826843261719 -8.896940231323242 -26.941316604614258 -30.30427360534668 -24.52119255065918 -51.763038635253906 -28.224239349365234 -85.4457015991211 -38.48560333251953 -80.02692413330078 -48.02383041381836 -49.26799392700195 -25.49024200439453 -57.38009262084961 -27.073989868164062 -19.634288787841797 -39.01934814453125 -37.27712631225586 -9.342663764953613 -67.3456802368164 -24.7373104095459 -10.90532112121582 
u1696 -21.48162841796875 -135.89776611328125 -31.455745697021484 -13.877432823181152 -18.085041046142578 -49.49440383911133 -5.095183849334717 -74.01454162597656 -38.76310729980469 -14.02341365814209 -75.9412841796875 -13.195137023925781 -34.27416229248047 -26.853857040405273 -18.23659324645996 -43.02581787109375 -32.382381439208984 -71.85372161865234 -47.227909088134766 -67.9300765991211 -65.55902862548828 -45.17960739135742 -34.22553253173828 -57.42984390258789 -19.791412353515625 -21.84803009033203 -44.74658203125 -32.19459533691406 -13.001100540161133 -80.4647445678711 -46.862308502197266 -2.0581092834472656 
u447 -20.884639739990234 -124.52532958984375 -28.95806121826172 -13.661860466003418 -20.71762466430664 -40.531620025634766 -17.781864166259766 -72.58291625976562 -36.092308044433594 -12.073134422302246 -74.53921508789062 -15.064029693603516 -40.14099884033203 -32.891136169433594 -20.606252670288086 -44.316123962402344 -36.961971282958984 -71.5833511352539 -31.786422729492188 -66.14148712158203 -56.16155242919922 -40.09141159057617 -36.25627136230469 -45.88606643676758 -18.90239715576172 -23.484516143798828 -53.952117919921875 -29.02412223815918 -13.015554428100586 -77.40909576416016 -32.552249908447266 -11.060760498046875 
u952 -10.044589042663574 -179.10240173339844 -23.346942901611328 -11.849287986755371 -14.053157806396484 -56.11323547363281 -21.478832244873047 -104.5490493774414 -49.87848663330078 -23.90584945678711 -98.84742736816406 -11.509885787963867 -14.62449836730957 -20.90859031677246 -28.224267959594727 -59.656005859375 -17.29294204711914 -102.36861419677734 -48.93687438964844 -95.61605072021484 -39.593421936035156 -63.10969924926758 -18.116973876953125 -67.54899597167969 -29.967147827148438 -10.791966438293457 -23.989463806152344 -39.50410079956055 -13.861137390136719 -38.735084533691406 -18.688413619995117 -10.237632751464844 
u2006 -23.73678970336914 -104.42092895507812 -30.925724029541016 -11.779570579528809 -24.350643157958984 -30.73404884338379 -15.439876556396484 -61.36141586303711 -28.4737491607666 -14.319891929626465 -61.550201416015625 -14.535547256469727 -46.148780822753906 -41.727134704589844 -18.51530647277832 -37.649688720703125 -40.5371208190918 -61.23264694213867 -28.64165496826172 -56.52271270751953 -60.7642822265625 -35.8321647644043 -39.87749481201172 -38.36232376098633 -15.33217716217041 -25.898399353027344 -63.09342956542969 -21.446195602416992 -15.452510833740234 -91.25687408447266 -38.69520950317383 -13.346643447875977 
u4353 -23.024452209472656 -111.94378662109375 -28.389949798583984 -15.168261528015137 -21.144866943359375 -42.64095687866211 -18.201969146728516 -66.75599670410156 -31.284074783325195 -15.765141487121582 -60.051116943359375 -9.045980453491211 -42.864479064941406 -41.58704376220703 -17.679323196411133 -38.69519805908203 -44.83864212036133 -62.78355026245117 -27.46600341796875 -59.82178497314453 -57.551063537597656 -34.26668930053711 -37.592552185058594 -44.157405853271484 -21.889816284179688 -23.867801666259766 -59.15911865234375 -30.644567489624023 -10.521902084350586 -94.04698944091797 -31.966543197631836 -10.384986877441406 
u3597 -20.099716186523438 -121.62799072265625 -26.52957534790039 -11.14408016204834 -17.841323852539062 -44.823551177978516 -17.5103759765625 -71.08451843261719 -34.64533996582031 -16.11595916748047 -64.47467041015625 -10.514236450195312 -38.12499237060547 -36.385826110839844 -19.712209701538086 -41.26348114013672 -38.21443557739258 -72.6417465209961 -30.37397003173828 -65.7868423461914 -51.83092498779297 -37.13058853149414 -37.25438690185547 -46.52790451049805 -22.621566772460938 -24.248939514160156 -56.41658020019531 -27.973806381225586 -11.77812671661377 -82.70661163330078 -29.2188777923584 -13.682050704956055 
u2292 -23.476318359375 -103.7452392578125 -27.989761352539062 -11.896151542663574 -18.226295471191406 -40.4365119934082 -14.112800598144531 -58.84835433959961 -28.853288650512695 -16.207040786743164 -53.83949279785156 -11.444555282592773 -45.03877258300781 -41.621429443359375 -18.257734298706055 -34.015525817871094 -43.60982131958008 -61.236690521240234 -25.45020294189453 -57.799537658691406 -56.97832489013672 -30.087879180908203 -41.900657653808594 -40.19392776489258 -19.355823516845703 -27.093059539794922 -67.80963134765625 -23.287038803100586 -12.40176010131836 -99.01126861572266 -34.281986236572266 -13.544122695922852 
u4901 -20.846214294433594 -119.3072509765625 -26.184791564941406 -10.725287437438965 -16.92682647705078 -42.91926956176758 -14.51645278930664 -70.04757690429688 -33.25536346435547 -14.68134593963623 -67.27253723144531 -10.220978736877441 -42.30132293701172 -33.99962615966797 -19.228090286254883 -41.08386993408203 -38.91562271118164 -70.99720001220703 -29.605567932128906 -64.9145278930664 -53.29601287841797 -35.65205764770508 -37.70288848876953 -44.44498825073242 -20.725013732910156 -25.09564971923828 -56.20106506347656 -27.26227378845215 -10.266797065734863 -80.42125701904297 -30.368139266967773 -13.500894546508789 
u4173 -17.656822204589844 -142.23519897460938 -26.326187133789062 -12.921191215515137 -22.096176147460938 -43.21072769165039 -20.38251495361328 -81.13375854492188 -38.424560546875 -16.60932731628418 -84.2833251953125 -15.838556289672852 -33.54454803466797 -30.025419235229492 -23.334707260131836 -49.02806854248047 -29.348888397216797 -81.09712982177734 -37.915870666503906 -74.88341522216797 -49.36002731323242 -46.54812240600586 -27.392593383789062 -52.22291946411133 -21.642574310302734 -20.259029388427734 -44.72308349609375 -32.17914581298828 -13.56185531616211 -63.529273986816406 -28.75514793395996 -11.848508834838867 
u2312 -16.848880767822266 -140.54010009765625 -25.716033935546875 -11.822089195251465 -17.016918182373047 -50.581111907958984 -20.07345199584961 -81.88114929199219 -39.65541458129883 -18.64298439025879 -74.50117492675781 -10.000048637390137 -30.452425003051758 -31.007925033569336 -22.719350814819336 -47.67791748046875 -33.0809211730957 -80.67508697509766 -36.75811004638672 -75.22791290283203 -48.081817626953125 -44.09663009643555 -30.684043884277344 -55.33566665649414 -26.266799926757812 -18.791732788085938 -45.74711608886719 -33.32029724121094 -10.868876457214355 -70.0085678100586 -23.35207176208496 -11.569084167480469 
u2127 -31.03443145751953 -62.790252685546875 -32.762290954589844 -13.359519004821777 -22.50225830078125 -30.20835304260254 -11.532691955566406 -35.289669036865234 -19.44633674621582 -10.713244438171387 -29.197830200195312 -13.990741729736328 -59.42955780029297 -55.137794494628906 -11.52963924407959 -19.605440139770508 -57.4273567199707 -41.64298629760742 -11.865730285644531 -35.62065887451172 -66.97298431396484 -14.128552436828613 -56.86371612548828 -23.92717170715332 -13.9310884475708 -36.555850982666016 -89.64389038085938 -15.543784141540527 -13.00558090209961 -130.64505004882812 -45.31424331665039 -16.04133415222168 
u4605 -26.565574645996094 -85.44363403320312 -33.92020797729492 -16.31441879272461 -27.814918518066406 -31.578310012817383 -18.04169464111328 -51.339351654052734 -27.6704044342041 -8.170702934265137 -51.49053955078125 -19.198179244995117 -50.910865783691406 -48.12852478027344 -15.603232383728027 -29.910226821899414 -47.98683547973633 -53.1540641784668 -20.1429443359375 -46.15196990966797 -64.66654205322266 -25.84183120727539 -48.33113098144531 -32.80403518676758 -13.593682289123535 -32.598819732666016 -74.38798522949219 -23.331716537475586 -14.600730895996094 -105.72991180419922 -42.70975112915039 -12.521408081054688 
u3883 -16.427978515625 -150.42666625976562 -24.290271759033203 -12.152289390563965 -14.810672760009766 -46.579288482666016 -17.18476104736328 -87.12689208984375 -41.032291412353516 -20.465660095214844 -84.9383544921875 -11.236825942993164 -31.676454544067383 -25.554380416870117 -22.43650245666504 -52.54075622558594 -29.50802230834961 -80.81945037841797 -40.83970642089844 -79.14595794677734 -50.80360412597656 -49.81465530395508 -27.82379150390625 -55.10011672973633 -23.162033081054688 -15.31120777130127 -38.09393310546875 -34.2498893737793 -9.339052200317383 -60.24884796142578 -26.62189292907715 -8.070003509521484 
u1564 -18.29129409790039 -144.3946990966797 -23.063053131103516 -12.56015682220459 -15.737403869628906 -50.328426361083984 -19.430988311767578 -82.40650939941406 -39.688751220703125 -18.293363571166992 -78.40513610839844 -10.461997985839844 -32.36402130126953 -28.375181198120117 -22.452207565307617 -47.59063720703125 -30.956432342529297 -82.06169891357422 -34.565269470214844 -76.68396759033203 -48.07759475708008 -44.22188186645508 -29.43254852294922 -54.04989242553711 -24.657413482666016 -20.681011199951172 -44.00627136230469 -34.11743927001953 -9.432950019836426 -66.67876434326172 -25.79518699645996 -11.987218856811523 
u651 -17.406635284423828 -134.8857421875 -28.1756591796875 -15.564291954040527 -20.60226058959961 -49.71208572387695 -23.8966064453125 -84.81771850585938 -39.181976318359375 -15.652724266052246 -75.59390258789062 -8.333761215209961 -31.809473037719727 -34.656288146972656 -21.704286575317383 -50.29076385498047 -36.30289840698242 -75.62261199951172 -37.34076690673828 -72.49535369873047 -53.68097686767578 -44.91081619262695 -31.425308227539062 -56.66592025756836 -27.39562225341797 -16.72376251220703 -44.21519470214844 -38.77680969238281 -11.663381576538086 -75.48409271240234 -24.419572830200195 -7.138679504394531 
u1804 -21.248336791992188 -111.49844360351562 -31.615665435791016 -15.964808464050293 -23.08639907836914 -43.15347671508789 -20.431438446044922 -70.45849609375 -33.01532745361328 -11.873988151550293 -62.790771484375 -10.249486923217773 -41.08082580566406 -41.59357452392578 -17.679162979125977 -41.102882385253906 -44.7151985168457 -64.16210174560547 -30.104209899902344 -59.26032257080078 -58.38377380371094 -35.83583450317383 -39.202415466308594 -46.36240005493164 -22.648040771484375 -23.978485107421875 -57.467559814453125 -32.06993103027344 -12.60793399810791 -91.66027069091797 -31.54537010192871 -9.586359024047852 
u362 -17.72223663330078 -128.61672973632812 -29.900455474853516 -16.510231018066406 -22.35785675048828 -49.1299934387207 -24.35834503173828 -82.16427612304688 -38.24171447753906 -13.214127540588379 -72.866943359375 -9.177397727966309 -33.38622283935547 -37.335914611816406 -20.630159378051758 -48.12030792236328 -39.00083541870117 -72.4365463256836 -35.61241912841797 -68.76171112060547 -55.65599822998047 -42.85023880004883 -33.78590393066406 -55.58817672729492 -27.206687927246094 -18.134113311767578 -47.15473937988281 -39.001922607421875 -12.866800308227539 -80.0777359008789 -25.96173667907715 -6.917751312255859 
u402 -14.027182579040527 -165.71536254882812 -21.57668685913086 -5.798186302185059 -14.408012390136719 -50.5645637512207 -22.486309051513672 -93.82020568847656 -46.38506317138672 -19.7455997467041 -91.57882690429688 -9.321115493774414 -24.975976943969727 -19.83075523376465 -26.12653923034668 -58.37432098388672 -22.04397201538086 -95.69227600097656 -40.12828826904297 -86.57262420654297 -37.79978942871094 -52.66648483276367 -21.18932342529297 -59.999752044677734 -26.782493591308594 -15.27184772491455 -34.49180603027344 -31.493398666381836 -8.295473098754883 -42.24011993408203 -11.29240608215332 -17.76985740661621 
u1869 -19.297008514404297 -124.34906005859375 -28.82231903076172 -15.46314525604248 -21.4937744140625 -46.9243049621582 -22.790996551513672 -77.48860168457031 -36.18406677246094 -15.016322135925293 -69.03079223632812 -9.19442081451416 -35.41168212890625 -38.03881072998047 -20.501211166381836 -46.033172607421875 -39.01846694946289 -70.85980987548828 -33.34551239013672 -67.10675811767578 -55.78087615966797 -40.501773834228516 -34.93040466308594 -52.5616340637207 -26.009422302246094 -19.46126937866211 -50.621337890625 -36.11922836303711 -11.995367050170898 -83.49857330322266 -27.205068588256836 -8.287139892578125 
u2791 -17.83510971069336 -147.30690002441406 -23.932109832763672 -8.8723783493042 -12.113182067871094 -51.592098236083984 -15.206367492675781 -83.0252685546875 -41.062740325927734 -20.06068992614746 -78.55079650878906 -9.826748847961426 -31.006784439086914 -24.021329879760742 -23.064985275268555 -50.719749450683594 -30.79372787475586 -81.75313568115234 -40.48411560058594 -78.62638854980469 -46.99175262451172 -44.4237174987793 -29.497398376464844 -56.48845291137695 -23.893829345703125 -16.823867797851562 -45.34428405761719 -31.18348503112793 -7.920960426330566 -65.29511260986328 -20.748685836791992 -11.254627227783203 
u4403 -24.743576049804688 -99.35775756835938 -33.4454345703125 -15.423144340515137 -28.361106872558594 -28.841951370239258 -12.359260559082031 -57.73789596557617 -26.123262405395508 -12.95639705657959 -57.70823669433594 -12.2613525390625 -50.791473388671875 -44.216819763183594 -13.075690269470215 -34.73930358886719 -47.33413314819336 -50.13773727416992 -26.36548614501953 -48.667945861816406 -67.65340423583984 -32.84086990356445 -40.04759216308594 -37.33041763305664 -16.323638916015625 -21.455875396728516 -60.38746643066406 -26.04078483581543 -11.376866340637207 -98.9958267211914 -43.803226470947266 -8.223344802856445 
u1380 -13.125494956970215 -185.06430053710938 -20.059043884277344 -13.919734001159668 -14.650794982910156 -58.5120964050293 -23.86724853515625 -102.54139709472656 -50.5450553894043 -18.068721771240234 -109.3631820678711 -17.704675674438477 -18.46036720275879 -15.488435745239258 -30.32233238220215 -59.12640380859375 -14.90986156463623 -106.2740249633789 -44.07356262207031 -97.68096923828125 -33.99031448364258 -60.343570709228516 -16.32666015625 -65.00682067871094 -27.585712432861328 -16.590648651123047 -30.09356689453125 -40.83283996582031 -13.016633033752441 -35.38098907470703 -17.890775680541992 -12.26047420501709 
u1442 -18.44708251953125 -138.72824096679688 -29.958415985107422 -15.007201194763184 -27.706939697265625 -43.54916763305664 -28.351177215576172 -82.91018676757812 -38.969993591308594 -15.584288597106934 -81.59353637695312 -15.028755187988281 -29.34879493713379 -37.927452087402344 -24.575212478637695 -49.222877502441406 -28.96145248413086 -80.81842803955078 -36.936614990234375 -73.26859283447266 -53.382469177246094 -48.71115493774414 -29.576927185058594 -53.8521614074707 -24.696521759033203 -21.574199676513672 -42.8841552734375 -37.35214614868164 -14.8563232421875 -70.09540557861328 -32.41171646118164 -8.451780319213867 
u2444 -24.70153045654297 -88.33917236328125 -34.075008392333984 -13.94751262664795 -26.327713012695312 -29.53270149230957 -15.201576232910156 -54.24137496948242 -27.899560928344727 -10.4857816696167 -52.85636901855469 -16.46757698059082 -50.96067810058594 -45.870330810546875 -13.679377555847168 -32.965919494628906 -47.97231674194336 -52.42585372924805 -23.91582489013672 -46.553016662597656 -66.31404876708984 -27.984325408935547 -47.40641784667969 -35.2116584777832 -13.674736976623535 -27.946685791015625 -70.05351257324219 -22.286832809448242 -14.605968475341797 -102.25614166259766 -41.59811019897461 -12.434991836547852 
u1456 -23.906661987304688 -93.75656127929688 -32.84866714477539 -13.840792655944824 -29.231281280517578 -27.105806350708008 -13.9598388671875 -54.50263595581055 -24.10459327697754 -13.199030876159668 -55.77972412109375 -14.03515625 -50.16405487060547 -46.93605041503906 -15.391329765319824 -33.034446716308594 -46.42008590698242 -51.191402435302734 -25.21978759765625 -48.85382843017578 -67.56828308105469 -32.00639724731445 -41.210784912109375 -36.32138442993164 -15.388688087463379 -24.783367156982422 -64.87959289550781 -23.028730392456055 -15.803863525390625 -100.54581451416016 -45.2318000793457 -10.530115127563477 
u2631 -25.1318359375 -117.07733154296875 -25.95230484008789 -10.947161674499512 -17.00830841064453 -41.96333694458008 -14.865814208984375 -62.9880485534668 -31.056665420532227 -17.841115951538086 -61.68035888671875 -12.59358024597168 -42.87158966064453 -37.448883056640625 -19.74216651916504 -37.638694763183594 -38.046382904052734 -68.67975616455078 -27.417030334472656 -62.457618713378906 -53.768310546875 -33.087284088134766 -36.90631103515625 -41.65242385864258 -20.09632110595703 -26.962566375732422 -62.43959045410156 -24.312002182006836 -10.852386474609375 -91.0053482055664 -33.256351470947266 -15.499406814575195 
u2705 -24.059215545654297 -96.16616821289062 -39.06993103027344 -18.206138610839844 -30.91382598876953 -37.05569839477539 -24.09564971923828 -67.74346923828125 -28.971193313598633 -5.739054203033447 -59.336669921875 -8.549755096435547 -46.91949462890625 -49.727394104003906 -13.946410179138184 -38.892425537109375 -51.526248931884766 -56.19521713256836 -27.752647399902344 -49.098304748535156 -63.83075714111328 -33.955257415771484 -47.12065887451172 -40.406185150146484 -19.851757049560547 -31.155738830566406 -62.002471923828125 -32.00665283203125 -13.168821334838867 -103.05001068115234 -38.998294830322266 -8.255067825317383 
u3107 -20.0799560546875 -126.05206298828125 -29.27997589111328 -15.033370018005371 -22.140777587890625 -42.91962814331055 -23.005611419677734 -74.49270629882812 -38.566802978515625 -12.612738609313965 -73.45721435546875 -16.71246337890625 -37.4105224609375 -35.85700988769531 -21.16983985900879 -44.842742919921875 -35.873172760009766 -73.42412567138672 -31.311866760253906 -67.46434783935547 -53.57898712158203 -40.1589241027832 -35.602806091308594 -47.082828521728516 -20.8740234375 -23.744457244873047 -53.32891845703125 -32.05201721191406 -12.376379013061523 -77.1412124633789 -30.087308883666992 -10.132608413696289 
u3133 -19.7852783203125 -126.93716430664062 -27.85607147216797 -11.752284049987793 -21.52054214477539 -38.04426193237305 -18.651824951171875 -76.77366638183594 -34.59638977050781 -12.483185768127441 -78.41633605957031 -11.900373458862305 -40.69459533691406 -32.96131134033203 -21.422765731811523 -46.514381408691406 -34.67196273803711 -73.58997344970703 -33.895179748535156 -69.23871612548828 -56.55803680419922 -43.12051010131836 -33.44348907470703 -46.31450271606445 -19.14704132080078 -21.500221252441406 -49.55021667480469 -29.197935104370117 -15.068346977233887 -74.06485748291016 -33.01497268676758 -11.332937240600586 
u1703 -10.955283164978027 -173.9042205810547 -16.541946411132812 -9.786528587341309 -12.434608459472656 -55.9356575012207 -10.248123168945312 -92.978759765625 -42.34720993041992 -27.442811965942383 -93.88041687011719 -10.366065979003906 -21.558565139770508 -17.40545082092285 -25.260160446166992 -53.21026611328125 -20.63741683959961 -92.18104553222656 -49.24415588378906 -90.79853820800781 -42.333587646484375 -55.20132827758789 -14.1817626953125 -66.76242065429688 -27.131343841552734 -11.018994331359863 -27.51568603515625 -36.68064498901367 -9.923994064331055 -41.84528350830078 -23.912565231323242 -9.17127799987793 
u3186 -22.341861724853516 -108.35006713867188 -29.82254409790039 -13.419646263122559 -25.270431518554688 -34.60281753540039 -15.362144470214844 -63.43502426147461 -29.845582962036133 -15.235796928405762 -61.741119384765625 -13.186058044433594 -43.38752746582031 -41.946678161621094 -17.481225967407227 -37.35832214355469 -41.32735061645508 -60.23276901245117 -28.302947998046875 -57.248023986816406 -61.492408752441406 -36.86031723022461 -37.435829162597656 -42.415096282958984 -18.172096252441406 -23.615066528320312 -58.46662902832031 -26.366567611694336 -13.064313888549805 -89.28803253173828 -38.18448257446289 -10.035743713378906 
u3864 -15.191229820251465 -136.56536865234375 -28.642505645751953 -9.29007625579834 -21.658958435058594 -40.70161819458008 -19.878997802734375 -77.48509216308594 -39.31206512451172 -19.481298446655273 -73.62815856933594 -11.460176467895508 -32.892494201660156 -33.49266052246094 -21.198339462280273 -48.316192626953125 -33.32741165161133 -76.22167205810547 -37.90221405029297 -69.5356674194336 -52.49556350708008 -45.44905471801758 -29.29572296142578 -52.11397933959961 -23.077465057373047 -17.740036010742188 -42.64585876464844 -28.72882652282715 -11.558633804321289 -65.1114273071289 -26.90230369567871 -11.839855194091797 
u4064 -13.852694511413574 -151.70669555664062 -20.81661605834961 -9.853194236755371 -14.978927612304688 -47.8609733581543 -10.42593002319336 -83.03630065917969 -38.17292785644531 -23.88593101501465 -82.88937377929688 -10.715576171875 -29.3292179107666 -25.27765464782715 -22.63895606994629 -47.797203063964844 -27.708248138427734 -81.71343231201172 -42.87489318847656 -80.23780059814453 -48.30204772949219 -50.06608963012695 -21.878074645996094 -57.79861068725586 -23.86581802368164 -15.175946235656738 -37.71626281738281 -31.2340145111084 -11.901618957519531 -56.42633819580078 -28.038198471069336 -10.227094650268555 
u4136 -15.915202140808105 -140.057861328125 -25.876422882080078 -11.650877952575684 -19.46933364868164 -48.39126205444336 -22.54016876220703 -84.41705322265625 -39.53301239013672 -15.190272331237793 -78.11985778808594 -9.782990455627441 -32.052635192871094 -31.097158432006836 -21.713808059692383 -49.80652618408203 -33.592098236083984 -81.05574798583984 -36.031036376953125 -74.39315032958984 -48.71918869018555 -43.6088981628418 -30.257736206054688 -53.62184524536133 -25.727497100830078 -19.491722106933594 -42.53846740722656 -34.747554779052734 -10.604618072509766 -65.29654693603516 -23.974889755249023 -11.020902633666992 
u4277 -19.564414978027344 -144.81674194335938 -23.736526489257812 -10.938090324401855 -15.862171173095703 -49.97678756713867 -19.185710906982422 -81.85151672363281 -38.89520263671875 -18.539108276367188 -77.91629028320312 -10.65262222290039 -31.23795509338379 -29.621511459350586 -22.82411766052246 -47.93011474609375 -29.601024627685547 -83.21727752685547 -35.88032531738281 -76.49576568603516 -47.541786193847656 -45.069515228271484 -28.264259338378906 -53.54793167114258 -25.142486572265625 -20.96813201904297 -45.33677673339844 -32.01055908203125 -10.915260314941406 -69.0622329711914 -25.8079891204834 -13.751962661743164 
u2211 -16.419788360595703 -157.49327087402344 -23.681350708007812 -9.74210262298584 -12.680866241455078 -50.950626373291016 -15.337715148925781 -85.12428283691406 -45.06093978881836 -20.72875213623047 -86.37159729003906 -13.892967224121094 -27.95182228088379 -20.698835372924805 -24.56635856628418 -52.789161682128906 -25.929584503173828 -88.10570526123047 -40.71746826171875 -82.29292297363281 -42.4155387878418 -48.773555755615234 -25.42529296875 -56.60939407348633 -23.69948959350586 -16.124465942382812 -42.41795349121094 -31.500471115112305 -8.168046951293945 -54.93262481689453 -19.53814125061035 -12.012702941894531 
u2468 -19.564105987548828 -126.38134765625 -31.751323699951172 -15.995116233825684 -24.593708038330078 -45.57571029663086 -24.225101470947266 -80.72889709472656 -36.379722595214844 -11.339842796325684 -72.98704528808594 -8.656482696533203 -36.55327606201172 -38.59332275390625 -18.572416305541992 -46.97179412841797 -41.03548049926758 -72.07328033447266 -34.39922332763672 -65.5614242553711 -54.862770080566406 -42.280887603759766 -35.629249572753906 -50.21583938598633 -24.062602996826172 -23.803359985351562 -48.11820983886719 -35.76332473754883 -11.692259788513184 -80.4201889038086 -30.27631187438965 -8.798393249511719 
u2799 -10.413548469543457 -192.16477966308594 -19.15817642211914 -8.5835599899292 -10.975227355957031 -63.383445739746094 -21.821022033691406 -105.55171203613281 -51.984901428222656 -28.91621208190918 -97.70654296875 -6.4545722007751465 -11.311639785766602 -15.80384635925293 -29.280912399291992 -64.9953384399414 -18.064220428466797 -102.25460815429688 -52.58744812011719 -99.62108612060547 -37.55909729003906 -61.89223098754883 -8.069366455078125 -74.49935913085938 -34.332401275634766 -5.038670539855957 -17.753570556640625 -41.117069244384766 -7.173624038696289 -34.92206573486328 -8.461400985717773 -9.956989288330078 
u3419 -22.513877868652344 -122.62594604492188 -18.179180145263672 -10.291769981384277 -14.145637512207031 -39.804073333740234 -4.534427165985107 -62.42940902709961 -26.47501564025879 -17.324235916137695 -79.21269226074219 -16.451641082763672 -50.55842590332031 -25.13448143005371 -21.31040382385254 -36.02881622314453 -31.795642852783203 -71.8404769897461 -24.56634521484375 -67.1745376586914 -49.525203704833984 -31.005290985107422 -35.42210388183594 -41.46858596801758 -15.480633735656738 -27.67955780029297 -63.53300476074219 -26.829771041870117 -9.2219820022583 -75.19742584228516 -35.02822494506836 -15.27386474609375 
u3490 -18.182994842529297 -139.28738403320312 -26.517425537109375 -11.368990898132324 -20.68511962890625 -41.88771438598633 -19.772602081298828 -83.32475280761719 -38.09156799316406 -12.18433666229248 -86.08155822753906 -11.393508911132812 -36.91576385498047 -28.025442123413086 -23.176305770874023 -50.34751892089844 -30.837871551513672 -80.85701751708984 -36.193946838378906 -75.0521011352539 -53.26618194580078 -46.899051666259766 -29.769027709960938 -50.478206634521484 -20.672012329101562 -20.120956420898438 -43.93463134765625 -31.650915145874023 -14.968001365661621 -65.18920135498047 -29.707395553588867 -11.982851028442383 
u701 -26.815818786621094 -104.78836059570312 -21.599716186523438 -11.631682395935059 -17.267799377441406 -35.3922004699707 -5.863692760467529 -52.63349533081055 -23.064531326293945 -14.935408592224121 -67.08146667480469 -17.278234481811523 -55.083473205566406 -33.382537841796875 -18.7161922454834 -30.22698402404785 -37.8822135925293 -62.56759262084961 -19.16533660888672 -57.169227600097656 -54.530235290527344 -25.516170501708984 -41.391258239746094 -34.38373947143555 -13.12718677520752 -32.548831939697266 -73.34480285644531 -22.969472885131836 -10.175028800964355 -91.7431869506836 -39.995914459228516 -16.2535400390625 
u897 -20.301959991455078 -125.86038208007812 -28.25143814086914 -11.350508689880371 -18.08816909790039 -39.884403228759766 -17.36895751953125 -73.45123291015625 -36.179847717285156 -15.780806541442871 -72.79075622558594 -14.194583892822266 -38.70533752441406 -34.69322967529297 -21.26545524597168 -45.22491455078125 -35.781864166259766 -72.11980438232422 -34.76634979248047 -68.9270248413086 -54.85111999511719 -42.28449630737305 -34.829681396484375 -46.05070114135742 -19.66838836669922 -21.97873306274414 -52.854217529296875 -26.912084579467773 -13.306906700134277 -76.5732192993164 -30.746366500854492 -10.982172012329102 
u1640 -17.929973602294922 -140.66317749023438 -26.5341796875 -12.766398429870605 -20.293487548828125 -43.952091217041016 -22.557113647460938 -84.02520751953125 -39.8525276184082 -13.122323036193848 -84.50697326660156 -13.2117919921875 -34.65922546386719 -29.490217208862305 -23.370405197143555 -50.467201232910156 -30.976665496826172 -81.16719818115234 -36.07866668701172 -76.019775390625 -51.45216369628906 -46.704769134521484 -29.814292907714844 -51.23635482788086 -21.543197631835938 -20.394638061523438 -44.14537048339844 -32.72088623046875 -13.961145401000977 -65.04669952392578 -27.748525619506836 -11.38054084777832 
u1872 -8.253668785095215 -189.52427673339844 -16.577571868896484 -6.501799583435059 -10.597064971923828 -60.13088607788086 -19.50625228881836 -108.90538787841797 -48.97815704345703 -25.917808532714844 -103.949951171875 -7.95652437210083 -13.541971206665039 -12.637670516967773 -28.59623908996582 -62.674659729003906 -13.360018730163574 -108.7149887084961 -50.175106048583984 -100.1948013305664 -31.939563751220703 -62.6341667175293 -14.525177001953125 -72.05348205566406 -31.338340759277344 -10.931962013244629 -20.797218322753906 -38.60247802734375 -9.767104148864746 -25.63765525817871 -10.449911117553711 -15.196066856384277 
u43 -21.07251739501953 -124.87338256835938 -28.39978790283203 -12.352858543395996 -22.693138122558594 -38.83854293823242 -19.01708221435547 -75.41246032714844 -35.61915588378906 -9.098492622375488 -79.07383728027344 -12.685476303100586 -42.32855987548828 -32.02875518798828 -21.086156845092773 -45.31883239746094 -35.61782455444336 -74.6268539428711 -30.78052520751953 -67.1142349243164 -56.140769958496094 -40.87831497192383 -35.38141632080078 -44.693477630615234 -18.12826156616211 -23.830711364746094 -52.40338134765625 -29.747831344604492 -14.434736251831055 -75.35974884033203 -33.22834396362305 -12.303852081298828 
u932 -30.024566650390625 -87.68875122070312 -29.647171020507812 -13.168108940124512 -21.40582275390625 -34.68562698364258 -13.629764556884766 -46.371944427490234 -24.151735305786133 -14.806065559387207 -44.091827392578125 -13.447681427001953 -53.076438903808594 -48.54912567138672 -15.248671531677246 -27.09775733947754 -48.49748611450195 -53.8116569519043 -18.09825897216797 -47.72931671142578 -61.336029052734375 -23.474254608154297 -47.85539245605469 -30.483728408813477 -15.539288520812988 -34.726436614990234 -78.40940856933594 -20.430540084838867 -12.216911315917969 -115.7967300415039 -42.25656509399414 -15.242124557495117 
u3861 -16.251140594482422 -151.85064697265625 -25.688602447509766 -14.148356437683105 -19.500751495361328 -53.83279037475586 -24.62894058227539 -88.69435119628906 -42.96430587768555 -18.367982864379883 -81.84703063964844 -10.205526351928711 -25.897226333618164 -29.03375816345215 -23.671842575073242 -52.70552062988281 -29.342060089111328 -85.80049896240234 -39.072837829589844 -78.70745086669922 -47.960662841796875 -48.112796783447266 -25.762222290039062 -61.539859771728516 -29.497756958007812 -16.72780990600586 -36.74330139160156 -39.983055114746094 -9.934887886047363 -62.110633850097656 -21.3475399017334 -10.32419204711914 
u2808 -29.127220153808594 -110.41903686523438 -27.27581787109375 -14.721884727478027 -22.129127502441406 -39.93488693237305 -18.42898941040039 -59.31870651245117 -29.76671028137207 -14.90223217010498 -60.805419921875 -13.852460861206055 -45.03285217285156 -42.374305725097656 -18.975622177124023 -33.706321716308594 -38.51420974731445 -65.14945220947266 -20.735061645507812 -57.80467987060547 -57.69801330566406 -32.49187088012695 -41.27845001220703 -39.140010833740234 -18.78656005859375 -32.03742218017578 -66.35299682617188 -28.56484031677246 -10.722171783447266 -99.18042755126953 -38.91970443725586 -14.162294387817383 
u3618 -7.405930995941162 -187.49562072753906 -18.76061248779297 -7.616744041442871 -13.727718353271484 -59.205196380615234 -23.355697631835938 -110.4037857055664 -50.703514099121094 -23.23533058166504 -104.78659057617188 -8.862167358398438 -13.820985794067383 -14.808748245239258 -28.46718406677246 -65.79817199707031 -14.64197063446045 -107.15420532226562 -51.670955657958984 -99.40818786621094 -36.22698974609375 -63.241519927978516 -14.173751831054688 -74.5126953125 -31.822471618652344 -8.757843971252441 -18.256195068359375 -41.539085388183594 -11.926445007324219 -26.33711814880371 -10.940507888793945 -12.658204078674316 
u770 -13.067885398864746 -184.52040100097656 -18.47710418701172 -9.152140617370605 -12.204246520996094 -59.826263427734375 -22.29767608642578 -103.39932250976562 -48.67200469970703 -22.641977310180664 -102.00544738769531 -10.006686210632324 -17.460229873657227 -15.571744918823242 -29.079133987426758 -61.3358154296875 -15.63025951385498 -104.28397369384766 -47.64763259887695 -97.03595733642578 -36.72343826293945 -59.45708084106445 -15.018913269042969 -69.01404571533203 -30.358245849609375 -14.401772499084473 -24.338485717773438 -39.30154800415039 -9.341836929321289 -35.574562072753906 -14.315515518188477 -13.181429862976074 
u1867 -16.001365661621094 -159.43939208984375 -22.247238159179688 -10.796565055847168 -14.083518981933594 -56.16057205200195 -20.89110565185547 -95.12490844726562 -42.368614196777344 -21.51279640197754 -86.41505432128906 -6.397719860076904 -23.846010208129883 -26.227468490600586 -23.6170597076416 -54.716468811035156 -27.300914764404297 -90.13457489013672 -40.19580841064453 -85.88054656982422 -44.70360565185547 -51.26237869262695 -21.362388610839844 -64.04276275634766 -29.82469940185547 -13.826775550842285 -34.21601867675781 -38.40696716308594 -10.621545791625977 -57.55126190185547 -17.0758113861084 -12.089278221130371 
u3588 -19.675621032714844 -124.28704833984375 -28.191181182861328 -12.235655784606934 -21.953994750976562 -36.69772720336914 -17.356246948242188 -74.53227233886719 -33.31401062011719 -13.60346508026123 -75.09945678710938 -10.900814056396484 -42.06156921386719 -34.52998352050781 -20.10902214050293 -45.423858642578125 -37.03740310668945 -70.14757537841797 -33.30035400390625 -66.84935760498047 -59.32720947265625 -42.457271575927734 -34.601829528808594 -45.76942825317383 -19.442001342773438 -20.245014190673828 -49.478729248046875 -29.50922966003418 -15.177902221679688 -78.0003433227539 -35.6108283996582 -9.947595596313477 
u1682 -15.606486320495605 -144.31036376953125 -25.449382781982422 -11.056288719177246 -20.787933349609375 -43.90932083129883 -15.33919906616211 -81.16496276855469 -36.510833740234375 -18.390348434448242 -83.59249877929688 -11.747915267944336 -32.433860778808594 -28.130720138549805 -22.8316707611084 -48.72625732421875 -29.835704803466797 -79.1389389038086 -39.43280792236328 -74.93848419189453 -51.21608352661133 -48.11954116821289 -26.108718872070312 -55.93413162231445 -23.591407775878906 -16.594783782958984 -41.46662902832031 -31.799192428588867 -13.296171188354492 -61.83708953857422 -28.924291610717773 -10.657783508300781 
u3608 -18.904800415039062 -142.31243896484375 -24.159000396728516 -12.38150691986084 -16.81927490234375 -50.09511184692383 -18.665870666503906 -81.20616149902344 -38.79900360107422 -16.27288246154785 -78.68540954589844 -10.482645034790039 -32.63372802734375 -28.41090965270996 -22.030508041381836 -47.50025177001953 -31.712574005126953 -80.58243560791016 -34.81897735595703 -74.6640396118164 -48.94166564941406 -43.49544143676758 -29.21392822265625 -54.43165969848633 -24.7010498046875 -20.795108795166016 -45.05195617675781 -33.14508819580078 -9.790924072265625 -67.2392349243164 -25.114980697631836 -12.802188873291016 
u4529 -21.042892456054688 -122.91680908203125 -29.512989044189453 -15.328944206237793 -22.230606079101562 -39.80253219604492 -21.01258087158203 -74.19914245605469 -36.13660430908203 -10.616236686706543 -73.64347839355469 -14.027959823608398 -40.986053466796875 -34.92335510253906 -19.95403480529785 -45.13421630859375 -38.08842849731445 -70.71382904052734 -31.024810791015625 -65.47650909423828 -58.16236114501953 -40.39858627319336 -36.71514892578125 -45.47829055786133 -19.42974090576172 -23.251792907714844 -52.08531188964844 -31.01813316345215 -13.980325698852539 -79.46060943603516 -33.38161087036133 -10.276742935180664 
u2053 -24.669410705566406 -91.09759521484375 -33.49270248413086 -15.078524589538574 -25.40825653076172 -32.22519302368164 -16.669841766357422 -55.2076530456543 -29.352998733520508 -9.953627586364746 -53.968841552734375 -17.068767547607422 -50.355613708496094 -45.428138732910156 -15.708609580993652 -33.005165100097656 -47.114505767822266 -54.991573333740234 -22.990440368652344 -49.15143585205078 -63.885154724121094 -28.35750961303711 -46.76837921142578 -34.6491813659668 -14.490738868713379 -29.42850112915039 -70.37956237792969 -23.495176315307617 -14.00326156616211 -101.63811492919922 -41.095584869384766 -11.24859619140625 
i164 -1104.3721923828125 -1206.3326416015625 -2460.3232421875 -3593.559814453125 -3646.5458984375 -2990.099609375 -3167.188232421875 -3009.9521484375 -2916.76416015625 -2048.27392578125 -1166.705322265625 -1138.9552001953125 -543.4637451171875 -2184.308349609375 -1222.638916015625 -1127.4083251953125 -2952.763671875 -1840.1151123046875 -3021.41650390625 -491.43389892578125 -1908.1331787109375 -1339.064453125 -2121.66162109375 -3084.625 -2409.220703125 -716.7980346679688 -787.616455078125 -3400.07763671875 -2289.249267578125 -3864.9951171875 -1897.6259765625 -262.3730773925781 
i90 -775.3394165039062 -931.7972412109375 -1640.5660400390625 -2484.743408203125 -2487.0205078125 -2133.217529296875 -2272.63330078125 -2137.7236328125 -2038.72314453125 -1412.4678955078125 -881.85791015625 -768.2813720703125 -286.8808898925781 -1411.614501953125 -869.8206787109375 -795.1732788085938 -2053.806884765625 -1294.3533935546875 -2084.268798828125 -387.6501159667969 -1270.492919921875 -961.1732788085938 -1412.9483642578125 -2172.874267578125 -1683.9300537109375 -498.3359375 -516.9088134765625 -2306.03173828125 -1581.390625 -2583.496337890625 -1264.7642822265625 -170.41790771484375 
u273 -13.753645896911621 -178.208984375 -21.591144561767578 -12.362048149108887 -15.61404800415039 -59.8131217956543 -26.392026901245117 -102.54096984863281 -48.039485931396484 -21.26543617248535 -98.14152526855469 -9.10977554321289 -17.593027114868164 -20.269071578979492 -28.562870025634766 -61.01341247558594 -18.951000213623047 -99.24182891845703 -45.827369689941406 -93.43058013916016 -40.81886291503906 -57.65407943725586 -17.13007354736328 -68.97708129882812 -31.929542541503906 -13.365899085998535 -24.898910522460938 -43.26150894165039 -8.899153709411621 -43.28046417236328 -15.532468795776367 -10.147937774658203 
