240 32
u153 -0.07063587009906769 -0.07855121791362762 -0.0077507589012384415 -0.0032014192547649145 -0.07381019741296768 -0.02008967101573944 -0.007212368305772543 -0.006650657393038273 -0.07472093403339386 -0.00444127107039094 -0.0685441642999649 -0.003645301563665271 -0.0716002956032753 -0.0732572078704834 -0.013042651116847992 -0.07625045627355576 -0.015530555509030819 -0.06533731520175934 -0.004926177207380533 -0.0352371484041214 -0.010374846868216991 -0.07632970064878464 -0.07575316727161407 -0.07560434937477112 -0.008319261483848095 -0.07322075217962265 -0.02159125916659832 -0.07470659166574478 -0.07328703999519348 -0.011462978087365627 -0.007430615369230509 -0.016350626945495605 
u107 -0.06911560148000717 -0.06575652211904526 -0.02100561372935772 -0.014601176604628563 -0.06699162721633911 -0.0428435355424881 -0.025900591164827347 -0.011534817516803741 -0.06705132871866226 -0.01612943597137928 -0.06927834451198578 -0.014540052972733974 -0.06879071146249771 -0.06791887432336807 -0.007619774900376797 -0.06278347223997116 -0.010027056559920311 -0.04456160590052605 -0.015364299528300762 -0.019380496814846992 -0.03732363134622574 -0.06557377427816391 -0.0658990889787674 -0.0656571015715599 -0.023886224254965782 -0.06780663132667542 -0.0051774149760603905 -0.06663863360881805 -0.05465864762663841 -0.030849039554595947 -0.01770673878490925 -0.010098488070070744 
i4 -0.02008352428674698 -0.00218268227763474 -0.15388613939285278 -0.16174961626529694 -0.011503037065267563 -0.1024140939116478 -0.1548769623041153 -0.19033506512641907 -0.004456616006791592 -0.15827152132987976 -0.030799485743045807 -0.1637500375509262 -0.015239352360367775 -0.010944978334009647 -0.1747499704360962 -0.034009017050266266 -0.17489995062351227 -0.10029767453670502 -0.16231918334960938 -0.16356471180915833 -0.13381777703762054 -1.0345234841224737e-05 -0.009036206640303135 -0.00826422031968832 -0.1509283483028412 -0.011341533623635769 -0.16643723845481873 -0.0014379053609445691 -0.07909877598285675 -0.14093641936779022 -0.15984222292900085 -0.1859005093574524 
u168 -0.06923657655715942 -0.06384090334177017 -0.020006870850920677 -0.012023171409964561 -0.06795298308134079 -0.042366351932287216 -0.023330386728048325 -0.00815863348543644 -0.06813304126262665 -0.01384825725108385 -0.06933298707008362 -0.014782224781811237 -0.06996119767427444 -0.06873825937509537 -0.00609574792906642 -0.06551606953144073 -0.010712247341871262 -0.044388215988874435 -0.014191323891282082 -0.02533651702105999 -0.03243797644972801 -0.06695445626974106 -0.067617267370224 -0.06714280694723129 -0.021149367094039917 -0.0685047134757042 -0.003955736290663481 -0.06745849549770355 -0.05679962411522865 -0.02921975590288639 -0.017627472057938576 -0.01197771541774273 
u56 -0.07102809101343155 -0.07288128137588501 -0.007911722175776958 -0.003938617184758186 -0.07508227229118347 -0.019946264103055 -0.008707346394658089 -0.0042395032942295074 -0.07426436990499496 -0.005167411640286446 -0.06830210238695145 -0.006093613803386688 -0.07173334807157516 -0.07345988601446152 -0.014110825024545193 -0.07567556947469711 -0.01485028862953186 -0.06488466262817383 -0.00533972168341279 -0.035692840814590454 -0.011421436443924904 -0.07507646083831787 -0.0760229155421257 -0.07520116865634918 -0.008506275713443756 -0.07318685948848724 -0.013090896420180798 -0.07436581701040268 -0.0716921016573906 -0.011092058382928371 -0.006934569217264652 -0.010054576210677624 
u106 -0.06912082433700562 -0.06572557240724564 -0.02099323272705078 -0.014605917036533356 -0.06699295341968536 -0.04270585998892784 -0.02590574137866497 -0.011728230863809586 -0.06705229729413986 -0.016125550493597984 -0.06927961856126785 -0.014555195346474648 -0.06879883259534836 -0.06792198121547699 -0.007678765803575516 -0.06279519200325012 -0.010048136115074158 -0.04461049288511276 -0.015373275615274906 -0.01939328946173191 -0.037316419184207916 -0.06557737290859222 -0.06590776890516281 -0.06564834713935852 -0.023885684087872505 -0.06780371814966202 -0.005196201149374247 -0.06662862747907639 -0.05467893183231354 -0.03083939664065838 -0.017713703215122223 -0.010086064226925373 
u181 -0.07159701734781265 -0.0794389471411705 -0.006213746964931488 -0.0038795252330601215 -0.07631762325763702 -0.015824466943740845 -0.00646113371476531 -0.004620495717972517 -0.07489069551229477 -0.004480855539441109 -0.06795360147953033 -0.004501442890614271 -0.07114905118942261 -0.0740717276930809 -0.014186416752636433 -0.07611528784036636 -0.01641307771205902 -0.0674087405204773 -0.004117661155760288 -0.03530420735478401 -0.009836466982960701 -0.07580755650997162 -0.07650460302829742 -0.07639205455780029 -0.00735723040997982 -0.07363671064376831 -0.01972663588821888 -0.07555125653743744 -0.07433468103408813 -0.008712036535143852 -0.004941972438246012 -0.010973290540277958 
u88 -0.07093366235494614 -0.0733688697218895 -0.009711917489767075 -0.005388947669416666 -0.07377427816390991 -0.0237121619284153 -0.0105400700122118 -0.003954901825636625 -0.07315519452095032 -0.006719933357089758 -0.06831628084182739 -0.007281746715307236 -0.07123363763093948 -0.07282711565494537 -0.011773996986448765 -0.074470654129982 -0.014646876603364944 -0.06088482216000557 -0.006777210161089897 -0.03532852977514267 -0.014733980409801006 -0.07388776540756226 -0.07447196543216705 -0.07389086484909058 -0.01071875263005495 -0.07237213850021362 -0.012185612693428993 -0.07327637821435928 -0.06954620033502579 -0.01436153706163168 -0.008442213758826256 -0.011604550294578075 
i15 -0.01764974184334278 -0.0066510895267128944 -0.15818709135055542 -0.16473612189292908 -0.006206003483384848 -0.12370428442955017 -0.150466188788414 -0.1739072948694229 -0.004519146401435137 -0.16119812428951263 -0.02881472371518612 -0.16379937529563904 -0.01741178333759308 -0.00871236901730299 -0.1692788302898407 -0.03923828899860382 -0.1718687117099762 -0.10831991583108902 -0.16291381418704987 -0.16027361154556274 -0.13142147660255432 -0.005517196841537952 -0.013315023854374886 -0.0071857282891869545 -0.15509994328022003 -0.010400560684502125 -0.15733228623867035 -0.0015912121161818504 -0.07258319854736328 -0.14484654366970062 -0.16125208139419556 -0.16817164421081543 
u105 -0.06911297142505646 -0.0656951367855072 -0.021017787978053093 -0.014601503498852253 -0.06698576360940933 -0.04285379871726036 -0.025887107476592064 -0.01151637639850378 -0.06705252081155777 -0.01611904613673687 -0.06926921010017395 -0.014497773721814156 -0.06878726184368134 -0.06791895627975464 -0.007540704682469368 -0.06282049417495728 -0.010060594417154789 -0.044533535838127136 -0.015360814519226551 -0.01934448815882206 -0.037316158413887024 -0.06558272242546082 -0.0658942386507988 -0.06566300243139267 -0.023852143436670303 -0.06780590862035751 -0.005130558740347624 -0.06664332002401352 -0.05467952415347099 -0.03086269646883011 -0.017741046845912933 -0.010056287981569767 
u110 -0.06911388784646988 -0.06570542603731155 -0.021009692922234535 -0.01459547970443964 -0.06697052717208862 -0.042855437844991684 -0.025896981358528137 -0.011596816591918468 -0.06705473363399506 -0.016124673187732697 -0.06927277147769928 -0.014568108133971691 -0.068792924284935 -0.06792555004358292 -0.007611201144754887 -0.06278707087039948 -0.01004161685705185 -0.04458426684141159 -0.015367344953119755 -0.01939021609723568 -0.03731607645750046 -0.06558101624250412 -0.06591197848320007 -0.06565247476100922 -0.02390337362885475 -0.06780577450990677 -0.005160308908671141 -0.06665168702602386 -0.0546523742377758 -0.030846359208226204 -0.017730290070176125 -0.010122669860720634 
u140 -0.07043302059173584 -0.06838467717170715 -0.014635330997407436 -0.010379941202700138 -0.0728129968047142 -0.03220909833908081 -0.018385136500000954 -0.005611735861748457 -0.07063324749469757 -0.010958617553114891 -0.06878316402435303 -0.012846048921346664 -0.06990649551153183 -0.07047244161367416 -0.01100207306444645 -0.06911791861057281 -0.013824313879013062 -0.054847124963998795 -0.010510269552469254 -0.02533002756536007 -0.025971082970499992 -0.06983644515275955 -0.07057077437639236 -0.07003084570169449 -0.01655561476945877 -0.07017063349485397 -0.006727739702910185 -0.07104847580194473 -0.0625716894865036 -0.020430788397789 -0.012624074704945087 -0.00897765252739191 
u195 -0.06812887638807297 -0.06745689362287521 -0.023750733584165573 -0.01723894663155079 -0.06167297810316086 -0.04426618665456772 -0.029644601047039032 -0.01210093405097723 -0.0647839829325676 -0.021084949374198914 -0.06942219287157059 -0.009698828682303429 -0.06829671561717987 -0.06565786153078079 -0.004794688429683447 -0.058330316096544266 -0.004627817310392857 -0.04273226857185364 -0.01831922121345997 -0.009771715849637985 -0.043105348944664 -0.06431380659341812 -0.06065695360302925 -0.0633063018321991 -0.029743345454335213 -0.0662790834903717 -0.020767830312252045 -0.06468747556209564 -0.05001813545823097 -0.03665383905172348 -0.02211976796388626 -0.005117859225720167 
u86 -0.07092766463756561 -0.07352811843156815 -0.009689956903457642 -0.005385322961956263 -0.07380278408527374 -0.023754257708787918 -0.010552898980677128 -0.0038781603798270226 -0.07315191626548767 -0.0067073870450258255 -0.06831085681915283 -0.00731623126193881 -0.07123244553804398 -0.07281872630119324 -0.011733878403902054 -0.07449272274971008 -0.014605390839278698 -0.060814596712589264 -0.0067680454812943935 -0.035323482006788254 -0.014751743525266647 -0.07388089597225189 -0.07448264211416245 -0.07388676702976227 -0.010715959593653679 -0.07237563282251358 -0.012278744950890541 -0.07329042255878448 -0.06953774392604828 -0.014368781819939613 -0.008422349579632282 -0.011670958250761032 
i14 -0.014957102946937084 -0.008666754700243473 -0.16001670062541962 -0.17129094898700714 -0.006023373454809189 -0.11750547587871552 -0.15051870048046112 -0.18267899751663208 -0.003931352868676186 -0.16613200306892395 -0.02431228756904602 -0.1722528636455536 -0.01406336110085249 -0.007433663122355938 -0.19006063044071198 -0.0455714575946331 -0.19006799161434174 -0.12610766291618347 -0.16874833405017853 -0.18466386198997498 -0.12380661815404892 -0.005405052099376917 -0.015018454752862453 -0.008985870517790318 -0.15625211596488953 -0.009016926400363445 -0.17421424388885498 -0.0020602743607014418 -0.08420146256685257 -0.13990168273448944 -0.16552668809890747 -0.17980973422527313 
u92 -0.06811679154634476 -0.06513813883066177 -0.023089608177542686 -0.016925988718867302 -0.0623355507850647 -0.04256235063076019 -0.029023906216025352 -0.015554886311292648 -0.0651262104511261 -0.02050110511481762 -0.06957395374774933 -0.010521023534238338 -0.06821862608194351 -0.06592235714197159 -0.005853482522070408 -0.05855893716216087 -0.004902534652501345 -0.04371648281812668 -0.0178571417927742 -0.00997398141771555 -0.042158182710409164 -0.06454629451036453 -0.06147593632340431 -0.06350413709878922 -0.02875635400414467 -0.06654227524995804 -0.018272681161761284 -0.06480218470096588 -0.05071917921304703 -0.03574518486857414 -0.021230563521385193 -0.005176587030291557 
u90 -0.07092441618442535 -0.07352045923471451 -0.009691041894257069 -0.005390418693423271 -0.07378871738910675 -0.023677023127675056 -0.010547634214162827 -0.003973681945353746 -0.07315898686647415 -0.006696294993162155 -0.06831362843513489 -0.007310700602829456 -0.07123678922653198 -0.07282321900129318 -0.011750439181923866 -0.07448658347129822 -0.01460263691842556 -0.060866937041282654 -0.006778367329388857 -0.03531068563461304 -0.01474383007735014 -0.07387754321098328 -0.07447636127471924 -0.07388098537921906 -0.010689879767596722 -0.07237599045038223 -0.01226380281150341 -0.07327069342136383 -0.06957374513149261 -0.014354061335325241 -0.008430338464677334 -0.011561131104826927 
u40 -0.06760062277317047 -0.06311406195163727 -0.02554173953831196 -0.018628258258104324 -0.06100545823574066 -0.047132156789302826 -0.03204323351383209 -0.01731971837580204 -0.06390123814344406 -0.022229094058275223 -0.06986908614635468 -0.012770229950547218 -0.06783260405063629 -0.06494078785181046 -0.004796047229319811 -0.05667053535580635 -0.004078978672623634 -0.03990442305803299 -0.019682180136442184 -0.007898279465734959 -0.04672374948859215 -0.06285354495048523 -0.0600094199180603 -0.06175791844725609 -0.031209124252200127 -0.06561891734600067 -0.016021309420466423 -0.06336697190999985 -0.047714680433273315 -0.039443518966436386 -0.023341862484812737 -0.0063116163946688175 
i19 -0.022115064784884453 -0.011180751025676727 -0.1521555483341217 -0.1543138027191162 -0.004229071084409952 -0.13362212479114532 -0.15109120309352875 -0.16137632727622986 -0.005857255309820175 -0.15208689868450165 -0.03579093515872955 -0.1540524810552597 -0.021182194352149963 -0.010911165736615658 -0.14277449250221252 -0.02935018204152584 -0.1441943645477295 -0.07814028859138489 -0.1534942090511322 -0.1309177428483963 -0.14443108439445496 -0.003431460587307811 -0.008741132915019989 -0.0055274441838264465 -0.15247178077697754 -0.012946751900017262 -0.12653608620166779 -0.0020567148458212614 -0.05317342281341553 -0.15023092925548553 -0.15433797240257263 -0.15051771700382233 
u65 -0.0710238590836525 -0.07297742366790771 -0.00792947318404913 -0.003947703167796135 -0.07508831471204758 -0.01996014267206192 -0.008695963770151138 -0.004128147382289171 -0.07426134496927261 -0.00516629870980978 -0.06829293072223663 -0.006073773372918367 -0.0717252865433693 -0.07345818728208542 -0.014037552289664745 -0.07567791640758514 -0.01484048180282116 -0.06486254185438156 -0.005333609413355589 -0.03567604720592499 -0.011421752162277699 -0.07506987452507019 -0.07602754980325699 -0.07521133124828339 -0.008486221544444561 -0.07319094985723495 -0.013037655502557755 -0.0743597075343132 -0.07169391214847565 -0.011095059104263783 -0.006921250373125076 -0.010062376968562603 
u129 -0.07141748815774918 -0.07895956188440323 -0.006163368932902813 -0.003930387087166309 -0.07461380958557129 -0.014758543111383915 -0.006807921454310417 -0.008414776995778084 -0.07448985427618027 -0.0052487170323729515 -0.06811080873012543 -0.0019495855085551739 -0.07126910984516144 -0.07371806353330612 -0.014341210946440697 -0.07457709312438965 -0.014548961073160172 -0.06758511811494827 -0.004436318762600422 -0.034117765724658966 -0.010163110680878162 -0.07604292780160904 -0.07598232477903366 -0.0763557180762291 -0.008262308314442635 -0.07352772355079651 -0.023024478927254677 -0.07534553855657578 -0.07378396391868591 -0.009173871949315071 -0.0053234342485666275 -0.009970729239284992 
i1 -0.01027906034141779 -0.0032923619728535414 -0.16448791325092316 -0.18349149823188782 -0.011836807243525982 -0.08784273266792297 -0.15187402069568634 -0.2154654562473297 -0.0024166374932974577 -0.1762549877166748 -0.01632457971572876 -0.18739308416843414 -0.0075022876262664795 -0.006028987001627684 -0.22920987010002136 -0.05526883527636528 -0.22962947189807892 -0.16171836853027344 -0.18088743090629578 -0.22993534803390503 -0.10688309371471405 -0.0044159372337162495 -0.017604662105441093 -0.012196522206068039 -0.15706132352352142 -0.006369747221469879 -0.2155991941690445 -0.0015888756606727839 -0.11439941078424454 -0.13008160889148712 -0.17428477108478546 -0.21408236026763916 
u50 -0.06760473549365997 -0.06301293522119522 -0.025524215772747993 -0.018638642504811287 -0.06104245036840439 -0.04711410775780678 -0.0320083387196064 -0.017335910350084305 -0.0638984814286232 -0.022220272570848465 -0.06986828148365021 -0.012765321880578995 -0.06783122569322586 -0.06493702530860901 -0.004747027065604925 -0.05668681859970093 -0.004088554996997118 -0.03988531231880188 -0.019679391756653786 -0.007906106300652027 -0.04670609533786774 -0.06286125630140305 -0.059985674917697906 -0.06176406890153885 -0.031197046861052513 -0.06562068313360214 -0.016016893088817596 -0.06337551772594452 -0.04772185906767845 -0.03945549577474594 -0.023336831480264664 -0.006296063307672739 
u78 -0.0684465691447258 -0.07219796627759933 -0.021653860807418823 -0.013469593599438667 -0.06557082384824753 -0.040982648730278015 -0.023947274312376976 -0.008782041259109974 -0.06743863224983215 -0.015181665308773518 -0.06946748495101929 -0.014398342929780483 -0.06878145784139633 -0.0682487040758133 -0.004317435435950756 -0.06533412635326385 -0.01035246066749096 -0.04326731711626053 -0.015412583015859127 -0.022382648661732674 -0.034904178231954575 -0.06579393893480301 -0.06604436784982681 -0.06590749323368073 -0.022007668390870094 -0.06817666441202164 -0.011067190207540989 -0.06585278362035751 -0.05644431710243225 -0.0325317420065403 -0.01791783981025219 -0.014265717938542366 
u118 -0.07142617553472519 -0.07885198295116425 -0.0061223008669912815 -0.003928281366825104 -0.0746917724609375 -0.014665495604276657 -0.006773015484213829 -0.008524995297193527 -0.07449045032262802 -0.005215169861912727 -0.06811019033193588 -0.0019436216680333018 -0.0712544173002243 -0.07370780408382416 -0.014311399310827255 -0.07454818487167358 -0.014541427604854107 -0.06761014461517334 -0.004436569754034281 -0.034162748605012894 -0.010152188129723072 -0.07603955268859863 -0.07595602422952652 -0.0763515755534172 -0.008244442753493786 -0.07352659106254578 -0.022889727726578712 -0.07532753050327301 -0.07378554344177246 -0.009180218912661076 -0.005321111064404249 -0.009823695756494999 
i17 -0.021834466606378555 -0.012287932448089123 -0.1525968313217163 -0.15556049346923828 -0.004678957164287567 -0.12896862626075745 -0.15096400678157806 -0.16594375669956207 -0.005699856206774712 -0.15285615622997284 -0.03520459309220314 -0.15733344852924347 -0.02021375298500061 -0.011035868898034096 -0.145578995347023 -0.02990330010652542 -0.14787404239177704 -0.08081463724374771 -0.15457749366760254 -0.13639357686042786 -0.14266268908977509 -0.003229316556826234 -0.008450937457382679 -0.005814158823341131 -0.15242595970630646 -0.012876007705926895 -0.12988583743572235 -0.001988744828850031 -0.056838374584913254 -0.14901483058929443 -0.1555655300617218 -0.15358002483844757 
u19 -0.07017304748296738 -0.06077629327774048 -0.014443781226873398 -0.010778254829347134 -0.0727359727025032 -0.030659008771181107 -0.019332757219672203 -0.010362542234361172 -0.07063911855220795 -0.010852821171283722 -0.0690263956785202 -0.012697659432888031 -0.06993977725505829 -0.07036127895116806 -0.012248259037733078 -0.06871326267719269 -0.013772433623671532 -0.05490652471780777 -0.010413333773612976 -0.02231540158390999 -0.02611234225332737 -0.06983137130737305 -0.07047959417104721 -0.06983710825443268 -0.01622130535542965 -0.07007230818271637 -0.0037653737235814333 -0.0710190013051033 -0.061321984976530075 -0.019776402041316032 -0.012537225149571896 -0.005590951070189476 
i25 -0.01272462960332632 -0.011113005690276623 -0.16234023869037628 -0.1772926300764084 -0.006146341562271118 -0.11018271744251251 -0.1499752253293991 -0.19238340854644775 -0.003442974528297782 -0.1707337349653244 -0.020661121234297752 -0.18008743226528168 -0.011455278843641281 -0.006538781337440014 -0.20533539354801178 -0.05097339674830437 -0.20545533299446106 -0.1423366367816925 -0.17375771701335907 -0.2048206329345703 -0.11647240817546844 -0.005961963906884193 -0.016586679965257645 -0.010233539156615734 -0.15752293169498444 -0.007815832272171974 -0.18665175139904022 -0.0021738100331276655 -0.09479337930679321 -0.13615165650844574 -0.1696576625108719 -0.18846559524536133 
u136 -0.07040831446647644 -0.06838005781173706 -0.014620172791182995 -0.010371668264269829 -0.07281828671693802 -0.03220784664154053 -0.018378103151917458 -0.0056767514906823635 -0.07063134014606476 -0.010929171927273273 -0.06878359615802765 -0.01281390618532896 -0.06990364193916321 -0.07047796994447708 -0.010960531421005726 -0.06913395971059799 -0.013816754333674908 -0.05483240261673927 -0.010515621863305569 -0.025362323969602585 -0.025964969769120216 -0.06981784105300903 -0.07056743651628494 -0.07002822309732437 -0.016544505953788757 -0.07017171382904053 -0.006706379819661379 -0.0710594579577446 -0.06254767626523972 -0.02045683190226555 -0.012647640891373158 -0.008859081193804741 
u157 -0.0691322386264801 -0.06340169161558151 -0.020717008039355278 -0.012376733124256134 -0.0676853358745575 -0.04391868785023689 -0.02409127727150917 -0.00814985390752554 -0.06785452365875244 -0.014161723665893078 -0.06938445568084717 -0.015521390363574028 -0.06990998238325119 -0.06851530820131302 -0.005750429350882769 -0.06517766416072845 -0.01057875994592905 -0.0432216115295887 -0.014632473699748516 -0.025238752365112305 -0.03355574235320091 -0.06655941903591156 -0.06734703481197357 -0.06669586896896362 -0.02171594463288784 -0.06827524304389954 -0.0028326634783297777 -0.06709189713001251 -0.056038714945316315 -0.03016449324786663 -0.0182217825204134 -0.012655612081289291 
u49 -0.06760650873184204 -0.06303489208221436 -0.02555154822766781 -0.01863798312842846 -0.0610000379383564 -0.047171980142593384 -0.032028064131736755 -0.017281487584114075 -0.0639021173119545 -0.022234559059143066 -0.06987394392490387 -0.012748125940561295 -0.06783998012542725 -0.06494294852018356 -0.0047889151610434055 -0.05668575316667557 -0.004094839561730623 -0.039912719279527664 -0.019683295860886574 -0.007874715141952038 -0.04670867696404457 -0.06286163628101349 -0.059986840933561325 -0.06176421791315079 -0.031199852004647255 -0.06561995297670364 -0.016074270009994507 -0.06336823105812073 -0.047734517604112625 -0.039445314556360245 -0.02334735542535782 -0.006279778201133013 
u103 -0.06812475621700287 -0.06509203463792801 -0.023101303726434708 -0.016916388645768166 -0.062340062111616135 -0.042551327496767044 -0.029029421508312225 -0.015508976764976978 -0.06512392312288284 -0.020518749952316284 -0.06957732141017914 -0.010530209168791771 -0.06821571290493011 -0.06592149287462234 -0.00586627097800374 -0.05854175612330437 -0.004897580482065678 -0.043739404529333115 -0.017849650233983994 -0.010003136470913887 -0.0421476736664772 -0.06454557180404663 -0.06148423254489899 -0.06350606679916382 -0.028766846284270287 -0.06654388457536697 -0.01830189675092697 -0.0647878646850586 -0.05071709305047989 -0.035733260214328766 -0.021221568807959557 -0.005213173571974039 
u94 -0.06810507923364639 -0.06529859453439713 -0.023113597184419632 -0.016932131722569466 -0.062303245067596436 -0.04255688935518265 -0.02906440943479538 -0.015454276464879513 -0.06511770933866501 -0.020520491525530815 -0.0695791244506836 -0.010473246686160564 -0.06823115050792694 -0.06593111157417297 -0.0058935172855854034 -0.058582935482263565 -0.00489813880994916 -0.043738316744565964 -0.01785738579928875 -0.00997011736035347 -0.04214899241924286 -0.0645294338464737 -0.06150197982788086 -0.06350769847631454 -0.028760556131601334 -0.06654469668865204 -0.018401596695184708 -0.06480203568935394 -0.050703566521406174 -0.03576130419969559 -0.021226536482572556 -0.005214331205934286 
i7 -0.017728645354509354 -0.006147241219878197 -0.15698537230491638 -0.16550123691558838 -0.007897594943642616 -0.11528941243886948 -0.1523461490869522 -0.18173961341381073 -0.004371436778455973 -0.1616889089345932 -0.028234805911779404 -0.16442760825157166 -0.015914974734187126 -0.009151825681328773 -0.17826607823371887 -0.03943094238638878 -0.1783020794391632 -0.11082375794649124 -0.16436509788036346 -0.16742588579654694 -0.13011513650417328 -0.003401215188205242 -0.012494794093072414 -0.00823382567614317 -0.15388250350952148 -0.010232952423393726 -0.16590067744255066 -0.0018178626196458936 -0.07771743088960648 -0.1420813798904419 -0.16146372258663177 -0.1777886152267456 
u58 -0.07103164494037628 -0.07290980964899063 -0.007948330603539944 -0.003933367785066366 -0.07507800310850143 -0.020056184381246567 -0.00871510710567236 -0.004009612370282412 -0.0742630586028099 -0.005174411926418543 -0.06830061972141266 -0.006010794546455145 -0.07172900438308716 -0.07346111536026001 -0.01406584307551384 -0.07568074017763138 -0.014887979254126549 -0.06491734087467194 -0.005335010588169098 -0.03563454747200012 -0.01140159834176302 -0.07507093250751495 -0.0760335698723793 -0.07521279156208038 -0.008485881611704826 -0.07318810373544693 -0.013043905608355999 -0.07433047890663147 -0.07170837372541428 -0.011103957891464233 -0.006954357959330082 -0.009922054596245289 
i5 -0.014798757620155811 -0.004961538128554821 -0.16197064518928528 -0.16573677957057953 -0.00990662258118391 -0.1287693977355957 -0.15321050584316254 -0.1611567586660385 -0.0020451084710657597 -0.17010168731212616 -0.023911278694868088 -0.16965356469154358 -0.01133247185498476 -0.00842953845858574 -0.19296324253082275 -0.03696771711111069 -0.1855323761701584 -0.10873586684465408 -0.16827815771102905 -0.17563748359680176 -0.1253555864095688 -0.0016342132585123181 -0.014144244603812695 -0.009377884678542614 -0.15441320836544037 -0.009436292573809624 -0.22533176839351654 -0.0018791655311360955 -0.09041823446750641 -0.13390383124351501 -0.1614144891500473 -0.18122482299804688 
u38 -0.07168544083833694 -0.07704397290945053 -0.0004731685621663928 -0.0004153469344601035 -0.07969114184379578 -0.0021720188669860363 -0.0004629008180927485 -0.010072520934045315 -0.07780223339796066 -0.0004161759279668331 -0.06795953959226608 -0.0011561212595552206 -0.07218842953443527 -0.075877346098423 -0.01925625465810299 -0.07977929711341858 -0.017980070784687996 -0.0779363363981247 -0.00014581315917894244 -0.03705983608961105 -0.0006019386346451938 -0.07948924601078033 -0.0809260830283165 -0.08013977110385895 -0.0005262174527160823 -0.07581615447998047 -0.02443009801208973 -0.07870645821094513 -0.0807875543832779 -0.0005411267629824579 -0.00044372325646691024 -0.009467802941799164 
i8 -0.017119906842708588 -0.006550926715135574 -0.15777742862701416 -0.16657385230064392 -0.007241951301693916 -0.11810468882322311 -0.15174196660518646 -0.17877063155174255 -0.004144705832004547 -0.1629055291414261 -0.027300918474793434 -0.16643431782722473 -0.015353609807789326 -0.0087327491492033 -0.18033958971500397 -0.04026510566473007 -0.1799810826778412 -0.11297420412302017 -0.165232852101326 -0.17074860632419586 -0.1290777027606964 -0.003878361079841852 -0.013174425810575485 -0.008377733640372753 -0.15436558425426483 -0.009969565086066723 -0.17007890343666077 -0.0018583369674161077 -0.07916378229856491 -0.14133085310459137 -0.16207003593444824 -0.17711976170539856 
u31 -0.0716710314154625 -0.07702215760946274 -0.00046415202086791396 -0.0004127605934627354 -0.07967084646224976 -0.0021605039946734905 -0.00045083212899044156 -0.010181127116084099 -0.07781121134757996 -0.0003962883783970028 -0.06795579940080643 -0.001194621087051928 -0.0721890851855278 -0.07588417828083038 -0.019242439419031143 -0.07977268099784851 -0.017966290935873985 -0.07795605063438416 -0.00015619742043782026 -0.037077393382787704 -0.0006067882641218603 -0.0794869139790535 -0.08092552423477173 -0.08013288676738739 -0.0005283310310915112 -0.07581683993339539 -0.024387583136558533 -0.07871940732002258 -0.08078202605247498 -0.0005259442841634154 -0.00045678167953155935 -0.009439918212592602 
u97 -0.06812345236539841 -0.06512226164340973 -0.023116862401366234 -0.016919946298003197 -0.06231283023953438 -0.04262152686715126 -0.029043050482869148 -0.015453505329787731 -0.06512331962585449 -0.02052920125424862 -0.0695868656039238 -0.010526022873818874 -0.06823094934225082 -0.06592753529548645 -0.0059041655622422695 -0.05856594070792198 -0.0049011618830263615 -0.04374362900853157 -0.01785338670015335 -0.009979762136936188 -0.04214442893862724 -0.06454271823167801 -0.061478856950998306 -0.06350743770599365 -0.028775475919246674 -0.06654553860425949 -0.018461335450410843 -0.06478800624608994 -0.05073045566678047 -0.035732608288526535 -0.021219512447714806 -0.005203853826969862 
u34 -0.07167953997850418 -0.07687559723854065 -0.000445728306658566 -0.00040747251478023827 -0.07967929542064667 -0.0021781118120998144 -0.00044704505125992 -0.010061819106340408 -0.07780691236257553 -0.00042807034333236516 -0.06796783953905106 -0.0012069949880242348 -0.07218935340642929 -0.07587893307209015 -0.019264213740825653 -0.07975202798843384 -0.017970111221075058 -0.07793398201465607 -0.00014564588491339236 -0.03708472475409508 -0.0005819492507725954 -0.0795050710439682 -0.08091975748538971 -0.08013465255498886 -0.000547504227142781 -0.07581660896539688 -0.024428315460681915 -0.07873322814702988 -0.08077835291624069 -0.000548641080968082 -0.00043683042167685926 -0.00953059084713459 
u73 -0.06844861060380936 -0.07218367606401443 -0.02166951820254326 -0.013470939360558987 -0.06555777043104172 -0.0410015843808651 -0.02396128885447979 -0.008762609213590622 -0.06743873655796051 -0.015192295424640179 -0.06946294009685516 -0.014364579692482948 -0.0687837302684784 -0.06824973225593567 -0.004325677175074816 -0.0653625950217247 -0.010393212549388409 -0.04326600953936577 -0.015413523651659489 -0.02235894650220871 -0.0349133163690567 -0.06579997390508652 -0.06605279445648193 -0.06591470539569855 -0.022006385028362274 -0.06817341595888138 -0.011048374697566032 -0.06585485488176346 -0.056435879319906235 -0.032524846494197845 -0.017935561016201973 -0.014312242157757282 
u101 -0.06809854507446289 -0.06517589837312698 -0.023132987320423126 -0.016917243599891663 -0.06225103512406349 -0.04260062426328659 -0.02906491979956627 -0.01537320762872696 -0.0651264637708664 -0.02055964432656765 -0.06958716362714767 -0.010518412105739117 -0.06823111325502396 -0.06593436747789383 -0.005896206945180893 -0.058550186455249786 -0.004859403241425753 -0.04373018816113472 -0.01785002090036869 -0.009983580559492111 -0.042144775390625 -0.06453897804021835 -0.06150272488594055 -0.06350971013307571 -0.028761273249983788 -0.0665493980050087 -0.018459588289260864 -0.06480854004621506 -0.05070994421839714 -0.0357198603451252 -0.02121429145336151 -0.005342313554137945 
u3 -0.07010773569345474 -0.06562784314155579 -0.014643468894064426 -0.011377057991921902 -0.06956769526004791 -0.025857897475361824 -0.01869739219546318 -0.009766231290996075 -0.06946845352649689 -0.013495526276528835 -0.06863029301166534 -0.008881587535142899 -0.06927281618118286 -0.07020933926105499 -0.010472037829458714 -0.06610041856765747 -0.009777690283954144 -0.05425342172384262 -0.011192592792212963 -0.022295808419585228 -0.027041688561439514 -0.0692819282412529 -0.06893513351678848 -0.0695645660161972 -0.017929503694176674 -0.06995745003223419 -0.012261233292520046 -0.06951219588518143 -0.06118080019950867 -0.02218981459736824 -0.011997846886515617 -0.0023631511721760035 
i30 -0.026620876044034958 -0.015497270971536636 -0.14834703505039215 -0.14551664888858795 -0.0025188634172081947 -0.148495152592659 -0.15189243853092194 -0.13991610705852509 -0.0065044742077589035 -0.145274817943573 -0.04131357744336128 -0.14592431485652924 -0.02416003867983818 -0.012805556878447533 -0.11701367050409317 -0.019953304901719093 -0.11859510838985443 -0.052265677601099014 -0.14538231492042542 -0.10192295163869858 -0.15618561208248138 -0.0022589308209717274 -0.005777860060334206 -0.003690374782308936 -0.1501874029636383 -0.014963756315410137 -0.10791712254285812 -0.001943332958035171 -0.03633735328912735 -0.15468928217887878 -0.1481706202030182 -0.1326788365840912 
u151 -0.07064922899007797 -0.07877665758132935 -0.007732877507805824 -0.0032209756318479776 -0.07383841276168823 -0.020025771111249924 -0.0072420090436935425 -0.006717444863170385 -0.07471805810928345 -0.004426839295774698 -0.06853681057691574 -0.00368395890109241 -0.07161170989274979 -0.07325095683336258 -0.013105213642120361 -0.07628725469112396 -0.015533385798335075 -0.06533586978912354 -0.004932003561407328 -0.03521798178553581 -0.0104092201218009 -0.07632911205291748 -0.07576467841863632 -0.07559762895107269 -0.008335326798260212 -0.07321742177009583 -0.021682903170585632 -0.07471149414777756 -0.07328878343105316 -0.01145720761269331 -0.007407114375382662 -0.016438163816928864 
u4 -0.07010309398174286 -0.065561942756176 -0.014639703556895256 -0.01137795764952898 -0.06955789774656296 -0.02579331398010254 -0.01869037002325058 -0.009936702437698841 -0.06947191059589386 -0.013498214073479176 -0.0686376616358757 -0.008854051120579243 -0.06927267462015152 -0.07021240890026093 -0.01052189152687788 -0.06607861816883087 -0.009777430444955826 -0.05427957698702812 -0.011203004978597164 -0.022301025688648224 -0.027043117210268974 -0.06927624344825745 -0.06892543286085129 -0.06956184655427933 -0.0179133377969265 -0.06995547562837601 -0.012189210392534733 -0.06949367374181747 -0.06118897348642349 -0.022170158103108406 -0.012003523297607899 -0.002277996391057968 
u152 -0.07064459472894669 -0.07861139625310898 -0.007750834804028273 -0.0032048230059444904 -0.07383441925048828 -0.020188864320516586 -0.007237202487885952 -0.006505406461656094 -0.07471220195293427 -0.0044594136998057365 -0.06855186820030212 -0.0036296602338552475 -0.07161218672990799 -0.07325386255979538 -0.013088272884488106 -0.07628840953111649 -0.015547089278697968 -0.06532084196805954 -0.004921584390103817 -0.03522859886288643 -0.010377964936196804 -0.07632631808519363 -0.0757545530796051 -0.07561293989419937 -0.008346976712346077 -0.07322142273187637 -0.02176612801849842 -0.07470843940973282 -0.07326539605855942 -0.011468209326267242 -0.007410435937345028 -0.01642085611820221 
u164 -0.0692354366183281 -0.06371083855628967 -0.02002830058336258 -0.012014585547149181 -0.06791792809963226 -0.04240919649600983 -0.023302191868424416 -0.008203084580600262 -0.06813845783472061 -0.013855147175490856 -0.06932785362005234 -0.014819595962762833 -0.06995663791894913 -0.06874792277812958 -0.006055606063455343 -0.06548389047384262 -0.010710264556109905 -0.044421784579753876 -0.01419067569077015 -0.025358490645885468 -0.0324162133038044 -0.06696342676877975 -0.06762490421533585 -0.06714232265949249 -0.02116575837135315 -0.0685073509812355 -0.0038807345554232597 -0.06746463477611542 -0.056796763092279434 -0.029203008860349655 -0.017647167667746544 -0.011997757479548454 
u20 -0.07018191367387772 -0.060602378100156784 -0.014431910589337349 -0.010764174163341522 -0.07274133712053299 -0.030583078041672707 -0.019315704703330994 -0.0105051901191473 -0.07064617425203323 -0.010857013054192066 -0.06902837008237839 -0.012715852819383144 -0.06992920488119125 -0.0703575611114502 -0.012260985560715199 -0.0686645656824112 -0.013762588612735271 -0.05493319034576416 -0.010411611758172512 -0.02234007604420185 -0.02610405720770359 -0.06984250247478485 -0.07047350704669952 -0.0698288306593895 -0.01620931550860405 -0.07007010281085968 -0.0036460808478295803 -0.07100390642881393 -0.06133830174803734 -0.01975293643772602 -0.012548981234431267 -0.0055599152110517025 
u165 -0.06922806054353714 -0.06380202621221542 -0.02002236433327198 -0.012015052139759064 -0.06794605404138565 -0.04236290603876114 -0.0233017448335886 -0.008140886202454567 -0.06813180446624756 -0.013850744813680649 -0.06932883709669113 -0.014798562042415142 -0.06994617730379105 -0.06874262541532516 -0.006025210022926331 -0.06546257436275482 -0.01066685188561678 -0.044400252401828766 -0.01418312732130289 -0.02539166994392872 -0.03241714835166931 -0.06694528460502625 -0.0676228329539299 -0.067144975066185 -0.0211502593010664 -0.06851095706224442 -0.0038568091113120317 -0.06745688617229462 -0.05678168684244156 -0.029216447845101357 -0.01762155070900917 -0.011976920068264008 
u23 -0.07018224149942398 -0.060635440051555634 -0.014449878595769405 -0.010776211507618427 -0.0727258026599884 -0.030590927228331566 -0.01929842308163643 -0.010444190353155136 -0.07064341008663177 -0.010851256549358368 -0.06902039051055908 -0.012729178182780743 -0.069928839802742 -0.07036345452070236 -0.012209352105855942 -0.06866466253995895 -0.01376925315707922 -0.054942529648542404 -0.010410524904727936 -0.022338859736919403 -0.02608976885676384 -0.06984645873308182 -0.07047619670629501 -0.06983262300491333 -0.016220474615693092 -0.07007212191820145 -0.00362065969966352 -0.07101920992136002 -0.06133870780467987 -0.01977592706680298 -0.01254937145859003 -0.0055823554284870625 
u84 -0.07091512531042099 -0.07353293895721436 -0.009701186791062355 -0.005388966761529446 -0.07376473397016525 -0.02375335432589054 -0.010547956451773643 -0.0038559953682124615 -0.07315310835838318 -0.006713946349918842 -0.06831760704517365 -0.00723526906222105 -0.07123278081417084 -0.07282624393701553 -0.011727403849363327 -0.07446686178445816 -0.014611249789595604 -0.060845594853162766 -0.0067741647362709045 -0.035260818898677826 -0.014718345366418362 -0.07387667149305344 -0.07448852062225342 -0.07388470321893692 -0.010676279664039612 -0.07237627357244492 -0.01217968761920929 -0.07326747477054596 -0.06957170367240906 -0.014394915662705898 -0.008443678729236126 -0.011494191363453865 
u159 -0.06923380494117737 -0.06371425837278366 -0.02002016268670559 -0.012018253095448017 -0.06795838475227356 -0.04237760975956917 -0.023292485624551773 -0.008184213191270828 -0.06813285499811172 -0.013846461661159992 -0.06932641565799713 -0.014794539660215378 -0.06995386630296707 -0.06874364614486694 -0.006013127043843269 -0.06550684571266174 -0.010701792314648628 -0.044406596571207047 -0.014184737578034401 -0.02538318745791912 -0.032408617436885834 -0.06695473939180374 -0.06761565059423447 -0.06714890897274017 -0.02114717662334442 -0.06851056218147278 -0.003917571157217026 -0.06746156513690948 -0.05679070204496384 -0.029207637533545494 -0.017639731988310814 -0.01198252197355032 
u166 -0.069241963326931 -0.06381601840257645 -0.02004111371934414 -0.012020714581012726 -0.0679139718413353 -0.04246203601360321 -0.02330179698765278 -0.008088173344731331 -0.0681409165263176 -0.013862960040569305 -0.06932111084461212 -0.014858188107609749 -0.06995420157909393 -0.068743035197258 -0.006023332942277193 -0.06547411531209946 -0.010678031481802464 -0.044394295662641525 -0.01418307889252901 -0.02533375471830368 -0.032431792467832565 -0.06696801632642746 -0.06762704998254776 -0.06714524328708649 -0.02116416208446026 -0.06851086020469666 -0.0039035400841385126 -0.06746768206357956 -0.05680623650550842 -0.02918398007750511 -0.01762264221906662 -0.012093319557607174 
i38 -0.030365590006113052 -0.0048401677049696445 -0.1436048299074173 -0.13341087102890015 -0.001110050710849464 -0.17093037068843842 -0.15301981568336487 -0.11640404164791107 -0.008119398728013039 -0.1358540803194046 -0.0485665388405323 -0.1207377016544342 -0.032358333468437195 -0.013250470161437988 -0.08655542135238647 -0.012250925414264202 -0.08541189879179001 -0.023260854184627533 -0.13474416732788086 -0.05384140461683273 -0.17222584784030914 -0.0031465094070881605 -0.005111408419907093 -0.0006110745598562062 -0.1494499146938324 -0.016627155244350433 -0.06954038143157959 -0.0020028073340654373 -0.0069517954252660275 -0.1656901240348816 -0.1384226381778717 -0.10972830653190613 
u104 -0.0681089535355568 -0.0650847852230072 -0.023127354681491852 -0.016920454800128937 -0.06231463700532913 -0.04260777682065964 -0.029028266668319702 -0.01539564598351717 -0.06511767953634262 -0.020535819232463837 -0.06958268582820892 -0.010534198023378849 -0.06822719424962997 -0.06593585759401321 -0.005848096217960119 -0.058560870587825775 -0.004875793121755123 -0.04376876726746559 -0.01784723997116089 -0.010067363269627094 -0.0421203188598156 -0.06453137844800949 -0.06148765981197357 -0.06351765245199203 -0.02879580669105053 -0.06655238568782806 -0.018472833558917046 -0.06481201201677322 -0.05067473649978638 -0.03573253005743027 -0.021211696788668633 -0.005306213162839413 
u37 -0.07167430222034454 -0.07696148008108139 -0.0004527484124992043 -0.00041596227674745023 -0.07969357073307037 -0.0020803131628781557 -0.00044104192056693137 -0.010194395668804646 -0.07780171930789948 -0.000403499259846285 -0.06795652210712433 -0.001170673524029553 -0.07218483090400696 -0.07588201016187668 -0.01922711730003357 -0.07976914197206497 -0.017972558736801147 -0.0779486894607544 -0.00014832906890660524 -0.03710586950182915 -0.0005813997122459114 -0.07949069142341614 -0.0809277817606926 -0.08013471215963364 -0.0005264313658699393 -0.07581674307584763 -0.024360407143831253 -0.07872653007507324 -0.08077321201562881 -0.0005578352138400078 -0.0004543067771010101 -0.009467887692153454 
u122 -0.07141842693090439 -0.07890734821557999 -0.0061618611216545105 -0.003927550744265318 -0.07463652640581131 -0.014726206660270691 -0.006782660260796547 -0.008456816896796227 -0.07448729127645493 -0.005231767892837524 -0.06811671704053879 -0.00193217268679291 -0.07125955820083618 -0.07371692359447479 -0.014323320239782333 -0.07454612851142883 -0.014537675306200981 -0.06759458035230637 -0.004437106195837259 -0.034146443009376526 -0.010153178125619888 -0.0760309174656868 -0.07595918327569962 -0.07635519653558731 -0.008251865394413471 -0.07352855801582336 -0.022961458191275597 -0.07532363384962082 -0.07379576563835144 -0.009188925847411156 -0.005318126175552607 -0.009813911281526089 
u133 -0.070416159927845 -0.06817717105150223 -0.014607381075620651 -0.01035669818520546 -0.07286316156387329 -0.032200731337070465 -0.018364358693361282 -0.005660975817590952 -0.0706297755241394 -0.010929643176496029 -0.0687895342707634 -0.012842269614338875 -0.06990109384059906 -0.0704769641160965 -0.010961983352899551 -0.06913283467292786 -0.01382837351411581 -0.05487718805670738 -0.010510659776628017 -0.025453941896557808 -0.02594434842467308 -0.06981770694255829 -0.0705554410815239 -0.07003312557935715 -0.016576649621129036 -0.07017330080270767 -0.0067629506811499596 -0.07105974107980728 -0.06251578032970428 -0.020444674417376518 -0.01264380943030119 -0.008879603818058968 
i39 -0.02475840039551258 -0.021150274202227592 -0.14985854923725128 -0.14563918113708496 -0.0014400205109268427 -0.16314469277858734 -0.14887231588363647 -0.13137558102607727 -0.00610329071059823 -0.14803199470043182 -0.039610713720321655 -0.15494199097156525 -0.024108650162816048 -0.011027771048247814 -0.11243627220392227 -0.019227372482419014 -0.11699945479631424 -0.053744103759527206 -0.14609085023403168 -0.1010432168841362 -0.1526103913784027 -0.004177928902208805 -0.008139028213918209 -0.0029986088629812002 -0.15043647587299347 -0.014685849659144878 -0.11204411089420319 -0.0028337789699435234 -0.03704294562339783 -0.155693918466568 -0.1487933248281479 -0.12544618546962738 
u71 -0.06844817101955414 -0.0724324882030487 -0.02167569100856781 -0.013504201546311378 -0.06555784493684769 -0.04105294868350029 -0.023968592286109924 -0.008709958754479885 -0.067433662712574 -0.015186347998678684 -0.06945470720529556 -0.01437882985919714 -0.06879677623510361 -0.0682511106133461 -0.00433282321318984 -0.06540492922067642 -0.010392176918685436 -0.04323557764291763 -0.01542037446051836 -0.022319190204143524 -0.03494061529636383 -0.06579507887363434 -0.066053606569767 -0.06592228263616562 -0.022023633122444153 -0.06817487627267838 -0.01113392785191536 -0.06587697565555573 -0.05642135441303253 -0.0325283445417881 -0.01790490560233593 -0.014414078556001186 
u63 -0.07100588083267212 -0.0729808360338211 -0.007949708960950375 -0.003932511899620295 -0.07505715638399124 -0.020032625645399094 -0.008713598363101482 -0.004027280956506729 -0.07425808906555176 -0.005173268727958202 -0.06829743087291718 -0.006023359019309282 -0.0717284232378006 -0.07346244156360626 -0.013997026719152927 -0.07571718096733093 -0.014842042699456215 -0.06481114774942398 -0.005326814483851194 -0.03565597906708717 -0.011414993554353714 -0.07506057620048523 -0.07603447139263153 -0.07521533221006393 -0.008462204597890377 -0.07319363206624985 -0.013146414421498775 -0.07436173409223557 -0.07170090824365616 -0.011112537235021591 -0.006945163477212191 -0.010026747360825539 
u12 -0.07010719180107117 -0.06575437635183334 -0.014649957418441772 -0.01139015331864357 -0.06957507878541946 -0.025823689997196198 -0.018690619617700577 -0.009858965873718262 -0.06946859508752823 -0.013471025973558426 -0.06861843168735504 -0.008865198120474815 -0.06926744431257248 -0.07020667940378189 -0.01044490933418274 -0.06611388921737671 -0.009782209992408752 -0.054233621805906296 -0.01119726151227951 -0.022272128611803055 -0.027066539973020554 -0.06927379220724106 -0.0689282938838005 -0.06956590712070465 -0.017904305830597878 -0.06995563209056854 -0.012180494144558907 -0.06950247287750244 -0.06118987873196602 -0.022189173847436905 -0.012001906521618366 -0.0023104511201381683 
u81 -0.07092806696891785 -0.07343684136867523 -0.009709334932267666 -0.005392005201429129 -0.07377289980649948 -0.023699652403593063 -0.010547811165452003 -0.004011083394289017 -0.07315211743116379 -0.006719512399286032 -0.06832143664360046 -0.007298497017472982 -0.07124724239110947 -0.07283224165439606 -0.011794847436249256 -0.07449774444103241 -0.014622962102293968 -0.06089478358626366 -0.006778959650546312 -0.03534089773893356 -0.014722604304552078 -0.07387703657150269 -0.07447876781225204 -0.07388659566640854 -0.010718576610088348 -0.07237696647644043 -0.012360022403299809 -0.07327408343553543 -0.06955644488334656 -0.014352856203913689 -0.008434603922069073 -0.011607656255364418 
u91 -0.07093671709299088 -0.07355432957410812 -0.009712416678667068 -0.005399244837462902 -0.073760986328125 -0.023750875145196915 -0.010539300739765167 -0.003933476749807596 -0.0731576532125473 -0.006710576359182596 -0.06830652058124542 -0.007295315153896809 -0.07123228162527084 -0.0728209838271141 -0.011736343614757061 -0.07447566092014313 -0.014637633226811886 -0.06081999093294144 -0.00677613727748394 -0.035225313156843185 -0.014752581715583801 -0.07389585673809052 -0.07448261231184006 -0.07388423383235931 -0.01068897359073162 -0.07237186282873154 -0.012144581414759159 -0.07326852530241013 -0.0695987418293953 -0.014371257275342941 -0.008436069823801517 -0.01157910656183958 
u125 -0.07142582535743713 -0.07897762954235077 -0.00615376653149724 -0.003936184570193291 -0.07464419305324554 -0.014764740131795406 -0.006795707158744335 -0.008382109925150871 -0.07448795437812805 -0.005237594712525606 -0.06811419874429703 -0.0019365291809663177 -0.07126779854297638 -0.07371606677770615 -0.014344627037644386 -0.07455681264400482 -0.01454986073076725 -0.06762298196554184 -0.004438583739101887 -0.03411067649722099 -0.010146322660148144 -0.07603857666254044 -0.07597411423921585 -0.07635441422462463 -0.00826320145279169 -0.07352836430072784 -0.022993167862296104 -0.07532621175050735 -0.07379455119371414 -0.00918832328170538 -0.0053142402321100235 -0.009855908341705799 
u141 -0.07041898369789124 -0.06835111230611801 -0.014617069624364376 -0.010376441292464733 -0.07285602390766144 -0.03218458220362663 -0.018378935754299164 -0.00568449916318059 -0.07062461972236633 -0.01092551089823246 -0.06878621876239777 -0.012835538014769554 -0.06991153955459595 -0.07047873735427856 -0.010991666465997696 -0.06916693598031998 -0.01384358573704958 -0.05486568808555603 -0.010516918264329433 -0.025415902957320213 -0.025960354134440422 -0.06981303542852402 -0.07056213915348053 -0.07003410160541534 -0.016579417511820793 -0.07017210870981216 -0.006828079465776682 -0.07105884701013565 -0.0625278651714325 -0.02045394666492939 -0.012632433325052261 -0.008896158076822758 
u189 -0.06813175976276398 -0.06741122901439667 -0.023745276033878326 -0.017229346558451653 -0.06165481358766556 -0.04425368830561638 -0.02964235469698906 -0.012247974053025246 -0.06478779017925262 -0.021062413230538368 -0.06942436844110489 -0.00977171491831541 -0.06830728054046631 -0.06566789001226425 -0.004824642091989517 -0.05833088606595993 -0.004616821184754372 -0.04278859868645668 -0.018326956778764725 -0.009829363785684109 -0.04311433434486389 -0.06430542469024658 -0.06065477430820465 -0.06329815834760666 -0.029773110523819923 -0.06627882272005081 -0.02077159844338894 -0.06469840556383133 -0.050008624792099 -0.036619462072849274 -0.022125259041786194 -0.005081835202872753 
u11 -0.07008238881826401 -0.06569773703813553 -0.014646072871983051 -0.011377817951142788 -0.06954613327980042 -0.02587856538593769 -0.018687831237912178 -0.009816470555961132 -0.06946931034326553 -0.013477886095643044 -0.06862713396549225 -0.008855697698891163 -0.06926986575126648 -0.07021626830101013 -0.010429023765027523 -0.06610307842493057 -0.00975991040468216 -0.05423812195658684 -0.01119870413094759 -0.022294629365205765 -0.027040725573897362 -0.06926372647285461 -0.06893573701381683 -0.06956484168767929 -0.017907235771417618 -0.06996019184589386 -0.01221393421292305 -0.06951381266117096 -0.06116943806409836 -0.022199906408786774 -0.012010568752884865 -0.0022760219871997833 
i27 -0.012451719492673874 -0.018466226756572723 -0.16384416818618774 -0.17897151410579681 -0.007040905300527811 -0.1142587810754776 -0.14703787863254547 -0.18473242223262787 -0.0025329533964395523 -0.1740562468767166 -0.018231188878417015 -0.19630968570709229 -0.007977929897606373 -0.0065744915045797825 -0.201124906539917 -0.04597444459795952 -0.20674210786819458 -0.1429361253976822 -0.17500045895576477 -0.21973860263824463 -0.11253992468118668 -0.006452296860516071 -0.015490535646677017 -0.010544340126216412 -0.1572425365447998 -0.008137215860188007 -0.19855190813541412 -0.00105245690792799 -0.10133325308561325 -0.13256672024726868 -0.17255617678165436 -0.18359461426734924 
u131 -0.07040965557098389 -0.0684552788734436 -0.014648253098130226 -0.010386276990175247 -0.07277140021324158 -0.03228439763188362 -0.01840989664196968 -0.005505390465259552 -0.07063394039869308 -0.01096601877361536 -0.06878773868083954 -0.012801998294889927 -0.06992734968662262 -0.0704888179898262 -0.011017443612217903 -0.06916379183530807 -0.013840886764228344 -0.0549049973487854 -0.01052104402333498 -0.025308601558208466 -0.025944843888282776 -0.06982484459877014 -0.07059267163276672 -0.07003556936979294 -0.01656077243387699 -0.0701746866106987 -0.00686147715896368 -0.07106037437915802 -0.06255188584327698 -0.020435892045497894 -0.012643896043300629 -0.008960548788309097 
u156 -0.07064751535654068 -0.07851141691207886 -0.007750910706818104 -0.003188516478985548 -0.07384694367647171 -0.02017187513411045 -0.00721686240285635 -0.006597154773771763 -0.07471828162670135 -0.0044341301545500755 -0.06854571402072906 -0.0036150424275547266 -0.07159639149904251 -0.07324818521738052 -0.01303004939109087 -0.07627774775028229 -0.015558009035885334 -0.0652988851070404 -0.004919556435197592 -0.03521808981895447 -0.010386592708528042 -0.07632900029420853 -0.0757409855723381 -0.07560866326093674 -0.008312152698636055 -0.07321850210428238 -0.021628115326166153 -0.07468797266483307 -0.07329566031694412 -0.011465106159448624 -0.007441795896738768 -0.016278395429253578 
u135 -0.07042082399129868 -0.0683823823928833 -0.014624328352510929 -0.01037713885307312 -0.07284098118543625 -0.03218689560890198 -0.018397236242890358 -0.005657499190419912 -0.07062686234712601 -0.010937134735286236 -0.06878756731748581 -0.012820840813219547 -0.06991695612668991 -0.07048047333955765 -0.011020324192941189 -0.06916480511426926 -0.013838614337146282 -0.05489656329154968 -0.010517343878746033 -0.025400713086128235 -0.025956712663173676 -0.06981434673070908 -0.07057196646928787 -0.0700325220823288 -0.016575101763010025 -0.07017213851213455 -0.006856266409158707 -0.07105503976345062 -0.06252994388341904 -0.02044256031513214 -0.012638577260077 -0.00891740433871746 
u155 -0.07064731419086456 -0.07849454879760742 -0.007734320592135191 -0.003193727694451809 -0.07384824752807617 -0.02012662962079048 -0.00721132755279541 -0.00662276754155755 -0.07471634447574615 -0.004444560501724482 -0.06855443865060806 -0.0036536604166030884 -0.07159747928380966 -0.07324972003698349 -0.01308410707861185 -0.07623766362667084 -0.01553887315094471 -0.06532088667154312 -0.004923619329929352 -0.03525645285844803 -0.010380355641245842 -0.07632793486118317 -0.07573836296796799 -0.07560524344444275 -0.008343000896275043 -0.07321871817111969 -0.021619366481900215 -0.07469461858272552 -0.07327812165021896 -0.011470082215964794 -0.007409404963254929 -0.016320839524269104 
i18 -0.02024751715362072 -0.01181944552809 -0.1528254598379135 -0.1551799774169922 -0.004107199609279633 -0.12645940482616425 -0.15175728499889374 -0.17247457802295685 -0.00575982965528965 -0.1526613086462021 -0.03525727242231369 -0.1553226113319397 -0.02023887448012829 -0.010686240158975124 -0.15241758525371552 -0.032898373901844025 -0.15159817039966583 -0.08077450096607208 -0.1553167998790741 -0.13608184456825256 -0.141422837972641 -0.00247388263233006 -0.008406000211834908 -0.006146990228444338 -0.15277954936027527 -0.012841246090829372 -0.13703258335590363 -0.0031215150374919176 -0.058654047548770905 -0.14906327426433563 -0.1555749624967575 -0.15887725353240967 
u162 -0.06923985481262207 -0.06391553580760956 -0.020006155595183372 -0.012033809907734394 -0.0679665207862854 -0.04238215461373329 -0.02331804856657982 -0.00813507754355669 -0.06813372671604156 -0.013832942582666874 -0.06931682676076889 -0.01477242261171341 -0.0699555054306984 -0.0687376856803894 -0.006037462502717972 -0.06551533937454224 -0.010724330320954323 -0.044405248016119 -0.014191330410540104 -0.025307346135377884 -0.0324319563806057 -0.06695998460054398 -0.06763171404600143 -0.06714407354593277 -0.02114398218691349 -0.06850457191467285 -0.003827581414952874 -0.06746354699134827 -0.05679311230778694 -0.02922893688082695 -0.0176408551633358 -0.011972005479037762 
u76 -0.06844083219766617 -0.07215800136327744 -0.021666565909981728 -0.013469818979501724 -0.0655474066734314 -0.041077014058828354 -0.023946847766637802 -0.008775505237281322 -0.0674363449215889 -0.015184663236141205 -0.0694708302617073 -0.014354180544614792 -0.06878931820392609 -0.06825503706932068 -0.004315592348575592 -0.06536611169576645 -0.010385844856500626 -0.043246157467365265 -0.015416248701512814 -0.022348610684275627 -0.03489730879664421 -0.06579529494047165 -0.06603968143463135 -0.06591204553842545 -0.02200820855796337 -0.06817544251680374 -0.011107411235570908 -0.0658605769276619 -0.05644368380308151 -0.032548580318689346 -0.017944326624274254 -0.014218054711818695 
u74 -0.0684628039598465 -0.07230988144874573 -0.021680334582924843 -0.013484962284564972 -0.06556303054094315 -0.04097959026694298 -0.023971838876605034 -0.008728479966521263 -0.06743286550045013 -0.01518858503550291 -0.06946428120136261 -0.014359796419739723 -0.06879084557294846 -0.06824733316898346 -0.004348256625235081 -0.06537692993879318 -0.010396521538496017 -0.043263260275125504 -0.015412463806569576 -0.02232702448964119 -0.034916628152132034 -0.0657990574836731 -0.0660480484366417 -0.06591283529996872 -0.0220041461288929 -0.06817279011011124 -0.011135916225612164 -0.06584395468235016 -0.05646824464201927 -0.03254477307200432 -0.01792176440358162 -0.014285477809607983 
i22 -0.0316045843064785 -0.010312424041330814 -0.14373095333576202 -0.13094326853752136 -0.0016992151504382491 -0.1686168760061264 -0.15362706780433655 -0.11296848207712173 -0.0075731161050498486 -0.13543538749217987 -0.05002056062221527 -0.12280558049678802 -0.03084980510175228 -0.015027531422674656 -0.08230098336935043 -0.007765923626720905 -0.08149082958698273 -0.012953760102391243 -0.1334502100944519 -0.05000460892915726 -0.17369049787521362 -0.0010815931018441916 -0.002731905085965991 -0.000747425074223429 -0.14782734215259552 -0.017567357048392296 -0.08353033661842346 -0.0018318594666197896 -0.010433894582092762 -0.1633206158876419 -0.13735902309417725 -0.10997005552053452 
u46 -0.06760366261005402 -0.06312725692987442 -0.025537215173244476 -0.018636541441082954 -0.06100652366876602 -0.04711328446865082 -0.03203614801168442 -0.017407484352588654 -0.06390202045440674 -0.022215288132429123 -0.0698651373386383 -0.01276804506778717 -0.06783445179462433 -0.06493987888097763 -0.004792987834662199 -0.05668618157505989 -0.004090955480933189 -0.03988628834486008 -0.019686494022607803 -0.007877392694354057 -0.04673416167497635 -0.0628584772348404 -0.05999954417347908 -0.06175547093153 -0.03120046854019165 -0.06561630219221115 -0.016000760719180107 -0.06337324529886246 -0.047727808356285095 -0.03944974020123482 -0.02335185557603836 -0.006288369186222553 
u13 -0.07009819149971008 -0.06576438248157501 -0.014624860137701035 -0.011378558352589607 -0.06960927695035934 -0.025799574330449104 -0.018706724047660828 -0.009932907298207283 -0.06946206092834473 -0.013465058989822865 -0.068631112575531 -0.008862081915140152 -0.06927073746919632 -0.07020825147628784 -0.010513877496123314 -0.06610693782567978 -0.009760230779647827 -0.05427323654294014 -0.011200460605323315 -0.022355113178491592 -0.027057336643338203 -0.06924683600664139 -0.06892882287502289 -0.06956161558628082 -0.01792740263044834 -0.06995708495378494 -0.012280524708330631 -0.06948982179164886 -0.06114473566412926 -0.02219134196639061 -0.011989325284957886 -0.00225689634680748 
u29 -0.07168159633874893 -0.07686398923397064 -0.00046034358092583716 -0.0004108184075448662 -0.07968015223741531 -0.0021715282928198576 -0.0004338943399488926 -0.01012268103659153 -0.07780744880437851 -0.00043001596350222826 -0.06796085834503174 -0.0011859211372211576 -0.07218541949987411 -0.07588064670562744 -0.019237302243709564 -0.07974991202354431 -0.017973871901631355 -0.07794932276010513 -0.0001450953132007271 -0.037080373615026474 -0.0005769073031842709 -0.07950414717197418 -0.08092458546161652 -0.08013911545276642 -0.0005322562647052109 -0.07581795752048492 -0.02436070889234543 -0.07872127741575241 -0.08078062534332275 -0.0005289961700327694 -0.00044814118882641196 -0.009519584476947784 
u53 -0.07101064175367355 -0.07300730049610138 -0.007915031164884567 -0.003945693839341402 -0.07506556808948517 -0.019943373277783394 -0.008698554709553719 -0.004158152267336845 -0.07427091151475906 -0.0051563396118581295 -0.06828232109546661 -0.006073084659874439 -0.07172169536352158 -0.07345754653215408 -0.013996013440191746 -0.07568198442459106 -0.014840776100754738 -0.06484458595514297 -0.005337045527994633 -0.03562328964471817 -0.011427824385464191 -0.07508023083209991 -0.076044961810112 -0.0752042904496193 -0.008454429917037487 -0.07318934053182602 -0.012923894450068474 -0.07437081634998322 -0.07170859724283218 -0.01109255850315094 -0.006945283152163029 -0.01006315927952528 
u57 -0.07101421058177948 -0.07305464893579483 -0.007945433259010315 -0.003942078445106745 -0.0750432014465332 -0.02000279352068901 -0.008707845583558083 -0.004128711763769388 -0.07427120208740234 -0.005165125243365765 -0.06828264147043228 -0.006112260278314352 -0.07172620296478271 -0.07346441596746445 -0.014014731161296368 -0.07566715031862259 -0.014807216823101044 -0.06487861275672913 -0.005334836430847645 -0.03566792234778404 -0.011433622799813747 -0.07507121562957764 -0.07604890316724777 -0.07520516216754913 -0.008486774750053883 -0.07319322973489761 -0.013023444451391697 -0.07437483221292496 -0.07168622314929962 -0.011065040715038776 -0.006938097067177296 -0.010136784985661507 
i35 -0.03337297588586807 -0.01641685515642166 -0.14345237612724304 -0.13404230773448944 -0.0019656328950077295 -0.16856420040130615 -0.15310367941856384 -0.11015981435775757 -0.007221756037324667 -0.1361721009016037 -0.04842190816998482 -0.13023889064788818 -0.028963200747966766 -0.01588587276637554 -0.08084116131067276 -0.005966197233647108 -0.08492984622716904 -0.02069004252552986 -0.13445457816123962 -0.06003915145993233 -0.17148542404174805 -0.0012556080473586917 -0.0021433576475828886 -0.0016491039423272014 -0.14648188650608063 -0.017519114539027214 -0.08392949402332306 -0.00014611109509132802 -0.013821066357195377 -0.16177122294902802 -0.13933837413787842 -0.11116614937782288 
u128 -0.07142443209886551 -0.07876238226890564 -0.006139162462204695 -0.003923647105693817 -0.07465939968824387 -0.014701511710882187 -0.0067637767642736435 -0.008480239659547806 -0.07449525594711304 -0.005233703646808863 -0.06811439990997314 -0.0019347905181348324 -0.07125578820705414 -0.0737127810716629 -0.014300941489636898 -0.07453324645757675 -0.014547038823366165 -0.06763152778148651 -0.004436025861650705 -0.034135594964027405 -0.010130083188414574 -0.0760471373796463 -0.07595881074666977 -0.07635349780321121 -0.008232378400862217 -0.07352878898382187 -0.02287796512246132 -0.0753161832690239 -0.07381030172109604 -0.009169126860797405 -0.00533039215952158 -0.00979683455079794 
u47 -0.06760463863611221 -0.06307538598775864 -0.025543302297592163 -0.018629517406225204 -0.06102639436721802 -0.04715441167354584 -0.03202276676893234 -0.01727859303355217 -0.0638979896903038 -0.022236265242099762 -0.06987360119819641 -0.012766306288540363 -0.06782844662666321 -0.06494006514549255 -0.004776237532496452 -0.05663842335343361 -0.004043931141495705 -0.03992154076695442 -0.019675560295581818 -0.007930857129395008 -0.04670252278447151 -0.06284784525632858 -0.05999751016497612 -0.0617617592215538 -0.03120999224483967 -0.06562398374080658 -0.016027022153139114 -0.06336002051830292 -0.0477057620882988 -0.03943927586078644 -0.023325856775045395 -0.006295492872595787 
u184 -0.0681375190615654 -0.0673331692814827 -0.023752784356474876 -0.017224933952093124 -0.06167561188340187 -0.04424651339650154 -0.029634613543748856 -0.012195681221783161 -0.06478923559188843 -0.021081319078803062 -0.0694204792380333 -0.009745477698743343 -0.06829117983579636 -0.06566180288791656 -0.004814999643713236 -0.05829182639718056 -0.004628840368241072 -0.04280318319797516 -0.01832166127860546 -0.009834901429712772 -0.043100375682115555 -0.0643153265118599 -0.06066146492958069 -0.06330180168151855 -0.029774785041809082 -0.06627797335386276 -0.020687637850642204 -0.0646815150976181 -0.04999736696481705 -0.03662421926856041 -0.022129574790596962 -0.005117436870932579 
i32 -0.028854280710220337 -0.015339262783527374 -0.14624929428100586 -0.13902278244495392 -0.0010306346230208874 -0.1676761507987976 -0.15126974880695343 -0.1180216372013092 -0.0068802316673099995 -0.14133401215076447 -0.044450897723436356 -0.13838981091976166 -0.027148857712745667 -0.013244290836155415 -0.09747462719678879 -0.013103047385811806 -0.09896241873502731 -0.034301772713661194 -0.13958556950092316 -0.07864617556333542 -0.16414563357830048 -0.002789432881399989 -0.005106145516037941 -0.0021961121819913387 -0.14923280477523804 -0.016127556562423706 -0.09495225548744202 -0.0017485349671915174 -0.022152507677674294 -0.1590835005044937 -0.14320851862430573 -0.11625723540782928 
u188 -0.06813608855009079 -0.06748414784669876 -0.02376352623105049 -0.017229044809937477 -0.0616670586168766 -0.04430074244737625 -0.029643988236784935 -0.012089287862181664 -0.06478828191757202 -0.02107446826994419 -0.06941863894462585 -0.009745411574840546 -0.06829070299863815 -0.06565888226032257 -0.00479255523532629 -0.05829640105366707 -0.00460759038105607 -0.042764078825712204 -0.01831897720694542 -0.009801037609577179 -0.04312576353549957 -0.06430575251579285 -0.06065802648663521 -0.06330496072769165 -0.0297629963606596 -0.06627927720546722 -0.0206861924380064 -0.06467904895544052 -0.05000673606991768 -0.03662252798676491 -0.022111115977168083 -0.005098820198327303 
u132 -0.07040652632713318 -0.06843826174736023 -0.014614476822316647 -0.010379085317254066 -0.07281706482172012 -0.03211928904056549 -0.018408440053462982 -0.005696224980056286 -0.07062312960624695 -0.010937786661088467 -0.06879174709320068 -0.012778942473232746 -0.06991685181856155 -0.07048119604587555 -0.011028015986084938 -0.06916601955890656 -0.013837297447025776 -0.05485523119568825 -0.010519294999539852 -0.02536635473370552 -0.02595374546945095 -0.06981160491704941 -0.07057952880859375 -0.07002628594636917 -0.016547612845897675 -0.0701698437333107 -0.006820261478424072 -0.0710580125451088 -0.06254799664020538 -0.020480835810303688 -0.012645013630390167 -0.00886556413024664 
u75 -0.06843917816877365 -0.07214060425758362 -0.021664200350642204 -0.013463814742863178 -0.0655820220708847 -0.041063833981752396 -0.02394738793373108 -0.00874557625502348 -0.06743153184652328 -0.0151797691360116 -0.06946990638971329 -0.014332791790366173 -0.0687788873910904 -0.06825142353773117 -0.004313127603381872 -0.06536567956209183 -0.010408852249383926 -0.043246790766716 -0.015415962785482407 -0.022389516234397888 -0.034908492118120193 -0.06578294187784195 -0.06603988260030746 -0.06592097133398056 -0.0220212172716856 -0.06817373633384705 -0.011034118942916393 -0.06584863364696503 -0.05640866979956627 -0.032550401985645294 -0.017934095114469528 -0.014196785166859627 
i3 -0.01501551829278469 -0.004013371653854847 -0.16188021004199982 -0.16814959049224854 -0.010720759630203247 -0.12088194489479065 -0.15304675698280334 -0.16949687898159027 -0.0023224151227623224 -0.16996417939662933 -0.023145409300923347 -0.17203015089035034 -0.01146392896771431 -0.008209067396819592 -0.19380220770835876 -0.0388367734849453 -0.19030342996120453 -0.11756834387779236 -0.16943761706352234 -0.18207335472106934 -0.12339913845062256 -0.0025753043591976166 -0.014395477250218391 -0.009495525620877743 -0.15483027696609497 -0.00908238161355257 -0.21603688597679138 -0.001069073099642992 -0.09170496463775635 -0.13471318781375885 -0.1635810285806656 -0.18525195121765137 
u8 -0.07008064538240433 -0.06569050252437592 -0.01463405042886734 -0.011375467292964458 -0.06956463307142258 -0.025871245190501213 -0.0187027920037508 -0.009790021926164627 -0.06946882605552673 -0.013489599339663982 -0.06863376498222351 -0.008815268985927105 -0.06926768273115158 -0.07020770758390427 -0.010462827980518341 -0.0661168023943901 -0.0097762830555439 -0.054198481142520905 -0.011199199594557285 -0.022269969806075096 -0.027062200009822845 -0.06926127523183823 -0.06892910599708557 -0.06957089155912399 -0.01788852922618389 -0.06995728611946106 -0.012201937846839428 -0.06949891149997711 -0.0611702986061573 -0.022189777344465256 -0.011997086927294731 -0.0022689292673021555 
i33 -0.02837446890771389 -0.018963545560836792 -0.14742007851600647 -0.1416628658771515 -0.0019888486713171005 -0.16380183398723602 -0.15089556574821472 -0.12338720262050629 -0.006448897998780012 -0.14357376098632812 -0.04278881102800369 -0.14501291513442993 -0.02569933794438839 -0.01313425600528717 -0.10140079259872437 -0.014124530367553234 -0.10584772378206253 -0.042341649532318115 -0.1418873816728592 -0.08657717704772949 -0.15975889563560486 -0.0028746472671628 -0.005698319524526596 -0.0027195976581424475 -0.14874784648418427 -0.015717029571533203 -0.10291767865419388 -0.0014516274677589536 -0.028893617913126945 -0.1576024293899536 -0.145316481590271 -0.12149931490421295 
u146 -0.07063039392232895 -0.07854212075471878 -0.007734895683825016 -0.0032085918355733156 -0.07383982092142105 -0.020043237134814262 -0.0072068641893565655 -0.00677856570109725 -0.07472191751003265 -0.004417833406478167 -0.06854057312011719 -0.0036422049161046743 -0.07160568237304688 -0.073259636759758 -0.013052573427557945 -0.07629142701625824 -0.015557441860437393 -0.06536538153886795 -0.004937955178320408 -0.03526497259736061 -0.010383007116615772 -0.07632078230381012 -0.07574760168790817 -0.07560721784830093 -0.008321840316057205 -0.07321975380182266 -0.021603651344776154 -0.0747065544128418 -0.07326938956975937 -0.011447282508015633 -0.0074373455718159676 -0.016313547268509865 
u148 -0.07063388079404831 -0.07841482013463974 -0.007749478332698345 -0.0031855935230851173 -0.073814257979393 -0.020192116498947144 -0.00719079002737999 -0.006615303922444582 -0.07472120225429535 -0.004441240802407265 -0.06855177134275436 -0.003652367740869522 -0.0715988352894783 -0.07326005399227142 -0.013017447665333748 -0.07624170929193497 -0.015537134371697903 -0.06533501297235489 -0.004923940170556307 -0.03524636849761009 -0.01035116147249937 -0.07632960379123688 -0.0757448747754097 -0.07560503482818604 -0.008330760523676872 -0.07322335243225098 -0.021617528051137924 -0.07469923794269562 -0.07329073548316956 -0.011468851007521152 -0.007439939770847559 -0.016263937577605247 
i40 -0.029477320611476898 -0.020367331802845 -0.14510196447372437 -0.13478922843933105 -5.777917249361053e-05 -0.17394986748695374 -0.14989183843135834 -0.11552847176790237 -0.007302472833544016 -0.1389307975769043 -0.04710561782121658 -0.13933813571929932 -0.029022760689258575 -0.013332679867744446 -0.0836624801158905 -0.00969597790390253 -0.08755293488502502 -0.022997437044978142 -0.13629503548145294 -0.06443654000759125 -0.16690097749233246 -0.002953606192022562 -0.004476668778806925 -0.0008231700048781931 -0.1483333259820938 -0.0170438289642334 -0.08313844352960587 -0.002736999886110425 -0.016247501596808434 -0.1623477041721344 -0.1410525143146515 -0.10715583711862564 
u60 -0.07102696597576141 -0.07295271009206772 -0.007939791306853294 -0.003938944078981876 -0.07505614310503006 -0.020046360790729523 -0.008683083578944206 -0.004074243828654289 -0.07426505535840988 -0.0051750740967690945 -0.06829001009464264 -0.006070341914892197 -0.07171834260225296 -0.07345699518918991 -0.013988815248012543 -0.07564664632081985 -0.014833604916930199 -0.06482604146003723 -0.0053261383436620235 -0.035605717450380325 -0.011407890357077122 -0.0750856101512909 -0.0760357677936554 -0.07520532608032227 -0.008466746658086777 -0.07319114357233047 -0.01294974610209465 -0.07435532659292221 -0.0717320665717125 -0.011110126040875912 -0.0069407024420797825 -0.010018780827522278 
u2 -0.07010260969400406 -0.06549569964408875 -0.014640821143984795 -0.011369251646101475 -0.06957373768091202 -0.02585957571864128 -0.018683191388845444 -0.00982998963445425 -0.06946992874145508 -0.013487954623997211 -0.06863537430763245 -0.008848539553582668 -0.06926845014095306 -0.07021088898181915 -0.010472346097230911 -0.06610047817230225 -0.009804611094295979 -0.054261140525341034 -0.011197889223694801 -0.022311385720968246 -0.02703741565346718 -0.06927763670682907 -0.0689181312918663 -0.06956809759140015 -0.01792174205183983 -0.06995527446269989 -0.012200867757201195 -0.06950085610151291 -0.061176735907793045 -0.022191161289811134 -0.012014726176857948 -0.002255671890452504 
i11 -0.024529270827770233 -0.008121785707771778 -0.15177614986896515 -0.14396733045578003 -0.005541563034057617 -0.1555902510881424 -0.15347981452941895 -0.127662792801857 -0.004883004352450371 -0.15068067610263824 -0.03923797979950905 -0.1425849348306656 -0.022122953087091446 -0.012537019327282906 -0.1274683028459549 -0.017603479325771332 -0.1225443035364151 -0.04749913886189461 -0.14753933250904083 -0.1003449410200119 -0.15409402549266815 -0.000610434275586158 -0.007071931846439838 -0.004325016867369413 -0.15032736957073212 -0.014407649636268616 -0.15219786763191223 -0.0019183867843821645 -0.044633667916059494 -0.14979912340641022 -0.14643847942352295 -0.1377566009759903 
u161 -0.06923054158687592 -0.06391767412424088 -0.020024599507451057 -0.012032488361001015 -0.06794092804193497 -0.04235886409878731 -0.02334308996796608 -0.008192411623895168 -0.06813284009695053 -0.01384055521339178 -0.0693255290389061 -0.014755889773368835 -0.06996976584196091 -0.06874466687440872 -0.006089441943913698 -0.06556260585784912 -0.010729792527854443 -0.044408150017261505 -0.014196948148310184 -0.02533133700489998 -0.032445188611745834 -0.06694728136062622 -0.06762562692165375 -0.06714778393507004 -0.021141955628991127 -0.06850516051054001 -0.004006491042673588 -0.06746350228786469 -0.05679061636328697 -0.029207933694124222 -0.01764586567878723 -0.011994469910860062 
u169 -0.0692179948091507 -0.06386936455965042 -0.020027540624141693 -0.012030122801661491 -0.06792011857032776 -0.04240107908844948 -0.023307455703616142 -0.008111541159451008 -0.06813382357358932 -0.013848327100276947 -0.06932590901851654 -0.01481765415519476 -0.06996133178472519 -0.06874828040599823 -0.006010838318616152 -0.06551143527030945 -0.010654901154339314 -0.04437614604830742 -0.014186508022248745 -0.025380700826644897 -0.032426971942186356 -0.06694792956113815 -0.06761526316404343 -0.06714843213558197 -0.021151605993509293 -0.06851378083229065 -0.0040022628381848335 -0.06749394536018372 -0.05677461251616478 -0.029211215674877167 -0.01762157864868641 -0.012082966044545174 
u176 -0.07159721851348877 -0.0792505145072937 -0.0062112947925925255 -0.0038573250640183687 -0.07637131214141846 -0.015827810391783714 -0.006447410676628351 -0.004585685208439827 -0.07488544285297394 -0.004473935347050428 -0.06796065717935562 -0.0045057930983603 -0.07114120572805405 -0.07407081127166748 -0.014164570719003677 -0.07612493634223938 -0.016425736248493195 -0.0674339011311531 -0.0041110822930932045 -0.035415712743997574 -0.009822591207921505 -0.07579195499420166 -0.07648904621601105 -0.07640234380960464 -0.007382127922028303 -0.07363959401845932 -0.019791368395090103 -0.07553913444280624 -0.07429548352956772 -0.008702727034687996 -0.0049375975504517555 -0.010934322141110897 
u54 -0.07102245837450027 -0.07286828011274338 -0.0079372962936759 -0.003937713336199522 -0.07506101578474045 -0.019911939278244972 -0.00867884885519743 -0.004245328716933727 -0.07427471876144409 -0.00515584833920002 -0.06828735768795013 -0.006092196796089411 -0.07172001153230667 -0.07345910370349884 -0.013992905616760254 -0.07566697895526886 -0.014827818609774113 -0.0648714005947113 -0.005334292538464069 -0.03565983101725578 -0.011421340517699718 -0.07508090138435364 -0.07601969689130783 -0.07520370930433273 -0.008444604463875294 -0.07319124042987823 -0.012971499003469944 -0.07435117661952972 -0.07174009829759598 -0.011064129881560802 -0.006952132564038038 -0.010007519274950027 
u183 -0.06624594330787659 -0.062486935406923294 -0.034622590988874435 -0.024516424164175987 -0.05499297380447388 -0.06436343491077423 -0.04288871958851814 -0.014200885780155659 -0.05937504023313522 -0.029101772233843803 -0.07036770135164261 -0.016624100506305695 -0.06662123650312424 -0.061149757355451584 -7.273249593708897e-07 -0.049720872193574905 -2.03190442249479e-09 -0.02634137123823166 -0.026184499263763428 -8.913576543534418e-10 -0.06294573098421097 -0.057570431381464005 -0.053353626281023026 -0.05564860627055168 -0.04130146652460098 -0.06215458735823631 -0.014391165226697922 -0.05824904143810272 -0.03683772310614586 -0.05283946171402931 -0.031545717269182205 -0.009476049803197384 
u197 -0.0715416744351387 -0.07533451914787292 -0.004545566160231829 -0.003075562883168459 -0.0783177837729454 -0.012799601070582867 -0.005733995232731104 -0.005486978217959404 -0.07602119445800781 -0.002869343152269721 -0.06829249113798141 -0.004721727687865496 -0.0716257393360138 -0.07428447157144547 -0.017158428207039833 -0.07724830508232117 -0.017633041366934776 -0.07171688228845596 -0.0028765746392309666 -0.033235568553209305 -0.007482367567718029 -0.07696034759283066 -0.07777994871139526 -0.07729368656873703 -0.005156856030225754 -0.07417214661836624 -0.018638987094163895 -0.07698740065097809 -0.07554137706756592 -0.005289411637932062 -0.004183466080576181 -0.009695954620838165 
u7 -0.07009740173816681 -0.06569531559944153 -0.014643045142292976 -0.01139249000698328 -0.06957186758518219 -0.025761712342500687 -0.018695373088121414 -0.0098781893029809 -0.0694635882973671 -0.013485768809914589 -0.06863703578710556 -0.008811299689114094 -0.06927329301834106 -0.07021111994981766 -0.010499201714992523 -0.0661105141043663 -0.009790472686290741 -0.05421716719865799 -0.011207695119082928 -0.0222663264721632 -0.027068505063652992 -0.06926896423101425 -0.06892777979373932 -0.06956719607114792 -0.017910080030560493 -0.06995420902967453 -0.012163663282990456 -0.06950299441814423 -0.061198581010103226 -0.022197790443897247 -0.011987545527517796 -0.002235087100416422 
u179 -0.07160920649766922 -0.07933574169874191 -0.006205934565514326 -0.003862065030261874 -0.07636208832263947 -0.015824364498257637 -0.006457221694290638 -0.004669748246669769 -0.07489185035228729 -0.004458541050553322 -0.0679500550031662 -0.004552382510155439 -0.07114444673061371 -0.07407193630933762 -0.014193275943398476 -0.07610924541950226 -0.016423985362052917 -0.06747695803642273 -0.004117507953196764 -0.03539814427495003 -0.009834928438067436 -0.07580249756574631 -0.07650396972894669 -0.07638917118310928 -0.007403364405035973 -0.07363578677177429 -0.019738009199500084 -0.07554905116558075 -0.07429597526788712 -0.008694648742675781 -0.0049524689093232155 -0.010963261127471924 
u18 -0.07018451392650604 -0.06059889867901802 -0.014435176737606525 -0.010768519714474678 -0.07273440808057785 -0.030507147312164307 -0.019324621185660362 -0.010559679009020329 -0.07064580172300339 -0.010861977934837341 -0.06903542578220367 -0.012719815596938133 -0.0699366107583046 -0.0703628659248352 -0.012319502420723438 -0.0686541497707367 -0.013760102912783623 -0.05499676987528801 -0.010417787358164787 -0.022368667647242546 -0.02609275095164776 -0.06983685493469238 -0.07047481834888458 -0.06982547789812088 -0.016219254583120346 -0.07007021456956863 -0.0036951685324311256 -0.07099347561597824 -0.06134142354130745 -0.019745973870158195 -0.01254215370863676 -0.005542028695344925 
u121 -0.07142484188079834 -0.07900851964950562 -0.006133161950856447 -0.0039361463859677315 -0.07467521727085114 -0.014708469621837139 -0.006791795138269663 -0.008422482758760452 -0.07448506355285645 -0.0052176169119775295 -0.0681067556142807 -0.0019581804517656565 -0.07125835120677948 -0.07371053844690323 -0.01432466134428978 -0.07455473393201828 -0.014548206701874733 -0.06759784370660782 -0.004437482450157404 -0.03414633497595787 -0.010163234546780586 -0.07603605091571808 -0.07597401738166809 -0.07635249197483063 -0.008274385705590248 -0.07352591305971146 -0.022918524220585823 -0.07534017413854599 -0.0737689957022667 -0.009203903377056122 -0.005306316073983908 -0.00988548994064331 
u163 -0.0692363902926445 -0.06378728151321411 -0.02002185583114624 -0.012021185830235481 -0.06796680390834808 -0.04240795969963074 -0.023294545710086823 -0.00811514351516962 -0.06812932342290878 -0.013838649727404118 -0.06932191550731659 -0.014806716702878475 -0.06995304673910141 -0.06874344497919083 -0.005995059385895729 -0.0655084177851677 -0.01070088054984808 -0.044404517859220505 -0.014182326383888721 -0.02538592554628849 -0.032408781349658966 -0.06695288419723511 -0.06762190163135529 -0.06714906543493271 -0.021164022386074066 -0.06851105391979218 -0.003924699500203133 -0.06746954470872879 -0.05677897483110428 -0.029225358739495277 -0.017634565010666847 -0.011998211033642292 
u39 -0.07166912406682968 -0.07685760408639908 -0.00045904156286269426 -0.0004133470938540995 -0.07964887470006943 -0.0021616399753838778 -0.0004375669814180583 -0.010137218981981277 -0.07780443131923676 -0.0004365147615317255 -0.06796906143426895 -0.0011372388107702136 -0.07218849658966064 -0.07588408887386322 -0.019248157739639282 -0.07974996417760849 -0.017974140122532845 -0.07791441679000854 -0.00014741609629709274 -0.037050358951091766 -0.0005685543292202055 -0.07950343191623688 -0.08091875165700912 -0.08013685792684555 -0.0005126930773258209 -0.07581643015146255 -0.024354834109544754 -0.07872967422008514 -0.0807921290397644 -0.0005630541709251702 -0.0004590503522194922 -0.009465234354138374 
u95 -0.0681004524230957 -0.06520403921604156 -0.02309633418917656 -0.01691756583750248 -0.062345992773771286 -0.04259026050567627 -0.02903486229479313 -0.015427758917212486 -0.06511428207159042 -0.02050626464188099 -0.06958695501089096 -0.010501990094780922 -0.06822076439857483 -0.06592832505702972 -0.005853679496794939 -0.05855454131960869 -0.00486323656514287 -0.04372575506567955 -0.017851518467068672 -0.010043594054877758 -0.04213591292500496 -0.06451509892940521 -0.0614808164536953 -0.06350873410701752 -0.02877494879066944 -0.0665496364235878 -0.018419284373521805 -0.0647968277335167 -0.05068432539701462 -0.035768281668424606 -0.021206041797995567 -0.005137939937412739 
i23 0.0 -0.0024109354708343744 -0.17592085897922516 -0.20856915414333344 -0.00668535940349102 -0.09073920547962189 -0.15040896832942963 -0.22273598611354828 0.0 -0.19526329636573792 0.0 -0.20242315530776978 0.0 0.0 -0.29787081480026245 -0.08428371697664261 -0.2889794409275055 -0.23195454478263855 -0.20164373517036438 -0.29482582211494446 -0.0814734622836113 -0.009474774822592735 -0.030321631580591202 -0.017243456095457077 -0.1639213114976883 0.0 -0.27716273069381714 -0.0025354535318911076 -0.14835532009601593 -0.11848630011081696 -0.18739177286624908 -0.24539387226104736 
u32 -0.07167010754346848 -0.07673414051532745 -0.00046422798186540604 -0.00039126211777329445 -0.0796785056591034 -0.002242347225546837 -0.0004317095153965056 -0.010023531503975391 -0.07780904322862625 -0.0004357826546765864 -0.06796819716691971 -0.0011588374618440866 -0.07218074798583984 -0.07588330656290054 -0.019214339554309845 -0.0797453224658966 -0.01798063889145851 -0.07795752584934235 -0.00014237032155506313 -0.037107329815626144 -0.000562152243219316 -0.07949735969305038 -0.08092056214809418 -0.08014523237943649 -0.0005334514426067472 -0.07581981271505356 -0.024360278621315956 -0.07871658354997635 -0.08076044172048569 -0.0005283806822262704 -0.00046099338214844465 -0.009462655521929264 
u41 -0.06759011000394821 -0.06316927075386047 -0.025550073012709618 -0.01862846501171589 -0.060969263315200806 -0.04719770699739456 -0.03205088898539543 -0.017198242247104645 -0.06390731781721115 -0.022237628698349 -0.06987009197473526 -0.012776600196957588 -0.06783462315797806 -0.06494208425283432 -0.00477489922195673 -0.05666216462850571 -0.00404841685667634 -0.03988146036863327 -0.019680604338645935 -0.007862834259867668 -0.04672972485423088 -0.06285595893859863 -0.06000899150967598 -0.06175779178738594 -0.031195977702736855 -0.06562160700559616 -0.016046518459916115 -0.06337955594062805 -0.04772263392806053 -0.039439018815755844 -0.02333775907754898 -0.006345943082123995 
u89 -0.070917509496212 -0.07342369854450226 -0.009703735820949078 -0.005381698254495859 -0.07376930117607117 -0.023743219673633575 -0.01055247150361538 -0.0039037938695400953 -0.07315430045127869 -0.006720826029777527 -0.06832125782966614 -0.007264327257871628 -0.07124108076095581 -0.07282982021570206 -0.011753450147807598 -0.07449422031641006 -0.014619448222219944 -0.06087323650717735 -0.006774213630706072 -0.03531526401638985 -0.014715392142534256 -0.07387726753950119 -0.07448499649763107 -0.07388746738433838 -0.010696283541619778 -0.07237759232521057 -0.012309121899306774 -0.07327431440353394 -0.0695558488368988 -0.01436561532318592 -0.008447369560599327 -0.011568965390324593 
u185 -0.06814637035131454 -0.06723634153604507 -0.02375680021941662 -0.01722058840095997 -0.06166582927107811 -0.044250644743442535 -0.02960372343659401 -0.01226872205734253 -0.06478752940893173 -0.021087978035211563 -0.06942391395568848 -0.00980881042778492 -0.06828983128070831 -0.06566484272480011 -0.0048012640327215195 -0.05825917795300484 -0.004599092528223991 -0.04279984161257744 -0.018315855413675308 -0.009877648204565048 -0.04309625178575516 -0.0643160492181778 -0.06065068393945694 -0.06330281496047974 -0.02979038469493389 -0.06628132611513138 -0.02064395695924759 -0.06468527764081955 -0.05000121146440506 -0.03659640625119209 -0.02210727334022522 -0.005146046634763479 
u28 -0.07167284935712814 -0.07680170238018036 -0.0004692082293331623 -0.00039736746111884713 -0.07966682314872742 -0.0022134308237582445 -0.000442654563812539 -0.010107548907399178 -0.07780550420284271 -0.00043207191629335284 -0.0679742842912674 -0.0011552092619240284 -0.07219201326370239 -0.07588896155357361 -0.01926877722144127 -0.07975395023822784 -0.01798401027917862 -0.07798538357019424 -0.00014945112343411893 -0.03710036352276802 -0.0005561073776334524 -0.07949009537696838 -0.08092379570007324 -0.0801384225487709 -0.000540559587534517 -0.075819231569767 -0.02444656938314438 -0.07870570570230484 -0.08077853173017502 -0.0005378056084737182 -0.000462469644844532 -0.009400444105267525 
u154 -0.07064405828714371 -0.07850263267755508 -0.007739018648862839 -0.0031926410738378763 -0.07382999360561371 -0.020163007080554962 -0.007218901999294758 -0.006603820249438286 -0.07471642643213272 -0.004451591055840254 -0.06854983419179916 -0.0036586662754416466 -0.07160114496946335 -0.07325288653373718 -0.013076269067823887 -0.07625488191843033 -0.015552589669823647 -0.06531158089637756 -0.004922838881611824 -0.03524211049079895 -0.010378995910286903 -0.07633444666862488 -0.07575410604476929 -0.07560586929321289 -0.008352336473762989 -0.07321836799383163 -0.021632961928844452 -0.07470954954624176 -0.0732683390378952 -0.011471787467598915 -0.007421453949064016 -0.01638892851769924 
u100 -0.06811109930276871 -0.06509097665548325 -0.023127203807234764 -0.016922565177083015 -0.06229289993643761 -0.04256761819124222 -0.029031896963715553 -0.015438643284142017 -0.06512009352445602 -0.020540352910757065 -0.0695929005742073 -0.010518379509449005 -0.06822724640369415 -0.06593047082424164 -0.005885033402591944 -0.058550696820020676 -0.004873358644545078 -0.043717943131923676 -0.017850082367658615 -0.010011708363890648 -0.04213868826627731 -0.06453549116849899 -0.06146667152643204 -0.06351245939731598 -0.028763411566615105 -0.06654883176088333 -0.018469804897904396 -0.06479481607675552 -0.05072898045182228 -0.03574085235595703 -0.02120218239724636 -0.005226362496614456 
u175 -0.07159528136253357 -0.07939247041940689 -0.006217457354068756 -0.00387274706736207 -0.07635406404733658 -0.015773089602589607 -0.006444195751100779 -0.004769946448504925 -0.07488304376602173 -0.004458841867744923 -0.06794926524162292 -0.004515608306974173 -0.07114313542842865 -0.0740777775645256 -0.014177853241562843 -0.0761212408542633 -0.016426892951130867 -0.06744951754808426 -0.004121097270399332 -0.035406921058893204 -0.009831988252699375 -0.0757867619395256 -0.07650807499885559 -0.07639550417661667 -0.007390896789729595 -0.07363776117563248 -0.019708087667822838 -0.07554315775632858 -0.07429084181785583 -0.008706727996468544 -0.004945999477058649 -0.010932101868093014 
u42 -0.06760051846504211 -0.06326115876436234 -0.025540361180901527 -0.018637727946043015 -0.06100650504231453 -0.047137551009655 -0.03205065056681633 -0.01729757897555828 -0.06390368938446045 -0.022225679829716682 -0.06986258178949356 -0.012774087488651276 -0.0678330808877945 -0.06493436545133591 -0.004775072447955608 -0.056684400886297226 -0.004055127501487732 -0.03985977545380592 -0.019679991528391838 -0.0078458646312356 -0.046746157109737396 -0.06285417824983597 -0.060011692345142365 -0.061756934970617294 -0.031179925426840782 -0.06562024354934692 -0.016036853194236755 -0.06336437165737152 -0.04773859307169914 -0.03943081200122833 -0.023329390212893486 -0.006342564709484577 
i6 -0.019488200545310974 -0.005871149245649576 -0.15714216232299805 -0.15539371967315674 -0.008199328556656837 -0.14044217765331268 -0.15359169244766235 -0.1459607481956482 -0.0033440047409385443 -0.16095690429210663 -0.031193101778626442 -0.1564677357673645 -0.016355372965335846 -0.010463690385222435 -0.162518709897995 -0.027654578909277916 -0.1561572104692459 -0.07982555031776428 -0.1585688441991806 -0.14006318151950836 -0.1389404684305191 -0.0009544172789901495 -0.01073397882282734 -0.007056542206555605 -0.15234293043613434 -0.011772568337619305 -0.1920347958803177 -0.0018168027745559812 -0.06931891292333603 -0.141182541847229 -0.1542632132768631 -0.16177597641944885 
u178 -0.07158862799406052 -0.0793115422129631 -0.006223197560757399 -0.003848335240036249 -0.07636085152626038 -0.01586265116930008 -0.00644957460463047 -0.004601251799613237 -0.07489141821861267 -0.004467456601560116 -0.0679512694478035 -0.004483485594391823 -0.07113170623779297 -0.07406892627477646 -0.0141191016882658 -0.07612301409244537 -0.016418607905507088 -0.06741215288639069 -0.004110545385628939 -0.03537784889340401 -0.009839859791100025 -0.07578596472740173 -0.0765027180314064 -0.07640276849269867 -0.007348599843680859 -0.07364020496606827 -0.01969006285071373 -0.07552037388086319 -0.07430630177259445 -0.008678094483911991 -0.004954574629664421 -0.010883788578212261 
i29 -0.02667178027331829 -0.014827797189354897 -0.14801129698753357 -0.1448689103126526 -0.0031786917243152857 -0.14286045730113983 -0.1515527218580246 -0.14683344960212708 -0.006818690337240696 -0.14451701939105988 -0.04225786775350571 -0.14474272727966309 -0.02482323907315731 -0.013150014914572239 -0.11467064172029495 -0.019402695819735527 -0.11754034459590912 -0.05063657835125923 -0.1447456032037735 -0.10084009915590286 -0.1563369780778885 -0.002264187205582857 -0.004941281862556934 -0.003504230873659253 -0.15032218396663666 -0.015207073651254177 -0.10069150477647781 -0.001862301374785602 -0.03569450229406357 -0.15546217560768127 -0.1481071263551712 -0.1321631819009781 
u55 -0.07103197276592255 -0.07288175076246262 -0.007932033389806747 -0.0039329444989562035 -0.07507520169019699 -0.020005013793706894 -0.008711746893823147 -0.004041397478431463 -0.0742669478058815 -0.00519107049331069 -0.06830576062202454 -0.006094591226428747 -0.07173391431570053 -0.07345657795667648 -0.014081171713769436 -0.07567909359931946 -0.014843321405351162 -0.06488022208213806 -0.0053297835402190685 -0.035654518753290176 -0.0114097585901618 -0.07507971674203873 -0.07602822035551071 -0.07520859688520432 -0.008485781028866768 -0.07319222390651703 -0.013174254447221756 -0.07434167712926865 -0.07172798365354538 -0.011071618646383286 -0.006916929967701435 -0.010070624761283398 
u44 -0.06762070953845978 -0.0630846619606018 -0.025566477328538895 -0.018641410395503044 -0.06101682782173157 -0.047215353697538376 -0.03201760724186897 -0.017187077552080154 -0.06389964371919632 -0.022241389378905296 -0.06986632943153381 -0.012739931233227253 -0.06782694160938263 -0.06493315100669861 -0.004747109953314066 -0.056667670607566833 -0.004096340388059616 -0.03986767306923866 -0.01967325247824192 -0.00783846341073513 -0.04672393947839737 -0.06286735832691193 -0.05998384580016136 -0.06177163124084473 -0.031189586967229843 -0.06561952829360962 -0.015978004783391953 -0.06335371732711792 -0.04774676263332367 -0.03944440558552742 -0.023331431671977043 -0.006300263572484255 
u61 -0.07102639973163605 -0.07291734963655472 -0.007915519177913666 -0.003938579000532627 -0.07508134096860886 -0.019925855100154877 -0.008695808239281178 -0.00418013334274292 -0.0742637887597084 -0.005170631222426891 -0.06830117851495743 -0.006073747295886278 -0.07172427326440811 -0.07345811277627945 -0.01406932808458805 -0.07563894242048264 -0.014826096594333649 -0.0648893415927887 -0.0053340415470302105 -0.03566994518041611 -0.011401502415537834 -0.07507412135601044 -0.07603029906749725 -0.07519950717687607 -0.00847915094345808 -0.07318995147943497 -0.013004620559513569 -0.0743468850851059 -0.07171610742807388 -0.01110386848449707 -0.006928371265530586 -0.009986067190766335 
u116 -0.06912741810083389 -0.06576354801654816 -0.021000199019908905 -0.014621233567595482 -0.06700132042169571 -0.04274457320570946 -0.025891009718179703 -0.011664297431707382 -0.06704474985599518 -0.016127005219459534 -0.06927575170993805 -0.014525658451020718 -0.06879697740077972 -0.06791841983795166 -0.0076401070691645145 -0.0628080815076828 -0.010061434470117092 -0.044557008892297745 -0.015367777086794376 -0.01935744099318981 -0.0373159795999527 -0.0655839592218399 -0.06589564681053162 -0.06565612554550171 -0.02387959510087967 -0.06780322641134262 -0.005173529032617807 -0.06663970649242401 -0.0546841137111187 -0.03087095357477665 -0.017708048224449158 -0.01010122150182724 
u200 -0.07153890281915665 -0.07524055242538452 -0.0045422459952533245 -0.003071274608373642 -0.07833830267190933 -0.012800724245607853 -0.0057021379470825195 -0.005542720668017864 -0.07602015882730484 -0.002854540478438139 -0.06829019635915756 -0.004753108602017164 -0.07161709666252136 -0.07428504526615143 -0.0171135812997818 -0.07723930478096008 -0.01762487180531025 -0.07170318812131882 -0.0028753408696502447 -0.03329496830701828 -0.0074828071519732475 -0.07695567607879639 -0.07776255160570145 -0.07729756087064743 -0.005170896183699369 -0.07417412847280502 -0.018602894619107246 -0.0769955962896347 -0.07552133500576019 -0.005286372732371092 -0.004178060684353113 -0.009687739424407482 
u33 -0.07167388498783112 -0.07669193297624588 -0.0004303318273741752 -0.0004019632760901004 -0.07967744022607803 -0.0021466913167387247 -0.0004160514217801392 -0.01024069357663393 -0.07781235873699188 -0.00041821179911494255 -0.06796912848949432 -0.0011772016296163201 -0.07218363136053085 -0.07587887346744537 -0.019237004220485687 -0.07974614202976227 -0.017979789525270462 -0.07791392505168915 -0.00014943719725124538 -0.03707610070705414 -0.0005722912028431892 -0.07951393723487854 -0.08089873939752579 -0.08013135194778442 -0.0005127056501805782 -0.07581434398889542 -0.02431671880185604 -0.078733429312706 -0.08079719543457031 -0.0005467176088131964 -0.0004697749682236463 -0.009431232698261738 
u170 -0.07158884406089783 -0.07930733263492584 -0.006214723456650972 -0.0038601516280323267 -0.07635659724473953 -0.01581602357327938 -0.006445631850510836 -0.004655937198549509 -0.07488815486431122 -0.004452964756637812 -0.06794893741607666 -0.004507013130933046 -0.0711420476436615 -0.07407764345407486 -0.014128097333014011 -0.07613556832075119 -0.01642487943172455 -0.06745822727680206 -0.004115946590900421 -0.03541630879044533 -0.009819073602557182 -0.07578980922698975 -0.07650357484817505 -0.07639731466770172 -0.007378768641501665 -0.07363978773355484 -0.019742337986826897 -0.07555298507213593 -0.07428651303052902 -0.00870715081691742 -0.004966232925653458 -0.010917148552834988 
u24 -0.07019004225730896 -0.06068617105484009 -0.014444095082581043 -0.010782484896481037 -0.07275382429361343 -0.030543304979801178 -0.019314903765916824 -0.010565713047981262 -0.07064373791217804 -0.010841859504580498 -0.06902087479829788 -0.012733121402561665 -0.06994067877531052 -0.07036364078521729 -0.0122733348980546 -0.06870488822460175 -0.013790149241685867 -0.05498942360281944 -0.010420135222375393 -0.0223513413220644 -0.026103109121322632 -0.06983759254217148 -0.07047861814498901 -0.06983214616775513 -0.016226399689912796 -0.07007093727588654 -0.0037215924821794033 -0.07099998742341995 -0.06133970990777016 -0.0197420883923769 -0.012546885758638382 -0.0055677201598882675 
i16 -0.02069932222366333 -0.011711343191564083 -0.15240250527858734 -0.1541447639465332 -0.003944095224142075 -0.12801797688007355 -0.15180151164531708 -0.17043735086917877 -0.005857598502188921 -0.1518317013978958 -0.03593641519546509 -0.15396295487880707 -0.020720764994621277 -0.010869763791561127 -0.1494167447090149 -0.03188241645693779 -0.14865748584270477 -0.07786095142364502 -0.15438170731067657 -0.1324935257434845 -0.1427738070487976 -0.002423179568722844 -0.008135895244777203 -0.0059244451113045216 -0.1525481939315796 -0.01305763702839613 -0.1343989223241806 -0.0030822092667222023 -0.05664452537894249 -0.14975130558013916 -0.1548272967338562 -0.15697318315505981 
u48 -0.06759724020957947 -0.06298784911632538 -0.025528252124786377 -0.018611403182148933 -0.061035268008708954 -0.047155071049928665 -0.03204191103577614 -0.017286699265241623 -0.06389952450990677 -0.02222813107073307 -0.06988414376974106 -0.012739616446197033 -0.0678311362862587 -0.06493833661079407 -0.0048126038163900375 -0.056670017540454865 -0.004082061350345612 -0.03991203382611275 -0.019680891185998917 -0.007932241074740887 -0.046710286289453506 -0.0628422200679779 -0.05999122932553291 -0.06176014617085457 -0.031205350533127785 -0.06561979651451111 -0.016079656779766083 -0.06334743648767471 -0.0477103628218174 -0.0394466370344162 -0.023341558873653412 -0.006194632966071367 
u14 -0.0701884999871254 -0.060673024505376816 -0.014446287415921688 -0.010778908617794514 -0.0727197453379631 -0.030551644042134285 -0.019329624250531197 -0.010453960858285427 -0.07064709067344666 -0.01087708119302988 -0.06903250515460968 -0.012715891934931278 -0.06994134932756424 -0.07035959511995316 -0.012300760485231876 -0.06867250800132751 -0.013760210014879704 -0.054962676018476486 -0.01041332632303238 -0.022302668541669846 -0.026097243651747704 -0.06984706223011017 -0.07047822326421738 -0.0698300153017044 -0.016199855133891106 -0.07007189840078354 -0.003740390995517373 -0.070993572473526 -0.06137014552950859 -0.019740061834454536 -0.012531819753348827 -0.0056028421968221664 
u177 -0.07159366458654404 -0.07928238064050674 -0.006204328965395689 -0.003859315300360322 -0.07638578861951828 -0.01575894095003605 -0.006425406318157911 -0.00473640626296401 -0.07489017397165298 -0.004451470449566841 -0.06794556230306625 -0.004532705992460251 -0.07112960517406464 -0.0740688145160675 -0.014110064134001732 -0.07611188292503357 -0.01640399545431137 -0.06743048131465912 -0.004112510941922665 -0.035432495176792145 -0.009835724718868732 -0.07578945904970169 -0.07649418711662292 -0.07639872282743454 -0.007362942211329937 -0.07364057749509811 -0.01965666003525257 -0.07553724199533463 -0.07429506629705429 -0.008678761310875416 -0.004942949395626783 -0.010932962410151958 
u143 -0.07042393833398819 -0.06837314367294312 -0.014635873027145863 -0.010374210774898529 -0.07283240556716919 -0.03223779425024986 -0.018397651612758636 -0.005599733907729387 -0.07062597572803497 -0.010947233997285366 -0.06878392398357391 -0.012818532064557076 -0.06991800665855408 -0.07048363238573074 -0.011004227213561535 -0.06916572898626328 -0.013852803967893124 -0.05491538345813751 -0.010513970628380775 -0.025386907160282135 -0.0259399376809597 -0.06981953978538513 -0.07058968394994736 -0.07003447413444519 -0.01658458821475506 -0.07017338275909424 -0.0068518794141709805 -0.0710534080862999 -0.06252758204936981 -0.020443135872483253 -0.01264884602278471 -0.008940549567341805 
u137 -0.07041393220424652 -0.06837396323680878 -0.014628863893449306 -0.0103816669434309 -0.0728379338979721 -0.03219867870211601 -0.018387632444500923 -0.005651121959090233 -0.0706266388297081 -0.01093227043747902 -0.06878490746021271 -0.012826266698539257 -0.0699196606874466 -0.07048597186803818 -0.010998498648405075 -0.0691792368888855 -0.013846899382770061 -0.05491161346435547 -0.010520772077143192 -0.02541615441441536 -0.025949252769351006 -0.0698108896613121 -0.07057321071624756 -0.07003716379404068 -0.01658341847360134 -0.07017424702644348 -0.006868546828627586 -0.07106313854455948 -0.06251709908246994 -0.020441263914108276 -0.012640020810067654 -0.008925214409828186 
u144 -0.07063647359609604 -0.07850264012813568 -0.007743955589830875 -0.003193862270563841 -0.07383428514003754 -0.02017938904464245 -0.007212368305772543 -0.0066442969255149364 -0.07471835613250732 -0.004438172094523907 -0.06854095309972763 -0.0036527877673506737 -0.07160305231809616 -0.07325781136751175 -0.013035629875957966 -0.07628431171178818 -0.015559147112071514 -0.06533003598451614 -0.004925577901303768 -0.035257913172245026 -0.0103763984516263 -0.07632949203252792 -0.07575967907905579 -0.07560981065034866 -0.008348335511982441 -0.07322055101394653 -0.021637191995978355 -0.07471738010644913 -0.07325072586536407 -0.01145613007247448 -0.007441405206918716 -0.016393303871154785 
u172 -0.07160543650388718 -0.07937856763601303 -0.0062067266553640366 -0.0038721412420272827 -0.07637208700180054 -0.015774250030517578 -0.006450875196605921 -0.00471071433275938 -0.0748862773180008 -0.0044609177857637405 -0.06794929504394531 -0.0045452178455889225 -0.07114656269550323 -0.07407119125127792 -0.014177047647535801 -0.07613158971071243 -0.016411300748586655 -0.06744645535945892 -0.0041147759184241295 -0.03540797159075737 -0.009835449978709221 -0.07579648494720459 -0.076500304043293 -0.07639386504888535 -0.007388367783278227 -0.07363874465227127 -0.019795482978224754 -0.07555081695318222 -0.07429999113082886 -0.00869316142052412 -0.004937521647661924 -0.011002235114574432 
i9 -0.024221444502472878 -0.007883363403379917 -0.15201257169246674 -0.14484064280986786 -0.006026782561093569 -0.15272894501686096 -0.15362946689128876 -0.13071347773075104 -0.00475446367636323 -0.15136489272117615 -0.038717251271009445 -0.14401118457317352 -0.021501945331692696 -0.012513205409049988 -0.13069182634353638 -0.018176482990384102 -0.1256481409072876 -0.049906618893146515 -0.14847442507743835 -0.10407616198062897 -0.15280531346797943 -0.0003852528752759099 -0.007111783139407635 -0.004621804226189852 -0.15022492408752441 -0.014238606207072735 -0.15602441132068634 -0.0018697123741731048 -0.04732758179306984 -0.14888861775398254 -0.14709341526031494 -0.1410159170627594 
