27 32
i4 -0.02318287082016468 -0.21530522406101227 -0.20330148935317993 -0.21874107420444489 -0.22187334299087524 -0.16241496801376343 -0.19936423003673553 -0.2638828754425049 -0.018123745918273926 -0.21364593505859375 -0.04103357717394829 -0.21221156418323517 -0.029348017647862434 -0.01368292048573494 -0.2712705731391907 -0.26372218132019043 -0.24422770738601685 -0.25201573967933655 -0.2169637829065323 -0.26353776454925537 -0.14460153877735138 -0.002700085984542966 -0.11495973914861679 -0.13421091437339783 -0.19682075083255768 -0.020118404179811478 -0.2279483526945114 -0.004147390369325876 -0.27106085419654846 -0.17754556238651276 -0.21102845668792725 -0.2590017020702362 
i22 -0.15431423485279083 -0.17411594092845917 -0.18824826180934906 -0.16964849829673767 -0.16538389027118683 -0.227517232298851 -0.1926138699054718 -0.07314064353704453 -0.12019549310207367 -0.17608800530433655 -0.27321290969848633 -0.1778765320777893 -0.19586022198200226 -0.09049632400274277 -0.07498610764741898 -0.09365341067314148 -0.1320871263742447 -0.11812499910593033 -0.17192426323890686 -0.07281454652547836 -0.24115337431430817 -0.013254634104669094 -0.031795062124729156 -0.03716231882572174 -0.1953403353691101 -0.1347215473651886 -0.15727989375591278 -0.02196410298347473 -0.07502266764640808 -0.2144373655319214 -0.17926034331321716 -0.10429390519857407 
i20 -0.1272718906402588 -0.18274663388729095 -0.19135940074920654 -0.17975018918514252 -0.17705075442790985 -0.2141166776418686 -0.1940099596977234 -0.11224205791950226 -0.09919897466897964 -0.18381910026073456 -0.22537419199943542 -0.1849183589220047 -0.16160747408866882 -0.07468754053115845 -0.11547952890396118 -0.12880033254623413 -0.15518714487552643 -0.1457320898771286 -0.18120546638965607 -0.11210435628890991 -0.2212747484445572 -0.010954356752336025 -0.04896678030490875 -0.0571272149682045 -0.19565953314304352 -0.1111755222082138 -0.17179155349731445 -0.01848655939102173 -0.11531273275613785 -0.20682698488235474 -0.18583033978939056 -0.1361389458179474 
i16 -0.11581847816705704 -0.18602660298347473 -0.19268417358398438 -0.1840916872024536 -0.182306170463562 -0.20842348039150238 -0.19461527466773987 -0.12915225327014923 -0.090164914727211 -0.18714284896850586 -0.2049650400876999 -0.18796199560165405 -0.14688144624233246 -0.0678827092051506 -0.13276095688343048 -0.14393770694732666 -0.1650768369436264 -0.15761655569076538 -0.18517997860908508 -0.1290084719657898 -0.21275731921195984 -0.009866917505860329 -0.05634448677301407 -0.06576019525527954 -0.19580774009227753 -0.10098282992839813 -0.17800627648830414 -0.016721351072192192 -0.13267064094543457 -0.20355549454689026 -0.18860843777656555 -0.14966493844985962 
i15 -0.10035695135593414 -0.191008523106575 -0.19446858763694763 -0.18985730409622192 -0.18875297904014587 -0.20072947442531586 -0.19539976119995117 -0.15192155539989471 -0.07806850224733353 -0.19156238436698914 -0.17766840755939484 -0.19201691448688507 -0.12733985483646393 -0.05888751894235611 -0.15589860081672668 -0.1637582927942276 -0.17825256288051605 -0.17328780889511108 -0.19048012793064117 -0.15144746005535126 -0.20137521624565125 -0.008695708587765694 -0.06591404229402542 -0.07718878984451294 -0.19598355889320374 -0.08751733601093292 -0.18633407354354858 -0.014620625413954258 -0.15565137565135956 -0.1992516964673996 -0.19233891367912292 -0.16790015995502472 
i9 -0.04239071160554886 -0.2093859314918518 -0.2010946124792099 -0.21153120696544647 -0.21358627080917358 -0.17193575203418732 -0.1983688324689865 -0.2357698380947113 -0.032956190407276154 -0.20811834931373596 -0.0750865489244461 -0.2071550190448761 -0.053852878510951996 -0.024962054565548897 -0.24246305227279663 -0.23869813978672028 -0.2277221530675888 -0.23228994011878967 -0.21034441888332367 -0.23549917340278625 -0.15879756212234497 -0.004203400574624538 -0.1026880219578743 -0.11997970193624496 -0.1965947151184082 -0.03704621642827988 -0.21761740744113922 -0.006808508653193712 -0.24220575392246246 -0.1829843372106552 -0.20635215938091278 -0.23631761968135834 
i14 -0.09646354615688324 -0.19214928150177002 -0.19491001963615417 -0.19130472838878632 -0.19061943888664246 -0.19872692227363586 -0.19561608135700226 -0.15729869902133942 -0.07503236085176468 -0.1926751732826233 -0.17080672085285187 -0.19301031529903412 -0.1223837360739708 -0.05653633922338486 -0.16166962683200836 -0.16881603002548218 -0.18154606223106384 -0.17725703120231628 -0.19180375337600708 -0.15703479945659637 -0.19854708015918732 -0.008384567685425282 -0.06841456890106201 -0.0800137147307396 -0.19602811336517334 -0.08414571732282639 -0.18845398724079132 -0.014062570407986641 -0.1614106148481369 -0.19815237820148468 -0.19327007234096527 -0.17250029742717743 
i24 -0.1698044240474701 -0.16892997920513153 -0.1864752173423767 -0.16390013694763184 -0.1589202731847763 -0.2352689504623413 -0.19184163212776184 -0.05031667649745941 -0.1322765350341797 -0.171654611825943 -0.3004704415798187 -0.17384082078933716 -0.21533642709255219 -0.09947375953197479 -0.05188707262277603 -0.07372118532657623 -0.11889934539794922 -0.10236228257417679 -0.16662725806236267 -0.050455547869205475 -0.25252214074134827 -0.014506255276501179 -0.0219535194337368 -0.025731803849339485 -0.19519266486167908 -0.14816834032535553 -0.1489771157503128 -0.02414454147219658 -0.051982320845127106 -0.21877504885196686 -0.17551741003990173 -0.08603071421384811 
i19 -0.12335702031850815 -0.18397203087806702 -0.1918010264635086 -0.18120160698890686 -0.1789657175540924 -0.21216809749603271 -0.19421739876270294 -0.117611825466156 -0.09617355465888977 -0.1849295198917389 -0.2185208946466446 -0.18592138588428497 -0.1566966474056244 -0.0724191665649414 -0.12124001234769821 -0.1338537037372589 -0.1584928333759308 -0.14970329403877258 -0.18253470957279205 -0.11772309243679047 -0.21842323243618011 -0.01054038479924202 -0.05148295685648918 -0.060012008994817734 -0.19571101665496826 -0.10779786109924316 -0.17390069365501404 -0.018024737015366554 -0.12109091132879257 -0.2057461142539978 -0.18675890564918518 -0.14066502451896667 
i1 0.0 -0.22256585955619812 -0.2059694528579712 -0.22740374505519867 -0.23175711929798126 -0.1509012132883072 -0.20054197311401367 -0.2973252832889557 -1.2765483781151943e-08 -0.22026343643665314 0.0 -0.21823245286941528 0.0 -8.454053568307529e-10 -0.3059733211994171 -0.293817937374115 -0.26402798295021057 -0.27563098073005676 -0.22491855919361115 -0.2971884310245514 -0.12759199738502502 -0.0009010719950310886 -0.12962175905704498 -0.15129555761814117 -0.19707487523555756 0.0 -0.24032175540924072 -0.00134480360429734 -0.30559903383255005 -0.17100165784358978 -0.21665146946907043 -0.2862265110015869 
i3 -0.019226424396038055 -0.21664920449256897 -0.20375743508338928 -0.2201964259147644 -0.22319664061069489 -0.16049091517925262 -0.1995690017938614 -0.26930496096611023 -0.014979722909629345 -0.21473127603530884 -0.03417246788740158 -0.21320000290870667 -0.02452661097049713 -0.01143665611743927 -0.27709490060806274 -0.2686552405357361 -0.2475327104330063 -0.25588276982307434 -0.21828655898571014 -0.2691478133201599 -0.14174315333366394 -0.0024944175966084003 -0.11729061603546143 -0.13704073429107666 -0.19683948159217834 -0.01681744121015072 -0.2300589233636856 -0.0038820256013423204 -0.2767503559589386 -0.17648394405841827 -0.2119697630405426 -0.2635544240474701 
i17 -0.1194874495267868 -0.18514464795589447 -0.1922379583120346 -0.18264855444431305 -0.18050669133663177 -0.21024362742900848 -0.1944151073694229 -0.12337277084589005 -0.09310337156057358 -0.18603010475635529 -0.21164850890636444 -0.186946839094162 -0.15181753039360046 -0.07015521824359894 -0.12701791524887085 -0.13878706097602844 -0.1617879718542099 -0.15359416604042053 -0.1838534027338028 -0.12333627045154572 -0.21557340025901794 -0.010252709500491619 -0.05385193973779678 -0.06287588179111481 -0.19574153423309326 -0.10444023460149765 -0.17602746188640594 -0.01749001443386078 -0.12686419486999512 -0.20469217002391815 -0.1876773089170456 -0.1452585607767105 
i25 -0.18520982563495636 -0.16390658915042877 -0.18471750617027283 -0.15810517966747284 -0.15232154726982117 -0.2429780662059784 -0.19104748964309692 -0.0279618538916111 -0.144358828663826 -0.1672513484954834 -0.3277786672115326 -0.16979233920574188 -0.23495149612426758 -0.1085357815027237 -0.028847314417362213 -0.05372985824942589 -0.10573101788759232 -0.08665856719017029 -0.16133493185043335 -0.028061524033546448 -0.26387542486190796 -0.015639839693903923 -0.012160686776041985 -0.014305396005511284 -0.19505149126052856 -0.16158653795719147 -0.14061278104782104 -0.026085512712597847 -0.028882591053843498 -0.2231040596961975 -0.1717999279499054 -0.06775280833244324 
i11 -0.046281177550554276 -0.20810401439666748 -0.2006380259990692 -0.21008995175361633 -0.2121095359325409 -0.17382317781448364 -0.19817453622817993 -0.22996757924556732 -0.035980045795440674 -0.2070208638906479 -0.08199047297239304 -0.20613552629947662 -0.05875445529818535 -0.027123503386974335 -0.23660293221473694 -0.23384808003902435 -0.2244146317243576 -0.22840729355812073 -0.20901834964752197 -0.22988653182983398 -0.16165409982204437 -0.004474016837775707 -0.10038286447525024 -0.11712219566106796 -0.19654586911201477 -0.04042859748005867 -0.2154666781425476 -0.007555381394922733 -0.23646213114261627 -0.18403932452201843 -0.20541325211524963 -0.2317475974559784 
i7 -0.030790075659751892 -0.21292029321193695 -0.20242851972579956 -0.2158646285533905 -0.2183421105146408 -0.16616587340831757 -0.19892843067646027 -0.25257134437561035 -0.024027632549405098 -0.21142002940177917 -0.05455854535102844 -0.21017585694789886 -0.03927333652973175 -0.01819111406803131 -0.2596687376499176 -0.25372791290283203 -0.23761585354804993 -0.24405178427696228 -0.2143210470676422 -0.25233346223831177 -0.1503184586763382 -0.00336765986867249 -0.11007210612297058 -0.1285376101732254 -0.1967342048883438 -0.026958871632814407 -0.22371552884578705 -0.0055483002215623856 -0.2595723569393158 -0.17971563339233398 -0.20916993916034698 -0.24992194771766663 
i5 -0.030842777341604233 -0.2130822092294693 -0.20241804420948029 -0.21585632860660553 -0.2186424732208252 -0.16627193987369537 -0.19896070659160614 -0.25226399302482605 -0.02404964528977871 -0.2114294022321701 -0.05474226176738739 -0.21016962826251984 -0.039268601685762405 -0.018189972266554832 -0.2597474753856659 -0.2538110315799713 -0.23760028183460236 -0.24419601261615753 -0.2143188714981079 -0.2523917257785797 -0.15027381479740143 -0.003152795834466815 -0.11020799726247787 -0.12860271334648132 -0.19673612713813782 -0.026940470561385155 -0.22379323840141296 -0.005248296540230513 -0.25952258706092834 -0.17971286177635193 -0.20917528867721558 -0.2500809133052826 
i8 -0.03853442519903183 -0.21020400524139404 -0.2015313357114792 -0.2129770964384079 -0.21521015465259552 -0.1699877679347992 -0.19857273995876312 -0.2411273717880249 -0.03000997193157673 -0.2092321813106537 -0.06835152208805084 -0.2081339806318283 -0.048995137214660645 -0.02257218211889267 -0.248202383518219 -0.24370194971561432 -0.23103690147399902 -0.2362493872642517 -0.2116660624742508 -0.24116232991218567 -0.15595979988574982 -0.004059655126184225 -0.1051415205001831 -0.12277308851480484 -0.19664844870567322 -0.033677004277706146 -0.21956197917461395 -0.006401069927960634 -0.24795278906822205 -0.18186338245868683 -0.20728248357772827 -0.24073968827724457 
i10 -0.04627504572272301 -0.20820225775241852 -0.20066241919994354 -0.21007636189460754 -0.21203579008579254 -0.1738632172346115 -0.19818828999996185 -0.23004533350467682 -0.03602735698223114 -0.20702645182609558 -0.08209647983312607 -0.20612139999866486 -0.05881352722644806 -0.027215784415602684 -0.2367393672466278 -0.23380103707313538 -0.22442033886909485 -0.22846925258636475 -0.20902235805988312 -0.22995099425315857 -0.1616026610136032 -0.004418115131556988 -0.10031700134277344 -0.11712294816970825 -0.19656437635421753 -0.040396854281425476 -0.21547172963619232 -0.007257550954818726 -0.2363583743572235 -0.18403349816799164 -0.20543277263641357 -0.23173345625400543 
i26 -0.20452511310577393 -0.15811970829963684 -0.18250328302383423 -0.15087461471557617 -0.14417636394500732 -0.2525239884853363 -0.19006483256816864 -1.8822706806531642e-06 -0.1594499945640564 -0.16173288226127625 -0.3619368076324463 -0.16474786400794983 -0.2594025433063507 -0.11984989047050476 -8.491693459511396e-11 -0.028858406469225883 -0.0892261490225792 -0.06701876223087311 -0.1547137349843979 0.0 -0.27806591987609863 -0.017038783058524132 -3.214688737429583e-09 0.0 -0.19483007490634918 -0.1784677654504776 -0.1302449256181717 -0.028855212032794952 0.0 -0.2285362035036087 -0.16713792085647583 -0.04508839175105095 
i23 -0.1542503982782364 -0.17384213209152222 -0.1882655918598175 -0.16966304183006287 -0.16547727584838867 -0.2275875210762024 -0.19262124598026276 -0.07293301820755005 -0.12025830894708633 -0.17608198523521423 -0.27306267619132996 -0.17786890268325806 -0.1958158165216446 -0.09054872393608093 -0.07505904138088226 -0.09365561604499817 -0.13212810456752777 -0.1180967316031456 -0.17193681001663208 -0.07291937619447708 -0.24114136397838593 -0.013160662725567818 -0.03167228773236275 -0.03717169910669327 -0.1953873336315155 -0.13468623161315918 -0.15729084610939026 -0.022021878510713577 -0.0750066265463829 -0.21447111666202545 -0.1792670637369156 -0.1041361540555954 
i2 -0.01937084086239338 -0.21630340814590454 -0.20375007390975952 -0.2201899141073227 -0.22351795434951782 -0.16048571467399597 -0.19959311187267303 -0.2692658305168152 -0.015063206665217876 -0.2147504985332489 -0.034324612468481064 -0.21319620311260223 -0.02449650689959526 -0.011376947164535522 -0.277073472738266 -0.26883310079574585 -0.24751438200473785 -0.2560126781463623 -0.21828259527683258 -0.2692350745201111 -0.14174726605415344 -0.002348882146179676 -0.11742344498634338 -0.13703936338424683 -0.1968671828508377 -0.0167456716299057 -0.2300245761871338 -0.0036108794156461954 -0.2767684757709503 -0.17644323408603668 -0.21196189522743225 -0.26357483863830566 
i12 -0.05396348610520363 -0.2056540548801422 -0.19975320994853973 -0.20720502734184265 -0.20857195556163788 -0.17758959531784058 -0.19778601825237274 -0.21886657178401947 -0.041944075375795364 -0.20480656623840332 -0.09560035169124603 -0.20412461459636688 -0.06853879243135452 -0.03170694038271904 -0.2250361442565918 -0.22372856736183167 -0.21781565248966217 -0.22045759856700897 -0.20636120438575745 -0.21864570677280426 -0.16733770072460175 -0.005169171839952469 -0.0953938215970993 -0.11139397323131561 -0.19645360112190247 -0.04714919254183769 -0.21140772104263306 -0.00853052269667387 -0.22493967413902283 -0.18625883758068085 -0.20353403687477112 -0.22273388504981995 
i13 -0.0732390359044075 -0.19952860474586487 -0.19754213094711304 -0.19998250901699066 -0.20048804581165314 -0.18730150163173676 -0.19678331911563873 -0.1905047595500946 -0.05690759792923927 -0.19928231835365295 -0.1297656148672104 -0.19905832409858704 -0.0931013971567154 -0.04299112409353256 -0.19624122977256775 -0.19883456826210022 -0.2013561725616455 -0.2008366584777832 -0.1997525691986084 -0.19068005681037903 -0.1815340220928192 -0.006486415397375822 -0.08323169499635696 -0.09723616391420364 -0.19627700746059418 -0.06401227414608002 -0.2008981853723526 -0.011312821879982948 -0.19610729813575745 -0.19166205823421478 -0.19887875020503998 -0.19982625544071198 
i6 -0.03091714158654213 -0.2129247784614563 -0.20242547988891602 -0.2158498615026474 -0.21837642788887024 -0.1661844700574875 -0.19894281029701233 -0.2530403733253479 -0.024114122614264488 -0.21143700182437897 -0.05461760237812996 -0.210179403424263 -0.03922688215970993 -0.01813831925392151 -0.2597629427909851 -0.25390174984931946 -0.2376152127981186 -0.24415217339992523 -0.2143167406320572 -0.2523428499698639 -0.15029796957969666 -0.0032942008692771196 -0.11011851578950882 -0.12845508754253387 -0.19671271741390228 -0.026968663558363914 -0.22367268800735474 -0.0053630610927939415 -0.25950437784194946 -0.17966561019420624 -0.2091740518808365 -0.24986818432807922 
i21 -0.13118387758731842 -0.1812320351600647 -0.19091762602329254 -0.17832429707050323 -0.1754920482635498 -0.21616902947425842 -0.1938105970621109 -0.10653530806303024 -0.10219065845012665 -0.18270564079284668 -0.23219332098960876 -0.1839277148246765 -0.16650237143039703 -0.07696104049682617 -0.10969828814268112 -0.12380389124155045 -0.15188869833946228 -0.14179231226444244 -0.17988337576389313 -0.10659679025411606 -0.22410428524017334 -0.011189300566911697 -0.046472176909446716 -0.054348498582839966 -0.1956373006105423 -0.11449158936738968 -0.16971270740032196 -0.018887460231781006 -0.1096028983592987 -0.20791448652744293 -0.18488378822803497 -0.13151191174983978 
u1 -0.8470187187194824 0.0 0.0 0.0 0.0 0.0 0.0 -0.23444309830665588 -0.9102243781089783 0.0 -0.3383522033691406 0.0 -0.7381863594055176 -0.9501638412475586 -0.011252155527472496 0.0 0.0 0.0 0.0 -0.23732975125312805 0.0 -0.9989498257637024 -0.9057749509811401 -0.8690047264099121 0.0 -0.8858423829078674 0.0 -0.997037947177887 -0.04525907337665558 0.0 0.0 0.0 
i18 -0.11964727938175201 -0.18493248522281647 -0.1922491192817688 -0.18264330923557281 -0.18056075274944305 -0.21025148034095764 -0.19439025223255157 -0.1236700564622879 -0.09312605857849121 -0.18603947758674622 -0.21177206933498383 -0.18694622814655304 -0.1517927646636963 -0.0701465979218483 -0.12696510553359985 -0.13885118067264557 -0.16175955533981323 -0.15362311899662018 -0.18385952711105347 -0.12337223440408707 -0.21561309695243835 -0.010298831388354301 -0.05387135222554207 -0.06287258118391037 -0.19575293362140656 -0.1044166311621666 -0.17590418457984924 -0.017310582101345062 -0.12689700722694397 -0.20463481545448303 -0.1876741200685501 -0.14514097571372986 
